9996 32
. 0.0006905574 -0.0044723246 -0.04566191 -0.05122362 -0.09185908 0.05026576 -0.09676998 -0.023744378 -0.010420909 0.00089083234 0.030681185 0.025239686 0.082777135 0.058729064 -0.032444187 -0.009719407 0.091942415 -0.016299162 -0.030027056 -0.0034185925 0.06101089 0.022902347 0.06796997 0.009086866 0.038497616 -0.02367619 -0.011026936 -0.088246144 -0.0624475 -0.024034485 0.017882535 -0.017309548
영화 0.023263494 0.09445773 -0.068962194 -0.050229594 -0.013775019 0.021823402 -0.057122536 -0.05382354 0.058110416 -0.0034401459 -0.034173127 0.052147858 0.061713796 0.09752929 -0.061936863 0.091954574 -0.009568458 0.030230176 -0.017756028 0.06959677 -0.03406152 -0.02939178 0.010560276 0.031267356 -0.072326615 0.0013396278 0.0074221944 -0.0012710756 -0.0691721 -0.008322571 0.0035976104 0.04313974
다 0.04347232 0.07332671 -0.061067887 -0.020636791 -0.108828604 0.00464555 -0.023829948 -0.058696285 -0.012325216 -0.050772168 0.023361303 0.083133146 0.07557053 0.030406874 -0.07832762 -0.080429755 0.028135028 -0.029191218 -0.052961614 0.067789055 0.027716778 0.014429307 0.06978052 0.062242936 -0.08487745 -0.045909617 0.007107559 -0.012230485 -0.095290534 0.017504685 -0.09055453 0.005614267
고 -0.010588263 0.16911434 -0.02215739 -0.100096434 -0.08908438 0.11716924 -0.09654599 0.008942612 0.079816885 -0.0681496 0.03311617 0.08429597 0.089874916 0.044842992 -0.027567906 0.005245748 0.059021138 -0.04016146 -0.04664329 -0.004440854 -0.06329434 0.06758661 -0.018015001 0.008992793 0.012994994 0.016912762 0.05043768 -0.043577388 -0.043125287 -0.08404538 0.10807511 -0.070822276
하 0.026504561 -0.04208511 0.024947518 -0.044636305 0.04066631 0.07702099 -0.02043985 0.026656153 0.011358663 0.033058025 -0.025605861 0.025201583 0.10065663 0.06229961 -0.032138556 0.009444872 0.03189174 0.039765336 -0.060138796 -0.031596143 0.0056851907 0.034426827 0.05608117 0.04622314 0.007304664 -0.06864139 0.021554908 0.022324502 -0.13336697 -0.06564298 -0.024252659 0.06354497
을 0.029461559 -0.08203829 -0.029268002 -0.018828586 0.015723316 -0.033921808 0.04002536 -0.011481594 -0.025749998 -0.036013607 0.1391291 -0.024833655 0.02063221 0.0272638 0.035344828 0.021991871 -0.03607047 -0.06844872 -0.031497654 -0.046522133 0.024889188 0.033721063 0.04721354 0.08275146 0.060679004 -0.028692221 0.057756606 0.024865406 -0.02886695 -0.017069334 -0.05740389 -0.06734078
보 0.06969328 0.012152751 0.051043745 0.10040914 -0.016742624 0.043230038 -0.0113903275 -0.048342757 -0.03452742 -0.05879674 -0.0369131 -0.073693424 -0.060521137 -0.009585343 0.09633091 0.0150879305 -0.03786474 -0.010292106 -0.06842234 -0.03297422 0.0020622434 0.016184753 0.04283493 0.0748549 0.029840976 -0.06069784 -0.007962809 0.017409518 -0.06615667 -0.04191897 -0.07206756 0.018474933
.. 0.016078318 0.010378052 0.04064864 0.010720277 0.04173742 -0.1137736 -0.013359001 -0.0042220564 -0.04383443 -0.062067445 -0.027372554 -0.05603951 -0.043833435 -0.030803002 0.0715107 -0.0027107205 -0.0653749 0.005458476 0.027284704 -0.014437592 -0.010077716 0.0049162237 0.004173358 0.04214615 -0.00030374786 0.028144242 0.018508367 -0.015150143 -0.060286134 -0.0101321535 0.023866111 -0.023481404
게 -0.118779756 -0.033144135 0.0058895294 -0.053315695 0.026761258 0.03780499 -0.040527396 -0.0069503784 0.010072098 -0.005971553 -0.09876608 0.0385323 0.038160216 -0.003720595 -0.11863182 -0.0021013115 -0.0078057637 0.01132656 0.1406302 0.11262662 0.010372038 0.010054378 -0.0007672361 0.015173947 0.0018252694 0.025491163 -0.050531 -0.023855977 -0.062985875 0.021204205 0.028999535 0.052677557
, 0.05535769 -0.023276841 -0.018706083 -0.037864354 -0.04769027 0.041514073 -0.071853235 0.0047137677 -0.039478622 0.036994435 -0.048801966 -0.07733922 0.09331101 0.07863406 0.03556978 -0.05196543 0.027596202 -0.04110809 0.018068438 0.07346723 0.025221225 0.020642778 0.043445002 -0.019697405 0.018622907 -0.004405626 0.0154931955 -0.031603646 -0.025345458 -0.031455934 0.012372883 0.026156278
! 0.030699251 0.04590234 -0.058817588 0.02354561 -0.04990616 0.011533602 -0.05341635 -0.0031049023 0.0451459 -0.063604474 0.04759895 0.022936651 -0.013010688 0.06463253 0.0012849311 0.003066058 -0.013427674 -0.020544017 0.033310704 -0.12106685 0.111233994 0.029969579 -0.055156555 0.12915209 0.103502214 0.046590284 0.06445402 0.020908974 -0.06416344 -0.016591378 -0.013864682 -0.00058636395
지 0.068878286 -0.050939113 0.12970047 0.11367087 -0.08476229 -0.06441255 0.13867489 0.055684704 0.011782134 0.020702686 0.010392172 -0.039030265 -0.051012754 -0.056381933 0.04311382 0.20570552 -6.909465e-05 0.018736439 0.07346749 0.030066755 -0.020533737 -0.029976754 -0.04940901 0.031623658 -0.14020409 -0.034460478 -0.010381523 0.03535685 0.079115964 -0.037616257 -0.0181806 -0.006199844
있 0.069029905 0.00574237 -0.041492797 -0.041691102 -0.06608162 -0.026420036 -0.019628983 -0.02524487 -0.06402006 0.020825515 0.09314403 -0.028027507 0.034407523 0.0557348 -0.054856174 -0.0045328457 -0.07401213 -0.1014704 -0.022131769 0.017598648 0.050004944 0.012163236 0.0026684068 0.05903254 0.06409994 -0.043064404 -0.047528125 -0.072928086 -0.002178335 -0.026604554 -0.06355851 0.04618971
없 -0.22626363 -0.0037368666 0.09404504 -0.09660281 -0.07754075 -0.029307658 0.053562365 0.052602325 -0.092283115 0.051399328 -0.07705298 0.12523317 0.048586603 0.05224212 0.09673603 -0.10899216 0.045113582 0.1573138 0.0019575842 0.044407815 0.050948553 -0.065948315 -0.052218013 -0.089457005 -0.066868134 0.013336986 0.021052329 -0.041015852 0.0721236 0.174482 -0.0015275582 -0.097211726
? 0.036088318 -4.706705e-05 0.061307948 0.08286436 0.02107 -0.014504755 -0.059846383 0.059147593 -0.013022858 -0.0035755073 -0.027527135 -0.09092783 0.0016482796 -0.03324719 -0.014169701 -0.021840923 -0.0028568082 0.04985158 0.00034623445 -0.031156324 -0.088124864 0.050238717 0.007935282 0.020292249 0.04875518 -0.12046146 0.09172246 -0.057808783 -0.075409986 0.09539518 -0.026710344 0.021920845
좋 0.025539681 -0.10344302 -0.06897735 -0.024041042 0.059467144 -0.12853596 0.071945824 -0.039363455 0.08387532 -0.052652635 0.1333077 0.07057864 0.07111579 0.023439202 -0.03875435 0.078174174 -0.054750506 -0.153401 -0.04393448 -0.030362127 -0.04541577 0.011810397 -0.094791785 -0.023202738 -0.0028814268 0.0693264 -0.017942676 0.039838314 -0.0012196804 -0.011801746 0.1340081 0.013656151
나 0.0027612203 0.028453957 0.104210205 -0.07925287 -0.021266043 -0.05294056 0.029326633 -0.055664584 -0.10747289 0.016584976 -0.021566767 0.018807065 0.013465611 0.012750064 -0.0436209 0.0025676817 0.04575243 -0.052011658 -0.028882112 0.020563874 -0.029649979 0.042804856 -0.02056253 0.07568929 -0.074939534 -0.033843048 0.002513738 -0.0001954505 -0.08665511 -0.03216101 0.021946575 -0.00962659
었 -0.044583503 -0.042572394 0.046231568 -0.044095013 0.03474332 -0.014075444 -0.0049700714 0.033938844 -0.02653175 -0.061902367 -0.054114476 0.039139982 0.00038410112 -0.02887631 -0.0032140682 -0.013601728 -0.028342532 -0.04290264 -0.0080159465 0.08409341 -0.0762934 0.08062622 -0.06944706 -0.1250674 -0.06637618 0.004554998 0.076669626 0.10768731 0.053470876 -0.04061684 0.08405942 0.026160903
만 -0.10549898 -0.032758318 0.05463466 0.04840093 -0.043865755 0.034128014 -0.04540564 0.02713217 0.0683328 0.0026354445 0.030715607 0.09803345 -0.07249445 -0.0033197072 -0.0010855333 -0.020055274 0.05590299 0.06267059 0.021294005 0.039359525 -0.057208095 -0.053464904 -0.0016711378 0.08303734 -0.026329797 0.009416315 0.045262106 0.0043975813 0.03841406 0.00824465 0.059302237 0.07242731
는데 0.116033 0.028718717 0.012017087 0.008393552 -0.054137293 -0.001417835 -0.011416799 0.04659903 0.011515681 -0.14279987 -0.033455707 0.0036510616 -0.025074389 -0.04808597 -0.06266094 -0.11155148 0.013040557 0.014927368 0.08007119 -0.010799581 -0.08619689 -0.10492558 0.02894508 0.03097703 0.0034839716 0.068549894 -0.023005012 -0.0059894132 -0.071291566 0.022521535 0.10134428 0.0415594
너무 -0.10025486 0.0022346077 -0.100705534 -0.06047089 0.05273421 -0.1465216 -0.04506669 -0.030725468 0.036014598 0.007212285 -0.04751234 0.12928295 -0.08550832 0.1153911 -0.050459366 0.054718282 0.03286979 0.05144407 -0.029704 -0.10433069 -0.051956438 0.0758363 -0.10040489 -0.068750955 0.10036293 -0.21783797 -0.006245247 -0.01423997 -0.043930344 0.009835569 0.028331453 -0.0065791155
봤 0.090922736 0.033068474 0.045865934 -0.058374785 -0.03140996 -0.009139189 -0.013230279 0.02034788 0.2059107 -0.026082471 0.0025201796 -0.01024421 0.10873741 0.004514941 -0.07277811 0.059294734 0.024852224 -0.13005137 0.0026084408 0.11308744 -0.119390324 0.024391867 0.028696934 -0.09510132 0.0012135981 0.04572329 -0.031179644 0.06480994 -0.073991515 -0.034741573 -0.08538813 0.0718948
적 0.03342311 0.02059344 -0.00081038807 -0.1334978 0.068637155 -0.010794211 -0.0017665578 0.05217326 0.022865772 0.04634336 -0.009678882 -0.014690459 -0.06159761 0.011198694 0.04614942 -0.01731982 0.0070503782 -0.019408517 0.037682325 -0.006976153 -0.042355422 0.08281642 0.0479872 0.055293527 0.020861434 0.005291933 0.09734082 0.06483254 0.054738726 0.049412854 -0.0019498096 0.049011666
안 -0.07131899 -0.03435243 0.18955864 0.08525967 -0.021741081 0.020819439 0.10315168 -0.004458905 -0.049138412 0.09626629 -0.068730704 0.0563964 0.0063239457 -0.09168057 0.0252164 0.00746906 0.097072184 0.064362735 -0.08097158 -0.036269464 0.019206015 -0.008702816 -0.0053170426 -0.032914247 -0.07584008 0.035240803 -0.007558351 -0.046254154 0.05480863 0.19944075 -0.027802229 -0.018665422
정말 0.021235948 0.061541837 0.02273821 0.013965329 -0.031952668 -0.13112248 -0.056382537 -0.113059826 -0.01966599 -0.056725774 -0.11543819 -0.09937019 0.045760166 -0.086603515 -0.054565698 0.037120383 -0.026027178 0.02344758 -0.02560958 -0.050419442 0.0077378103 0.037448063 -0.014873903 -0.046308734 -0.032966692 0.017928649 -0.036628425 0.039466593 0.05151583 -0.12443864 0.0703886 -0.13578132
로 -0.0005637898 -0.08676232 0.10071282 -0.061635178 0.016537769 0.014308225 -0.02344573 0.0142925 0.023187775 -0.02259539 -0.022877404 0.07397928 0.030929605 -0.01959856 0.010531998 -0.014681981 -0.010439423 0.06944261 -0.036706503 -0.018319132 -0.09490208 -0.008400052 0.031129448 0.03628198 -0.06455564 -0.049677126 0.08046477 0.099571295 -0.11608919 -0.039265245 -0.0756735 -0.041668735
음 -0.054911587 0.09528154 -0.06546057 -0.06263234 -0.06307712 0.050233327 -0.002297688 -0.014675535 0.124662176 0.03786197 0.060583726 0.024043633 0.082090616 0.0035308853 -0.017846067 -0.095239714 -0.022522395 0.016816441 0.0017021055 -0.0046738205 -0.036883 -0.046887625 0.014135042 0.046662774 -0.058370955 -0.030624256 -0.026177948 -0.04756263 -0.05742194 -0.04488843 0.017784204 0.027047614
것 -0.06704229 0.012631914 -0.05840053 0.04204703 -0.031758208 0.05856829 0.003779422 -0.04474666 0.001123679 -0.0055414177 -0.0146685755 -0.046371117 0.016047947 -0.052591324 0.07195439 -0.06780566 0.06029513 -0.12191456 -0.020258322 -0.007899144 0.043235138 0.0063812793 0.055604994 -0.025927693 -0.058926664 -0.09020495 0.015280098 -0.013911127 0.083913326 0.016052455 -0.043586392 -0.0040781125
아 -0.038901538 -0.05394755 0.04237719 0.03226845 0.08112686 0.044770833 0.013216013 -0.0012333698 -0.021819301 -0.013740485 0.07681198 0.10522682 -0.097361684 -0.018579688 0.024702784 -0.035527512 -0.006862597 0.02505424 -0.024557436 0.01262171 0.0013839375 -0.07303989 0.02646165 -0.0072651426 -0.02470139 0.050485305 -0.09106577 -0.06908713 -0.07121593 0.06176582 0.0066171903 0.105315916
네요 -0.09097681 0.17414373 -0.08380587 -0.013711882 -0.04868595 -0.016450252 -0.102413334 -0.04301275 0.0580001 -0.07780846 0.063920714 -0.14293675 0.1819602 0.0033515953 0.0008221534 0.027596869 -0.04444032 -0.0713306 0.06159501 0.10670818 0.085342415 0.03516118 0.036276344 -0.048643604 0.010598945 -0.02126933 0.0057151713 0.008671926 0.010759406 -0.1033872 0.05232993 0.0019222142
재밌 0.045382217 -0.09155096 -0.041854747 0.12349332 0.13144594 -0.21197134 -0.09028558 -0.065557234 0.050703604 -0.08084922 0.12935795 -0.008739748 0.08802414 0.1024857 -0.11906715 0.092163436 -0.122499794 -0.051791128 -0.085145086 -0.131883 -0.0074918917 -0.035738986 -0.04268722 -0.031149812 0.024492025 0.054829042 -0.12047557 0.07063137 0.11016676 0.037170917 0.17222826 0.049964514
어 0.06203033 -0.040292304 -0.05872553 -0.0065695527 0.07576097 0.043053374 -0.07399855 0.047197733 0.05530954 0.04823926 0.003638999 -0.10087947 0.098033585 -0.0038903686 -0.048745915 -0.11644391 -0.062440347 0.015419467 -0.0203615 0.060779728 0.021044768 -0.022993073 0.010691797 -0.08808786 0.016988784 -0.022516822 -0.021502167 0.03877924 -0.006997348 0.04839554 -0.027756317 0.075823136
같 -0.070992574 0.11376974 -0.0955133 0.09659128 -0.1504558 -0.0634581 -0.05872247 -0.07402009 -0.026029458 -0.008180692 -0.06753317 -0.07941312 0.020783676 0.008086905 -0.023828577 0.0065412903 -0.029025225 0.1001085 -0.029145619 0.012527999 -0.003234318 0.02328205 0.005747411 -0.11863938 0.005602399 0.10412186 0.0026367535 0.034521174 -0.040765747 -0.010494297 0.008066873 -0.026285784
점 -0.076373905 0.017736675 -0.108726874 -0.041260485 0.01837415 0.07133727 -0.06283571 0.065494515 -0.07191749 0.060307126 0.10611761 0.049911246 -0.076098375 -0.0062746736 0.00019898123 0.083917946 0.044666924 0.003539017 -0.008049568 0.0033963888 -0.08900557 -0.005407894 0.115643665 0.07563279 0.14442776 0.14426571 0.031347983 0.029227061 -0.0011548293 0.047638815 0.11512072 0.014834115
지만 0.03576056 -0.04147269 0.09266126 -0.034711655 0.0436389 -0.15703237 0.0019492597 -0.033409096 -0.034897227 -0.04746692 -0.093893304 0.004528941 0.026244769 0.00018656242 -0.08076143 0.08927243 -0.055992622 0.06971426 0.09143562 -0.044421833 -0.034989923 -0.10411132 -0.07509814 -0.062267743 0.030692616 0.09885273 -0.15361924 0.12707248 -0.08791221 -0.10045196 0.13525839 0.122552365
진짜 0.003522822 0.025419472 -0.13280866 -0.00036330163 -0.018516714 -0.0054998733 -0.07313498 -0.03335502 0.016502513 -0.046580084 0.04646235 0.03272144 0.11333902 0.05699516 -0.033862792 -0.00058427517 0.0030339719 -0.045425836 -0.04426419 -0.050786998 -0.11424893 0.0064341016 -0.03173254 -0.062293265 0.06541462 -0.012104718 -0.05790958 0.06377049 -0.030545138 0.05330195 0.07006265 0.015563465
했 -0.033490412 0.046125766 -0.017206887 -0.063657 0.046684623 0.012637319 0.040277723 0.015613068 0.012658513 0.012207492 -0.025684034 0.08799676 -0.009423 0.028154548 0.017527463 -0.04230529 -0.02379998 -0.080038294 -0.11037983 0.04606339 -0.035247464 0.08693651 0.016689379 0.09357786 -0.069828756 0.025489181 -0.010710296 -0.0085570775 -0.09592503 -0.05542812 0.15616953 -0.047817163
에서 0.032489907 0.0035190922 0.008989649 -0.049395088 -0.037878234 -0.043089405 0.005069383 0.030931622 -0.012681635 -0.013514302 -0.06543074 0.095316134 4.755589e-05 0.0025458178 -0.07820152 0.020389115 0.019049693 -0.022247402 0.075448245 -0.057129428 0.024922801 -0.02403453 -0.0256344 0.056259144 0.026278721 -0.007875451 -0.01696913 0.05062513 0.031187186 -0.077614345 0.09137886 -0.004950054
기 0.10899792 0.017994713 -0.028337115 -0.02322924 -0.0006189891 -0.09418183 -0.0250169 0.061164 -0.02769829 0.034634583 0.020398108 0.01265921 0.03691035 -0.084171645 -0.07610055 0.0061872248 0.05042431 0.0029431765 0.02812127 -0.02980209 -0.0007723337 0.01686822 -0.013550573 0.06609169 0.007286343 0.03933155 0.02528254 -0.05308654 -0.09786185 0.010949069 -0.031078763 0.0061774445
네 -0.037945043 0.011033187 -0.0038111545 -0.022346297 -0.0019456318 0.013521677 -0.086805485 -0.06550008 0.10338814 -0.04675568 0.08975303 0.042165093 0.047927074 -0.06812664 0.0057102274 -0.09448848 -0.016626587 0.072192036 -0.028351689 0.039558247 0.01369308 0.061586913 0.089818634 0.04181251 -0.018676402 0.095848724 -0.11378035 -0.0818352 -0.142403 0.022971978 0.0651539 -0.033919483
않 0.08021741 0.09183443 -0.00956862 -0.037070222 -0.115577556 -0.055507362 0.06102557 0.0517118 -0.10261859 0.061130375 -0.049105912 -0.022536356 0.0017552057 -0.07964604 -0.043437403 0.09522221 -0.09899575 -0.014125497 0.0356533 0.07026044 0.019241383 -0.08559541 -0.007845241 0.11465779 -0.0036566684 0.11232536 -0.10410262 0.0025201305 -0.035484917 0.041869637 -0.039578967 0.055217393
거 0.08496909 -0.05409657 -0.092127554 0.042128537 -0.1594391 0.05886017 0.102642484 0.0047794105 -0.05540063 0.074675865 0.011061259 0.0336177 0.028816953 -0.022797052 0.042847786 0.011253487 0.08557522 0.0016424364 0.17270066 0.033090338 -0.049313385 0.03587053 0.033055328 0.024966553 0.0011214659 0.07787498 -0.018442782 -0.011250332 0.012308832 0.087511264 0.029118307 -0.012197929
았 -0.024025382 0.06965692 -0.008356121 -0.0061023515 0.010400151 0.004430424 -0.053103633 0.0340687 0.015612576 0.0030653588 -0.03215431 0.08902925 0.014118763 0.16595314 0.0697434 0.14909823 -0.053012066 0.07678113 0.08255739 0.007527293 0.04529118 -0.042495552 0.00063088373 -0.05620114 0.0126655465 0.008509578 -0.024428653 -0.007041797 0.043928817 0.06443963 -0.006466656 0.083820395
수 0.0057187416 -0.0043429215 0.058369827 0.0008787096 0.0046176566 0.048731547 0.020395055 -0.09745575 0.033117615 -0.005350415 0.056715995 -0.058196362 0.006668902 0.08662318 0.006032849 0.0848213 -0.02875075 -0.027491478 -0.020247089 0.117950976 0.061375953 -0.0500481 -0.04116118 0.05734208 0.03264485 0.1549791 -0.058862783 0.049339782 0.052771125 0.02535011 -0.085361905 0.06876045
되 -0.03570083 -0.021575741 -0.022441043 0.005063305 0.03940344 -0.02912222 0.11841411 0.0056753894 0.012432627 0.0044123894 0.029249877 0.062349316 0.027326584 -0.044383503 0.041168045 0.021409854 0.00805135 0.1513059 -0.045389224 0.032666992 -0.0039785746 -0.04158207 0.04636124 -0.049107224 0.030560179 0.041495785 -0.026134923 0.027974043 0.14103396 0.026307954 0.061700456 -0.035431217
면 0.021201635 -0.08214431 -0.103425436 0.14372168 0.10114307 0.052381147 0.029417427 -0.049494617 -0.0013486361 0.03573824 0.04947526 -0.019687517 0.06533194 -0.014333861 0.10578891 0.040869903 0.027027126 -0.030566633 0.05585004 0.1484667 0.0539946 0.027689233 -0.048481572 0.025918515 -0.09620638 0.003744437 0.05122713 -0.010823227 -0.05035398 0.09288865 -0.04296539 -0.005251778
ㅋㅋ -0.03598393 0.082292736 0.0509575 0.040995445 0.034815624 -0.07246057 -0.04686211 -0.06606779 -0.03501608 -0.067786485 0.10017031 -0.049198106 0.12906374 0.009956413 -0.0049561206 -0.10190241 -0.042030565 -0.026413623 -0.09266105 0.118803866 0.06765475 -0.01794869 0.029070511 0.0030721708 0.010936873 -0.04961168 0.07568993 0.06457943 -0.027599743 -0.0018226537 -0.025904266 -0.046218246
말 0.051549736 0.124481276 -0.03933142 -0.0068443897 0.006149771 -0.025720274 -0.03556828 0.037478115 0.021433257 0.020978926 0.10613029 -0.03295998 0.00094201823 -0.038797293 0.009262783 0.015350581 0.015759284 -0.053907216 0.03562861 -0.07705812 -0.08491674 0.10315476 -0.081408754 -0.042114336 0.014772888 0.06596684 -0.19179007 0.092406444 0.042571995 -0.0056513194 0.011660784 0.10434275
연기 0.04430534 -0.08606847 -0.035797004 -0.019230235 -0.038172573 -0.065232724 -0.051786255 0.015444901 0.11836854 0.13502751 0.12957032 -0.0935529 0.015916938 0.045808833 -0.13967635 0.0038529846 -0.0175126 -0.043020867 -0.078385465 -0.0015369293 0.05002706 0.059750807 0.05362707 -0.01123106 0.016789697 0.031429607 -0.015380861 -0.12483226 -0.02047268 0.015996018 0.07361675 0.046252046
인 -0.038458094 0.064791776 0.062573224 -0.05118646 -0.042907394 0.12813002 0.017041521 -0.0060511865 0.0016296203 0.04185283 -0.007625086 -0.061370775 0.10830531 0.025097765 -0.04767882 -0.09811819 0.033224616 -0.056056254 -0.013663977 0.04611373 -0.07113504 0.0026044874 0.04608029 -0.069680795 -0.02858229 -0.07516016 -0.00056980574 0.0045252303 0.079978615 -0.031123783 0.06169991 -0.043297518
주 0.004150955 -0.02568521 -0.021678898 -0.044888422 0.041908346 -0.036863808 -0.051858068 0.016595533 -0.0021245468 0.07970133 0.05466282 0.037116673 -0.05941826 0.01701534 -0.0106035 0.043915167 -0.041881602 0.020895716 -0.08092055 -0.120043725 -0.0037670396 0.09247253 -0.12896511 0.06540506 0.08262912 -0.03274935 -0.0015119938 -0.039411377 0.022266148 -0.0921875 0.10074276 -0.032295197
내 0.056260224 -0.019249864 -0.011022327 -0.0556859 0.026717639 -0.008811006 -0.14227606 -0.036868926 0.016013907 0.004565236 -0.019399418 0.09673446 0.040336367 0.02061052 0.05262214 -0.020133052 0.11982463 0.01330117 0.0031043426 -0.04470998 0.03333016 -0.024152532 -0.020657944 -0.04702495 0.08151117 0.03135023 -0.014710125 -0.04503737 -0.1366256 -0.05611016 -0.017297182 0.031218821
최고 -0.08663823 -0.019975606 0.01667333 0.102510035 0.22513539 -0.040149793 -0.005950638 -0.13202499 0.073985495 -0.13017012 0.07721885 0.078635134 -0.058461465 -0.14006418 -0.023446076 -0.048234608 -0.23489432 -0.10429587 -0.07592174 0.042027097 0.009263181 0.045297056 -0.032073043 -0.054487124 0.08263069 -0.026325386 -0.10687275 0.09805923 -0.010774511 0.021332247 0.061588194 0.12277467
~ 0.017653156 -0.08078385 0.08953786 -0.10763662 -0.14607999 0.08960883 -0.100606464 0.07299875 -0.02063998 -0.0009195979 0.10936356 -0.0074349414 -0.010169454 0.05106285 -0.023976937 -0.082016945 0.023625964 -0.10031653 -0.00949672 0.07254173 0.07039848 0.037218194 0.09042137 -0.11619106 -0.05220214 0.059130654 -0.054569818 0.032321975 -0.0734278 -0.063653834 -0.08458301 0.011664536
평점 -0.048247907 -0.0732499 -0.0042411033 0.11819321 -0.045287542 0.15934941 0.039056115 0.053169455 -0.060321968 0.015587951 0.036160316 -0.0052267434 -0.07448606 0.09859321 0.046735425 -0.058980685 -0.10267273 0.054366156 -0.031482242 0.16386822 0.060344536 0.101365246 0.014656503 -0.04299662 -0.09985465 0.11541317 -0.014980943 0.107100636 0.010428336 0.002970548 -0.01772685 -0.05138965
이런 0.051703557 0.12048844 0.082352914 -0.04985484 -0.047150034 -0.031013617 -0.066815466 -0.016579302 -0.009208572 0.016782574 -0.008985384 0.022748893 0.11001687 0.07878445 -0.027078453 0.0038731464 0.053132594 0.052327644 -0.03509714 -0.090683356 -0.021432955 0.0068691163 -0.046746064 -0.06692822 0.0024456778 -0.00078093883 0.045050275 -0.045247525 -0.11355854 -0.05351598 0.08186911 0.0318419
던 -0.058677435 0.06935647 0.04752985 0.002625244 0.036531758 0.064958975 0.017513359 -0.039833415 0.033372648 0.048866455 -0.07684671 -0.03588689 -0.041902196 0.03120522 0.07373248 0.011509727 -0.014164149 -0.070010975 -0.05383299 -0.07890385 0.04519663 -0.03189505 0.012094184 -0.06358721 -0.111821525 -0.05705873 -0.02224239 -0.06327231 0.11415185 -0.031982433 0.039507195 -0.1336074
어요 -0.0075130668 0.22444987 -0.15968688 -0.07183008 -0.16323921 0.012838812 -0.07784764 -0.0293122 0.062007133 0.05684579 0.07909172 -0.11384226 0.009221394 0.06496004 -0.069925465 0.005076028 -0.009361113 -0.06253505 0.034002528 0.073791444 0.0009591532 0.12515676 0.03854248 0.17960863 0.05442231 0.102766834 -0.08124619 0.06145007 -0.029662715 0.062375274 -0.06309501 -0.06278446
할 -0.05162088 -0.025718452 -0.010872595 0.067228965 0.03699579 0.09125054 0.044684947 -0.056963917 -0.052828368 0.098639116 -0.104049705 0.17763178 0.04585918 0.13450429 -0.042205006 0.037320547 -0.01379814 0.00578842 0.143611 0.034758482 -0.055993587 -0.029390508 -0.012962638 0.060521334 -0.02036504 -0.05385608 -0.0389273 0.10749677 -0.020913659 0.07711024 0.029004969 0.047593024
왜 0.14799915 0.099324085 0.088148884 -0.06645636 0.07679291 0.095298916 -0.030716147 0.053981155 -0.044266112 0.046133235 0.055958916 0.048481062 -0.13271655 0.06871778 0.030826742 -0.09632287 -0.0019114676 -0.011439105 -0.0467505 -0.007819545 0.097222716 -0.0022542374 -0.027150448 -0.035385422 -0.12363073 0.060330365 -0.075680375 -0.05786461 -0.0052247886 0.098017916 -0.005234199 -0.0030036937
겠 -0.14089368 0.029699573 -0.017567057 -0.060313415 -0.037897125 0.03335775 -0.06648836 0.039575864 -0.0072565535 0.10975516 0.042989764 -0.006411195 -0.001145778 -0.016614141 0.09086797 -0.01999393 0.11917179 0.0028096235 0.013736147 -0.13393238 -0.111635655 -0.0029245438 0.07331285 0.13791543 -0.0070749335 -0.059000354 -0.058954872 -0.0073632854 -0.029251304 0.03146267 0.057718992 -0.089438334
1 0.069103055 -0.029483562 0.05003031 -0.00038149316 0.03175221 0.040218186 -0.06087883 -0.00086136645 -0.029562632 0.12910706 0.0014114787 0.046265025 -0.077257976 -0.07448353 0.08803778 -0.10858488 0.039534893 0.09943952 0.018249946 0.11292525 -0.13316272 -0.08220965 -0.033364378 -0.03527853 0.008350829 0.047022536 0.10028754 -0.0279668 -0.01707663 0.06436523 0.013059559 -0.020094324
스토리 0.013209149 0.12360241 0.056920007 -0.029545132 -0.062262435 0.036092103 -0.11619963 0.09522697 -0.08214375 -0.08307768 -0.06214657 -0.0034561297 -0.08154828 -0.008224859 -0.049854595 0.009927943 -0.06640311 0.038604826 0.09341671 -0.10583821 -0.022082906 0.016926339 0.024080997 -0.096383885 0.009042869 0.041209385 0.049784448 -0.011940056 -0.015875094 -0.036943097 0.019450534 0.08058984
해 -0.00818672 0.017020768 -0.04643594 0.09941874 -0.013717009 -0.012005834 0.04409715 -0.029080251 -0.011175442 -0.047688343 -0.12225259 0.10390864 0.029475553 -0.019892633 0.0012090593 0.046311032 -0.07175506 0.024571946 0.004497373 -0.05873548 -0.002344594 0.0033642026 0.08426981 0.063156515 -0.05181129 0.077112414 0.041608028 0.0012540316 0.074521005 -0.03878715 -0.035772104 0.005659834
습니다 0.03508093 0.11216924 -0.06895525 0.04351305 0.10497948 -0.09035076 -0.01715243 -0.035685427 -0.053414702 -0.008312354 0.19104871 -0.06194368 -0.004012026 0.0107735945 -0.056115407 -0.034782935 -0.09216542 -0.06527085 -0.08891821 0.050779536 -0.012818597 -0.08555154 -0.09579691 0.084703974 -0.05587285 0.02037803 -0.03256028 0.08477083 0.036986835 0.0038184004 -0.028345061 -0.060803454
ㅋㅋㅋ -0.050585426 -0.017418373 0.04696301 0.029953724 0.008456374 -0.028816612 0.016152939 0.0093691675 -0.11669658 0.09433913 0.0046496433 0.07484635 0.021812892 0.029504454 0.044189233 -0.059266947 -0.024012804 -0.02436436 0.013629056 0.027096141 0.016362306 0.029595293 0.03797379 0.019150997 -0.05155721 0.06921564 -0.0482011 -0.01804878 0.11863253 0.02508356 -0.028933432 0.04119571
... 0.04713628 0.039722413 -0.0036116014 0.011704007 -0.041676003 -0.045209147 -0.08925439 -0.003055433 -0.086115226 -0.15643468 0.034727857 0.048688255 -0.08607504 -0.004988627 -0.04076923 -0.03874934 0.013243303 0.027065309 0.012497521 -0.10667941 -0.013977347 0.020699905 -0.008311397 0.07843038 0.020692762 0.037639976 0.09997288 -0.03480572 0.103418194 0.013748685 0.17157882 -0.0155499885
드라마 -0.06492134 0.046988726 0.051796045 0.06845607 -0.08468196 0.042217284 -0.007774432 0.0053687925 -0.018654594 -0.046150636 -0.09720827 -0.063134424 0.049838625 -0.023630202 -0.06379829 0.022470374 -0.06679985 -0.11979395 -0.052590493 -0.009577907 0.1299237 -0.04392956 0.051629037 -0.041620206 0.023570752 0.097990826 0.041910674 -0.03610077 -0.028640607 -0.026962874 -0.021065703 -0.038730208
생각 -0.06301499 0.09391923 0.13135406 -0.056454286 0.04207406 0.12385136 -0.0068089417 -0.03816402 0.11314366 -0.014366217 0.1208665 0.0073044864 -0.024161173 -0.03217908 0.033571266 0.0114024095 0.011742135 -0.04220666 -0.04688727 0.052491046 0.08366809 0.04969921 -0.13211459 -0.061388865 0.07623896 0.056542132 -0.051312577 -0.035412166 -0.06193741 -0.1414308 -0.04625422 0.037483297
아니 0.0031427138 -0.03508567 0.113308355 -0.08271723 0.0018818773 -0.028774967 0.071928985 -0.025989896 0.028930329 0.094361804 -0.022381496 0.0013137114 -0.13528296 -0.05539702 0.03299136 0.031101074 0.09245635 -0.026269628 -0.04264705 0.0035750451 0.07173379 -0.059793048 -0.04752081 0.05003039 -0.061641064 0.029369874 0.062569596 0.025477322 0.069796905 -0.07615156 -0.032172646 -0.053260587
더 0.008567993 0.03454597 0.22542384 0.032156494 -0.06065876 -0.052012067 -0.05772148 -0.05010889 -0.00518868 -0.0034207532 -0.018579476 0.038657438 0.026087314 0.04141766 0.00093876314 0.037349608 -0.065601766 -0.07109145 -0.0014035138 0.014442267 -0.057014063 0.050654307 0.05918263 -0.03106032 0.012840316 -0.029823976 -0.041277476 -0.091243215 0.1408362 0.0091425385 -0.052376576 0.039332706
그 0.03209481 -0.09621408 0.073904745 -0.031552244 0.013402381 0.07576859 -0.03989334 -0.02077173 -0.060073953 0.015090932 0.092940755 -0.034416247 0.00843614 0.020207379 -0.029656181 0.03895444 -0.037790455 0.019861799 -0.12800063 -0.07399096 -0.0003674804 0.08124138 0.018361611 0.07549561 -0.0024941703 0.012060284 -0.037076663 0.032301538 -0.06870196 -0.09038611 0.0058857617 -0.06452069
싶 -0.028546618 -0.048956677 -0.040766876 0.032934837 -0.052561246 0.041870546 0.07047581 0.02217658 -0.039873622 0.08722342 -0.00377289 0.022126181 -0.0344776 -0.043949243 0.023632877 0.019748306 -0.049220853 -0.03903379 -0.0035095538 0.04702034 0.10678237 -0.040437277 -0.090450734 0.03052509 0.053178445 -0.047632538 -0.015216325 -0.036056817 0.047510237 -0.10840986 -0.24362658 -0.034696978
사람 0.10511657 -0.0417224 0.098471634 -0.10804567 0.041803576 -0.055929992 -0.02195265 -0.074934214 0.031222222 0.047127984 0.059761 0.048672736 -0.11270871 0.054518834 0.041550007 -0.021132316 -0.11469704 -0.03522466 -0.13612838 0.04339575 0.08395285 -0.014221696 -0.16165277 0.01619352 -0.0846998 -0.006845519 0.008395068 -0.0009297603 -0.015717776 0.0947037 0.0027534019 -0.027268048
듯 0.04217407 0.052942943 0.11923989 0.090295546 -0.055333037 -0.1377875 -0.024689453 0.035854474 0.09040527 0.07637241 -0.08807471 -0.16796024 0.057710476 0.061030276 -0.028112188 -0.1277827 0.06659705 -0.03695277 0.013148223 0.08020759 0.016551096 -0.0102797 0.025143577 0.022717092 -0.03938846 -0.017181573 0.044985518 0.057801202 -0.045092616 0.12030261 0.08090785 0.021941451
때 -0.0862693 0.03227869 0.10940753 0.052933313 -0.06798986 -0.09332455 -0.09387985 -0.094912484 -0.058193617 0.028485725 0.07927138 -0.1472354 -0.034202144 -0.06287103 -0.12893108 -0.11206031 -0.01867307 -0.050830737 0.04061833 0.07931583 0.0827526 -0.0610841 0.00554312 -0.15641977 -0.038520433 0.053324644 -0.031099653 0.015591533 -0.07036833 -0.04375884 -0.06339903 0.028728176
감동 0.08743281 0.02517918 -0.14006475 0.104678765 0.024881186 -0.09589234 -0.06335834 -0.13332735 0.028983137 0.006263616 0.061243556 0.0051224204 0.09776437 -0.03750591 0.028395938 -0.020380488 -0.03325273 -0.019206692 -0.09752616 -0.046041943 0.045657944 -0.03257053 0.033288535 -0.033551566 0.013995702 0.08172598 -0.08616517 0.09561239 0.04899362 0.036053043 0.1511176 0.11117885
함 0.014263342 0.107333966 -0.0001780573 0.03279051 -0.02897699 0.028290028 -0.046051517 0.008019186 -0.08377825 0.056730796 -0.024721596 -0.029264303 -0.02966328 -0.06951269 -0.006297164 -0.029229239 0.07252436 -0.008104608 -0.04716475 -0.0006051796 -0.014466382 0.11582155 0.01809987 -0.13431764 -0.050642833 0.005843928 -0.057977255 -0.047921017 -0.050340775 -0.05790486 -0.08665902 0.036332034
배우 -0.006763977 -0.14720206 0.26727262 -0.107006826 -0.0046126097 -0.14896923 -0.032173492 0.10469539 0.011289057 0.120251544 0.026810339 0.0266872 0.010246833 0.07401714 0.004037173 -0.022289865 0.055210706 -0.031179618 0.029528739 -0.09991636 0.04179675 -0.009255094 0.100213036 -0.033424865 0.11428326 -0.011514847 -0.033330448 0.09499694 0.02884711 0.009116211 0.04794696 -0.034484453
본 -0.11328348 0.046397787 0.061843127 -0.014618139 0.06576792 0.072123915 -0.03786697 -0.116134055 0.01748458 0.05270378 0.024574453 0.043797716 0.02090836 0.01534285 -0.06318137 -0.04799246 0.013392374 0.012301975 -0.024163125 0.05409869 -0.09320161 0.0037192607 -0.14000392 -0.09122043 -0.0110785095 0.11836715 -0.004454284 0.008226433 -0.043961294 0.040178344 0.06295521 0.1158062
까지 0.11194155 0.18341243 -0.030140577 0.06844141 0.0026514302 0.008942925 0.08510953 0.070664704 0.1346448 0.13648573 -0.0023027437 0.037139077 -0.09636066 -0.030043226 -0.043368172 0.049709443 -0.041827757 -0.0014390221 0.050764967 -0.06358433 -0.096254945 -0.07855289 -0.064760976 -0.031022683 0.055344276 -0.01289296 -0.080676295 0.07557617 0.037551746 -0.008134597 -0.007824246 0.030986827
뭐 -0.03948923 0.14736655 0.1314281 -0.057893988 0.103623755 -0.0255284 -0.089378715 0.05255006 -0.004173174 0.15404935 -0.123015374 -0.040517893 -0.11468906 -0.12335004 0.111841366 0.06921145 0.0011177735 0.11341399 0.09410352 0.048726343 -0.12749255 0.110628955 0.016557196 0.013200283 -0.06409129 0.07566297 0.10378258 -0.07554891 -0.0073767086 0.019928223 -0.045419637 -0.025705356
알 -0.12537119 -0.008791878 0.06977462 0.111082144 0.11201443 0.102366105 -0.081091434 -0.012410467 -0.0938199 -0.06957162 -0.031321652 -0.029553065 0.07948448 0.044732902 -0.084533885 -0.11541391 -0.07376641 -0.081876226 -0.008796707 0.037381724 -0.07512121 -0.016339105 -0.013713557 -0.04143619 -0.08244151 0.016757412 0.07764825 0.053047147 -0.09162414 -0.079121165 -0.023183867 -0.07998974
만들 -0.07706356 0.0155411055 0.08225757 -0.04276944 -0.0078107086 -0.10733543 0.0009444272 0.054362003 -0.031531006 0.054300763 0.050001506 -0.086567946 0.013413432 -0.055272434 0.006028426 -0.12561308 0.042796943 -0.064465776 -0.00010406578 -0.03705375 -7.053692e-05 0.13661624 0.05624674 0.052737705 -0.028478745 -0.09735017 0.03194882 -0.080612965 -0.116785884 -0.0613094 -0.032012783 0.04425305
내용 0.036311977 0.015429253 0.031740706 -0.08294211 -0.022531833 -0.07573316 -0.015747305 0.1488995 -0.023473248 -0.06835285 0.043383535 0.05260147 -0.040334 0.037212707 0.011229078 -0.020605125 0.11980092 -0.020375438 0.0917373 -0.025179612 -0.026235003 -0.010084093 0.06346405 -0.055473555 -0.056043677 -0.033927612 0.04551566 -0.06724791 -0.0439876 0.018516729 -0.040586784 -0.071191825
볼 0.073633395 0.08174348 -0.02494257 -0.09028328 0.04981268 0.00023352947 0.017664537 -0.06562619 0.044001207 -0.01511645 0.037558988 0.05803706 -0.031199118 -0.020923192 0.01913657 0.0059846956 0.046759762 0.0074028275 -0.00989501 0.043171212 -0.0009751123 0.022234399 -0.04860593 0.0821731 0.007158629 0.1306976 -0.07464644 0.005372828 -0.09101414 -0.05783129 0.006295331 0.061958253
감독 -0.14139472 -0.0039342307 0.013631538 0.010408728 -0.128569 -0.0721738 0.0130549995 0.1068062 0.04739094 0.03479033 -0.06969737 -0.05494449 -0.06649334 -0.050233595 0.13323833 -0.027777284 0.070802435 0.04891766 0.062118568 -0.0010689262 -0.05290756 -0.032453004 0.08236022 0.026854781 0.031882953 0.09175946 0.024724925 -0.120243 0.021336323 0.0018231313 0.06323197 -0.031398226
보다 0.13687316 -0.008853542 0.036185026 0.03425702 0.038677696 -0.056996685 -0.10818778 -0.025894664 0.089052655 0.04166086 -0.14980718 0.042717643 0.02455832 -0.04247674 -0.02960683 0.05018973 -0.021007104 0.049492538 -0.06533132 0.001320439 -0.08458392 0.008252799 0.089381725 -0.10832387 -0.054881334 0.058528215 -0.1147311 0.063684285 -0.011459412 0.018198023 -0.0036695763 -0.03577092
라 -0.0765137 -0.053458232 0.1410448 0.019118141 -0.012618746 0.04644469 -0.061403014 0.032463364 -0.011063923 0.042629473 0.020969024 -0.008082295 0.22520536 -0.010198772 -0.05681793 0.06749668 -0.07690529 0.037640437 -0.08750891 -0.095610775 0.0035311296 0.0028306297 -0.08492885 -0.08007659 0.010192308 -0.041542213 0.041363366 -0.0125179775 -0.03873125 -0.0061137173 -0.100737855 0.007610953
그냥 -0.06318759 0.097396314 0.049507447 0.15402168 -0.015337641 -0.07315694 0.00437012 0.0059131505 -0.099670425 0.011771658 -0.066665865 0.024339247 0.03588527 0.027082976 0.1806431 0.016049765 0.032467403 0.041964937 0.023380345 -0.12608701 0.002927289 -0.0037444644 0.034621093 -0.05437644 -0.036750305 0.012663037 0.0009035084 0.14227054 0.0014875781 -0.054333862 0.032896306 -0.10556066
재미 0.016498933 0.04449491 -0.004271693 -0.06413473 0.0012485662 -0.085300356 -0.08090379 0.011415443 -0.020129947 -0.11408053 0.052346792 0.09471526 0.07982609 -0.07518307 -0.0381797 -0.0023224964 -0.01246118 0.043258857 -0.04459637 -0.11547518 -0.17973149 -0.0067809 0.08285925 -0.057979036 0.005921458 0.0017557214 0.15659387 -0.039956342 -0.08785222 -0.04778016 0.081147484 -0.015103408
시간 0.026880708 0.06424367 0.037257556 0.10557812 0.016904779 -0.094129294 0.02246144 0.014307099 -0.052736256 0.043642934 -0.09992582 0.08076623 0.002767294 -0.13010104 0.016299589 -0.0446788 0.10284293 0.036589973 -0.026111623 -0.0070055234 -0.11636407 -0.00068064954 0.054722942 0.06282314 -0.05825376 -0.022850692 0.12396632 -0.1719474 -0.006657465 -0.07140824 -0.02705784 -0.0026035844
지루 0.026246877 -0.04199027 0.19700797 0.1353987 -0.0023659922 0.06693484 0.08138322 0.19996361 -0.12523313 0.100363694 -0.20053214 0.013265277 -0.067112185 -0.05274498 0.04567718 -0.13623747 0.06657696 0.10546059 -0.06157511 -0.08883949 -0.10289699 -0.11862523 0.19436036 0.038255975 -0.040855844 -0.004182949 -0.023353375 -0.021321 -0.13065754 0.10118649 -0.1282844 -0.05294023
중 -0.10461678 0.0058628134 0.050123263 0.004512565 0.081381746 -0.07566662 -0.08528238 0.039024543 0.0078002405 -0.024835633 0.088087045 0.051307265 -0.04839458 -0.057846066 -0.047215927 0.0016768776 -0.035728294 -0.12159034 -0.05600931 -0.0111088315 0.02631396 0.13385145 -0.07047923 -0.05564498 0.027310856 -0.075925276 -0.007391674 0.009201188 -0.020739168 -0.070623614 -0.048070733 -0.026967397
재미있 -0.10760103 -0.05000552 0.03403138 0.073358804 0.04462056 0.02080369 -0.08691836 -0.05792789 -0.08808189 -0.102178715 0.05733788 -0.02170406 0.12804435 0.055574447 -0.026398303 0.04436209 -0.11951762 -0.11777773 0.09304862 -0.112975895 -0.021050565 0.033661205 -0.16426292 0.113265775 0.0043638567 0.10708161 -0.15297297 0.055712618 0.12748297 0.0035286662 0.17034304 0.03422998
년 0.07787385 0.117558405 0.10412965 -0.009376997 -0.021197686 -0.025781836 -0.0673072 0.054089755 0.058483034 -0.066475034 0.007309039 -0.025094664 0.03729266 0.017451644 -0.049569696 -0.09456258 -0.029995548 0.08146924 -0.090630464 0.0692754 -0.038111933 -0.018728198 0.005201774 -0.10973974 0.074932575 0.10227274 -0.012242471 0.050421663 -0.021720264 -0.10631727 0.028562767 -0.074294314
10 -0.033561576 0.012342214 -0.1162396 -0.024604224 0.10101054 -0.028254043 -0.13507594 -0.018413087 0.13597225 -0.06649925 0.11635477 -0.028772423 -0.010090591 0.010602127 -0.089451075 -0.027011974 -0.114996485 -0.019527402 -0.07225796 -0.108304285 0.014416821 0.037375677 -0.060496066 -0.006018257 0.053273335 0.06431284 -0.09338883 0.06186092 0.0038910187 -0.14432202 0.026530234 0.012805375
였 0.090920575 0.11020137 0.11709964 0.07160104 0.08371479 -0.019990038 -0.089654915 -0.07623489 -0.06851616 -0.060782176 0.07622743 0.05460078 0.042604636 0.0210374 0.025489585 -0.03373981 -0.029145392 0.03934624 -0.023426663 0.07132085 0.05361674 0.14961648 -0.024583334 0.0246423 -0.1391418 0.05582957 -0.051688924 -0.08166217 -0.089041114 -0.028990377 0.061050165 -0.019631755
잼 0.01414079 0.0054107774 -0.028174948 0.022814155 0.04076155 -0.23612408 0.0038015884 -0.079990484 0.122913904 -0.1376868 0.0010051619 -0.13749178 0.12707423 -0.20986801 -0.09216682 0.07646799 -0.19379024 -0.006960466 0.06158273 -0.04374348 -0.0035300443 -0.015174813 0.050596222 -0.19161542 -0.117870435 0.07838844 -0.017732406 0.06306508 0.03706667 0.012969772 0.19006851 0.04991149
사랑 0.014898275 -0.07304773 -0.09796191 0.0496802 0.07193971 0.03551134 0.02534965 -0.15432781 0.038367853 -0.0881504 0.0057902117 -0.0695053 -0.00055073487 -0.12415516 -0.059625622 0.08752721 -0.0048378687 -0.084073216 0.043978337 0.04210342 0.11492377 0.0068406416 -0.0956311 0.07370058 -0.008874714 0.04621385 0.02258993 -0.009901819 0.098209165 0.062243193 0.01945491 0.07048359
못 -0.009353817 -0.10101142 0.040723406 0.23607983 -0.06628073 0.06738771 -0.012174209 0.0124038085 0.02840722 0.066404305 0.0016985845 0.0444741 0.017879646 -0.030312533 0.104152784 0.13478787 -0.061623186 0.06985121 -0.108278334 -0.117260456 -0.05094842 0.014086407 0.06369097 -0.023287123 0.015772332 0.042138364 0.08611685 -0.080154814 -0.094935335 -0.061084945 -0.0008391693 -0.1288451
냐 -0.12009133 -0.14620534 -0.11426674 -0.03561689 0.014382577 0.1480709 -0.011093614 0.044756394 -0.037814364 0.121289335 0.0148717 -0.028679231 -0.017107587 0.09617796 0.11425347 -0.0004872611 0.051321868 0.1391726 0.17259544 -0.03987512 0.014732816 -0.2165017 0.078416064 0.10638027 -0.027121684 0.09352321 0.09495705 0.115181446 0.0017943941 0.13943745 0.10162599 0.0013055557
재미없 -0.062863275 0.06818185 0.07193657 0.037744857 -0.1439989 0.14422762 0.14930764 0.15641023 -0.04360635 0.13535038 0.06425135 0.13904808 -0.09949039 0.11573599 0.10022683 -0.19319755 0.009653564 -0.01244463 0.039736707 0.100646496 -0.013044547 -0.085251816 0.2007497 -0.022664372 -0.21597153 0.0041655693 0.11088871 -0.20893994 -0.20205678 0.25207213 -0.10547176 -0.07999611
쓰레기 -0.009958066 -0.021071998 0.17386928 0.02632934 -0.07212228 -0.031760085 0.15593857 0.082166314 -0.18107279 0.11452146 -0.11181503 0.15867883 -0.05515475 -0.15673223 0.20606107 -0.20142378 0.15286568 0.12284739 0.13304757 -0.08061463 -0.18806094 -0.17117539 0.20163402 0.065116055 -0.15491773 -0.016175887 0.20236057 -0.1427043 -0.1422138 -0.05253683 -0.03170366 -0.059735343
서 -0.05403805 0.02718368 -0.05127473 0.04898252 0.0027601984 0.045489635 -0.00050868734 -0.09158715 -0.014597325 0.1330575 -0.00957029 -0.07838571 -0.054909956 -0.023844954 0.06353741 0.027273286 0.05533142 0.053616602 0.02033647 0.040796377 0.055195272 0.122436024 0.050818183 -0.05363004 -0.0247392 -0.027836485 0.08284473 0.115643606 0.024272786 0.020400569 0.109120056 -0.07160558
2 0.106558785 0.07899262 -0.00760972 0.01790416 -0.014305228 0.012926682 -0.039646976 -0.019753158 0.020890443 0.028869864 -0.10240623 0.11438106 0.014615199 -0.045131296 -0.045010276 -0.029666387 -0.003719711 -0.0009195771 0.0022364394 0.03790015 -0.12189115 -0.012967027 0.10478567 0.024550483 0.010794348 -0.026203213 -0.00019436191 0.06909857 -0.05712641 0.0011551729 0.037616335 -0.004141784
라고 -0.032674927 0.0027091468 -0.019583132 -0.034300063 0.08975005 0.06288998 -0.04927036 -0.01725771 -0.17823794 0.097646385 -0.011816842 0.083330564 0.15343912 0.10606736 0.089062266 0.017310258 0.0066601075 0.09942833 -0.04473219 -0.027633658 -0.072362706 0.06316896 0.06608093 0.025266383 0.02002533 -0.066118754 -0.02364263 -0.05092841 -0.20471348 0.12181059 0.07972621 -0.07795523
야 -0.0114019355 0.0735031 -0.0376525 -0.006506789 0.07721965 0.05071299 0.06557382 -0.06934886 -0.07388151 0.035633538 -0.021332307 0.19187196 0.058866777 0.063888095 -0.009799451 0.09305069 0.055175193 -0.04752232 -0.0014337904 0.038479153 -0.039917707 0.057036936 0.041226424 -0.018027866 -0.036649525 -0.015068071 0.0043175966 0.016552778 -0.04061592 0.021001523 0.13893825 -0.040193163
니 -0.11217856 0.07027267 -0.038096763 -0.021074967 0.082735546 0.04580113 -0.07799339 0.016655594 -0.069373585 0.06384476 0.115669385 -0.0733067 0.118755706 0.046986222 -0.079180814 -0.06282528 -0.04494616 0.0067487177 -0.056824602 -0.03851917 -0.10524292 0.13170743 -0.03018454 -0.17660597 -0.09697296 0.010885427 0.09839448 -0.05803059 -0.0400841 0.004409859 -0.06819632 -0.0644667
면서 -0.079852864 -0.03141196 -0.008808586 -0.031046595 -0.035910364 0.0019741794 -0.07739031 -0.036700107 0.055209674 -0.030938145 -0.055386875 0.13790657 0.0039511607 0.046678763 -0.07637367 -0.04548727 -0.047693737 -0.041754264 -0.08978242 0.09528303 0.02594999 0.058762535 -0.20092985 -0.06012524 -0.044633787 -0.042735565 0.046169642 0.09470566 -0.072153755 -0.048600785 -0.03721708 -0.018564828
번 -0.0045480696 0.100734934 0.11677671 0.06691623 -0.08139781 -0.07724505 -0.09511818 -0.06937551 0.19548565 -0.016032303 0.052217208 -0.03512331 -1.4819489e-06 -0.026636448 -0.11066719 -0.04365486 -0.10348923 -0.096307635 0.006580866 -0.051519573 -0.007989775 0.14270121 0.040637333 -0.007873563 -0.013791244 -0.0848057 -0.044416066 0.018157782 0.056912843 -0.032139793 -0.06071915 0.026723625
다시 0.05021744 -0.0024736903 0.052135196 0.07012018 0.015417534 0.019350328 0.06630027 -0.07153738 0.058136284 -0.12685867 0.073069036 -0.06564172 0.014359647 -0.015022645 -0.102607384 0.08927365 -0.05899929 -0.19996907 -0.02055335 0.059703402 0.13250795 0.17699198 -0.049609646 0.0194345 -0.047756553 0.10024006 0.0687292 0.009077224 0.049946968 -0.00871538 0.20055325 0.08399992
나오 -0.055059265 0.00684602 0.08021681 -0.07552817 -0.033179916 0.090381056 -0.056431115 0.064420134 -0.045576047 0.04945682 0.009161897 0.06564083 -0.11911793 0.043847296 0.04298436 0.044796586 -0.044014998 0.012957179 -0.09831823 0.08271616 -0.051261287 -0.007278205 0.009457916 0.026753059 0.01858249 0.022069233 0.118324734 -0.06297186 0.04489086 0.154834 -0.111118294 0.017791132
작품 -0.027068192 0.06447462 -0.16623218 -0.021305675 -0.04136462 -0.0020430845 -0.008527629 -0.075753964 0.016949564 -0.1296873 -0.047670018 -0.02287443 -0.014138411 -0.058749966 -0.05732899 -0.012403048 0.006151284 0.01616349 -0.07315472 0.14259902 0.073851086 -0.04993135 -0.030685453 -0.11397269 0.020393606 -0.02997888 -0.0035581533 0.0069018854 0.058226116 -0.031921983 -0.124412194 -0.058741026
이거 -0.096312374 0.021720095 0.06314571 0.0027233374 -0.05556106 0.1022737 -0.0027737033 0.017086191 0.037272185 -0.041653667 0.02283177 -0.04136826 -0.074222215 0.0039672647 0.039773464 0.0049632424 0.045568902 -0.032759912 -0.01637678 0.069673724 0.061961696 0.017682862 -0.060903333 -0.02980871 -0.060142636 0.058743812 0.042768575 0.02602431 -0.068741895 -0.012127922 0.112367205 0.06113777
하나 -0.031160157 0.0045045814 0.02682832 -0.07441823 -0.10064299 0.019427413 -0.06263757 -0.08192627 -0.018615117 0.05953298 -0.019925948 0.03741838 0.05015373 0.030787978 0.0034659272 -0.05722077 0.001987216 0.088416606 -0.0031840107 0.006083378 -0.16121814 -0.025881864 0.04166166 0.03162428 0.028994158 0.1153227 0.06921229 -0.031134598 -0.083407104 0.008877294 -0.05364327 0.036009062
줄 -0.003021706 0.042536072 0.082884 -0.07333132 0.010917482 -0.021784753 0.03803433 0.01465824 0.008375161 0.034920346 -0.10449068 -0.020116681 0.020970799 0.0874838 -0.11509807 0.04604872 -0.026707549 -0.018187674 -0.09264814 -0.03244862 0.092169024 -0.12922047 0.07182183 0.07315429 -0.0007810283 0.022061998 -0.006267219 -0.013480636 -0.07651987 -0.12582985 -0.17496948 -0.06708895
해서 0.018720722 -0.051812135 -0.07850865 -0.1418209 0.01612496 -0.035181493 -0.05555041 -0.015450259 0.04954694 -0.08443058 -0.037365172 -0.017251724 0.04979126 -0.068135865 -0.03723045 -0.118284 0.06177303 -0.0459338 0.039335012 -0.080979705 -0.05410897 0.06376101 0.005538322 0.112523675 0.043720547 -0.042713277 -0.029943474 -0.021579172 0.038207453 -0.07117084 -0.061046835 0.028055113
개 -0.013981618 0.03628832 -0.058603734 -0.18164705 0.019067636 -0.09828299 -0.080212854 -0.020980414 -0.064649574 -0.017817881 -0.062796146 0.07568204 0.10658175 -0.02249051 0.030049993 -0.008300625 0.050045107 0.063228965 -0.088416025 0.024525287 -0.107309364 0.011562805 -0.05695591 0.0010039102 0.0331957 -0.077734 0.016595038 0.035593864 -0.045915842 -0.02376837 -0.08651301 -0.14777488
남 -0.028171388 0.0120153185 -0.057217974 0.01338156 -0.04121654 -0.18576527 -0.0067263693 -0.06850895 0.046992723 0.01137812 0.09086403 -0.024846315 -0.043921158 -0.056589317 0.039318934 -0.10815305 -0.05588038 -0.049129345 -0.034726266 -0.16736479 -0.099372566 0.018480964 -0.106040604 0.10492701 0.03955881 -0.053852502 -0.00095201086 0.030175332 -0.061764527 -0.06538443 -0.032787718 0.06961123
정도 0.036253396 0.078305416 -0.034545735 -0.11049035 0.039875284 0.032487758 0.020860977 -0.028301403 -0.02789974 0.011796352 -0.018466141 -0.06472906 -0.02961469 -0.023781443 0.020823792 0.06827828 0.0051975315 -0.046435446 -0.12525028 -0.0032769223 -0.08622358 0.029392561 -0.008096202 0.027943995 -0.029026935 -0.09066558 -0.073373586 0.034843907 0.021254433 -0.073135726 0.09048894 -0.039915428
마지막 0.10013606 -0.13912264 0.005700502 0.06492086 0.12979047 0.042051103 0.038168434 -0.0038839034 0.123629615 -0.14715627 -0.061916582 -0.00090220803 0.107663944 0.0038829765 -0.002917477 0.099599995 -0.06438573 -0.047737956 -0.07231928 -0.02082822 -0.009161022 0.10992973 -0.008768017 0.058562566 -0.016708927 -0.060232267 -0.013566022 0.01679297 -0.005341208 -0.05924469 0.08610743 0.06527089
끝 0.078510255 -0.058919713 -0.11562676 -0.059672024 0.0754667 -0.11095321 0.019684177 0.065951645 -0.10039194 -0.018154103 0.121988915 -0.12967698 -0.026777169 0.104056574 0.11938303 0.09559991 0.04916184 0.025204115 -0.015045247 0.012486421 0.077692926 -0.07892469 0.07508306 0.14758097 0.023247557 0.088872425 0.059585135 0.008825758 -0.06415096 -0.024101539 -0.036908045 0.023277776
이건 -0.06013543 -0.104526296 0.045341283 -0.051793855 -0.006753258 -0.069977306 -0.21895836 0.10297277 -0.03243189 -0.03990651 -0.093107134 -0.0056384257 -0.029163402 -0.00592277 -0.029661907 -0.13008934 0.120540395 0.053283248 0.07015791 -0.028674018 0.047808822 -0.044564836 -0.026436418 -0.04870434 0.0086862575 0.095391065 0.03411456 -0.06524387 -0.07114082 -0.025974616 -0.052827515 -0.1568949
액션 0.10063316 -0.013934555 0.046708066 -0.0049946387 -0.030292919 -0.031942282 0.14329925 0.076855876 -0.029463338 -0.12499076 0.07335966 0.103508584 -0.1433542 -0.048401613 0.022977035 0.058335386 -0.05495499 -0.017264474 0.01691753 -0.07598564 0.19204858 0.012490399 -0.034277078 -0.012767495 -0.025360283 -0.018088803 -0.062436037 -0.019908197 0.112138525 -0.009865245 -0.13330595 0.084728345
임 0.08529252 0.09324182 -0.033408377 0.0646599 -0.056887317 -0.072532624 -0.12715869 -0.10005225 0.1026855 -0.014952335 0.062830865 0.035837587 -0.119163044 0.13682824 0.021955363 0.06764215 0.010418163 0.01719573 0.10127537 0.11320925 -0.108592436 0.0015318339 -0.044398155 -0.08521969 -0.0965229 0.022266293 -0.023541981 -0.029614503 0.1035676 0.003753107 0.12746215 0.05326717
ㅋ -1.3676923e-05 0.07641422 0.16574977 -0.03941331 0.02840549 0.030181617 0.08605082 -0.012428808 0.028152402 0.00054853456 0.22712444 0.17471315 -0.00308866 0.074479915 0.0018026507 -0.10316073 0.023516487 -0.06477651 -0.03174226 -0.011860842 0.063873746 0.09337031 -0.0684336 -0.03140762 0.10692087 -0.05139411 0.024629045 -0.079116516 0.071317114 0.038470343 -0.026570534 -0.015500477
3 0.054191533 0.039709162 -0.031304065 0.009780549 -0.11248618 -0.044362925 0.048153643 0.046321496 0.08383337 -0.00092139444 -0.12208991 0.08018532 0.07370551 -0.0951214 0.03650834 -0.0033355698 0.0620445 -0.06399943 0.025434388 0.06948428 -0.15295222 -0.045352325 0.021727078 0.05674334 -0.08250384 -0.027247032 0.016029887 0.12606844 0.021744799 0.037583284 0.027091589 0.048413277
기대 0.15601648 0.010189783 0.10709598 -0.0721212 0.052777417 0.13123184 0.13192958 0.059184987 -0.027254201 0.052948914 -0.046157602 0.106646165 0.021773847 0.073616326 0.15440251 -0.1071174 -0.060835563 0.035484664 -0.04409415 0.06796082 -0.087560415 0.00610181 0.028034966 -0.08089251 -0.108624615 0.08548919 -0.118073985 -0.058826797 -0.09100807 -0.026273314 -0.105178945 0.044271905
입니다 0.020727847 0.021839492 0.038693942 -0.029891746 -0.06960193 -0.019908624 -0.022922786 -0.06384795 0.13332847 0.070589 0.17324926 -0.016311908 -0.065955125 0.031393174 -0.039888375 0.10480042 0.034706283 -0.046194285 -0.016182655 0.017288838 0.17654277 -0.029978858 -0.028001392 -0.030792763 -0.042465165 -0.01974544 -0.12686378 -0.008959284 -0.009744818 0.082719564 0.060326293 0.16240676
건 0.015438803 0.066810355 0.092239514 0.049293105 -0.07023198 0.023050297 0.104535945 0.116767354 -0.013868447 0.08058438 -0.06943189 0.008743142 0.048889603 -0.09319469 0.052958302 0.09936217 0.0058358395 -0.017865099 -0.046628315 0.10237211 -0.106865026 0.020679833 0.024120007 -0.0025696298 -0.063106626 -0.14956363 0.0965653 -0.1042483 -0.0005945894 0.0072505 -0.017213736 0.007406549
라는 -0.08788155 -0.07896656 0.04555463 -0.10904917 0.059298348 -0.032547593 -0.007674191 -0.0012685937 0.015361917 0.042956494 -0.17108057 0.020824976 -0.10172852 -0.03959029 0.014450082 -0.047409195 0.009728688 0.022971252 -0.021526232 0.0720326 0.0752338 -0.025013737 -0.06421009 -0.090538114 -0.024951462 -0.060063 0.14616683 -0.05885238 0.010521445 0.019702949 -0.0065864907 0.056394015
분 0.01355988 -0.093912266 -0.0644284 0.054904006 0.042966224 0.033595204 -0.06488686 0.04338693 0.04375431 -0.011675969 0.112091154 -0.029896708 -0.028162172 0.12838008 0.07818421 0.048154876 0.012098653 0.04691529 0.054504775 0.038745135 0.14848399 -0.035658307 0.00522118 0.0044530905 -0.17160006 -0.05221443 0.06807342 0.05748662 0.16125867 0.15142083 -0.04191221 -0.042873908
완전 0.041636877 -0.03760509 -0.0822556 -0.14516589 -0.023842558 -0.20777006 -0.14269891 -0.033796806 0.033917025 -0.0012345716 0.12870553 0.00989879 0.06882392 -0.057836704 -0.06871068 0.07528382 -0.02280929 -0.021113858 -0.031859517 -0.14231907 -0.07284404 0.010947363 -0.06003214 -0.12104916 0.11435002 -0.056453247 0.008095016 0.08349386 0.078977086 -0.07660224 0.07526621 0.14095978
다는 -0.03513653 0.014702216 0.2259048 0.03542204 -0.11506222 -0.09206373 0.13425444 0.0048788744 -0.027529197 0.011762167 -0.019008439 0.053390153 0.02040847 0.107534446 0.0548234 0.053088654 -0.082180716 0.060525056 -0.011300053 0.06500895 -0.0023834505 -0.010084539 0.004820706 -0.040463574 -0.008060363 0.067193665 -0.10190564 -0.044769697 -0.059381034 0.24709667 -0.12965141 0.106130466
참 -0.11601416 -0.06541852 -0.0018902362 0.05907262 -0.005834807 -0.12363313 0.02981194 -0.049733832 -0.047185574 -0.06596519 0.0574106 0.061426148 0.032109864 -0.026778596 0.04329387 -0.05426697 0.08761228 0.1165773 0.06092149 0.017766245 -0.05599621 -0.054828078 -0.001049399 -0.015726162 -0.09212227 0.08369902 0.1139271 0.034509234 -0.04892329 -0.09815496 -0.023134898 -0.03689804
많 0.19214822 -0.10594809 0.012551086 0.095665485 -0.02207528 0.002665642 0.06382261 -0.08887764 -0.02238612 -0.08533355 -0.04540768 -0.015589265 -0.036267247 0.004985216 0.006532772 0.031132307 -0.045255464 -0.10551237 0.056327045 0.021875586 0.04048864 -0.03257618 -0.06241043 0.086123526 -0.023517165 0.059053577 0.067950346 0.044631653 0.14846902 0.038225215 0.01451249 0.07933005
처음 -0.036593482 0.008531701 0.016029382 0.18483417 0.015091229 -0.060739227 0.038319558 0.019121615 0.13220584 0.028894166 -0.023551024 0.044835676 0.026184559 -0.018147804 0.073743895 -0.09501234 0.12770137 -0.033875868 0.06717869 0.0040438036 0.028013548 0.028999327 0.04768523 -0.052790206 0.15072207 0.18386582 0.100770816 -0.04640742 0.036549635 -0.016832355 -0.0087128235 6.869188e-05
장면 -0.035490315 -0.1441586 0.031738758 -0.050448205 0.11708173 -0.035452973 -0.055078927 0.053289887 0.053715456 0.08351865 -0.12385317 0.0035647654 0.0050637666 0.06936811 -0.02939026 0.009638362 0.0244534 0.00028021305 -0.0066662803 -0.029823383 0.044768754 -0.012455054 0.010759441 -0.11270308 -0.0353209 0.11898802 0.077361666 0.04753207 -0.008060922 0.037364133 0.018202547 -0.046862703
대 0.08292609 0.09554859 -0.11981015 0.035912305 0.07580424 0.06949216 -0.014510041 0.048237026 -0.08284241 0.03430847 0.003945444 0.063512966 -0.04138972 0.0033812772 0.05698202 -0.14269108 0.035591006 -0.009141166 -0.0559635 -0.0024983902 0.08234938 -0.05999387 -0.011917347 0.029059172 0.08804182 0.07365304 -0.0012380513 0.031864446 -0.10995335 -0.0732308 -0.018828958 -0.023965985
아깝 -0.061156027 0.2351836 0.0865039 0.052032568 0.05947053 0.061531126 0.2081947 0.009023329 -0.024238825 -0.109611064 -0.100872464 0.08219987 -0.034527183 0.07763658 0.03247685 -0.29014868 0.0547941 0.103962414 0.010171873 -0.07973809 -0.09570114 -0.11321533 0.07441174 0.10743504 -0.076069675 -0.026016634 0.20383574 -0.06515483 -0.018573213 0.16649035 -0.08265415 0.024618153
다가 0.03487606 0.008869574 -0.15108651 -0.12102847 -0.068758525 -0.02712914 0.041793138 0.050209537 -0.031441122 -0.01864181 -0.10305648 0.04367876 -0.010579377 -0.10831531 0.05387784 -0.13783999 -0.074027285 0.1681673 -0.049052313 -0.020205347 -0.2174572 -0.066645816 0.035027005 -0.04924593 -0.0013335372 -0.25195387 0.082403205 -0.111176185 -0.009347573 0.03889909 -0.012299764 -0.036602944
으면 -0.09462285 -0.058429793 0.028023396 0.06102314 0.068091884 0.14894949 -0.054532573 -0.022543006 0.0007466172 0.04416891 -0.20083171 -0.012363607 0.006192049 0.009253499 0.08189415 0.0030889704 0.023223659 -0.008349404 -0.061132684 0.21971616 -0.031380598 0.01741767 0.024671216 0.0055372133 0.0397259 0.06667086 0.035621513 0.0038236973 -0.058264144 0.107563846 -0.057088643 0.07237667
지금 -0.08428329 -0.13002245 -0.031848416 -0.031774595 -0.15940808 -0.114802174 -0.0618235 0.09138917 -0.086161405 0.0064472063 -0.048788104 -0.087931074 0.12614202 -0.024235886 -0.036640394 0.07976071 -0.104994036 -0.020690128 0.08344678 0.011423941 0.11133607 -0.020348402 -0.035778422 -0.098993786 -0.036792014 -0.024016483 -0.06012874 0.019941293 0.15176958 0.035728846 0.018560685 0.08832167
모르 0.05564839 -0.18221599 0.042772483 -0.03247749 0.016101422 -0.065636255 -0.03645688 -0.07191145 -0.13277075 0.008201271 0.009547959 0.09239813 -0.09196016 -0.09945942 -0.08530271 0.062419605 -0.07785591 0.08534473 0.044724096 0.010183272 -0.11407683 -0.034804888 -0.07325888 -0.033743028 0.057434145 -0.0893096 -0.07337991 0.03859834 0.11431115 0.088980734 0.056724004 0.0075277337
이렇게 0.085807264 0.07706861 0.03196608 -0.033211 -0.01133316 0.0033610153 -0.00437444 -0.06667819 -0.11902326 0.033905342 -0.026978467 -0.0055642645 -0.04090978 -0.05522014 -0.03773523 -0.102262415 0.03786528 0.0361684 0.023649585 -0.042816028 -0.10471325 -0.07292208 -0.0028640172 -0.04764389 -0.020973418 -0.048930727 -0.038914286 0.06025689 -0.015343728 -0.1433781 0.09005083 0.016346281
' 0.022578271 0.04709308 -0.12558973 0.054050166 -0.030641152 0.00070114905 -0.04600546 0.07616678 -0.043210115 -0.05887593 -0.0787677 -0.10226338 -0.011258727 -0.064342014 0.06248285 -0.097598635 0.025110489 0.06534969 -0.016659202 0.11176274 0.014493031 -0.018534383 -0.02930339 -0.027223399 -0.006022343 -0.07246482 -0.06612731 0.020561373 -0.0120238755 -0.053249028 -0.023884242 -0.06682593
편 -0.011765008 -0.09374419 0.061634555 -0.02894151 -0.01808638 -0.0055681434 0.08378161 -0.0007640615 0.020757824 -0.00632331 -0.052135836 0.03881033 0.03693501 0.16240214 0.10463122 0.011857375 0.018818451 0.14227569 -0.00084219483 0.048666533 0.014364556 -0.059640445 -0.025303178 0.03539824 -0.021245167 0.026633918 -0.021608174 0.02772186 0.033058766 0.045928 0.074671514 0.075698756
일 -0.013026542 -0.098413706 -0.11762609 -0.044203404 -0.021577137 0.046293568 -0.053204436 -0.031585466 -0.032187935 0.03154476 0.061669085 0.026472198 0.0026339593 0.06224771 0.03587139 -0.026207227 0.03562501 0.04894224 -0.1247998 0.13446905 -0.005725889 -0.08039622 -0.107776664 -0.10978011 -0.01364789 0.06563605 0.08540498 -0.0041511753 -0.060416218 0.00033402897 3.8123275e-05 0.046597175
돈 -0.03799954 0.105039395 0.07394956 0.108259134 -0.07264527 0.00876493 -0.015214101 0.05999562 0.029541194 0.06407824 -0.04934116 0.050273623 -0.0960859 0.038835697 0.11162079 0.015453985 0.108386755 0.0323717 0.011554273 -0.07328729 -0.09757054 -0.025811765 0.10656144 0.04595729 -0.09259787 0.004334885 0.094386965 -0.037260722 0.025960967 0.16569182 -0.11153366 0.06128405
이게 0.07140875 0.07428916 -0.095094986 -0.0055374606 -0.042444352 0.007954293 0.011679981 -0.123340815 -0.011972621 0.05587786 -0.051338956 -0.05414955 -0.07415184 0.0036926256 0.09186201 -0.050678786 0.19783926 -0.018739766 0.07531743 -0.03605019 0.092228 0.11985245 -0.02588761 0.09407101 -0.0781119 0.020795368 0.030234344 -0.03579717 -0.11533943 0.05901751 -0.051100507 -0.048085384
성 -0.024605907 0.13745977 -0.053700384 0.01567285 0.012663861 -0.0066454457 -0.053805385 0.11955948 0.00012533125 0.045993283 -0.10827581 0.031909477 -0.06567685 -0.051982548 -0.113356195 -0.11683524 0.023077574 0.0021924153 -0.014341899 -0.09348861 -0.0346261 -0.05059697 -0.006256263 0.02356522 0.08708798 0.03122431 0.046833187 0.13248204 -0.088644624 0.07648558 0.008962338 0.11408376
느낌 -0.034166485 0.18695559 -0.06627027 0.029146995 -0.0010927778 -0.07764317 -0.011614003 0.00583184 0.025397973 -0.103836246 0.08180181 -0.09882001 0.009591252 0.0831421 0.039237265 -0.007836273 -0.026118066 0.07822163 0.06780558 0.02377469 0.06262604 0.044583015 0.073865995 -0.10013224 0.007857217 0.012108775 -0.055535015 -0.00828842 0.06283682 -0.02186878 0.060782116 0.04590272
시 0.01638782 0.02038382 0.104068786 0.03604903 0.07880949 -0.016658716 -0.13069758 0.013817698 -0.056023248 0.06926221 0.060341276 -0.027468469 0.01876721 0.005470841 0.1041027 0.05411112 -0.118280694 -0.016239757 -0.096238315 0.12883583 0.020652983 0.13491192 -0.07913222 -0.05599739 0.1031259 -0.041906577 -0.10086121 -0.0583068 -0.04252962 0.116224326 -0.020712715 0.04997831
이야기 -0.040410087 -0.008009723 0.06365129 -0.020564005 0.019325508 -0.07914832 -0.10931886 -0.016511368 0.021866683 -0.06354396 -0.09225395 -0.11559858 0.118209295 -0.034108397 -0.056823056 0.020644475 -0.06876202 -0.08028581 -0.06419707 -0.07185001 -0.0071525443 -0.09082292 -0.14174421 -0.007673229 0.034901697 0.025189543 -0.02703593 0.04562594 -0.09351666 0.08064128 -0.010330851 -0.016912341
최악 -0.15318064 -0.24637854 0.21423157 -0.10094602 -0.04700468 0.07009778 0.115166284 0.20440365 -0.109790236 0.197715 -0.16676636 0.115517 -0.10728725 -0.019942721 0.10482403 -0.25052753 0.2627777 0.15027002 0.21284612 -0.025419895 0.030735906 -0.23890123 0.020853104 0.18169151 -0.08565337 -0.11648641 0.25857684 -0.049121883 0.18375859 0.14193344 -0.18319154 -0.16916938
된 0.014619951 0.023125561 -0.09092469 0.013164868 0.027595144 -0.061936732 0.015400192 0.056925792 -0.012671635 -0.09548638 0.009833823 0.055572838 0.19666111 0.0140087465 -0.023995819 -0.0077705598 -0.022706185 -0.09983146 -0.086962126 0.06277985 -0.040668532 0.1645694 0.021816943 -0.0375579 -0.01166737 0.07422218 0.0610085 0.040088948 -0.021928897 0.04327553 0.005036394 0.0072999927
봐도 0.07985627 0.09174981 -0.051102407 -0.19648057 0.07500991 -0.13741733 -0.053489454 0.020147191 -0.0051028994 -0.030743545 0.02498788 0.10897564 0.035102982 -0.24475965 -0.042612754 0.19200988 -0.08166896 -0.054029804 -0.061045744 0.0662489 -0.0108762 0.1456902 -0.07869341 -0.08148455 0.039859988 0.12662674 0.0055629387 0.027264087 0.043651763 -0.13442963 0.05065136 0.15198919
님 0.06345397 -0.11476428 0.036305055 0.062474165 0.036183786 -0.15926078 -0.054964904 0.017867556 0.088818885 -0.13529304 0.09768928 -0.025715653 0.1735147 0.050103728 0.0367996 0.09336159 -0.064793065 -0.06978102 -0.062780954 -0.1500663 -0.030486114 0.11630816 0.048733346 -0.016034266 0.06165461 0.060544405 -0.046286006 0.032810178 0.05755124 -0.022010785 -0.012688132 0.073448114
어서 0.011971561 -0.0076151714 0.0015168973 0.11518417 -0.06649055 0.09454942 -0.0017393681 0.005875591 0.045095604 0.07082897 0.010752426 -0.07231762 -0.087022856 0.012289061 0.044314798 0.23731475 -0.004298399 -0.009962086 0.08124478 -0.05463438 -0.025470044 -0.055732794 0.014552834 -0.039015856 0.005203879 -0.008623488 -0.035099275 -0.06378135 0.009131909 0.035471477 0.07613239 -0.031129634
애 0.077444986 -0.057231337 -0.124494046 0.016733063 0.14640221 0.0140882 0.029875424 0.059191383 -0.044456284 0.13673837 0.045561325 0.08370119 -0.043113355 0.01038508 0.06380751 -0.015859049 0.1110639 0.032683372 -0.09078985 0.04558431 -0.061451722 0.03979402 -0.005062195 0.055238646 0.16229287 0.07658146 0.0103908 -0.021976123 -0.017047383 0.005265278 -0.11041217 -0.07752003
전 -0.08761072 0.031417906 -0.09416775 -0.028599512 0.00079840655 -0.023194218 -0.015938295 -0.08451542 -0.07167026 0.043667305 0.058719512 0.0012530255 0.05785533 0.08092882 0.006719029 0.029939627 0.026387988 0.014947542 -0.12110718 -0.018773383 0.038842537 0.060089145 -0.060144067 -0.06707214 0.052247643 -0.057607688 0.012738312 -0.011229665 0.052306928 0.053925138 -0.013150496 -0.0099093085
넘 0.06207796 -0.12588297 -0.21840692 -0.0586847 0.25650376 -0.2170342 -0.11272635 0.11051469 -0.13768668 -0.010556438 0.0011146419 0.049305864 0.19282503 0.13782659 0.031910975 0.0049940348 -0.023508405 0.096365005 0.028858278 -0.08738537 0.060001418 -0.02367549 0.0035207076 -0.09057644 0.25217628 0.019490642 0.018168882 0.083571866 0.01156187 0.00942004 0.10126014 0.022342816
ㅠㅠ -0.019742435 0.0049814642 0.08768398 0.018442918 -0.013644948 0.0029639082 0.100956686 -0.023106622 0.11755651 -0.027483152 -0.030348059 0.038404346 -0.0210571 0.087013 -0.04782908 -0.010226742 0.028673565 -0.07872281 -0.08667827 0.10126237 0.06151686 0.09262399 0.07119702 -0.08952934 0.14152181 -0.015850909 -0.07669137 0.027903842 -0.061900407 0.030604549 0.02794755 -0.022887792
인데 -0.015004481 -0.09149746 0.015271603 -0.0348564 -0.094868675 0.06578263 0.08051705 0.038844414 0.05257841 0.04853788 0.048125118 -0.046306152 0.12734349 0.006354672 0.015204746 0.11206379 0.089529775 0.022423446 0.09083169 0.022375183 0.01361974 -0.058858532 -0.10792112 -0.015206323 -0.03065481 -0.045890696 0.056568444 0.061385732 0.08975129 -0.06999039 -0.032430366 -0.0044079507
다고 0.065444484 -0.1368238 0.1300548 0.06964311 -0.025387684 -0.0062694144 0.07660625 0.003998095 0.002824525 0.062088005 -0.042075343 -0.04127014 0.01783871 0.118993916 0.16241772 -0.020180564 0.00716211 0.10005495 0.040932853 0.07357719 0.10022492 -0.1597645 0.027983451 -0.01877919 -0.06443163 -0.14087392 0.019255467 -0.026961606 0.06462467 0.21879888 0.12654701 0.08698214
이해 0.061270155 0.10224005 -0.002411558 -0.033367462 -0.02019061 0.037307132 -0.023844989 -0.062689275 -0.073512614 -0.012205092 0.11966643 0.106006786 0.01244964 0.06877678 0.076053925 -0.03744144 -0.00328772 -0.0966029 -0.014321589 0.035470158 0.105582945 -0.03250046 -0.03543027 0.11478879 0.089203365 0.06611152 -0.010922847 -0.102878764 -0.0014019073 0.16882358 0.1095599 0.013495297
별로 0.056469154 0.06470805 0.0910246 -0.20370078 -0.028249402 0.20469233 -0.041237764 0.26643986 -0.001924292 0.051019832 -0.023328932 0.12815699 -0.13207483 0.015467416 0.20872706 -0.16031711 0.14397365 0.11097481 0.0032235265 -0.038293496 0.016734187 -0.086597055 0.1318471 0.0018660306 -0.15560539 -0.04128213 0.06835256 -0.020327404 0.041318674 0.25322998 0.014880164 -0.12742402
그리고 0.12164689 0.022954375 -0.0034287367 0.034125853 -0.0578271 0.14043695 0.023061272 -0.026591422 0.06528937 -0.03562803 0.09861669 -0.02271435 0.048279036 0.11190341 -0.08618718 -0.0861834 0.009994403 -0.031161403 -0.037594844 0.13550273 0.036541983 -0.079137295 0.010777945 0.18233079 -0.031706944 0.15184365 -0.075756416 -0.025051424 -0.03773942 -0.006395425 0.109210536 0.06955035
명작 0.10136065 -0.004374508 0.08586144 0.041242495 0.13870357 -0.031642355 0.003975983 -0.13327058 0.1267471 -0.029508565 0.11151256 -0.10605482 -0.03340139 -0.039192148 -0.12022712 0.023214689 -0.1912172 -0.16371144 -0.16065373 0.065788664 0.13852002 0.01451271 -0.08785384 -0.15082596 0.10740069 0.011134646 -0.027165642 0.036234673 0.123211645 0.04633562 0.0742736 0.22527675
여자 0.0035734 -0.12544367 -0.034458537 0.04843029 -0.04787377 0.077475086 -0.015590759 0.06560276 0.054363295 -0.02735112 -0.06933332 -0.03952163 0.015034638 0.12776048 0.041291118 0.025749821 0.032694567 0.028843816 -0.016084466 -0.03591933 -0.033067726 -0.029383479 0.02771176 0.049714394 0.00014330572 -0.04664681 0.047154516 0.07794224 0.010418576 -0.11907045 -0.025805118 -0.044095207
^^ 0.09978239 -0.12621127 0.039794985 -0.018865166 -0.041350313 0.092414014 -0.14276272 -0.06893802 0.1669993 -0.098407604 -0.036197476 -0.06455357 0.100099154 -0.12664136 -0.16118251 0.04918228 -0.16371955 -0.09596292 -0.06779132 0.014509588 0.05586479 0.042204276 0.01781428 0.00014459502 -0.09600693 -0.018799594 -0.076639146 0.08556691 0.13299577 -0.009964837 -0.18535614 0.1376943
역시 0.029482195 -0.008094127 -0.036635164 -0.037559025 0.06045621 0.061161354 -0.0032185044 -0.11448661 0.03663917 -0.097510785 0.105253994 -0.026672665 -0.056454472 0.0025438126 -0.078070976 0.0078115826 -0.08823095 -0.055593926 -0.033257797 -0.12693147 0.07073232 -0.037709933 0.05281461 0.10850971 0.04198935 0.0096914 -0.07302688 0.026972413 0.0817005 -0.045438267 -0.012884003 0.03596937
난 0.061867453 -0.038410954 -0.10691677 0.01146221 -0.08433763 -0.022015808 0.004178295 -0.06155176 -0.07280256 -0.08138269 -0.0032480722 -0.087281704 0.08571953 -0.017263543 0.021991862 -0.07661694 -0.050949045 -0.07396007 0.05441757 -0.022513123 0.035935584 -0.030188728 -0.032725383 0.0025150012 0.0073007424 -0.03109306 -0.035484787 0.02657845 0.032043327 0.024064438 -0.00038260614 -0.091495894
이상 -0.13419108 -0.048573736 0.06661717 -0.18008906 -0.01506382 0.010853162 0.091508746 0.035660032 0.032093257 0.05902151 -0.028355783 -0.07076219 0.06165448 0.065569945 -0.035740603 0.048407096 0.051468093 0.009487915 -0.05651687 -0.106957056 0.09248255 -0.029359592 -0.07528247 -0.15310334 -0.0460382 0.078583166 0.10058731 0.032711815 0.24901293 -0.03966961 0.006779721 -0.07499243
또 -0.09198843 0.06225958 0.057745587 0.065013856 0.023577308 -0.000796566 -0.025692169 -0.060372278 0.103234604 -0.034635007 0.13101217 -0.013651844 0.019126419 -0.027800726 -0.034510225 -0.07295364 0.0021071963 -0.07572603 0.06695329 0.15084924 0.06558766 0.06260212 -0.04334075 0.020849705 -0.11248739 -0.07409516 -0.10296902 -0.13846584 0.0930429 -0.10863428 -0.015450261 -0.005593877
걸 -0.02755079 -0.072431624 -0.10436926 -0.1520215 -0.02443474 0.06959932 -0.1879437 -0.18203522 -0.045152694 0.05974812 -0.047824044 0.054145306 0.06940922 0.072548866 0.009616108 -0.071561225 0.025120353 -0.016169686 -0.021029016 -0.035663646 -0.09233767 0.053149115 0.008555344 0.112438016 0.017944833 0.050403863 0.1270384 -0.11747725 0.021120273 0.025400156 0.020038828 -0.055002593
한국 0.05530325 0.031129792 -0.0062527857 -0.017991181 0.0029156164 0.036392376 0.05676302 0.044258986 -0.061524265 0.03613169 0.037633028 0.009426496 0.20091467 0.059121687 -0.016385356 0.11545803 -0.023715207 -0.05177651 -0.0032643354 0.12226627 0.12732564 -0.009157894 0.013246954 0.00050128216 -0.0220492 -0.04733882 0.056485023 0.045283012 0.008741618 -0.0353546 0.07804553 -0.045059584
는지 0.112693116 0.097543985 0.06805585 -0.17280947 -0.007965279 0.09301355 0.019062586 0.034632504 -0.04503209 0.11084435 -0.00040477447 0.0828146 -0.040373582 -0.07620488 0.055435542 -0.061268605 0.07817223 0.03685298 0.102360584 -0.09293629 0.042318135 0.028913626 -0.030213222 8.915228e-05 0.013018802 -0.0087515395 -0.030670045 0.04483168 0.019710695 0.11708766 -0.0016659518 -0.029980732
많이 -0.05633789 -0.0038925707 -0.14296374 -0.080074385 0.018393772 0.18058103 -0.102059096 -0.08535383 0.0015936558 -0.042270973 0.028693179 -0.026171658 -0.117835805 0.0581371 -0.0036935252 0.029209878 -0.0879021 0.01903052 0.0014175106 -0.0016183655 -0.036942817 -0.029329665 0.1214041 0.058886953 -0.06250929 0.010369296 0.05277574 0.05103971 0.04089626 -0.06222842 -0.03519853 0.08815663
에게 0.015871566 -0.10217556 0.03095966 -0.031725243 0.0057555907 0.020177035 0.06150349 0.02017275 0.014908744 0.039778166 0.15801148 0.1148654 0.06850889 0.083424665 -0.031160433 0.01872985 -0.017173847 -0.01261716 0.038633965 0.060698975 -0.030174827 0.04136239 -0.006321748 0.045316994 0.011208467 -0.10107217 -0.06859562 0.1063748 -0.03124402 -0.032266613 0.07471423 0.01592296
부터 -0.08150984 0.07269282 0.042489443 0.12100574 -0.029730197 -0.10153806 0.09037344 0.05491244 -0.05340271 -0.028243594 -0.113890916 -0.033017073 0.008234691 -0.108875394 -0.08895119 0.14814796 -0.053720903 0.08752525 -0.06393557 0.020611564 0.014537142 -0.07942078 0.07754315 0.123953134 -0.018363005 -0.121107556 0.124028966 0.09382072 -0.092710055 -0.09963439 0.009713123 -0.0732513
만든 0.19193749 -0.08223562 -0.0033666135 0.06472798 0.026345776 -0.14050418 -0.0013724216 0.0010306849 -0.015749874 0.070382096 -0.0024953107 -0.020522257 -0.038655322 -0.078345805 0.0049229567 -0.035396226 0.019746032 -0.0073971674 -0.058300454 -0.15120918 -0.12753613 0.143617 0.035925113 0.084281735 -0.12377901 0.08584802 0.06432648 -0.018951166 -0.020428374 -0.12709086 0.020794384 0.014485495
주인공 -0.024035249 -0.06595689 0.12691896 -0.1948065 0.021486634 0.040604644 0.1170859 0.010269565 -0.07649398 -0.069589056 0.054577876 0.02728125 -0.0425459 0.046193447 0.011113651 -0.044003684 0.015456132 0.018265752 -0.025826955 0.027906502 0.017670212 0.008569052 -0.09637086 -0.022444572 -0.031847514 -0.072957404 -0.06206178 -0.027796 -0.10562083 -0.03913974 -0.023702804 0.079455264
받 0.027285261 0.03293939 -0.07892669 0.012216878 0.065371744 -0.05414191 0.13674287 -0.0670467 0.05035966 0.051163007 0.047485538 0.05796753 0.062253475 0.023870027 -0.06089183 0.016537977 0.10454592 -0.08648978 0.16603966 0.121978745 0.077735886 -0.016239747 0.03480213 -0.02156112 0.06088803 -0.03560248 0.086367786 -0.035438254 0.0023068802 0.09777114 -0.005084585 -0.0067871413
합니다 0.024702609 0.05245966 -0.010938523 0.08257127 0.03425072 0.07607542 -0.05623281 0.12295304 -0.07858468 0.05006734 0.05888107 0.078245066 0.007418566 0.04235484 -0.03600993 0.0127750365 0.007404462 -0.10688435 -0.039129008 -0.10666445 -0.020107219 0.037842024 -0.11590072 0.036965203 -0.05096463 0.022658652 -0.02032484 -0.051711366 0.02431859 0.012582796 -0.20684096 -0.09717137
우리 0.054701045 0.13219628 -0.04547431 -0.039986573 -0.040626284 0.079514034 -0.1805444 -0.05883667 -0.021446358 -0.10157003 -0.07024644 0.08891458 0.11952695 0.011309531 -0.015182636 0.09563154 -0.128635 -0.041599404 -0.07266355 0.06950956 0.038258273 0.11552276 -0.06682587 -0.10027973 0.038659066 0.06236724 -0.104994416 -0.046454858 0.0036794518 -0.10672568 0.012110923 0.059032794
두 0.0943717 0.03710344 0.113588326 0.08568653 0.029830802 0.0015002732 0.011514824 0.039615672 0.007644409 0.081488706 0.0070122248 -0.0021235235 -0.0121582765 0.035314128 -0.1037544 0.031434845 0.008296731 -0.016242994 -0.08086804 0.11655874 -0.03313982 0.06908758 0.09430665 0.036829866 0.038658082 0.16283363 0.11368953 -0.016144048 -0.044791043 0.019582134 0.024327807 -0.076156676
살 0.038097247 0.07621824 -0.090729035 -0.056129545 -0.11987216 0.01787986 0.06670807 0.04066629 0.08959709 -0.085992165 -0.013563297 -0.03575117 0.15078476 -0.060616195 0.017587593 0.06325634 -0.060877513 0.067821085 0.07153723 0.03709994 -0.001119993 0.015842274 -0.03539923 -0.035219956 0.20770349 -0.023489652 -0.0151983695 -0.017302234 -0.083075464 -0.0487471 0.021840172 0.03072481
!! -0.0649353 -0.049841836 0.03308833 -0.061200745 0.09131081 0.0453432 0.03905695 0.047775917 0.09311897 -0.06327598 0.033532944 -0.06896 -0.087592 -0.046722382 0.013095876 -0.1812211 -0.0031958877 -0.009197668 -0.07738818 0.08502227 -0.010190974 0.1656751 0.08351481 0.09295033 -0.0918648 -0.037787445 0.05213947 -0.061383843 -0.02447563 0.13561931 0.055753723 -0.111842774
길 -0.0025624367 0.17789164 -0.0081087835 0.0033023092 -0.018808357 0.008976976 -0.090042494 0.087725915 -0.091504134 0.04091199 0.0145317735 0.04061235 0.05427073 0.026634697 0.06494469 0.06024891 -0.014536893 -0.07919791 -0.02935694 0.023626909 -0.0060235886 -0.096997395 0.017663794 -0.05947935 -0.017808052 0.067671925 -0.02002305 -0.05845871 -0.0727842 0.024353493 -0.05258997 -0.07537213
엔 0.004393112 0.052695327 0.11251566 0.13849996 -0.013766925 0.03572182 -0.059851978 -0.035991624 -0.01684219 -0.003428108 -0.022392869 0.08343148 0.00054346916 0.039977014 -0.017332444 0.051517792 0.03053154 0.025823783 0.0031278974 0.10305486 0.038026396 0.12907708 0.045250904 0.10361304 -0.008950752 -0.12629262 -0.023273634 -0.08287562 -0.06791642 0.06855315 -0.10169596 -0.06835683
괜찮 0.051706936 -0.10748674 -0.07381882 0.07758367 0.020765642 0.058516834 -0.13021296 -0.04937956 0.13200857 0.021882545 0.18228519 0.007745684 -0.0056550307 0.0040759835 0.039009724 0.07657921 -0.06937701 0.045541476 -0.06052099 0.0036250826 0.09103961 0.031707134 -0.04276944 -0.00667901 0.10030101 -0.02476279 -0.05771874 0.0038495618 0.11042359 -0.038043145 -0.014853391 0.025801275
기억 -0.022194084 -0.027484877 -0.054314353 -0.06668502 0.05398907 -0.03680346 -0.12000049 -0.0040216544 -0.0036271021 -0.07215373 0.037177235 -0.0012044628 0.13981861 0.09922356 -0.10213635 0.11537696 -0.07748008 -0.044302132 0.018859856 -0.13026114 0.078181 0.10961106 -0.03178761 -0.06625665 0.15153717 0.046147205 -0.15524766 0.10680284 0.055456758 -0.07614342 0.07478303 0.069954395
연출 -0.083860286 0.02927686 -0.13721141 0.22617115 0.067052856 0.03202578 -0.0034579828 0.102631316 0.08458773 0.11402777 -0.017306676 -0.033639938 -0.058230884 -0.14948653 -0.00089191546 -0.044538688 -0.043378167 0.043594837 0.04128906 -0.07501624 -0.14583749 -0.046394322 0.06235084 0.077473775 0.054774344 -0.0627564 -0.035352126 0.07511765 0.092306174 -0.08564246 -0.029110901 -0.014771185
한다 0.06701179 0.047523055 0.04588767 -0.10208958 0.009105066 -0.029533044 -0.009898894 -0.06537958 0.03794467 0.07128878 0.040718604 -0.10347718 0.028336437 0.006812338 0.0044669816 -0.023122068 -0.03327626 0.046536636 0.023569373 0.05164565 -0.17500833 -0.024920775 0.038859945 0.104268536 -0.07127954 0.11853394 0.078832395 -0.06354432 -0.010294894 0.02457811 0.037625596 0.06345164
때문 0.09304905 -0.02871422 0.02607119 -0.04777838 -0.030799 0.0033700974 0.019636445 0.029720468 -0.08296605 0.05783961 0.15058322 0.13697402 0.06355602 0.001414908 -0.007712076 -0.032850374 0.0414017 0.04230981 -0.051652197 -0.03230453 0.1171409 0.047241136 -0.058397934 0.15911938 -0.050515603 -0.03137636 0.07131649 0.029412176 0.039030056 -0.032624535 -0.056670725 -0.010125283
이나 0.09838937 0.035823062 -0.012651887 0.11864839 0.08831868 -0.028688466 0.0022367532 0.02039945 -0.08112781 0.01691043 -0.036818605 0.109021045 0.039133307 0.011707976 0.063179605 0.074399196 0.036237177 0.07599473 0.056627393 -0.0011192595 -0.15705605 -0.07990828 -0.079567775 0.18941827 -0.07850114 0.056883678 -0.022597453 0.084737204 -0.04983048 0.0016054069 -0.05336262 0.0136286635
ㅎㅎ -0.03789537 0.029331513 0.018746505 -0.004493121 -0.025438331 -0.110805415 -0.027303042 -0.25999808 -0.014674485 -0.11098827 -0.053656515 0.028079534 -0.014311138 -0.04310579 0.017955162 -0.033915363 -0.11649326 -0.060781617 -0.112123616 -0.025134286 -0.07534686 0.06394275 -0.20255741 0.0015728915 0.045659013 -0.071626 -0.00054197264 0.026809381 -0.0063705156 -0.06290636 0.08721375 -0.082303844
요 0.024077531 -0.149911 -0.015174466 -0.016627818 -0.0049538496 -0.05644056 0.12177633 -0.11215724 0.04208887 -0.105332814 0.025420595 -0.033854418 -0.1701388 0.058894377 -0.028513877 0.009831798 0.06407274 -0.02261471 0.08372298 -0.007880905 0.021209706 -0.09929643 -0.011168938 0.0016709048 -0.012848537 -0.024050526 0.038200308 -0.044145912 0.039953593 0.009992012 -0.022794053 0.04460324
저 0.03702118 0.011003571 -0.03388866 -0.15585099 -0.05166654 0.01957623 0.015294105 -0.069541715 0.021834144 -0.035276495 0.055705044 -0.08125234 -0.047032427 -0.10720256 -0.06483513 -0.04180258 0.026997376 -0.01598408 -0.064602524 -0.09173213 0.20636672 0.06910959 0.066888176 0.035822675 0.12221233 -0.077769816 0.048863754 -0.0059256773 0.097892284 0.07429562 0.11875269 0.095650755
재 0.032972433 -0.053765617 -0.034580108 -0.04876619 0.07489614 -0.10144773 0.07666656 0.03948082 0.20970209 -0.086747274 -0.052510507 -0.07810879 -0.0058903727 -0.11746867 -0.13093369 -0.03720342 0.0319414 -0.1118156 0.06722524 0.08876866 0.053920146 0.07936141 0.019304384 0.014693676 0.06914002 0.028727954 0.022323474 0.10922724 -0.01698598 0.004288768 0.113680534 0.044255506
꼭 -0.016272942 -0.0990149 -0.13948074 0.08869348 0.0068681845 -0.0072924756 -0.018273069 -0.026512563 0.18951586 -0.17705892 0.03478986 -0.05455662 -0.0044691055 -0.045735855 -0.0012591087 0.18884385 -0.23398638 -0.1110157 -0.17586018 -0.14813694 0.10971647 0.014950635 -0.021685487 -0.09432888 0.16780332 -0.008466253 -0.016075479 -0.016623443 0.07080427 -0.0784478 0.12344695 0.03530724
랑 0.09048029 -0.08680751 0.16774864 0.073159374 -0.026138406 -0.052196447 0.10093841 0.058040272 -0.06318743 -0.101075314 0.010826604 0.03475664 -0.15419556 0.03667249 0.0071029887 -0.038641587 0.044221714 -0.052681204 -0.034888312 -0.073672585 0.12447547 0.010776368 -0.06688237 -0.0868732 -0.0041975765 -0.1330112 -0.05008134 -0.027737033 0.098434426 -0.1364232 0.05070447 -0.006311288
며 -0.16117233 0.067746595 0.082918756 -0.14945935 0.011195807 -0.053515743 -0.07022778 -0.042835854 -0.019601945 -0.10099207 0.009705617 0.04786603 -0.01847307 -0.012212144 0.07715284 0.009933027 -0.068202116 0.020070296 -0.02130614 0.022425918 0.06710366 -0.017393017 -0.043642536 -0.006814994 0.14807734 0.18340635 -0.04713565 -0.0050934344 0.11894278 0.0074194195 -0.09254884 0.0310756
현실 0.093454085 -0.016148893 -0.19041675 -0.041225176 0.045947373 0.09978681 0.120846674 0.038290787 0.15312259 0.019748813 0.024492692 -0.0010429295 -0.033805925 -0.071257204 0.04330652 0.07639244 -0.10490356 -0.07391289 -0.11562225 0.001045453 -0.08502066 0.0884243 -0.076783784 0.04194257 -0.069845416 -0.045013845 -0.030849839 0.030022921 0.029047446 -0.056530744 0.020664139 -0.052469015
긴 0.08559744 -0.09325732 0.015525921 0.05386243 0.01599902 -0.053774633 0.11887673 0.04103874 0.11276178 -0.04743093 -0.0339197 -0.03806849 -0.09892058 -0.0140288705 0.08971608 0.071955524 -0.07015568 -0.022077873 0.0040123765 0.035289157 -0.017347043 -0.19459046 0.07009915 0.1107226 -0.06905213 -0.034989014 -0.11331842 -0.015653912 -0.059886668 0.010630494 0.12974043 -0.012608179
ㅡㅡ -0.035767633 -0.004775747 -0.18654825 -0.02093435 0.13174486 0.16888066 -0.048890986 0.022308685 -0.09724796 0.121283315 0.022428334 0.012746784 -0.17180239 0.08682173 0.10152083 -0.05458594 0.14769748 0.116604514 0.0134644015 -0.0018140102 0.041375402 -0.13865817 0.0244705 0.009287925 -0.2482263 -0.00011827887 0.11035744 -0.036434125 0.09188978 0.028730407 0.025246786 -0.057737146
무슨 -0.10327732 -0.03870454 0.1515809 -0.0247095 -0.20360418 -0.054413017 -0.005376157 0.13900419 -0.00286741 -0.035757758 -0.07981197 -0.019827718 0.14859226 -0.10303593 0.013936023 -0.023278577 0.05877774 0.1294066 -0.036171447 0.017205695 -0.016049692 -0.090275995 0.09067551 0.006771988 -0.038575362 0.19167243 0.009801755 -0.058186527 -0.03113124 -0.11409346 0.1154572 -0.07450629
내내 0.07175247 0.07669272 0.06595529 0.09397372 -0.048687268 -0.05922976 -0.089073226 0.06554504 -0.064448036 -0.07238736 0.04941576 -0.09649271 0.004687621 -0.054061417 -0.17126927 -0.0361811 0.02278571 0.0022873585 -0.043226823 -0.013815723 -0.046966758 -0.015941888 -0.035702236 -0.07248729 0.033914987 -0.04998839 0.018560862 0.0673341 -0.15722877 0.041412216 -0.001809884 0.03621097
결말 -0.055806942 -0.09760009 0.16038243 -0.15796797 0.09696638 0.0678183 0.056129567 -0.020189034 0.07275603 -0.010625419 0.0053940294 -0.01120053 0.056042414 0.00413165 0.0082686 0.050214656 -0.044805948 -0.016701074 -0.04011071 0.03951423 -0.041958 -0.025680244 0.025604011 -0.02990007 -0.1464517 0.07531094 -0.08439921 -0.012650618 0.113020435 0.086746946 0.10643178 0.029467264
죽 -0.07987759 0.081958905 0.15337622 0.085267425 -0.12060423 0.047071323 -0.01147689 0.07867827 -0.034948543 0.015406689 -0.08967333 0.057931088 -0.15109327 0.043261863 0.014377719 -0.07292031 0.023890752 -0.0138980765 0.0675903 0.10457229 0.02396273 -0.026057404 -0.049388185 0.012505607 -0.16248962 0.08746565 -0.00091122615 -0.10206254 -0.02728578 0.15062666 -0.0133016845 0.0149201555
남자 0.15161835 0.017494427 0.07108716 -0.015800245 0.12010708 0.035555862 -0.12666385 0.13334516 0.008479685 0.010660281 -0.038120087 -0.09109859 0.045338906 -0.0062419474 0.018820506 0.06511386 -0.04151489 0.009625134 -0.1412631 -0.008135022 0.017351516 0.031521525 -0.17104729 -0.101183124 -0.008027212 0.040839285 -0.022427792 -0.036108132 0.0053120046 0.019259403 -0.16161966 0.032854546
세요 0.013698762 0.00087719393 0.09824108 0.14836362 0.0068956655 0.014522431 -0.039698105 -0.116286784 -0.08225804 -0.02740432 0.15703867 -0.15315855 0.05951073 0.03891299 -0.07735874 -0.074460514 -0.06042203 -0.060834277 -0.044323243 0.09103988 0.059460524 0.064216815 -0.028095806 0.06449541 0.09718948 -0.116168715 0.09269707 -0.057087656 -0.13151813 0.052811366 -0.048965085 0.09519452
전개 -0.06511693 -0.071944535 0.14041083 6.2527106e-05 -0.009396994 -0.074062146 -0.045586642 0.008794503 -0.0917066 0.031483974 0.06853907 0.10062663 0.03233079 -0.018365253 0.13266756 -0.21294661 0.0077045606 0.04206584 0.08908236 -0.037862312 -0.1020208 -0.18000129 0.0232554 -0.0061925603 0.052049674 -0.0015972175 -0.02901111 -0.031699095 0.008954866 -0.12814786 0.01689873 -0.16029592
마음 0.06550626 0.148366 -0.14258519 0.16484578 -0.05878162 -0.1807693 -0.012383016 -0.02992153 -0.06940975 -0.10226001 0.02757317 -0.07048543 0.19222324 -0.05742201 -0.14843895 -0.031983104 -0.11690815 -0.1485615 0.05186151 0.053246107 0.08216399 0.07905257 -0.06490337 0.004318528 0.10222283 0.022557378 -0.026176026 0.04258405 -0.018945215 -0.029461933 -0.039858997 0.21624656
소재 -0.12521344 -0.07324978 0.03491469 -0.11329866 0.045670833 0.02904714 -0.08881645 0.03642339 0.017968241 0.12043923 -0.024753708 0.0017930567 -0.028859554 0.115065694 0.10766562 -0.0007841411 -0.03300882 0.027449183 -0.04332509 0.0035955035 -0.12792388 -0.007885903 0.05279878 0.040383995 -0.096564 -0.0039063264 0.0933327 -0.039810352 -0.029326143 0.058963217 -0.010190372 -0.045454312
속 0.010855567 -0.10294914 -0.023294019 0.10105743 -0.06524631 -0.067026086 -0.083381966 0.04240521 -0.0097163245 0.0052654226 -0.005310968 0.13925202 -0.09442982 -0.060951684 -0.08309915 0.018888494 -0.013731446 -0.07020776 0.056391217 0.023041952 -0.0015270411 -0.036920555 -0.0973918 -0.10367865 0.11051977 -0.023677047 -0.12273156 0.1031726 0.000772804 -0.0008877237 -0.02272385 0.024984166
공포 0.14195271 -0.14735726 -0.031018253 -0.010719636 0.018088486 0.036440127 0.0819978 0.079179764 0.009501766 0.011646414 -0.05542678 0.0073772646 -0.13495512 -0.044666037 0.032666855 -0.03111027 0.08685605 -0.06299552 0.05529598 0.023465758 -0.02978758 0.045777287 0.067782335 0.031132404 0.0014024965 -0.066982575 0.12035019 -0.05043639 0.007195378 -0.044059776 -0.012568951 0.075211465
아서 -0.22616093 -0.03164656 -0.11108777 -0.06782364 -0.08166134 -0.11599306 0.045761116 0.0002428955 -0.034338947 -0.11018614 0.061140515 0.013150204 -0.01453109 -0.035962105 0.053418823 -0.13209578 0.013022982 -0.023775717 -0.020011704 0.060486194 0.10086009 -0.12320865 0.009640874 -0.13301142 -0.02901242 -0.09660913 -0.027724367 0.027258081 -0.0024871859 -0.06131532 0.006087026 -0.071984634
다른 0.003250675 0.04226904 -0.061199646 0.10874335 0.022217304 0.01889877 0.020882836 0.06154858 -0.05329619 -0.05579042 0.097708434 -0.07264302 0.050138913 0.09533052 0.021368748 0.02499828 0.018754575 -0.055551477 0.019247537 -0.024369631 0.01990987 -0.0045023104 0.033097986 0.064387225 0.12764728 -0.0041393465 0.02582274 0.14879735 0.059214577 0.116898075 -0.057670932 0.053051967
씨 0.025951162 0.0475686 0.028351475 -0.0076389606 -0.01480435 0.076598056 -0.06127476 0.021445796 -0.1289396 -0.021950308 0.058742568 0.08169787 -0.034212697 0.1347187 -0.021051206 -0.056889165 0.03586408 -0.040620852 0.03965422 0.0044518267 -0.032266513 0.0453723 0.0058005345 0.15726171 0.008946744 0.13134216 -0.0786154 3.5400444e-07 -0.0070395777 0.04526325 -0.018049473 0.12382863
인생 0.034249555 -0.12643972 0.013625513 0.1458778 -0.03496976 -0.07470345 0.007850821 -0.044862222 0.020048127 -0.039014965 0.11896734 -0.045566488 0.009795514 -0.051004186 -0.025820926 0.05185979 0.026901726 -0.06207088 -0.07609425 0.03947506 0.07424073 -0.018934585 -0.117988445 0.079758674 -0.09966011 -0.1042466 -0.016786601 0.054600358 0.16342622 0.065702185 -0.09323699 0.12070411
~~ 0.003192087 0.010523347 -0.157697 0.2990136 0.041429352 0.062041584 -0.056676373 -0.048379507 -0.022342075 0.02276477 0.03326321 -0.15438066 0.06828527 -0.014371987 -0.06758494 0.09070421 -0.04729179 0.034316704 -0.033280265 -0.09665016 0.10370407 -0.060256343 0.00506702 -0.06678213 -0.006129311 -0.1104393 0.011761632 0.083760604 -0.022008197 -0.07597089 0.12678653 -0.036286607
짜증 -0.09508694 -0.11563442 0.0055926363 -0.086719446 -0.043506417 0.0746436 -0.16279559 0.15741459 -0.21862079 0.09309864 -0.22081876 -0.005462576 -0.1399008 0.05997584 0.032450628 -0.052867 0.04964075 0.07960263 0.016089028 -0.023065468 -0.064381026 -0.059018467 0.043312725 0.15320387 -0.12787206 -0.007757722 0.1738351 -0.09668271 -0.12444926 0.1257397 -0.087721445 -0.048019223
짱 0.05636594 -0.13920498 -0.0958572 -0.05973828 0.057890207 0.09195148 -0.06287179 0.0025795903 0.0656748 0.03362021 0.084220774 -0.101505384 0.07467662 0.017335081 -0.14028096 0.10949618 0.020976553 -0.07701367 -0.13772118 -0.1285264 0.04483063 0.056698788 -0.049667563 -0.008123629 0.040380508 0.025965907 -0.13035592 0.188078 0.024000041 -0.066822186 0.13645837 0.16108675
뿐 0.104919076 0.12441135 0.21247186 0.005720368 -0.06972883 -0.018350653 0.080275595 -0.0070898673 0.05460782 0.09712853 -0.06321537 -0.046338152 0.03854089 0.058820207 0.01706422 -0.008595915 -0.01260599 0.120760724 0.050958753 0.017284572 -0.023129577 -0.11131762 -0.020941917 0.11036989 -0.05997377 -0.16732731 -0.0015798841 -0.05904665 -0.18997683 0.06457216 0.006404025 -0.05235373
은데 -0.0481326 0.02984342 0.114645325 -0.071780235 0.025662951 0.11576561 -0.013256389 -0.06391258 -0.12193149 0.0111324405 -0.03136902 0.1598033 0.063241385 -0.043766215 -0.01200866 -0.027073061 -0.15941295 -0.0011199451 0.12572904 -0.080245584 -0.017885055 0.1465068 0.09697401 -0.10570583 0.033802133 0.10970713 0.029215029 -0.13186114 0.04391137 0.14353779 0.038591255 -0.038267836
별 -0.0061082 0.12438833 -0.051157165 0.12954558 0.03486388 0.008559538 -0.034608174 -0.01350122 -0.13086466 0.015160317 -0.09187449 0.02442486 0.068058796 -0.075965784 0.045012083 0.02857692 -0.015085321 0.14759561 -0.020328589 -0.06609445 0.020760536 -0.1043662 0.024121353 0.036738437 0.03804573 0.067653365 0.077928565 -0.05902701 0.06504796 0.0055570668 0.09852184 -0.024299031
아요 -0.00094256236 -0.14630039 -0.067184016 0.042478498 0.09517028 0.055634495 -0.012955436 -0.1601745 0.09009527 -0.055995278 0.19050282 -0.0789654 -0.022293914 0.043250605 0.0913533 0.13775922 -0.09811812 0.057437997 -0.15704936 0.08331839 0.16595873 0.12084186 -0.009019703 0.14303848 0.008562333 0.30704442 -0.020422975 0.010525532 0.12931505 -0.0034563004 0.12209365 0.14013614
유치 -0.0353471 0.013420033 0.16744933 -0.04466215 -0.020067887 0.017689502 0.03960036 0.20826726 -0.06904717 0.10550709 -0.15209098 0.0795192 0.05452309 0.03885726 0.1365094 0.00153779 0.056296457 0.12228456 0.013246052 -0.03503548 -0.13011593 -0.0544668 0.07245455 0.13387538 0.04295172 -0.07569148 0.032369494 -0.0861099 -0.17782909 0.1754534 -0.14579846 -0.07662816
가장 0.07264393 0.016957426 -0.17405255 -0.06191344 0.12845738 -0.2087466 -0.015227118 0.061916728 -0.0032163018 -0.008391229 0.039769407 -0.011357261 -0.05301039 -0.007590381 0.06799533 0.03446705 -0.107507855 -0.051217306 -0.060908187 0.0148084685 -0.028535416 -0.026126608 -0.09249923 -0.10096253 -0.013567409 0.016423507 -0.031012394 0.10386613 -0.020873884 -0.16962995 -0.0880425 0.011323804
필요 0.0446939 0.12849072 0.06079966 -0.09466439 -0.035355248 -0.017185258 0.043404564 -0.041947223 0.11106264 0.00955206 0.16188078 -0.09202787 -0.03598516 0.027017098 -0.1204504 0.16397563 -0.08355569 -0.2316454 -0.15665299 0.108653024 0.047935348 0.07843328 -0.06318176 0.20783906 -0.052658536 0.123117864 -0.05203214 0.08478049 0.08006848 -0.008331948 0.07643623 0.06412224
음악 -0.0013132198 0.0966919 -0.018084612 -0.044747677 0.038898796 0.035373762 0.08242099 -0.06721727 0.1415408 -0.1105543 -0.0015253798 -0.080792025 -0.04985183 -0.038545966 -0.11496652 0.011955859 -0.03473238 -0.06510623 0.034352485 -0.06386827 0.059016958 -0.020585243 -0.043094248 -0.078407034 -0.010386574 0.07976828 0.08186546 0.043933325 0.11495393 -0.037360642 -0.030923525 -0.010749725
) -0.11969448 0.0059583443 -0.04586409 -0.10366934 0.03440527 0.12500189 -0.032177918 0.09298513 -0.033276998 0.043321244 0.07587431 -0.06899635 -0.015875923 -0.0043968633 0.04183475 -0.012078425 -0.02047721 -0.049471214 0.016451074 0.13844661 -0.105488285 0.04755447 0.023836322 0.079824395 -0.018675568 0.07587867 0.064892836 -0.012547202 0.01714427 0.106010675 0.17502257 0.04296175
일본 -0.014952705 -0.10817912 0.12462416 -0.02269918 0.09505541 -0.10703077 0.07120688 0.023477275 0.002616895 -0.038956173 -0.05658173 -0.02307934 -0.1293382 -0.06511135 0.07241497 -0.055828206 0.048701968 -0.023006117 0.06479149 -0.10080893 -0.05447332 -0.093703315 0.061052866 -0.017904928 0.006863684 -0.14816122 -0.10801745 -0.082393765 -0.16400403 -0.03419386 -0.029427342 -0.027113084
낮 -0.0792199 -0.029221991 -0.008166171 -0.044604152 0.14667645 0.12542805 -0.10864289 -0.27043614 0.06211488 -0.09312534 -0.0032012716 0.074244395 0.11679463 -0.11150172 -0.081857376 0.02058874 -0.11426033 -0.056471888 -0.10442899 0.12503962 0.047983717 0.043766018 -0.16080949 0.07966422 0.11131852 0.25930718 -0.11194734 0.071328394 0.079742 -0.110164456 0.10896867 0.12488647
아이 -0.014510387 -0.027485214 0.034317803 0.10588925 0.09553267 0.07563186 0.04001098 -0.06789691 0.1408738 0.06621336 0.090713255 0.0491436 -0.0033220053 0.025166027 0.012936186 -0.05966267 0.002943818 -0.14354903 0.037656635 0.048376244 -0.0033225873 0.03656918 0.0015256107 -0.016852565 -0.039992433 0.034145962 -0.068841025 0.082264885 0.06822335 -0.054341827 0.025873354 0.1228103
;; 0.035126504 -0.020939235 -0.06431847 -0.074868776 -0.026424214 0.13245112 0.025415806 0.013146656 -0.05406261 0.0771197 0.03419423 0.016268725 0.08274353 -0.08604958 -0.09015341 -0.04850334 0.16302009 -0.033273924 -0.020114098 0.031926308 -0.09801161 0.00590219 -0.026051665 0.01589994 -0.051982764 0.030244842 -0.10981423 0.031851545 -0.16545352 0.03574804 0.06457938 -0.014693152
오 0.1048955 -0.097866274 0.038290434 -0.024130637 -0.014920648 -0.024338426 0.07634413 0.032916624 -0.07820663 0.08051887 -0.025412308 0.011415201 -0.06977207 0.14182575 0.021352893 0.087441795 -0.01390199 -0.0038650222 0.023502743 0.030045137 -0.108638726 0.05209877 0.03111049 0.05399622 -0.07439047 0.048578158 0.096311554 0.04587858 0.01598544 0.10951024 0.12151608 0.010943656
반전 0.011889478 -0.038601622 0.027123539 0.037474018 0.05154135 -0.044767935 0.038280874 -0.020948876 0.12074641 -0.016966434 0.0054977564 -0.16969666 -0.079887845 -0.050849736 -0.028681243 -0.038747143 0.012805352 0.030887336 -0.036240384 -0.049377732 0.010145224 0.06180983 0.0811039 0.004336788 0.15592767 0.005110495 -0.03853164 0.062292807 -0.027077228 0.04264732 0.09306463 -0.047916774
수준 -0.1449441 0.13585274 0.08777749 -0.17201555 -0.12435136 0.05071529 0.0009102142 0.08032118 0.041193195 0.031522043 -0.15635571 0.0014753923 -0.118441775 -0.041241612 0.09309435 -0.0028974973 0.07656942 0.0884703 0.15747641 -0.043684777 -0.17081755 -0.043757908 0.13020195 0.02186275 -0.15861773 0.06347293 0.010000051 -0.15554625 0.036771573 0.102610506 0.049768306 -0.119754985
다니 0.14117256 -0.12785128 0.029187411 0.05719627 0.059477292 0.067745276 -0.018608343 -0.009770887 0.10733015 -0.061485082 0.013987594 -0.020817472 -0.086515866 0.047395173 -0.03174108 0.019210482 -0.030908257 0.10634947 -0.018812291 0.023170698 0.044948034 -0.061794173 0.042685486 0.039235484 -0.099318065 0.05548307 -0.07121797 0.050692033 -0.03805373 0.04502081 0.05084151 0.047058877
웃 0.10931142 -0.01818397 0.07621144 -0.10232307 -0.0115968725 -0.1028602 -0.04226041 -0.06359552 0.09393311 -0.11534767 0.09226743 0.048515677 0.10493341 0.1581324 -0.17869122 -0.02373923 0.062801965 -0.01094284 -0.13527709 0.07505981 0.0014976816 -0.06402651 -0.14602119 0.043996137 0.13146709 0.12639117 -0.005344034 0.033481915 -0.046034522 -0.020129832 0.0894826 0.018701922
매력 0.030122837 -0.033976186 -0.030265652 -0.09945393 0.089426756 -0.120059475 0.048437785 -0.13840081 0.012938692 -0.06695457 0.0597841 0.108927876 0.0007843804 0.015196021 0.014801404 0.032307923 -0.009062479 -0.014960621 -0.1331024 0.05283791 0.041468523 0.10540249 -0.11862899 -0.14938098 0.059977863 0.046797298 0.04864775 0.04358998 0.028148724 0.011687119 0.19328192 0.009772978
맞 -0.03785285 0.030521242 -0.1342246 -0.20790423 -0.023743816 -0.024708023 -0.013042449 -0.073972106 0.052573737 0.028214717 0.0578616 -0.02179001 -0.05830199 0.041514684 0.038690418 -0.14859559 0.062820524 0.011291346 0.07497785 -0.089531645 -0.0077754315 0.00640217 0.046108194 0.066752695 -0.08989517 0.06758573 0.09163904 -0.059382178 -0.02589633 0.029689245 -0.03424691 0.012295496
인지 -0.0141373295 0.029379973 0.057295788 -0.038365655 -0.16086984 -0.08520989 -0.021877078 0.072189435 -0.07776597 0.1057282 0.04913074 0.0029613697 -0.08293888 -0.097441345 -0.020162098 -0.04067779 0.05599092 0.03918824 0.11289085 0.04564148 -0.09559097 -0.010081553 -0.008815541 0.05177433 0.14405154 0.031718716 -0.11884685 -0.088775456 0.074111186 -0.10949654 0.15606283 -0.039200906
가슴 -0.0036989448 -0.09841668 -0.05012889 -0.0030173915 -0.025307145 -0.13756323 0.044780724 -0.16205798 0.17671962 -0.15861452 -0.012708472 -0.05268647 0.025830196 -0.012386384 -0.03948977 0.037412748 -0.12067114 -0.11053001 -0.06360853 -0.0019054018 0.011997467 0.03591811 -0.09546562 -0.08310856 0.04630774 0.0731944 -0.014196604 0.10296914 0.11396911 0.05835905 0.05031426 0.17172413
없이 0.08217859 -0.061334178 -0.09452385 0.049720176 -0.011432877 -0.07561186 -0.11030727 -0.047447808 -0.12390057 -0.16752614 -0.04872625 0.066040024 0.06706979 -0.04537295 -0.06019885 0.10491469 -0.054761544 0.060799588 -0.11749126 -0.24481682 0.08669153 0.0007384714 -0.16540499 -0.07444207 -0.035911486 -0.0436756 -0.039712504 0.04607869 -0.0008152887 -0.037464324 0.102666795 0.01700098
원작 0.035729833 -0.067412116 0.061149754 -0.04540752 0.011804761 0.15920871 0.002657291 -0.012665753 -0.022245074 0.06973508 -0.1290473 -0.027024258 -0.01358064 0.017560607 0.054235592 0.014182141 0.11923852 0.049596563 0.07931831 -0.0621691 -0.027599879 -0.049914595 0.010833414 0.027583672 0.090177156 0.06437417 0.04623107 -0.13023901 0.06802349 -0.014207678 0.029558385 -0.017604228
ㄷ 0.01620582 -0.16261044 -0.00056751486 0.1495755 -0.03820445 0.009230292 0.0017800088 -0.06982854 0.1398232 -0.027213784 0.006507769 -0.063752726 -0.08437964 0.011071286 -0.110609755 0.03908382 -0.012604516 -0.046497334 -0.05184142 0.1582639 0.0040465323 -0.09283839 0.007247988 0.009838891 0.014544078 0.13104337 0.051987026 0.02493003 -0.00975078 0.11097954 0.038862914 0.13093416
인간 0.11935737 0.027529137 -0.0128393555 -0.030996507 -0.054359667 0.048756234 -0.096788034 -0.05318558 0.1282075 -0.103043124 -0.06191487 0.08160281 0.14468084 -0.014671782 -0.021656722 -0.029413652 -0.10399225 -0.16464204 -0.08075174 -0.088643536 0.037990496 0.081169724 0.0046703904 -0.04821426 -0.05333722 0.11159274 0.011448433 0.076903485 -0.004504478 -0.08254371 0.03821083 0.037564352
데 -0.012735824 0.059237666 0.063395284 0.013516208 0.15831617 0.08280309 0.03753709 -0.013544379 -0.043398984 0.027809063 -0.095485106 -0.0023817152 -0.043333523 0.011474856 0.07339844 0.035308663 -0.0077481037 0.079777315 -0.06557335 0.040683657 -0.077967174 0.0072797937 -0.10864906 -0.10024888 -0.109674156 0.101593964 -0.08689219 -0.054629397 0.08224052 -0.050182912 0.07538818 0.012418101
굿 0.20270298 -0.13344246 -0.013133005 0.15082285 0.16337638 -0.039460126 0.118268214 -0.078489654 0.2709116 0.021641996 0.17769186 -0.13035545 0.16505578 -0.007157646 -0.12614095 0.028050337 -0.17066222 -0.10695302 -0.0019398766 -0.07394946 0.006608012 0.13778383 -0.14203322 -0.07028792 0.020563502 -0.10824002 -0.10938643 0.08324583 0.11327658 -0.04753059 -0.03027706 0.13624033
ㅠ 0.071540326 0.07045762 0.022830503 0.044218328 0.015436668 -0.0474005 0.025330847 0.021174157 0.03839956 -0.078750275 0.024839764 -0.00036962875 0.10989177 -0.022636477 -0.041791525 0.07079584 0.01208474 -0.057998687 -0.10453082 -0.1339087 0.11176566 0.18929066 -0.08447373 -0.0030089752 0.056227732 0.050483804 -0.06651013 -0.0055701695 0.030915974 -0.12526913 -0.07169651 -0.028896347
높 0.14889659 0.070682295 0.024752587 -0.028453425 0.10235338 -0.08480599 0.018120933 0.19925174 -0.1255491 0.15139374 -0.042336617 -0.007957172 -0.025530769 0.010669446 0.05141771 -0.0023820093 0.057003472 0.0195135 -0.0068079187 -0.22896387 -0.17124811 0.045380663 -0.013586728 0.04798455 0.0073513887 -0.07525325 0.052014828 -0.07273242 0.1442423 0.011760482 -0.13708521 -0.081831425
밋 0.0673705 -0.025306076 -0.1827371 0.04743074 0.095143534 -0.050984863 -0.10959372 0.053571198 0.078242406 0.029780548 0.12172302 -0.1110583 0.06988071 -0.017049674 -0.09013961 0.0064598094 -0.0751781 -0.16399854 -0.008156949 -0.16268432 -0.0027316322 0.08074191 -0.16493204 -0.037898924 0.011051427 0.027623463 -0.0053434307 0.09649643 0.016417645 0.040067133 0.1230971 0.014548034
