9996 32
. -0.13583863 -0.14767717 -0.16683032 -0.14719681 -0.1979731 0.26277173 -0.23427351 -0.23940001 -0.20260362 -0.17564145 -0.20048107 -0.2144456 -0.24623732 -0.17052178 -0.22707765 -0.115414225 -0.30401704 -0.17730051 0.0029671928 -0.17064372 -0.18880051 -0.15009987 -0.07207544 -0.1760193 -0.21588072 -0.22599794 -0.24102873 -0.2192944 -0.22385326 -0.18321733 -0.13076568 -0.15342827
영화 -0.21858862 -0.15536098 -0.1976194 -0.19439627 -0.16700594 -0.013028394 -0.19461335 -0.20425035 -0.19492301 -0.17302796 -0.23122185 -0.27726495 -0.224506 -0.1358136 -0.22030011 -0.13090262 -0.16909753 -0.1558828 -0.17539413 -0.27736133 -0.26103905 -0.1935847 -0.076907225 -0.23400483 -0.20057099 -0.21472491 -0.25662878 -0.22788233 -0.18632597 -0.19395834 -0.22986917 -0.23058297
다 -0.20316674 -0.14337829 -0.18966925 -0.1812983 -0.1988521 -0.032800723 -0.21830125 -0.24995251 -0.20032762 -0.08670862 -0.2575185 -0.22852384 -0.22450122 -0.18741603 -0.15218341 -0.13648449 -0.21109581 -0.20176664 -0.1851351 -0.2841755 -0.14942466 -0.19485284 -0.0496891 -0.24314044 -0.21671584 -0.21637776 -0.2588401 -0.1692009 -0.22718567 -0.21173066 -0.23028496 -0.22948052
고 -0.117683925 -0.13072018 -0.15682681 -0.1606712 -0.04159756 0.30623308 -0.14918986 -0.20244531 -0.184522 -0.18996647 -0.19295952 -0.2001065 -0.21131293 -0.13947994 -0.20289718 -0.1329784 -0.17156993 -0.1540916 -0.1777098 -0.17043567 -0.21444763 -0.09443549 -0.07566087 -0.18763873 -0.19523415 -0.017803663 -0.20080642 -0.1914177 -0.18714401 -0.15113856 -0.12239542 -0.18530542
하 -0.20855883 -0.15565243 -0.18090159 -0.16211079 -0.17486638 -0.028637707 -0.20786189 -0.17082609 -0.13464162 -0.18475029 -0.12868644 -0.22481383 -0.07753423 -0.024554957 -0.1874094 -0.1263601 -0.19224207 -0.17393446 -0.1773368 -0.15248002 -0.19217099 -0.18310118 -0.053542536 -0.17760955 -0.16972263 -0.109835364 -0.2743049 -0.17717992 -0.22730494 -0.17837718 -0.18226472 -0.09779405
을 -0.16075304 -0.15711814 -0.17160657 -0.15699399 -0.10255231 -0.006193422 -0.12824836 -0.186444 -0.17985058 -0.17315921 -0.19832617 -0.20296748 -0.17390656 -0.18325786 -0.17800525 -0.10808106 -0.19014286 -0.18052605 -0.14562497 -0.18733224 -0.15811688 -0.16653141 -0.0662043 -0.15164556 -0.13622257 -0.17240274 -0.20237076 -0.14629145 -0.15380108 -0.21140984 -0.05638807 -0.16315493
보 -0.11260486 0.015476811 -0.33046713 -0.1725152 -0.23569524 0.009542988 -0.2087302 -0.33146968 -0.1894527 -0.17545244 -0.22092526 -0.20464915 -0.0873622 -0.15219752 -0.19337165 0.005694612 -0.18570636 -0.010217177 -0.17167035 -0.15567863 0.045170605 -0.17063075 -0.060513705 -0.17794839 -0.19635682 -0.18943357 -0.11689578 -0.18976426 -0.23599912 -0.1413993 -0.17159237 -0.16081256
.. -0.08094353 -0.05645409 -0.17549212 -0.20043412 -0.14781684 -0.0474563 0.12378249 -0.054002963 -0.18887855 -0.11871131 -0.16155711 -0.22453937 -0.25181785 -0.18996333 -0.21064995 -0.12226765 -0.16933839 -0.1874336 -0.005859925 -0.1571916 -0.090791196 -0.18967968 -0.05181992 -0.13737853 -0.19078644 -0.10555712 -0.25914845 -0.23539095 -0.2316866 -0.1913925 -0.043606013 -0.15879646
게 -0.017324401 -0.14992754 -0.12233945 -0.05674619 -0.2063997 0.007460577 -0.0468819 -0.1779684 -0.18847246 -0.06445368 -0.11134921 -0.16499983 -0.20450632 -0.09035815 -0.19721347 -0.13012742 -0.19409241 -0.2049971 -0.15094522 -0.103587314 -0.050777268 0.015596246 -0.05939885 -0.16956852 -0.052156202 -0.18525301 -0.12985218 -0.10835542 -0.18464689 -0.1960162 -0.15309304 0.08568448
, -0.10719245 -0.11427861 -0.052062117 -0.17066683 -0.11868709 -0.032387853 -0.15200107 -0.024092609 -0.18976872 -0.19474408 -0.048398413 -0.023840688 -0.094795436 -0.0011790085 -0.122003354 -0.17126523 -0.18110158 -0.09756588 -0.09369308 -0.10219749 -0.15480079 -0.123018384 -0.04734682 -0.18047336 -0.11474746 -0.06514601 -0.10347775 -0.23355733 -0.16516562 -0.13276196 -0.10412106 -0.14188044
! -0.016469873 0.11920065 0.12655306 0.16732293 -0.22286634 0.1533273 0.08962091 -0.19385248 -0.05275135 -0.19697572 -0.26314324 -0.09381378 -0.15788545 0.0043004216 -0.051225062 0.11658561 -0.20289074 -0.141976 0.07774484 -0.27851868 -0.19420299 0.18035647 -0.107929066 0.042329118 -0.13650967 0.04469437 -0.2656364 -0.11844153 0.06976532 -0.051108997 -0.16149752 0.07912581
지 -0.19141467 -0.17710307 -0.19821267 -0.0700487 -0.20735094 -0.03666977 -0.18179919 -0.20323375 -0.14725624 -0.19842964 -0.17327604 -0.16642195 -0.17248234 -0.14912537 -0.14861107 -0.16415897 -0.12975734 -0.17748916 -0.20103881 -0.13827828 -0.16642028 -0.13436548 -0.0644857 -0.18194348 -0.16331439 0.012085067 -0.091179706 -0.1607164 -0.1711577 -0.18923232 -0.10837014 -0.21128437
있 -0.05140138 -0.1907239 -0.17052963 -0.08954303 -0.17649932 0.02856456 -0.14446986 -0.22465208 -0.10809155 -0.19381416 -0.11806987 -0.04566191 -0.19534566 -0.06688026 -0.20331517 -0.1148952 -0.20828342 -0.10743652 -0.18245143 -0.27657086 -0.15684412 0.06765562 -0.05274142 -0.049087837 -0.21799873 -0.2296941 -0.21449596 -0.13056707 -0.103350095 -0.12968463 0.1982433 -0.029876254
없 -0.052414272 0.16484118 -0.17057627 -0.16084668 -0.1977422 -0.01894728 -0.19226392 -0.1824408 -0.18021613 -0.18144974 0.030745393 -0.10696263 -0.21250926 -0.18480897 0.108268455 -0.1348939 -0.17204967 -0.03452826 -0.20601778 0.12525535 -0.1957144 -0.16916163 -0.05162884 -0.18741888 0.041584317 -0.20884223 -0.10976263 -0.19795404 -0.12338527 -0.2139308 -0.08603536 -0.16487071
? -0.09217547 0.10710076 -0.09934416 -0.14192744 -0.16911961 -0.021991044 0.13068308 -0.10881038 -0.19603893 -0.19592445 -0.20858906 -0.044240553 -0.08788576 -0.17907415 -0.051536996 -0.184019 -0.026516233 -0.15041946 -0.19444415 0.08877893 0.0055868845 -0.11537229 -0.050678995 -0.17485738 -0.20761737 -0.13924713 -0.091342874 -0.15871282 -0.17338794 -0.2015902 -0.06755467 -0.2074636
좋 0.17390563 -0.18548068 -0.02492847 -0.18926024 -0.20855656 -0.0230811 -0.18540247 -0.17285638 -0.20579603 -0.08948436 -0.21750483 -0.24088928 -0.09998503 -0.08204369 -0.18208645 -0.044595793 -0.008316068 0.065310575 -0.052556776 -0.22815828 -0.15159246 -0.022697447 -0.074410245 -0.084973134 -0.22035182 -0.21726768 -0.25770664 -0.14080752 -0.20353252 -0.19790076 0.13298666 0.086188674
나 -0.058661964 -0.16606955 -0.060780652 0.044514824 -0.21765965 0.13316463 -0.16268875 -0.25943306 -0.10446905 -0.17759751 0.029767847 -0.011237618 -0.23256437 -0.11657052 -0.12302654 -0.17995796 -0.2103538 -0.17495187 -0.18223684 -0.122419216 -0.25285903 -0.03681256 -0.05511576 -0.17883863 -0.2033298 -0.23094319 -0.09583636 -0.1798525 -0.2247525 -0.19214624 0.04183084 -0.23715952
었 -0.154923 -0.17602102 -0.17214252 -0.035776053 -0.166603 -0.047428846 -0.12583265 -0.24201947 -0.13347341 -0.11447059 -0.21558817 -0.22524013 -0.1793 0.11725914 -0.22818089 -0.099971764 -0.07786749 0.17171828 -0.18215093 -0.18992446 -0.16550046 -0.1648363 -0.054571927 0.032511685 -0.2084634 -0.2295756 -0.2393938 -0.1977424 0.03546319 -0.009780521 -0.18347745 -0.15692529
만 0.010473795 -0.17290597 -0.16628145 -0.13736007 -0.10902387 -0.030858422 -0.20450193 -0.17210263 0.16819797 -0.17326269 0.048040573 -0.090053774 0.000569509 -0.012307491 0.029973878 -0.15443823 0.0064536086 -0.19507553 -0.16867676 -0.13585359 -0.17856851 -0.14098133 -0.066429056 -0.19179645 -0.2111889 -0.2000646 -0.11216422 -0.1451472 -0.16886035 -0.20459297 -0.06070855 -0.16461594
는데 -0.14670709 -0.06986623 -0.13846995 -0.08825168 -0.14330992 -0.02658235 -0.07804715 -0.18344727 -0.16470675 -0.19574185 -0.07679375 -0.025986427 0.008328954 -0.13095756 -0.22428945 -0.11133639 0.06338584 0.053408433 -0.13109906 -0.18572728 -0.17792793 -0.16171362 -0.06654749 -0.182309 -0.22355612 -0.21782745 -0.254616 -0.19131789 -0.17754446 -0.1808361 -0.18216208 -0.13955575
너무 -0.20012093 -0.18250743 -0.20058736 0.025920684 -0.057956167 -0.011265922 -0.014473527 -0.19586962 -0.19809465 0.035188165 -0.21685375 -0.16957848 -0.18677291 -0.13651122 -0.17036682 -0.12058797 -0.17757693 -0.014116019 0.014298386 -0.21257116 -0.14620891 -0.15984476 -0.06995826 -0.1467985 -0.09627355 -0.11162377 -0.12577373 -0.22151032 -0.14957535 -0.19218662 -0.24328622 -0.17592211
봤 -0.1943355 -0.121613406 0.20916884 -0.08473235 -0.14066762 -0.021420062 -0.2157363 -0.17292272 -0.18855095 -0.122198835 -0.2505791 -0.23683509 -0.10940225 0.13538152 -0.19538023 0.10602318 0.0040679234 -0.19172424 -0.13529469 -0.26953286 -0.09164343 -0.19936632 0.16851602 -0.24184158 -0.21809277 -0.19026934 -0.254477 -0.1668221 -0.1812739 -0.2088242 -0.22475858 -0.0868687
적 -0.18652573 0.007047502 0.095372245 -0.14190258 0.10311055 -0.046127893 -0.114562266 -0.226296 -0.1656849 -0.17550069 -0.25151974 -0.036548115 -0.2144572 0.038247403 -0.061731435 0.04427241 -0.12758861 -0.18884791 -0.20203272 -0.28391498 -0.19929269 -0.17878082 0.13887371 0.02021676 -0.18332653 -0.22393627 0.018845204 -0.1769359 -0.20162408 -0.018202955 -0.17753312 -0.16067784
안 -0.20610963 -0.19568062 -0.19221978 -0.0982388 -0.17334951 0.025056524 -0.070431836 -0.20218706 -0.14637345 -0.077834055 0.010782705 -0.03703913 -0.15874527 0.15026763 0.068947695 -0.20644614 -0.17551538 -0.1613259 -0.19200893 -0.14562601 -0.18217544 -0.17447746 -0.054084547 -0.17592867 -0.08481726 -0.19751883 -0.14129984 0.08982955 -0.11782853 0.10270043 -0.2294661 -0.16723701
정말 -0.21026903 0.10956181 -0.16733284 -0.15733463 -0.1464019 0.025395354 -0.029990941 -0.13783503 -0.19923854 -0.17901479 -0.2515034 -0.2491731 -0.1889705 0.009001126 -0.21837598 0.040583123 -0.15017271 -0.029504802 -0.017056286 -0.24247354 -0.20294099 -0.18530358 -0.048801042 -0.26151255 0.0024603747 0.17249337 -0.25760615 -0.19764833 -0.172541 -0.12540042 -0.14280422 -0.16020052
로 -0.0074087293 -0.039181642 -0.17631839 -0.14184202 -0.077872515 0.0098603675 -0.17879847 -0.17554334 -0.17588736 -0.16441461 -0.18436919 -0.03600253 -0.18276268 -0.13077171 0.071168184 -0.13965751 -0.17909212 -0.1720009 -0.08650291 -0.16502205 -0.18859884 -0.12694104 -0.053945616 -0.10692112 -0.09495598 -0.0067115678 -0.036988586 -0.20712121 -0.19366118 -0.18832636 -0.21646939 -0.11217514
음 -0.1639093 -0.21142602 -0.16409718 -0.16682938 -0.14111574 -0.004552759 -0.2184002 -0.15662315 -0.13459608 -0.08153585 -0.25043854 -0.24721806 -0.1577395 -0.13507347 -0.2016219 -0.20457016 -0.21298976 -0.18987104 -0.1911246 -0.2789911 -0.072482534 -0.16356857 -0.04794127 -0.24991848 -0.054842073 -0.18535861 -0.26341024 -0.23687756 -0.22221003 -0.20900315 -0.16777161 -0.16262189
것 -0.045777343 -0.14277084 -0.16632801 -0.06429265 -0.15731692 0.0063931346 0.007164855 -0.18745108 -0.1942776 -0.07269051 -0.16664584 -0.17318273 -0.18008028 -0.118760675 -0.18335874 -0.14005412 -0.19596778 -0.014152564 -0.15260944 -0.1416309 -0.17142871 0.0006072379 -0.06166349 -0.2009981 0.009191964 -0.17920743 -0.15472783 -0.06730397 -0.17232805 -0.19896208 -0.116059475 -0.1610514
아 -0.07305977 0.06022727 -0.056715127 -0.19930853 -0.09644789 0.007930042 -0.02286378 -0.23714334 -0.20363505 -0.12561412 -0.12945451 -0.15810971 -0.16085716 -0.1534667 -0.21515526 -0.08684686 -0.22087765 0.065662324 0.006342293 -0.17468806 -0.26437473 0.0037430152 -0.058336798 -0.13927348 0.0043413523 -0.22946356 -0.2549 -0.1009689 -0.16459575 -0.18720405 -0.021517253 -0.20447397
네요 -0.12955756 -0.089916624 -0.038379204 -0.16704322 -0.20126225 0.03236086 -0.10959284 0.06251974 -0.023862332 -0.19807076 -0.030620422 -0.24700598 -0.14560859 -0.068037376 -0.21011107 -0.21877359 -0.18423516 -0.18907227 -0.19954504 -0.27866557 -0.22174755 -0.17877324 -0.04895418 -0.2046047 -0.20012571 -0.21299213 -0.24297969 -0.19199325 0.09891834 0.0714518 -0.22507009 -0.19359252
재밌 0.004748566 0.038366877 0.14373234 -0.18850015 0.12290455 0.005165511 -0.20327227 0.17192307 0.099138 -0.2105305 -0.21703877 -0.24712437 -0.23308007 -0.0930785 0.0945917 0.1888174 0.07403113 -0.20104109 -0.12826481 -0.25065008 -0.028980138 0.055112787 -0.069229014 -0.2395107 -0.2207834 -0.1995561 -0.2590143 0.20713994 -0.18119533 0.12799443 0.119709484 -0.18419509
어 -0.16452456 -0.09690726 -0.15266302 -0.15720658 -0.1455075 0.010968298 -0.086341724 -0.17321365 -0.11446637 -0.045175 -0.01805805 -0.2473632 -0.22048864 -0.12086748 -0.23796596 -0.0551017 -0.18976653 -0.13766503 -0.19571193 -0.014692535 -0.036934584 -0.074993156 -0.06246817 -0.23821913 -0.22379869 -0.2052234 -0.08900495 -0.17161472 -0.14004278 -0.13512167 -0.19634949 -0.13890082
같 -0.2059426 -0.17756303 -0.120659664 -0.15206294 -0.15296608 -0.021438753 -0.08261213 -0.18758875 -0.13703735 -0.0063568405 -0.07641396 -0.16706085 -0.2074357 -0.14469773 -0.18719013 -0.014082034 -0.19825204 0.04461303 -0.036678225 -0.0970864 -0.17369409 -0.09110875 -0.052534323 -0.16893354 -0.14038166 -0.17765988 -0.2008042 -0.2015042 -0.1846193 -0.19073743 -0.19067827 -0.16244516
점 -0.116709195 -0.19325235 -0.15692711 -0.05116877 -0.18591534 0.07225872 -0.18068713 -0.18595882 -0.20593837 -0.19237547 0.098093376 -0.2024424 -0.17119561 -0.18680984 0.06767962 -0.1653181 -0.21078183 -0.1556442 -0.17989941 -0.18633604 -0.20348898 0.060923237 -0.067367084 -0.17303374 -0.17183259 -0.203926 -0.26610583 -0.12859386 -0.1922364 0.06327616 -0.091096066 -0.14970112
지만 0.052504297 -0.1465567 -0.16057307 0.068783574 -0.17960943 -0.0003774166 -0.08043209 -0.18836546 -0.0026214935 -0.15280172 -0.1583991 -0.01951343 0.09125513 -0.14214176 -0.16868366 -0.13479814 -0.14566056 -0.16439377 -0.14585884 -0.023303796 -0.18517227 -0.15872517 -0.06405026 -0.07758515 -0.07866592 -0.17733654 0.0360556 -0.047793698 -0.21646285 -0.07302578 -0.100490905 -0.028766742
진짜 -0.07416408 -0.17971876 0.103053674 -0.15666041 -0.10597955 -0.041318618 -0.22327879 -0.2054105 -0.18954867 -0.18618836 -0.17992416 -0.22650516 -0.19140618 -0.18895048 -0.20922293 -0.15163697 -0.21497862 0.09933236 -0.19980872 -0.027008388 -0.1644999 -0.16176371 -0.058693804 -0.19422305 -0.030810885 -0.1784662 -0.10120827 -0.103917964 -0.14673528 -0.19301759 -0.16842405 -0.19555564
했 -0.19041723 -0.20691265 -0.083475776 -0.0664428 -0.09855804 0.016423516 -0.212746 -0.19951047 0.06570608 -0.01516601 -0.17362386 -0.037329607 -0.16127463 -0.10590623 -0.20990676 -0.072755106 -0.10278092 -0.14496356 -0.18853354 -0.12921447 -0.11956486 -0.14053568 -0.075722516 -0.022500707 -0.18674397 -0.18595926 -0.20216765 -0.19528411 -0.070564225 -0.03851531 -0.072392285 0.01296148
에서 -0.16090538 -0.09022827 -0.15105769 -0.16396537 -0.14864941 0.015892353 -0.081872575 -0.16572043 -0.1016018 -0.07128747 -0.115694344 -0.0940071 -0.16798401 -0.099683546 -0.10126619 -0.15312763 -0.16033289 -0.18269445 -0.025094464 -0.108623035 -0.1578431 -0.18901299 -0.056369357 -0.06424104 -0.15683316 -0.1886071 -0.09339116 -0.20245028 -0.12802358 -0.16170445 -0.17422436 -0.08443004
기 -0.14145543 -0.008000492 -0.056257218 0.010661629 -0.07640023 -0.027154505 -0.18537956 -0.0074638557 -0.19454119 -0.1824759 -0.2303834 -0.1649343 0.058427077 -0.11795818 0.07881979 0.0094507765 -0.21268895 -0.08970776 -0.17003602 -0.13519499 -0.13851042 -0.1873857 -0.056677993 0.11947973 -0.12572333 0.06372421 -0.12227277 -0.1917743 -0.105946094 -0.067732245 -0.11173798 -0.10431174
네 -0.12168923 -0.20650397 -0.013348827 -0.15560293 0.050693527 0.007814369 -0.21515992 -0.13402854 0.15797973 -0.18101496 -0.21627069 -0.23774278 -0.06640861 0.042851213 -0.11189636 -0.0820773 -0.19619825 -0.07149479 -0.12763925 -0.21700804 -0.13895465 -0.15743658 -0.04974739 0.020147095 -0.20225692 -0.096870445 -0.24006282 0.02512005 -0.13691637 0.10950866 -0.18232186 0.13079685
않 -0.0096250065 -0.15474868 0.11422202 -0.10968606 -0.18827936 -0.028266693 -0.07033276 -0.16129412 -0.1882283 -0.18210179 0.16371533 0.00996821 -0.18413366 0.11148509 0.102056004 -0.16258906 0.14857103 -0.1899161 -0.1658229 0.06627372 -0.20603682 -0.07009465 -0.054633863 0.085630395 0.10122991 -0.17172635 -0.18429945 0.14768696 0.115285784 0.01640402 0.09615197 -0.038796324
거 -0.103391685 0.15778907 -0.06323422 -0.121003106 -0.024691466 -0.027093435 -0.16504893 -0.12230854 -0.18596 -0.112359345 -0.14487395 -0.19511648 -0.05296901 -0.14892507 -0.1893081 -0.15460259 0.0031118728 -0.15061101 -0.14281347 0.062758215 -0.16902119 -0.129989 -0.05063657 -0.15104473 -0.13811871 0.019479863 -0.121261805 -0.0412429 -0.08607864 -0.19319524 0.04296894 0.042186182
았 -0.1475587 -0.1625237 -0.04535552 -0.14848231 -0.17364812 0.03535163 0.026224824 -0.1579109 -0.14038587 0.041169886 -0.21485892 -0.23991677 -0.06922357 -0.15871534 -0.19622782 -0.1424136 -0.14662564 -0.17544922 -0.17708066 -0.22732536 -0.16474907 -0.15734448 -0.07455009 0.088562325 -0.22162619 -0.19156353 -0.25654754 -0.18969652 -0.11677597 -0.010652735 -0.087771885 -0.097637266
수 -0.20407635 0.11236988 0.07515563 -0.15035386 -0.16375348 0.0004904156 -0.20320557 -0.058264192 -0.057499684 -0.13306566 0.0065181106 -0.012555833 -0.17761028 -0.100104176 -0.045878977 -0.11568486 -0.16002172 -0.14814366 -0.032352753 0.12876584 0.07134538 0.21414694 -0.06901356 -0.1753273 -0.17955297 -0.18570828 -0.09822793 -0.08540228 -0.07478303 -0.1878951 -0.22117308 0.013172158
되 -0.1721194 0.008643567 -0.1434492 0.043443773 -0.17529036 -0.03609413 -0.110429004 -0.1951269 -0.07824643 -0.15626937 -0.15987687 -0.16190235 0.03545682 -0.15459491 -0.20669317 -0.10671578 -0.17254016 -0.15469824 -0.15883999 -0.11481211 -0.17932695 -0.103151806 -0.053270336 -0.08018851 -0.14661872 -0.17143679 -0.030736975 -0.1630923 -0.11563403 -0.17784898 -0.17174803 -0.18144162
면 -0.19572493 -0.045649398 -0.06891872 -0.15551288 -0.17762855 0.003047276 -0.14389086 -0.19216026 0.015423352 -0.14590052 -0.1708235 -0.18055691 -0.16991782 0.050720338 -0.17122993 -0.09279636 -0.038537804 0.09689399 -0.16795276 -0.04080646 -0.04547477 0.037455875 -0.07247388 -0.17670017 0.07368206 -0.12141768 -0.15883899 -0.06730617 -0.1446456 -0.094652995 -0.13444406 0.007836174
ㅋㅋ 0.12202948 -0.15828052 -0.20879772 0.11137378 -0.20956711 -0.048845816 -0.17359234 -0.26886815 -0.13823518 -0.13072906 -0.1587218 0.0053098877 0.0915101 -0.006030564 -0.082163624 -0.16254681 -0.21228838 -0.19125775 -0.053658158 -0.19958441 -0.118101195 -0.17798671 -0.058719374 0.07094477 -0.085559696 -0.0978816 -0.06285387 -0.2308531 -0.19637775 -0.13602085 -0.23035356 -0.15334556
말 -0.10308306 -0.19642694 -0.09351669 0.12254682 -0.033953745 -0.019675886 -0.20827521 -0.1758095 0.10417548 -0.15101951 -0.17435662 -0.09506112 0.013626912 -0.12299339 0.086767785 -0.18766356 -0.14298402 0.032656092 -0.12259722 0.038107056 -0.004222639 -0.07753484 -0.055723876 -0.20057273 0.086773105 -0.035315778 -0.20506252 -0.18264543 -0.1652905 -0.21225934 -0.18878375 -0.093382046
연기 -0.10974004 -0.1444895 -0.13957587 -0.16261268 -0.16040277 0.020093247 -0.12612164 -0.0021417546 -0.1953585 -0.13670531 -0.223442 -0.14309913 -0.19331026 -0.14928903 -0.11098644 -0.17480946 -0.108417295 0.060263608 -0.1417703 -0.22835198 -0.15660346 0.13298449 -0.054532655 -0.21278901 -0.047664274 -0.032466453 -0.12817122 -0.14762275 -0.04991361 -0.17094985 -0.13031515 -0.058084916
인 -0.19130008 -0.010631766 -0.14662907 -0.14302425 -0.16298285 0.12740989 -0.13290522 -0.12483421 -0.17261505 -0.16822468 -0.22833012 -0.18229643 -0.13834779 -0.09070502 -0.18562797 -0.08181939 -0.14732668 -0.16920105 0.048347175 -0.26643968 -0.13129798 -0.163391 -0.054397065 -0.150771 -0.18438046 -0.18092464 -0.20460345 0.042416498 -0.056993842 -0.1795999 0.02989464 -0.1700066
주 -0.102517165 -0.11041764 -0.07933128 0.09570617 -0.16161099 0.06564675 -0.14634734 -0.17644814 -0.14683741 -0.12845026 -0.17407039 -0.15328258 -0.09402307 -0.08750998 -0.060861748 -0.13058892 0.12851691 -0.15935816 -0.18379113 -0.11758632 -0.16546483 -0.14428355 -0.058695093 -0.16659762 -0.06712018 -0.028704658 -0.1692279 -0.15666562 -0.18312867 -0.16212179 -0.0423841 -0.17412592
내 -0.15154622 -0.1454552 -0.06237012 -0.12303455 -0.15821746 -0.03023069 -0.17073265 -0.1949697 -0.15566263 -0.14540774 -0.028094912 -0.19345006 -0.16751364 0.0310481 -0.21925685 -0.14294906 -0.16233191 -0.16122362 -0.06418215 -0.030908266 -0.26180026 -0.11561636 -0.056150597 -0.08910017 -0.059931148 0.02446632 -0.10910625 -0.18588059 -0.06692129 -0.18671721 -0.23881285 -0.1797512
최고 0.10573688 0.07496385 0.131692 -0.05189184 -0.21569586 0.021499474 -0.18494153 0.19592945 0.044443633 -0.1071822 0.08612321 -0.08514315 0.16889513 -0.053847328 0.04720517 -0.16204472 -0.21038002 0.16228169 -0.18497887 -0.13005482 -0.27426767 0.09901095 -0.06837671 0.09244007 0.009031715 -0.123955786 0.013204053 0.07120882 -0.06784591 -0.024673928 -0.22661145 0.02614357
~ -0.20545341 -0.129022 -0.14616966 -0.18674885 -0.068409115 2.4951994e-05 -0.006359296 -0.20654106 0.062494986 -0.010348052 -0.22544992 -0.19655335 -0.1748711 -0.09567259 -0.0024765881 0.08097555 0.023667838 -0.07692948 -0.18827422 -0.21850845 -0.23612729 0.18402925 -0.047369927 -0.18826938 -0.20992593 -0.19632283 -0.22782435 -0.18434323 -0.121161066 -0.1956303 0.009865845 0.078712225
평점 -0.092967674 0.003179376 -0.18183859 -0.05953518 -0.08262115 0.031265892 0.20246923 0.08467276 -0.19355534 0.13250792 -0.0885123 0.0027507315 -0.04240721 -0.20042233 0.1420314 -0.14457048 -0.20201361 0.20520815 -0.16615106 -0.20602664 0.03012791 -0.12913857 -0.04922986 -0.12698407 -0.15657736 0.123898864 -0.07799372 -0.1327814 -0.11842354 0.09529181 -0.14927004 -0.19099769
이런 -0.15390514 -0.12958436 -0.16247371 -0.022246918 -0.20970786 -0.040459823 -0.18466157 -0.24275611 -0.16324222 -0.0739394 -0.25090525 -0.25589812 -0.11628031 -0.115761966 -0.14397101 0.087690964 -0.21046649 -0.1922129 -0.05172727 0.083136626 -0.17099676 -0.16070305 -0.054234333 -0.25205383 -0.16404615 -0.08863233 -0.12012632 -0.18583149 0.039415102 -0.19227861 -0.12811907 -0.0078256875
던 0.043377124 -0.14512597 -0.16520286 -0.07269966 -0.16013198 -0.042540323 -0.10113294 -0.17175065 -0.18288927 0.01271247 -0.15874776 -0.2119969 0.030663466 -0.10544057 -0.20103215 -0.06811941 -0.116595656 -0.15078525 -0.16252077 -0.1996077 -0.1761549 -0.14855869 0.28073525 -0.18026464 -0.19750196 -0.14325622 -0.15982555 -0.18223786 0.06379971 0.009476179 -0.15042864 -0.093621545
어요 -0.19225587 -0.20477383 -0.040739283 0.0544709 -0.17874604 0.0064551607 -0.19809537 0.02392755 0.0039889347 0.06950404 -0.14279062 -0.07425941 0.1671206 0.08591534 -0.1803801 -0.2153179 -0.13255328 0.15888971 -0.19258335 0.012209207 -0.11815195 -0.2028316 -0.06159613 0.12161538 -0.23391196 -0.13694091 -0.10090073 -0.22213621 0.042123232 0.07202955 -0.2219986 -0.24700657
할 -0.1949856 -0.09362878 -0.15900797 -0.15939608 -0.10556544 -0.004586915 -0.20789516 0.034029197 -0.047989804 -0.059336122 -0.17496337 0.008637519 -0.15974826 -0.027844759 -0.022547398 0.009944207 -0.16087466 0.05514648 -0.03928837 0.003482594 -0.14224522 -0.18956031 -0.054578178 -0.17689003 -0.16097057 0.020041283 -0.14506292 -0.119567335 -0.17489919 -0.20464501 -0.22282848 -0.15453851
왜 -0.15774427 -0.11450803 0.09359769 0.103913926 -0.18525143 0.1971191 0.14608264 -0.20560315 -0.123888455 0.04789698 -0.058525 0.035244178 -0.18577142 -0.12476364 0.14409207 -0.14565884 -0.01007676 -0.16522062 -0.13929708 -0.16541333 -0.1913285 -0.10723903 -0.04921938 -0.16535713 -0.10149259 -0.17498852 -0.07344638 -0.20668451 0.14561497 0.08115792 -0.01798133 -0.019207515
겠 0.005650353 -0.16122884 -0.07346085 -0.15326545 -0.07795015 -0.014707483 -0.19816478 -0.19748262 -0.18831474 -0.008754334 -0.22095932 0.09205172 -0.062963195 0.10342438 -0.1345923 0.038627993 -0.15816146 -0.016190767 -0.19473812 0.016747246 -0.18511611 -0.183135 -0.051866386 -0.09192111 0.15615532 -0.026955638 -0.24507572 -0.11326633 -0.10900698 -0.13885881 -0.13124885 -0.031637084
1 -0.1746725 -0.11151879 0.10777076 -0.17973702 -0.14309458 -0.018449014 0.022780206 -0.035849683 0.07605756 -0.18686731 -0.20620884 -0.03225078 -0.16821098 0.13451466 -0.06593979 0.0618065 -0.20748931 -0.15472275 -0.18374038 0.10850431 -0.18607426 -0.15075684 -0.05166714 -0.007930779 -0.07996174 -0.1626128 -0.081548825 -0.036784194 -0.1879316 -0.21601903 -0.09819899 -0.15085779
스토리 -0.13481276 -0.12046136 -0.15133329 -0.1573738 -0.16250372 -0.033563245 -0.14536367 -0.16755125 -0.047106195 -0.20397869 -0.18539545 -0.19833122 -0.15487665 -0.114663176 -0.2236331 -0.15214302 -0.16055016 -0.15905058 -0.16795525 -0.21387646 -0.21264377 -0.17664427 -0.07758138 -0.05357371 0.11813131 -0.14841262 -0.07395 -0.1561431 -0.03426313 -0.19441524 -0.14006309 -0.15312186
해 -0.17437069 -0.100488365 0.045675077 -0.033085614 -0.1065496 0.0015216884 -0.10085162 -0.20015389 -0.083865196 -0.15814178 -0.14607821 0.07540935 -0.22043034 -0.11220638 -0.12443952 -0.19259924 -0.1326212 -0.14947036 -0.18706192 -0.020931896 -0.21874727 -0.16894104 -0.06060326 -0.083931416 -0.2111912 -0.15308179 -0.084337875 -0.1712094 -0.2090939 -0.16887984 -0.15993996 -0.17206709
습니다 -0.19791608 -0.18579744 -0.13436021 -0.17320153 -0.12084683 -0.04570645 -0.14987321 0.19315353 -0.18268137 -0.19718163 -0.010892793 0.06957164 -0.119978815 0.111891285 -0.22892304 0.13043661 0.109169334 -0.19819386 -0.045102343 -0.16229062 -0.16210671 -0.09058242 -0.065496355 -0.13351448 -0.21889141 -0.18064907 -0.016385516 -0.20507245 0.04091133 -0.13175154 -0.18041918 -0.007397822
ㅋㅋㅋ -0.07472213 -0.2502554 -0.08240087 -0.19860998 -0.041934993 0.36752957 -0.033341788 -0.14053611 -0.13213624 -0.13273987 -0.23455061 -0.25950205 0.1060511 0.06607171 0.0013708079 0.026712814 -0.11055449 -0.12520884 0.005616199 -0.062318955 -0.09197758 -0.20971334 -0.022989452 -0.24297042 -0.04176242 0.08279426 -0.06537888 -0.10120232 -0.10391717 -0.06396014 -0.1374186 -0.09653573
... 0.019400692 -0.16248485 0.0040245736 -0.16224442 -0.24302588 -0.040269684 -0.22027472 -0.23931769 -0.18670705 0.06013537 -0.20498776 -0.16991377 -0.2713163 -0.18510701 -0.21785642 -0.0035777707 -0.1354865 -0.11208914 -0.09683753 -0.12268123 -0.26954997 0.04408295 -0.055557646 -0.06506544 0.0031556874 -0.24015939 -0.25465286 -0.058558803 -0.13976072 -0.06201635 -0.0656162 -0.21649474
드라마 -0.13754311 -0.24223824 -0.16962448 -0.14719495 -0.14066865 0.009085916 -0.067002766 -0.23023175 0.035280455 -0.08740283 -0.06942798 -0.13235779 -0.23713647 -0.08017393 -0.17286447 -0.038710594 0.022786515 -0.17877221 -0.17214523 -0.115233906 -0.123069495 -0.159093 -0.052247867 -0.26077557 -0.0993675 0.002324382 -0.09876209 -0.11147045 0.15112512 -0.12461741 -0.13755554 -0.058551084
생각 -0.19744492 -0.14773758 0.07085877 -0.17798102 -0.17557101 0.0005447045 -0.059304476 0.0044227224 -0.04674148 -0.15060365 -0.16939531 -0.08233223 -0.14455695 -0.15094167 -0.14397992 -0.10848148 0.21280573 0.07097791 -0.14322479 -0.105082884 -0.11703495 -0.1586868 -0.047161788 0.08524684 0.07278788 -0.18996786 -0.10196706 -0.17994133 -0.21430625 -0.1334591 -0.20672731 -0.18235153
아니 0.00010101403 -0.0992964 0.1791412 -0.07183546 -0.2214855 -0.013741326 -0.15010625 -0.19722995 0.11165382 -0.07434939 -0.15057556 0.066571124 -0.02653383 -0.13533074 -0.019769488 -0.13240694 -0.20708598 0.10253885 -0.16814603 0.026480626 -0.2330039 -0.18809675 -0.06600532 0.1737888 -0.045389242 -0.2153618 -0.14336185 -0.1904383 -0.11581794 -0.06929113 -0.21933274 -0.21325338
더 0.026888976 0.1042246 0.1433461 -0.15963368 -0.20987907 0.0331572 0.016903207 -0.17406829 -0.064027056 -0.17182466 -0.09316329 -0.062291842 -0.17418164 -0.11012581 0.03285394 0.012821836 -0.03620185 -0.14824453 0.07298327 -0.018138856 0.026567893 -0.1646489 -0.06351901 -0.19423096 0.041539937 -0.21698125 0.04379686 -0.18490694 0.007204728 -0.20160079 -0.150301 -0.17972167
그 -0.10077378 -0.13285987 0.14744875 -0.016524287 -0.029381746 -0.019930018 -0.154178 -0.21299835 -0.1698999 -0.18129528 -0.102189966 0.057011254 0.021273354 0.009361886 0.09098407 -0.11966667 0.06630636 -0.100519024 -0.12734057 -0.12781894 -0.21581459 -0.19787113 -0.04729408 -0.17178294 -0.13765056 -0.14279935 -0.10993979 -0.15984194 -0.04158984 -0.17802252 -0.11006605 -0.09627642
싶 -0.12251793 -0.15300502 0.046158057 -0.16880082 -0.13554592 0.03846809 -0.11538608 -0.21755159 -0.094920516 0.06144553 -0.07419023 -0.14092422 -0.090616584 -0.10292691 -0.21229973 -0.009497075 0.13198255 -0.16251212 0.054973226 0.038170204 -0.17590335 0.06215553 -0.0678644 0.026538853 -0.12662557 -0.047308195 -0.09733122 -0.020814145 -0.17065938 -0.1632284 -0.11619627 -0.14960322
사람 -0.0947073 -0.0088147605 -0.013524628 -0.15641296 0.16380054 -0.033864833 -0.13608691 -0.15470132 -0.14499691 0.004312006 -0.19668241 -0.19866118 0.042030536 -0.15420298 -0.18492934 -0.08432164 0.042418282 0.024759542 -0.13762653 0.012431442 -0.073423065 0.09145736 -0.05536023 -0.1917834 0.1239594 -0.14280207 -0.19707076 -0.1872313 -0.023225095 0.057558354 -0.048607808 0.040549092
듯 -0.13284883 -0.15949911 -0.17765045 -0.14807189 -0.1457991 0.015736531 -0.14280859 -0.16695404 -0.18220054 -0.13811985 0.031897962 -0.22147185 -0.11381538 -0.15857579 0.012992284 -0.10133576 -0.048389502 -0.03160685 0.025459208 0.07184868 -0.09299827 -0.15757288 -0.054833982 -0.044192128 -0.13408126 -0.14285395 -0.20320669 -0.18440077 -0.14173616 -0.15461943 -0.1479267 -0.19134064
때 -0.07183596 0.0039860616 -0.05638986 -0.1264979 -0.1357091 -0.025030887 -0.14239769 -0.16700706 -0.18784265 -0.0064816275 -0.118878454 0.025344644 0.12390335 -0.18162943 -0.17422183 0.089034095 -0.08071587 0.06822588 -0.018897496 0.028710341 -0.03974889 0.15269935 -0.072483905 -0.16945839 0.054732345 -0.19116071 -0.19863693 -0.14301503 -0.18946356 -0.18437761 -0.10023245 -0.012342702
감동 0.10799428 -0.16730987 0.028251274 0.064005606 -0.12931626 0.0031497367 -0.13602911 -0.22104886 -0.17395355 0.06777484 -0.265291 -0.22289343 -0.20225452 -0.13879935 -0.20230064 -0.16531351 -0.1475454 -0.17805567 -0.22071564 -0.2808015 -0.2034739 0.09879456 -0.0699474 -0.19409955 0.014124558 -0.20755793 -0.23312482 0.07882701 -0.22311696 -0.19009876 0.15543887 0.15538935
함 -0.16889559 0.01056535 -0.15868825 -0.089844435 -0.17275345 0.013064574 -0.23775035 -0.19146934 -0.011724828 -0.14418301 -0.06513297 -0.15882114 -0.22425754 -0.12551096 -0.043302856 -0.19736628 -0.16857898 0.06565279 0.027332474 -0.0022515787 -0.115893275 -0.12685874 -0.0716219 -0.046229694 -0.23378602 -0.21464296 -0.03612256 -0.21537167 -0.028833898 -0.01575473 -0.1648011 -0.11613938
배우 0.015349063 -0.15580018 -0.15243895 -0.15453403 -0.1424866 -0.027900135 -0.17465116 -0.2196988 -0.18976387 0.04926115 -0.06843369 -0.16658203 -0.17651407 -0.18191732 -0.20279735 0.07260608 -0.095489435 -0.16229393 0.09774742 -0.070384234 -0.06399054 0.013704588 -0.050899606 -0.17553575 -0.030147774 -0.15976998 -0.20266725 -0.1999345 -0.21429813 -0.1416471 0.036207046 -0.11309664
본 -0.05055219 -0.00763233 -0.16750345 -0.17667516 -0.16422911 -0.008467376 0.013721159 -0.18629019 -0.067868926 -0.14856477 -0.06275117 -0.15583389 -0.18043563 -0.09539415 -0.16908678 -0.13414523 -0.15703331 -0.11863238 -0.17777774 -0.089978166 -0.005143152 -0.18418553 -0.055177197 -0.042665116 -0.092772126 -0.13537529 -0.17945072 -0.21181618 -0.13692707 -0.12237943 0.1705702 -0.18901516
까지 -0.09016882 -0.15138395 -0.1300669 -0.17081542 -0.15496926 0.0483661 -0.09962613 -0.18126349 -0.01518525 -0.14259532 -0.15855172 -0.14272507 -0.17801617 -0.11913477 -0.14153622 -0.020134756 -0.13979387 -0.17102645 -0.07022854 0.006316173 -0.17161812 -0.16858321 -0.062817566 -0.18293953 -0.16628566 0.06628084 -0.045524508 -0.16881946 -0.13614352 -0.1329067 0.012928029 -0.13827975
뭐 -0.16974585 -0.07695709 -0.17486016 -0.18453984 -0.2092756 -0.027691616 0.063491076 -0.20893003 0.039716017 0.13016602 -0.13917452 -0.17644745 -0.23111299 -0.05339823 -0.056158904 -0.18436295 0.095256366 -0.19832659 -0.17578255 0.02138423 -0.24039507 -0.15488623 -0.05282358 -0.18216994 -0.19174539 -0.019158969 0.032465506 -0.19120236 0.06437598 -0.18516265 -0.16112766 -0.20401025
알 0.07744503 -0.14734116 0.0035296604 -0.10407894 -0.16365236 0.32068205 -0.060477685 -0.19070217 -0.159322 -0.009347527 -0.15603936 -0.04437131 -0.17852844 -0.12310402 -0.023447087 0.16330087 -0.05110134 -0.17138797 -0.13084848 -0.06573772 -0.17251919 -0.16612846 -0.054920662 -0.02163934 -0.13319676 -0.15618141 -0.07766538 0.01128931 -0.119841985 -0.07665092 0.16054763 -0.15092856
만들 0.08303233 -0.17256029 0.11636524 -0.12763597 -0.01803343 0.027064344 -0.14976072 -0.13871004 -0.18603246 0.12899552 -0.17434576 -0.22479768 -0.17352825 -0.030944413 -0.22114423 0.099144444 -0.20139334 -0.06241846 -0.17613664 -0.015586759 -0.034196097 0.13572094 -0.062904485 0.08891816 -0.19641608 -0.12890284 -0.23620576 -0.16260609 -0.025127914 0.00064851757 -0.039812777 -0.16077249
내용 0.027685085 -0.08793544 -0.1300842 -0.15845911 -0.18467568 0.043061923 0.16476347 -0.19287597 -0.07060839 -0.070431694 -0.13829173 -0.11948139 -0.18388574 -0.04059407 -0.12898876 -0.021209504 -0.060581945 0.034476656 -0.1631837 -0.055421617 -0.1648987 -0.086897835 -0.07124597 0.061293002 -0.09549653 -0.12953605 -0.045431383 -0.193949 -0.20226766 -0.15674676 -0.063343965 -0.1711725
볼 0.05574598 -0.04316919 0.03409407 -0.054240327 -0.17738146 -0.041126154 -0.19432266 0.027032228 0.16225909 -0.14219105 0.07893534 -0.046674326 -0.20196453 0.06366264 -0.12608334 0.002485313 -0.1645003 -0.20023118 0.00954066 -0.06069178 -0.055023484 0.1323609 -0.071741454 -0.114334114 -0.17057034 -0.0743041 -0.051551443 0.04472183 -0.14591125 -0.16775417 0.13781588 0.1421521
감독 -0.20317633 -0.24032024 0.045310915 0.024976598 -0.009627946 -0.02665702 -0.23446822 0.018198894 -0.1699191 0.064982325 0.08541268 -0.026292525 -0.09025362 -0.120805375 0.07615485 -0.21008192 -0.071367465 -0.14040196 -0.20351465 -0.26247835 -0.13539545 -0.20394501 -0.07654134 -0.173747 0.21670125 -0.11059129 -0.21923295 -0.15600064 -0.15108436 -0.12850514 -0.11247132 -0.015995087
보다 -0.15640607 -0.051667213 -0.16641669 -0.16538075 -0.14006993 0.15695755 -0.15799315 -0.16902497 -0.08981934 -0.119905494 -0.099881075 -0.18523128 -0.10101428 -0.1050361 -0.033675298 0.0023088418 -0.14508216 -0.0022287655 -0.14941683 0.06427717 -0.13778438 -0.19225985 -0.05966127 -0.07325997 -0.075145766 -0.06883145 -0.071817935 -0.1747828 0.100087084 -0.12188349 -0.2189461 -0.16932066
라 -0.19657622 -0.052666817 -0.16012883 0.043483477 0.10317975 -0.022715628 -0.15958184 -0.026380174 0.022084057 0.051737 -0.17603552 -0.07499886 -0.18696009 -0.15565343 -0.031980157 -0.058949023 -0.16606405 -0.16192211 -0.014693879 -0.15961412 -0.24766399 -0.1942934 -0.067943946 -0.060193375 -0.057931874 -0.05916174 -0.15790787 -0.18426631 -0.16797233 -0.11243315 -0.021580713 -0.18927851
그냥 -0.20956884 0.042845704 0.047789667 -0.17343102 0.100257166 0.008312631 -0.17402911 -0.0034212219 -0.08576662 -0.083652 -0.25309452 -0.25704825 -0.14016423 0.035204366 0.18212506 -0.20328405 -0.13730384 -0.1514847 -0.1809245 0.17408355 -0.15260506 -0.17909916 -0.057855412 -0.24339049 -0.09651181 -0.087807186 -0.1605715 -0.18895456 -0.00560425 -0.114940874 0.11870529 -0.16823822
재미 -0.10010619 -0.17417169 0.0738786 -0.20196609 -0.0006175755 -0.010401107 -0.0007110472 0.022418154 0.20440885 -0.056467548 -0.2141765 -0.09182525 -0.30211532 0.00338514 -0.18344754 -0.14641656 -0.22149438 -0.19043453 -0.19336513 -0.1664707 -0.321243 -0.06496565 -0.061651826 -0.16227111 -0.14376523 -0.2354217 0.04437042 -0.05754955 -0.013188981 -0.13408244 -0.058873367 0.17067063
시간 -0.14786343 -0.15179506 -0.17536081 -0.09690271 -0.1596761 0.00612098 0.09240461 -0.19522305 -0.14542747 -0.14015979 -0.16550876 -0.16756006 -0.15939519 0.1312864 -0.16972628 -0.17324439 -0.16765293 0.041813858 -0.13555828 0.02225145 0.04465769 0.07595681 -0.049571946 -0.1806217 -0.035342567 -0.15333422 -0.08963963 -0.23400758 -0.17421845 0.050995644 -0.06816674 -0.13271224
지루 -0.15309349 -0.060008783 -0.13670078 0.08970739 0.12111963 -0.011054825 -0.08710344 -0.19355631 -0.14921871 -0.13672175 0.16764084 -0.05722037 -0.15411018 0.1254467 0.10854177 0.12072486 -0.17372082 -0.15474612 -0.17273098 0.08850646 -0.18468787 -0.15699576 -0.06287718 0.030386698 0.1037256 -0.119576454 -0.103916034 -0.18254557 -0.1638684 0.16140224 -0.14133845 -0.18123752
중 -0.14734909 -0.030887011 -0.114211656 -0.16875404 -0.06647902 0.02534177 -0.17283046 -0.17382559 -0.059822854 -0.05576439 -0.18597484 -0.007976696 -0.09429512 -0.073021024 -0.047050405 -0.15762691 -0.060336318 -0.15554936 -0.17364696 -0.15839311 -0.11255011 -0.091074996 -0.069887795 -0.06404606 -0.13790314 0.1179707 -0.068711415 -0.16639005 -0.086780384 -0.1702853 -0.1767772 -0.15399893
재미있 0.16541955 -0.008261011 0.14461698 0.025735235 0.09813649 -0.0036876313 0.03417253 -0.10150301 0.104661904 -0.19286786 -0.030912543 -0.024227176 -0.16600122 -0.04378772 -0.2323671 -0.22720237 0.14072293 -0.20279671 -0.13593462 -0.020409057 0.04560342 0.18164846 -0.04659182 -0.055176307 -0.07925164 -0.040357124 -0.05120181 -0.22944781 -0.1921454 0.10925017 0.08705726 -0.24252757
년 -0.03387553 -0.15152021 -0.12730365 -0.16324691 -0.13987525 0.0966275 -0.02671334 -0.123426124 -0.18588918 -0.17896594 0.030472709 -0.055749338 -0.080363445 -0.14684573 -0.124918096 -0.12352089 0.009941759 -0.10681841 -0.13749094 -0.10008684 -0.16340265 -0.13663587 -0.048694212 -0.16909972 -0.14107586 -0.09447877 -0.025262887 -0.14525259 -0.10340512 -0.18386966 0.10507075 0.11470865
10 -0.018847862 -0.25203875 -0.050072312 -0.15495224 0.17796804 -0.002846051 -0.20094061 0.13837287 -0.19229648 -0.17245197 0.18111531 -0.18124314 0.03749127 -0.16197431 -0.18762651 -0.20818391 -0.22478943 -0.04471718 -0.205812 -0.16144042 0.024952976 -0.20587748 -0.056869 -0.018119182 -0.16766295 0.045169495 -0.2416526 -0.21532875 -0.1823576 0.1603118 0.17351188 0.17506135
였 -0.06062134 -0.16872291 -0.08793879 -0.0673511 -0.14998947 -0.0191728 -0.17556256 -0.17489883 -0.19507213 -0.14227071 -0.052205417 -0.047734693 -0.1946575 0.051943243 -0.026099285 -0.15112475 -0.12653756 -0.16286212 -0.08519712 -0.176476 -0.0044723866 -0.15558325 -0.075622424 -0.11415702 -0.18870445 -0.16936739 -0.21269898 -0.22895244 0.13462748 -0.2009622 -0.13331068 -0.17056178
잼 -0.041977327 -0.20361155 -0.115976386 -0.19295052 -0.18969649 0.012409547 0.059957463 0.061207358 -0.12143359 -0.19654782 -0.23027349 -0.24304289 -0.18158364 0.24763341 -0.20105958 -0.20416188 -0.17309816 -0.15476471 0.065385155 -0.28088394 0.26448137 -0.0049523995 0.27603364 -0.22063106 -0.23949602 0.017272215 -0.25828174 0.14824335 -0.1037141 -0.005047024 -0.22932976 -0.16211241
사랑 0.10343802 -0.034535266 -0.020316482 -0.1540111 0.076514475 -0.020646466 -0.17408194 0.061678015 0.06492566 0.018539816 -0.20873782 0.106771424 -0.0580065 0.07432534 -0.21562982 -0.19893126 0.09369016 -0.19799136 -0.20002355 -0.19939853 0.14311278 -0.060988836 -0.074695066 -0.19478165 -0.1671773 0.09293634 -0.21164992 -0.18419792 -0.09357188 0.031628378 0.0155306365 -0.17931332
못 -0.15132399 0.13385695 0.053048585 -0.0698047 -0.15812634 0.015112292 -0.10883425 0.012374289 0.18561271 0.04070098 -0.1251621 -0.11148356 -0.18185979 0.1375706 -0.049982455 0.099998675 -0.15833008 0.1567869 -0.14553986 -0.08124102 -0.10771103 -0.17502818 -0.056631535 -0.0127344765 -0.11346139 0.095803045 -0.023629827 0.089116536 -0.011420784 -0.048509818 0.022628957 -0.14583685
냐 -0.11627933 0.13184713 -0.13010651 -0.18293129 -0.18773776 -0.042643525 -0.13889585 -0.18751591 0.10200559 -0.17720407 -0.12290251 -0.019498592 -0.1549359 0.14582694 0.05914783 0.08020486 0.19236326 0.054353934 -0.12256931 -0.1289474 -0.21776234 0.062883295 -0.054342516 -0.17641713 -0.0071409745 -0.10888418 -0.10088167 -0.03498886 -0.12988599 -0.16037066 -0.1678727 -0.22334616
재미없 -0.12226922 -0.08972957 -0.04274606 -0.14444919 -0.11772817 0.07562028 0.15830891 -0.15500705 0.09206666 -0.07108961 0.20744838 0.13588765 -0.17494702 -0.04481196 -0.034114342 0.0065266937 -0.19306448 -0.054629054 -0.13794315 0.1057077 -0.14710757 -0.15743534 -0.052011866 -0.07233087 0.16737416 0.17010355 -0.046843722 -0.17935123 -0.07491425 0.0070791384 -0.15799487 -0.16741693
쓰레기 -0.07657038 0.11663054 0.07818455 0.07274881 0.06614478 -0.0029797505 0.15761359 0.19090018 0.08597786 0.0035502305 -0.14870192 0.08089842 0.018653113 0.18992022 0.15535243 0.04470417 -0.2095819 -0.18385947 -0.030902816 0.10409602 0.06997011 -0.16507311 -0.06098742 0.07738212 -0.09711733 -0.2120523 0.11843192 0.059700187 0.048928857 0.19111827 -0.18064909 -0.00012676057
서 -0.13806687 -0.1908009 -0.16755861 -0.13774607 -0.0663023 -0.048386943 -0.14836235 -0.16714625 -0.128079 0.034937747 -0.20289156 -0.10496678 0.05043589 -0.08710383 -0.17973576 -0.19317949 -0.13922489 -0.042338178 0.0059595467 -0.15782575 -0.13071264 0.15192774 -0.075651094 -0.19240004 -0.14030081 -0.13629763 -0.11722437 -0.18108255 -0.13160619 -0.14696833 -0.16280095 0.019239359
2 -0.18070246 -0.0019810935 -0.14372012 -0.12842864 -0.14214645 -0.017004235 0.031076407 -0.17304485 0.041959908 -0.17993794 -0.1648018 -0.1602975 -0.1658774 -0.14386438 -0.1709132 0.05289996 -0.20818472 -0.14727853 -0.17896172 0.034549113 -0.14738919 0.06081905 -0.046582595 -0.05463801 -0.16533427 -0.12843236 -0.17310189 -0.077845134 -0.16815971 -0.1846284 -0.15737069 -0.15007836
라고 -0.11733302 -0.016771307 -0.07216669 -0.09340748 -0.15622184 -0.02941215 0.06531428 -0.166791 0.034641035 -0.14685893 -0.16314343 -0.08403763 -0.18494081 -0.1712338 -0.1430532 0.042910304 -0.1834185 -0.1445695 -0.14694472 -0.102424875 -0.15979221 0.11740718 -0.07376482 0.10542147 0.037433866 -0.02002834 -0.21291374 -0.1841234 -0.1676965 -0.14908837 -0.11020918 -0.118909344
야 -0.037544727 -0.11938951 -0.09982841 -0.14411171 -0.22253147 0.02374086 -0.11703345 -0.23132952 -0.2079589 -0.1596453 -0.010002459 -0.22661003 -0.07683037 0.063876554 -0.04697455 -0.12639166 -0.2249754 -0.14789277 -0.13280936 -0.24332386 -0.23720187 -0.10903974 -0.076223426 -0.056304067 -0.18976857 0.080197096 -0.24653558 -0.09163713 -0.12791982 -0.18860595 0.013053401 -0.2001441
니 -0.16284122 -0.12900308 -0.16954426 -0.060848344 -0.17325763 -0.033408523 -0.14015439 -0.07986366 -0.16252917 -0.1778909 -0.15279225 -0.023173835 -0.1691998 -0.17158143 -0.16857441 -0.0141104795 -0.086982735 -0.14409177 -0.13891965 -0.052996494 -0.19069932 -0.16425124 -0.058374446 -0.17079042 -0.020967893 -0.17072782 -0.18196687 -0.17691281 -0.14036049 0.027646013 -0.14308907 -0.15276152
면서 -0.17180559 -0.030455098 -0.103663035 0.0665493 -0.15181567 -0.008150876 -0.12112372 -0.17075916 -0.01822724 -0.05608307 -0.08119503 -0.08577037 -0.12679917 -0.12044729 -0.14148119 -0.113513246 0.018620195 -0.13948344 -0.17895491 -0.12290091 0.06639044 0.00500372 -0.058216516 -0.15943757 -0.13566138 0.059266493 -0.049113993 -0.16360292 -0.08859799 -0.13633935 -0.12834504 -0.065114684
번 -0.03640856 -0.16028324 -0.18132743 -0.19198921 0.1101316 0.016529959 -0.1824374 -0.15196325 -0.05951045 -0.16302408 -0.077936515 -0.035654243 -0.0719702 0.15465838 -0.21257737 0.040426414 -0.17537017 -0.08004658 -0.0226567 -0.15025067 -0.15199915 0.034281634 -0.076406956 -0.019217793 -0.038925517 -0.17548399 -0.16652362 -0.17388898 0.1144849 -0.08839482 0.070878804 0.058433313
다시 -0.026099622 -0.12336626 -0.08118191 -0.09869538 0.11564642 -0.034570612 0.085231334 -0.1798675 0.14521353 -0.1704075 -0.17072009 -0.03361677 -0.10004429 -0.107060164 -0.21186283 -0.11597672 -0.18487433 -0.03151145 -0.15975292 -0.15910804 -0.04359114 -0.15069264 -0.06327555 -0.16380495 -0.15437838 -0.0858637 -0.19130287 0.07410446 -0.092896566 -0.1801607 -0.15554723 0.20508847
나오 -0.15882325 -0.18904915 -0.16542253 -0.1664228 0.06841052 0.020779964 -0.06283557 -0.06002854 -0.1305911 -0.1739635 -0.14848022 -0.049933065 -0.13624643 -0.08873612 -0.09569209 -0.18583211 -0.16813456 -0.02143725 0.021028677 0.09288123 -0.17360769 -0.15469588 -0.068820454 -0.009377458 -0.03877609 -0.12142995 -0.19448212 -0.16740568 0.03201468 0.002369713 -0.08046112 -0.02938823
작품 -0.15690756 -0.16993941 -0.12512957 0.037466846 -0.05002248 -0.045248594 0.11237435 -0.15799552 -0.18466033 -0.18374886 -0.17246053 -0.09618693 -0.10328678 -0.179204 -0.20555025 -0.11978492 -0.075828135 -0.13643779 -0.18869725 -0.08345535 -0.15476248 -0.01980112 -0.0735539 -0.116665475 0.047702804 -0.2351962 -0.09038767 0.13897555 -0.118633755 -0.1943406 -0.043004733 0.042656656
이거 -0.15641016 -0.17365502 -0.06692566 -0.12780438 -0.23321758 0.026986536 -0.22105104 -0.112958364 -0.1904012 -0.0750084 -0.13024975 -0.20251693 -0.15864637 -0.019532645 -0.20542179 -0.07633885 0.0006217334 -0.17391773 -0.17754981 -0.090768084 -0.22753365 -0.047583733 -0.051873893 -0.19141959 -0.10104041 -0.18229444 -0.11861763 -0.18866013 0.077675395 -0.17849174 -0.14169364 -0.21074477
하나 -0.14216705 -0.09801801 0.02161836 -0.13827503 -0.050825566 0.12499831 -0.1659212 0.011284733 -0.014322099 0.16039822 -0.18033287 -0.14380822 -0.18615498 -0.14402716 -0.15741985 -0.13528885 0.008489857 -0.15807062 -0.1561476 -0.162193 -0.1635179 -0.07762793 -0.05140454 -0.17467935 0.06247511 -0.17090477 -0.12722611 -0.17928359 -0.18113263 -0.1830214 -0.037221257 -0.006554914
줄 -0.03612112 -0.11839238 -0.15307991 0.05693947 -0.15723474 0.0087511055 -0.14223754 -0.037818503 -0.09154078 -0.09095119 -0.14679672 -0.09852798 -0.14390205 0.07683886 -0.14615922 -0.14373879 -0.07246622 -0.17189528 -0.15651718 0.025382463 -0.14126892 -0.18275227 -0.06543224 -0.18604378 -0.021373667 -0.07461822 -0.12557533 -0.17325824 0.03432145 0.04850676 -0.13692746 -0.1374139
해서 -0.1412332 -0.16025236 -0.12980172 0.004200447 -0.11328618 -0.038125895 -0.16160676 -0.16331245 -0.10771256 -0.105843015 -0.09439161 -0.13446401 -0.1511881 0.04559313 -0.1551669 -0.18496612 0.06435237 -0.13829716 -0.0861352 -0.11180503 -0.12927136 -0.10921708 -0.07084179 -0.12717669 -0.015718695 -0.09493409 -0.21341996 -0.09502332 -0.13830675 -0.00035087022 -0.13862792 -0.12289457
개 -0.13658722 -0.06717533 0.052919228 -0.069418505 -0.20012596 0.013067354 -0.17347305 -0.12989119 -0.104186 -0.12685199 -0.14038368 0.0016130591 -0.18182242 0.08213392 0.016996115 -0.10706151 0.08817014 -0.031014774 -0.15650569 -0.0068993918 -0.16834961 -0.0058167363 -0.06734074 -0.06489016 0.1649091 -0.049241934 -0.10382535 -0.20947734 -0.00376548 -0.01114551 -0.115983464 -0.19430657
남 -0.16717117 -0.15487233 -0.1401479 -0.15014832 -0.07618471 -0.01648017 -0.14371017 -0.092313565 -0.17433581 -0.017940901 -0.17769665 -0.19915782 -0.12489095 -0.1290455 -0.1833077 0.043324646 -0.016888907 -0.046173003 -0.13064721 -0.16242208 -0.020780617 -0.001132234 -0.046077654 -0.20965679 -0.13770474 -0.16933489 -0.20054398 -0.15223654 -0.18290827 -0.16751455 -0.039194882 -0.043503825
정도 -0.060222026 -0.06554835 -0.17535478 -0.09066164 -0.10557307 0.039659116 0.01471932 -0.08672337 -0.053826254 -0.15868478 -0.143042 -0.14835104 -0.08568389 -0.0312289 -0.16351798 -0.10227766 0.057951596 -0.1110218 -0.17552964 0.069097966 -0.18503244 -0.1589935 -0.05998806 -0.17336825 -0.1612107 0.059331965 -0.16060342 -0.19217597 -0.21731295 -0.13823223 -0.13678512 0.072577246
마지막 -0.15072472 0.023031285 -0.08094184 -0.104759105 -0.121602625 0.021188723 -0.16356333 -0.15257944 -0.19422282 -0.076877184 -0.14112733 -0.044197205 0.04160827 0.023769828 -0.19478297 -0.16474243 0.022601515 0.08979341 -0.0985338 -0.17716295 -0.07857588 -0.19238493 -0.05632644 0.05272992 -0.17963047 -0.07374144 -0.21754758 0.117860116 -0.15325347 -0.19182995 -0.14311634 -0.03259964
끝 -0.09122524 0.05232104 0.15071738 -0.13370514 -0.14375928 0.029068042 -0.1449552 -0.07438304 -0.1294781 -0.13626593 0.044368125 -0.1502594 -0.15316865 -0.005476687 -0.15526076 0.21651088 -0.0016342672 -0.15054491 -0.13970439 -0.1321739 -0.056010406 -0.042029303 -0.0761464 -0.1737069 -0.16152973 -0.20371696 -0.00520157 -0.10141664 -0.010625622 -0.10164641 -0.028871426 -0.14811239
이건 0.18862228 0.2155828 0.00090561993 0.05749609 -0.21007456 0.07495572 -0.14854476 -0.20967402 -0.14024349 0.062431835 0.21216816 -0.21214783 -0.21930033 -0.055586383 0.017836237 -0.13297625 0.04646718 -0.1821241 -0.116618425 -0.1671165 -0.23842905 -0.1856032 -0.051886432 -0.15628693 -0.1762063 -0.17938837 -0.25669032 -0.20486437 0.04015502 -0.19100215 -0.2136185 -0.16815586
액션 -0.20572412 0.016517017 -0.13016416 -0.200517 0.10164737 -0.008953713 0.018013492 -0.075806946 -0.17652589 0.013905262 -0.07482917 -0.17976402 -0.14827137 -0.13055222 -0.17542648 -0.1079424 0.11561546 -0.1893076 -0.016483977 -0.24143972 -0.043266583 -0.076346986 -0.04710734 0.014399037 -0.07710268 0.0052921562 -0.14420104 -0.16782516 -0.053196147 -0.016330728 -0.081420586 -0.09332658
임 -0.11010703 -0.0040693586 0.05512781 -0.18354563 0.058037627 0.053061713 -0.18027095 -0.16204081 -0.023122739 -0.21465188 -0.19232546 -0.19966063 -0.07913007 0.084454596 -0.04941141 -0.14072286 0.03171663 -0.13926147 -0.00023791988 -0.21221612 -0.115361884 -0.09196737 -0.06357978 -0.11659472 -0.02508656 -0.17822003 -0.0711781 -0.1809303 0.064440526 -0.113606684 -0.08403862 -0.044062465
ㅋ -0.09223813 -0.13441758 -0.07007902 -0.1535193 -0.1524513 -0.030783286 -0.103117 -0.16916575 -0.05869521 -0.06968351 -0.013709003 -0.256008 -0.16793865 -0.071743496 -0.22471845 -0.13968907 -0.17076711 -0.032130785 -0.11344281 -0.18185276 0.05476503 -0.0068970756 -0.05645779 -0.1875068 -0.046586324 -0.16849719 -0.25935635 -0.13229528 0.07151276 -0.076250516 -0.16564243 -0.18666737
3 -0.11768424 -0.047747795 -0.15787481 -0.16683583 -0.1603161 0.02276272 -0.017799694 -0.0905216 -0.1869093 -0.0072776917 -0.0759744 -0.21126242 -0.17460476 0.09652357 -0.07924121 -0.20357881 -0.14296927 -0.1492729 -0.1292183 -0.10087137 -0.18718429 -0.15666303 -0.0487486 0.072157875 -0.06982274 -0.18154635 -0.08846265 -0.05863103 -0.15794846 -0.03903163 -0.19115716 -0.14846285
기대 -0.11243018 -0.13149509 -0.10098801 -0.07091486 -0.18293399 0.018501973 -0.20142795 -0.15356137 -0.17554966 -0.17735769 -0.11513589 -0.17651561 0.03736347 -0.1537425 -0.19259378 -0.15542799 -0.17208077 -0.14341706 -0.18578392 -0.1873315 0.056285635 0.012692727 -0.051307764 -0.19399929 -0.14875247 -0.11935793 -0.1802062 -0.1865538 -0.12702204 0.14122331 -0.15860474 -0.033207867
입니다 -0.11267889 0.064491645 -0.047969982 -0.03994124 -0.16242541 0.035875954 -0.18534628 0.07091706 0.12728193 -0.0308534 0.13029855 -0.19848508 -0.018056313 -0.14773798 -0.19595113 -0.14824077 -0.15054941 -0.18309662 -0.2015792 -0.23860876 -0.19706756 0.18363768 -0.073771656 -0.18319747 0.11347623 0.09336936 -0.2033887 -0.093958646 0.15170448 -0.18714288 -0.14689074 0.04370372
건 -0.10457092 0.14874353 -0.13800405 -0.11017508 -0.13377483 0.13541998 -0.062480014 -0.16382141 -0.0045492337 -0.083359614 -0.064039305 -0.12331139 -0.14797805 -0.15301974 -0.038621016 -0.11850109 -0.056323167 -0.13075276 -0.08556601 0.0061562113 -0.1208431 -0.14835736 -0.075869694 -0.16915078 0.009375748 -0.11499935 0.01707629 -0.11646207 -0.108223885 0.10008543 -0.14203314 -0.007803446
라는 -0.008780993 -0.07605533 -0.1301608 -0.0009917424 -0.16409287 0.015828673 0.07434013 -0.08887367 -0.103790775 -0.123077646 -0.14773491 -0.18956408 -0.04166896 -0.11036318 -0.12754992 -0.14518546 -0.1067502 0.037271608 0.06311917 -0.030419424 -0.12521935 -0.13588053 -0.056291863 -0.14221865 -0.036251713 -0.17528592 -0.13944128 -0.07109107 -0.16486707 -0.1939799 -0.1367143 -0.019612413
분 -0.13409008 0.0020815446 0.04817394 0.027835632 -0.14927146 0.013418261 0.003862704 -0.042585146 -0.067989424 0.08294028 -0.14160927 0.13952564 -0.10928813 -0.09766588 -0.13152218 0.10093774 -0.13555482 -0.14514557 0.032282315 0.081541866 0.014354301 -0.14749682 -0.06863442 -0.17581452 -0.076150075 -0.048980877 -0.10982791 -0.11944413 -0.117850125 -0.18918173 -0.018091436 0.16868378
완전 -0.17888574 -0.15509975 -0.1546744 -0.18919137 -0.16778564 -0.014078151 0.043317575 -0.101265565 -0.030876992 -0.17230052 -0.12437941 -0.1229422 -0.17371067 -0.015004777 -0.20646493 -0.16549775 -0.14109999 -0.18197182 -0.20740142 -0.17606853 -0.0727422 -0.051967315 0.1253438 -0.18989672 -0.17832634 -0.004949626 -0.24330705 -0.224445 0.06101778 -0.09304004 -0.15326692 -0.13621315
다는 -0.1515692 -0.1617308 0.09619922 -0.15854748 -0.06359872 0.008871731 0.010246092 0.005031889 -0.090288825 -0.08586773 -0.14815097 -0.105295934 -0.08743228 -0.086886436 -0.14046879 -0.059442747 -0.14239694 -0.13667817 -0.024629842 -0.12707373 -0.051716022 -0.17178918 -0.062280275 -0.18659727 -0.1649374 -0.13175282 -0.1448219 0.029791579 -0.07030157 -0.0293005 -0.008133496 -0.097157836
참 -0.03523635 -0.20164995 -0.16866058 -0.045866434 0.092152074 0.21173884 -0.20724286 -0.17687605 -0.19722585 -0.07197804 -0.21153511 0.037776727 -0.15872052 -0.07302945 0.002425661 -0.057025906 -0.14066961 -0.13542019 -0.19476919 -0.15163334 -0.014146015 -0.19612816 -0.05886714 -0.1694718 0.07553149 -0.096308626 0.061417267 -0.08151451 -0.19040221 -0.017603166 -0.17932336 -0.18450168
많 -0.16385947 0.02710775 -0.14890312 -0.07187787 0.0050127823 0.026175624 -0.090982616 -0.18699734 -0.086875975 -0.10939492 -0.03188171 0.025151297 -0.15593112 0.07659592 -0.1803553 -0.12361199 -0.167034 -0.15198614 -0.13339423 -0.16816065 0.096273184 -0.15454106 -0.0716022 0.07109478 0.009069967 -0.19261493 -0.08829921 0.100640774 0.108572185 -0.061141524 0.12683326 -0.1579979
처음 -0.14014581 -0.15242 -0.15559883 0.020586483 -0.006358828 0.0061591268 0.0017434969 -0.117265016 -0.057273615 -0.1481012 0.06907504 -0.14205931 -0.12668452 -0.1326875 -0.18870002 -0.044505116 -0.1668495 -0.14728393 -0.019100485 -0.13476412 -0.16444021 -0.14328232 -0.07685043 -0.18590927 -0.1695474 -0.19141088 -0.0027316073 -0.18202364 -0.14436719 -0.1279574 -0.16787027 -0.13074963
장면 -0.11682604 -0.12296962 -0.13039689 -0.1472017 0.0586411 -0.0024175271 -0.16858214 -0.003422753 -0.03197353 -0.12867573 -0.13410445 -0.12861717 -0.12782608 -0.011932145 -0.20243567 -0.002274904 -0.119145475 -0.0042809267 0.034237828 -0.13395932 -0.15214108 -0.006077249 0.0050797923 -0.06653654 0.10007756 -0.17715685 -0.20089617 0.07843435 -0.14736733 -0.14107816 -0.103076875 0.029862726
대 0.017343167 0.009619362 -0.18044373 0.074016005 -0.18006894 -0.029244935 -0.08782976 -0.19240212 -0.17323269 -0.1155665 -0.11369983 -0.056661826 0.05822766 -0.14764142 -0.11310207 -0.019294655 -0.109689355 -0.11404074 -0.174344 -0.11129685 -0.15077868 -0.13678083 -0.048640873 -0.16064318 -0.17095041 -0.19206238 -0.20265146 -0.15609835 -0.19823241 -0.16416691 0.044874992 0.10360879
아깝 -0.15562074 -0.080124475 -0.12433115 -0.14493395 -0.13052794 -0.013474893 -0.10848986 -0.1385189 -0.19332173 0.19145538 0.17237443 -0.048855606 -0.1639055 -0.060210586 0.098743975 -0.117070936 -0.19806571 0.1196917 -0.09653845 0.07170996 -0.14922121 0.18601559 -0.06963736 0.13874231 0.09753903 -0.17677537 -0.24829398 -0.17749724 -0.09883719 0.14064954 -0.14369854 0.11769388
다가 -0.12968658 -0.014436809 -0.059979126 -0.12427993 -0.095467046 0.047919877 0.18073978 -0.13781875 0.090401754 -0.06470987 0.08751854 -0.0692754 -0.108042344 -0.06624408 -0.15558349 -0.11153884 -0.13958931 -0.13049594 -0.15387021 -0.065355785 -0.1118224 -0.16124228 -0.05852835 -0.040304698 -0.03549798 -0.13100904 -0.13695508 -0.12233847 -0.09687124 -0.05633884 -0.17992076 -0.13023297
으면 -0.13778459 -0.14375326 -0.1231359 -0.1455032 -0.14880362 -0.025089229 -0.059217095 0.018155085 -0.14744207 -0.12841813 -0.14897147 -0.085612826 -0.15552083 -0.09901389 -0.022698939 -0.12823084 0.13122831 -0.035880584 -0.10545855 0.08200634 -0.16222236 -0.15792269 -0.04726521 -0.019743122 0.13617635 -0.16446806 -0.0013788698 -0.17400476 0.029533353 -0.14269103 -0.1335645 -0.09794624
지금 0.14739658 -0.14846812 -0.17436358 -0.10368363 -0.12929481 -0.0034662858 0.05111182 -0.1738116 -0.014336985 -0.17406832 -0.15804598 0.016178556 -0.06961541 -0.13701509 -0.18313909 -0.1313794 -0.13895456 0.051416725 0.09199901 -0.15329096 0.059927505 0.041560043 -0.06615649 -0.16537079 -0.088093095 0.10338713 -0.19804381 -0.12310298 -0.028080938 -0.18274313 -0.16080582 -0.12449876
모르 -0.01882121 -0.13445517 -0.023137338 -0.15322071 0.04570586 0.0035466137 -0.14933412 -0.19923194 -0.018020373 -0.107068606 -0.11149651 -0.1396677 -0.09412297 -0.11282064 -0.15119216 0.02275383 -0.17749542 0.15055586 -0.15325819 -0.13417919 -0.17420648 -0.20086999 -0.052320357 -0.1573681 0.08062203 -0.14349653 0.018419318 0.118173845 -0.1332524 -0.14240137 -0.08315487 -0.07866352
이렇게 -0.032578286 -0.14800788 -0.10616016 -0.1597315 -0.02749515 0.0032705069 -0.17933646 -0.1339306 -0.016268784 -0.14558943 -0.15580118 -0.11737657 -0.16618903 -0.026235951 -0.10600182 0.03245047 -0.14515114 0.027532095 -0.16359188 0.0069998363 0.030215923 -0.10387616 -0.065227605 -0.16931067 -0.04951163 -0.19762157 -0.12007156 -0.037109997 -0.12405517 -0.12917922 -0.14798708 -0.1079507
' -0.15371816 0.097350754 -0.11701225 -0.06698495 -0.029882543 -0.017587306 -0.06154572 -0.008108441 -0.1301026 -0.08861676 -0.06613021 0.074044734 -0.1214054 -0.13376765 -0.16007252 -0.077526525 -0.034060393 -0.10752951 -0.15217471 -0.12076998 -0.07482752 -0.20874901 -0.049638256 0.12763242 -0.101591796 -0.12248025 -0.16199706 0.052866317 0.00014886304 -0.10974658 0.04015886 0.10301816
편 -0.17165963 -0.094964474 -0.14415224 0.044703245 0.0709072 0.010033081 -0.10623383 -0.1677299 -0.16347498 -0.038515065 -0.028461572 -0.09495167 -0.036526818 -0.027718764 -0.1380785 -0.16358969 -0.19960883 0.13297355 -0.15220201 0.010444128 -0.19230436 -0.00896361 -0.053363144 0.12872294 0.102228835 -0.15732571 -0.15743025 -0.06468902 0.1174692 -0.18077569 0.1214909 0.030725699
일 -0.19605403 -0.15478267 -0.073221095 -0.16076182 -0.15842704 -0.004344534 0.07591992 -0.117947534 -0.13299821 -0.09651735 -0.08026806 -0.17278798 -0.16086021 -0.1321094 -0.1493527 -0.068134055 -0.15626957 -0.13761686 0.005057569 -0.05868092 -0.13604465 -0.1807405 -0.062136874 -0.13891919 -0.13643104 0.09986114 -0.057458874 -0.18445975 -0.1564779 -0.17225492 -0.15257919 -0.14107674
돈 -0.09400045 6.0827577e-05 0.038784273 0.15015477 -0.14470538 0.0029912367 -0.13941124 -0.1527981 0.029367823 0.12689963 0.21495584 -0.16630545 -0.1050416 -0.0066172252 -0.13452002 -0.074464835 -0.1783465 -0.1470209 -0.1625605 -0.10436743 -0.20637143 0.14916882 -0.07041236 -0.018953843 -0.033640794 -0.17212059 -0.112044714 -0.19868258 -0.1551029 0.14894709 -0.12971747 -0.14219855
이게 -0.12981808 -0.14462645 -0.21216886 -0.1522666 -0.18669768 -0.005545877 -0.19974332 -0.034242906 -0.08329192 -0.065662764 0.1344013 -0.19572806 -0.08490554 -0.03248859 0.16877392 -0.15672746 0.15692574 -0.15084055 -0.17760958 -0.16655585 -0.023709346 0.18661088 -0.07635506 -0.088283345 0.10981972 -0.007387741 -0.23111282 -0.19719236 -0.1904443 0.002001272 -0.049045295 -0.20804319
성 -0.10708436 -0.06770419 -0.14842121 -0.15245953 -0.118456125 -0.039243378 -0.101800315 -0.15577246 -0.04257708 -0.080999546 0.07825624 -0.14594276 -0.13108015 -0.013800407 -0.16559573 -0.18909216 -0.14363538 -0.14385372 0.028893137 -0.15831053 -0.1347112 -0.12575813 -0.06545703 0.064994276 -0.023003057 0.00631491 -0.066701844 -0.19171518 -0.15608342 -0.19058108 -0.0888388 -0.13069524
느낌 -0.14862388 -0.15012641 -0.14318717 -0.049925514 -0.1512753 -0.044033777 0.0013423434 -0.15487528 0.018087948 -0.07190326 -0.20909066 -0.20006076 -0.13989164 -0.12184023 -0.1931227 -0.14304414 -0.13489312 -0.16343749 0.042975776 -0.17957324 -0.0012082536 -0.1632193 -0.07516364 -0.09996156 -0.048487164 -0.00078414474 -0.11709311 -0.17491126 -0.096592456 -0.16245198 -0.13183984 -0.1390017
시 -0.11493473 -0.15258694 -0.08731801 -0.11664301 0.005868737 -0.037853003 -0.07934134 -0.1936569 -0.16005653 -0.1542671 -0.16013762 -0.02484921 -0.0024805157 -0.1522902 -0.09777879 -0.11671415 0.03787245 -0.13086331 0.043268338 -0.23585555 -0.05034721 -0.142523 -0.07106594 -0.16999057 -0.14627501 -0.11556257 -0.19636665 0.063235894 -0.16036354 -0.16208135 -0.14494383 0.09324638
이야기 -0.20711921 -0.07179293 -0.17846258 0.010220171 -0.007044049 -0.011599958 -0.12164936 0.11026652 -0.060246546 -0.048929423 -0.12037035 -0.04368786 -0.12242722 0.00874871 -0.13221928 0.059623603 -0.059990786 -0.15858638 -0.17896698 -0.17410274 -0.18627842 0.005665045 -0.04724313 -0.08380878 -0.14237429 0.042905632 0.011295524 -0.08147155 -0.16121732 -0.051893245 -0.24607636 -0.17797726
최악 -0.072722465 -0.006264037 0.069178075 -0.14823993 -0.11128273 -0.021651387 0.026433181 0.103949815 0.15863948 0.08667272 -0.07168531 0.14751942 -0.09033906 -0.036158066 0.1877849 0.1465482 -0.09930119 -0.13636833 0.114144735 -0.02145894 -0.13391072 -0.07341897 -0.061011113 -0.06543685 0.16324784 -0.08682635 0.039884456 -0.17099588 -0.11590886 0.23450974 -0.096971296 -0.07679678
된 -0.028134387 -0.14889598 0.08207968 -0.045884717 0.12376387 0.007298708 -0.15938003 -0.038247533 -0.12443547 -0.14699025 -0.14349833 -0.024060419 0.015719026 -0.1318639 -0.12875229 -0.020631567 -0.08074175 -0.17108516 -0.15151447 -0.17462032 -0.085478805 -0.14580181 -0.058609203 -0.17454961 -0.14530823 -0.13266763 -0.12094975 -0.18374999 -0.09645365 -0.103103414 -0.05009168 -0.10578281
봐도 -0.1530729 0.028792351 -0.17597966 -0.0023264345 -0.006607488 -0.028333033 -0.14926323 -0.1941383 0.05470764 -0.17486341 -0.16804163 -0.14257875 0.10864109 -0.13240926 -0.19058447 0.090506054 -0.16127613 0.1204495 -0.029992517 -0.15009344 -0.09080404 -0.17524503 0.30586788 -0.16490424 -0.14881295 -0.1068371 -0.1956396 -0.09952156 0.15974882 -0.018538956 -0.12003325 -0.15953882
님 -0.110129446 -0.14506435 0.11334063 -0.1450174 0.14643055 -0.007071566 0.089923784 -0.03187703 -0.17917393 -0.14651431 -0.1633446 -0.17772517 -0.01572952 -0.14128521 -0.12331415 -0.18480021 -0.14169623 -0.15686482 -0.11002069 -0.16671786 0.0032416575 -0.086939916 -0.046681218 0.010964166 -0.13494213 -0.021242809 -0.20570932 -0.18581614 -0.14186066 -0.12376413 -0.06369885 -0.11236433
어서 -0.056017477 -0.11114741 -0.09440015 -0.14106762 0.006574196 -0.032741 -0.15331015 -0.11738714 0.030040393 -0.13073406 -0.034362283 -0.13379312 -0.1640444 -0.025363434 -0.1386014 -0.13231547 -0.0925963 -0.050577544 0.019696502 -0.121935815 -0.15746465 -0.15098959 -0.06068309 0.095594265 -0.0049167415 0.05793178 -0.103711285 -0.1807522 -0.16893993 -0.122068875 -0.14159873 -0.16109623
애 -0.19131377 -0.13465875 -0.038522977 -0.2062927 -0.11042204 -0.026780045 -0.23282866 -0.09376893 -0.09740257 0.19827889 -0.002223691 -0.015645374 -0.0010389611 -0.19709189 -0.15372337 -0.06939275 0.063850775 -0.13882063 -0.0018564069 -0.13326776 -0.05641226 0.04289639 -0.065759815 0.07866947 -0.02499179 -0.0995544 -0.068688326 0.019518314 -0.119566165 0.039995186 0.15647244 0.07815766
전 -0.13713163 0.121097356 -0.008555725 -0.077359214 0.17167701 -0.049715806 -0.15734343 -0.11336494 -0.01085896 -0.19253024 -0.22423936 -0.05658305 -0.08124831 -0.08219047 0.009841024 -0.09401455 -0.0042330753 -0.09751752 -0.08257336 -0.15103568 -0.09013222 -0.15981235 -0.06369578 -0.108101964 0.06705509 -0.084747404 -0.16629064 -0.08434287 -0.09051352 -0.15473169 -0.10739711 -0.10211609
넘 -0.18947552 -0.15665641 -0.116191566 0.055592973 -0.18706349 -0.030542983 -0.08036085 -0.20028956 -0.053748235 -0.11296576 -0.11972996 -0.17097132 -0.13129337 -0.18006901 0.020168414 -0.19900893 -0.1663947 -0.1835333 -0.097716995 -0.17981516 0.00473142 -0.1585091 -0.050087716 -0.12993912 0.034985043 0.09882416 -0.0380449 -0.15908647 -0.06318364 -0.16527088 0.06363061 -0.14473264
ㅠㅠ -0.21697956 0.028391125 -0.28101096 -0.14501657 -0.0044734743 -0.10101698 0.021800378 0.025027487 0.04521304 -0.14036328 -0.11779745 -0.16563512 0.10395104 -0.18710577 -0.07379447 -0.08191625 -0.03203534 -0.18017735 -0.17124723 0.045952223 -0.16747044 -0.06772351 -0.15192863 0.001462179 -0.06700348 0.07852872 -0.16972 -0.22139388 0.14252043 -0.0018976049 -0.17130677 -0.14056641
인데 -0.15924963 -0.10071993 -0.10029394 0.09827177 -0.15332048 -0.00065969303 -0.06155181 -0.21115257 -0.117813885 -0.13554615 -0.09784628 -0.13473141 -0.18463294 -0.12811886 0.039159156 -0.13377048 -0.14126861 0.03523346 -0.13947141 -0.17187753 -0.14316243 -0.012788227 -0.05680963 -0.13728817 -0.013486257 -0.1699104 -0.12126248 -0.07891186 -0.13868462 0.026245154 -0.01913933 -0.1579731
다고 0.11222793 0.04107061 -0.1251989 -0.091858566 0.12241428 0.029810468 -0.11124634 -0.11041404 -0.12894072 -0.09604728 0.099021964 0.14661583 -0.06558425 -0.09621947 -0.11123064 -0.15771833 0.06745982 0.026476758 -0.17209417 0.13455307 -0.14045224 -0.1448886 -0.06877475 -0.057585627 0.02680544 -0.13671032 0.018010015 -0.18228032 -0.1722457 0.01637984 0.20744254 -0.18080084
이해 -0.10842403 -0.10072367 -0.17160802 -0.08786302 -0.19372371 0.03193902 -0.1460734 -0.09691176 -0.114859045 0.055688113 -0.123795256 0.08192843 -0.041345246 0.08047189 -0.08929272 -0.20045248 -0.17157166 -0.16191392 -0.18764985 -0.09921395 -0.021314986 -0.049193624 -0.07750921 -0.009439228 -0.20514163 -0.12806188 -0.14496739 -0.078961976 -0.005056023 -0.16792795 -0.0567961 -0.06541228
별로 0.021215461 0.17055897 -0.13712142 -0.15409328 -0.15520364 -0.009077631 0.013420969 -0.17551471 -0.11371828 -0.19837579 -0.20514074 0.009143422 -0.17467459 0.16805209 0.029457284 -0.074191235 -0.19580269 -0.18713911 0.014003517 -0.056450695 -0.16821815 -0.0038727606 -0.07015876 0.1340583 -0.09925392 0.094657175 0.11455612 -0.16739593 0.00071380567 0.11808477 -0.15911217 -0.17466843
그리고 -0.12011086 -0.13204986 0.04335892 -0.10352565 -0.0691257 -0.018721212 -0.10544653 -0.011370499 -0.14455634 -0.104026705 -0.12517944 -0.16847904 -0.0068349834 -0.09635998 -0.11647254 -0.130429 0.10409328 0.030992286 -0.12934077 -0.13983044 -0.18115854 -0.12939137 -0.062229373 -0.107492164 -0.12962706 0.07796468 -0.12289892 -0.13535576 -0.065692276 -0.0989088 0.037543565 -0.07328005
명작 -0.14000839 -0.15765648 -0.012900194 -0.15238717 0.0603788 -0.012518786 0.011384815 0.17388448 -0.1644407 -0.17753753 -0.190365 -0.21571149 -0.12364362 -0.12046105 -0.17560679 -0.17389123 -0.17467561 0.12998304 -0.20156339 -0.18496545 -0.02372555 0.18134771 -0.059449796 -0.21026178 -0.06780148 -0.104904264 -0.23035063 0.15308851 -0.05841626 -0.10707221 -0.14990377 -0.15552431
여자 -0.11975017 -0.13026677 -0.14029655 -0.16069323 -0.150171 -0.021146668 -0.14771165 -0.16591232 -0.08699578 -0.005016436 0.14498423 -0.010056072 -0.12635787 -0.18324615 0.0121677 -0.175354 -0.06735895 0.13727021 -0.17731021 -0.16035052 -0.14367767 -0.15379341 -0.05321355 -0.12529029 -0.16723605 -0.033600852 -0.23451465 -0.16657293 -0.16015233 0.08696532 -0.14763154 -0.16619045
^^ -0.19116111 0.1868663 0.17513373 0.055922132 -0.13532329 -0.03984783 -0.21329774 -0.19604783 -0.16234176 -0.15794127 -0.1587499 0.044995297 0.16407865 -0.118007466 -0.19613127 -0.18362434 -0.14307958 0.19017993 -0.16920504 -0.16781247 0.01797795 -0.10925485 0.26867017 -0.18090662 -0.21469592 -0.10668275 -0.19455793 -0.012187543 0.021945165 -0.16964892 -0.066095665 -0.16231263
역시 0.111185074 -0.15263064 -0.15629429 0.067378156 -0.1721531 -0.010548413 0.14616378 -0.17814648 -0.1907897 -0.19009542 -0.2208521 -0.19076976 -0.06662184 -0.18932731 -0.2204253 -0.20609923 -0.19652696 -0.18077487 -0.211759 0.012137321 -0.12324185 -0.007421937 -0.070415944 0.0017131544 -0.20478626 0.1025096 -0.21416195 0.05116194 -0.22921468 -0.06467184 -0.21166961 -0.16670017
난 -0.11172037 0.027518105 -0.16513593 -0.121437036 -0.12812123 -0.007905697 -0.19844124 -0.17270385 -0.18125337 -0.0011683606 -0.19356196 -0.21293408 -0.22078992 -0.1859144 -0.17245723 -0.06651242 -0.17530037 -0.15826653 -0.09833249 -0.14176345 -0.21963716 -0.044831697 -0.058201134 -0.047214836 -0.13939296 0.18097612 -0.20560832 -0.15749678 -0.20049047 -0.19562405 -0.041106272 -0.03174229
이상 -0.20509246 -0.12651302 -0.19450362 -0.0044363793 -0.11431788 0.023752175 -0.20222737 -0.218567 -0.16636954 -0.14085858 0.059558634 -0.052619945 -0.23516671 -0.15573306 0.050404884 -0.10084573 -0.2036027 -0.17354386 -0.181516 -0.041452568 -0.26878893 -0.20577346 -0.047186725 -0.18647437 -0.10168067 0.026460787 -0.14925313 -0.00980877 -0.22856729 -0.1840812 -0.017937647 -0.12450506
또 -0.1285879 0.099632725 -0.15000962 0.13428573 0.028623767 -0.0037778132 -0.14550321 -0.17039835 -0.13935535 -0.1310533 -0.15767217 -0.1627876 0.033607524 -0.08258837 -0.17281716 0.061941057 0.005965734 -0.07230887 -0.16055156 -0.1397504 -0.18954965 -0.16839011 0.00818863 -0.17399609 -0.059639648 0.04142155 -0.1614489 -0.0486577 -0.047318965 -0.16655345 -0.054176915 -0.15819685
걸 -0.09395756 -0.08426817 -0.067515016 -0.12729335 -0.12543973 -0.013535894 -0.031224852 -0.18699235 -0.057137147 -0.012861709 -0.030878749 -0.04134846 -0.13780524 0.07148435 -0.15543164 -0.11904928 -0.1017045 -0.14065543 0.09980693 -0.08476582 -0.15762344 -0.14616108 -0.052449636 -0.12781064 -0.04369633 -0.09158898 -0.055984028 -0.142915 -0.11668428 -0.060230795 -0.16260514 -0.14351954
한국 -0.031103041 -0.14017005 -0.16895595 0.03166966 -0.17274752 -0.006702957 -0.13761924 -0.19695191 -0.10073015 -0.16311224 -0.013103554 -0.16722922 0.14178205 -0.1505159 0.022747293 -0.13568504 -0.14347005 -0.16257975 0.12311031 -0.16583548 -0.002246675 0.010505799 -0.04552381 -0.17653282 -0.13712303 -0.16507322 0.012889663 0.07844797 -0.16299853 0.10327067 0.09204606 0.109227955
는지 -0.12543106 0.16263321 -0.12785503 -0.101137295 -0.06445319 -0.007348966 -0.12685947 -0.1706298 -0.13776267 -0.10690747 -0.0528352 -0.12759821 -0.13204822 0.16194 0.06532484 -0.01975723 -0.13840999 -0.1893276 -0.0151507305 -0.17260893 -0.16862676 0.051007323 -0.06024675 -0.15478225 -0.12234222 -0.11820745 -0.07013719 -0.15202263 -0.13147438 -0.12834255 -0.044117864 -0.11531033
많이 -0.15207127 -0.06719245 -0.10639821 -0.107545 -0.14623374 0.0004941225 -0.14203744 -0.19243743 -0.15122558 -0.087234594 -0.16847537 -0.1916406 -0.17358936 -0.079626516 -0.17849462 -0.1285985 -0.017672809 -0.16559085 -0.18508536 0.032753937 0.07264498 -0.16607305 -0.068620004 -0.10750984 -0.06598287 -0.09721423 -0.1623159 -0.2151199 -0.14138184 0.00054524845 -0.16319671 -0.15401442
에게 -0.12148271 -0.05842951 -0.105297275 -0.12995762 -0.1487357 0.013554944 0.055442788 -0.1785146 -0.1718194 0.012667606 0.006539103 0.0006105178 -0.0075378073 0.07206255 -0.14005147 0.093830734 -0.08413794 0.09716339 -0.17446639 -0.13344002 -0.12499043 -0.09262001 -0.061350677 -0.1815626 0.053688895 0.0033424548 -0.19256927 -0.0407882 -0.096881896 -0.14301525 -0.12643409 -0.13572712
부터 -0.100102946 -0.12908821 -0.12474637 -0.11863117 -0.15761545 0.02339719 -0.08648564 -0.15812963 0.07561368 -0.13927804 -0.08200591 -0.15368783 0.08108833 -0.112247504 -0.14397536 -0.13184646 -0.12792431 0.12744537 0.07174664 -0.16376306 -0.19116215 -0.14380497 -0.04745027 -0.1718411 -0.13717332 -0.15752305 -0.017158112 -0.19140083 -0.005867466 -0.14066017 -0.14577232 -0.1398845
만든 -0.011072626 -0.035657838 -0.13653621 -0.04015132 -0.14295958 0.019095099 -0.056204755 -0.15496816 -0.18619001 -0.17849945 -0.19124052 -0.19875063 -0.082564175 0.07956395 -0.19097735 0.051021423 -0.034265142 -0.14547008 -0.021709733 -0.20300266 -0.11353334 -0.08835523 -0.06817232 -0.17754182 0.033660665 -0.10470718 -0.15783782 -0.034960117 -0.091700174 -0.19812723 0.042771563 0.04701833
주인공 -0.024611622 -0.14418298 -0.13616857 -0.11330182 -0.10477573 0.14876868 0.13898927 -0.006218743 -0.18862681 -0.15682243 -0.21442483 -0.17390396 -0.045924477 -0.1415479 -0.1304522 -0.10705768 -0.056507107 -0.048391268 -0.055540293 0.05887086 -0.1529829 0.050182637 -0.04962024 -0.17213535 -0.17168258 -0.056194883 -0.06579902 -0.04977841 -0.028276555 -0.013602647 -0.12562212 -0.18204461
받 -0.09798861 -0.021755183 0.06657526 -0.00549789 -0.07809189 -0.033844568 -0.08327984 -0.09730995 -0.10673285 0.062369693 -0.18036626 -0.017169947 -0.14236796 -0.13952442 -0.13733813 0.045501452 -0.18849553 -0.14614907 -0.037334964 -0.1356727 -0.01446956 0.16901137 -0.06378324 -0.1730667 0.01870828 -0.11039928 -0.21119279 0.020957377 -0.07525799 0.061305773 -0.1261783 0.07653927
합니다 -0.047279105 0.017955022 -0.10992027 -0.08083803 0.037838627 -0.03486494 0.0013224973 -0.17234957 -0.051764276 -0.18568484 -0.121510275 -0.022469591 0.08664957 -0.18449748 -0.11912461 -0.16293667 -0.094314545 -0.20818903 -0.16401295 -0.1625834 -0.13845113 -0.15569188 -0.06386127 -0.22997877 0.07453176 -0.0015746055 0.08212746 -0.20671354 0.05432819 -0.013775643 -0.17792933 0.0910711
우리 0.041823704 0.1794897 0.20686927 0.16151114 -0.1614316 -0.033269607 -0.1462802 -0.14046808 -0.17877184 0.055605296 0.06035323 -0.21452917 -0.13027216 -0.1239341 -0.0058548464 -0.16034219 -0.12511298 -0.1509567 -0.117738225 -0.18322124 -0.15313627 -0.16874205 -0.04799408 0.13276519 -0.16828007 -0.12052592 -0.1945062 -0.011856779 0.09838599 -0.19227321 0.033127565 0.1020106
두 -0.074359514 -0.18311475 -0.17990766 -0.14903629 -0.09904746 -0.03638499 -0.018230036 -0.05998534 -0.109843634 -0.1852434 -0.04110358 -0.14023003 -0.1127532 -0.124875605 -0.20567434 -0.16374303 -0.15028067 -0.07849066 0.012267493 -0.14013478 -0.15941632 -0.10705729 -0.06185885 -0.17329986 0.056746013 -0.07877385 -0.170638 -0.0872208 -0.06587854 -0.19501434 -0.13410768 -0.0440201
살 -0.13336635 -0.086043894 -0.15984671 -0.13769731 0.1088678 -0.027601494 -0.12006116 0.0051880046 -0.13309447 -0.10935936 -0.11846344 0.014255469 -0.17437735 -0.05141632 -0.03643057 -0.114778854 0.0020496852 0.06998565 -0.119147636 -0.13447583 0.052236766 -0.15228225 -0.047617484 0.015958617 0.024407933 0.061870452 -0.16851301 -0.16076292 -0.11441207 -0.104831874 -0.14961489 -0.17167616
!! -0.02847984 0.14667019 -0.095670305 -0.09358785 -0.13866901 0.096891105 -0.137952 -0.1394792 -0.05918528 -0.14180413 -0.2320272 -0.10183831 -0.16054553 -0.11419137 -0.080218 -0.08528754 -0.1209345 -0.086122885 -0.024586014 -0.24183035 -0.02788142 -0.012687656 -0.04796914 -0.111247525 0.09082464 0.03667846 -0.24415104 -0.15914004 0.04602926 -0.07948654 -0.16237453 0.058779046
길 -0.0883154 -0.0027698295 -0.14786783 -0.15006588 0.13963838 0.021807618 -0.20505905 -0.15515819 0.0089208605 -0.08834049 -0.16237223 -0.04402387 -0.04196053 -0.16103683 -0.13707241 -0.14519884 -0.12462472 -0.08008065 -0.17549032 0.08211258 -0.06573712 0.029942155 -0.048427604 0.053352322 -0.12965836 -0.104265586 -0.20120572 -0.10282048 -0.16617246 -0.002387368 -0.13514066 -0.17106606
엔 -0.12883541 -0.0831137 -0.05101497 -0.0128689725 -0.1578721 -0.028772844 0.09074092 -0.15075049 -0.15885308 -0.09554454 -0.17089923 -0.13907874 0.052837253 -0.0525037 -0.024349386 -0.10266869 -0.0515048 0.03362695 -0.1482213 -0.13877617 -0.15832946 0.018043764 -0.066431336 -0.014151242 0.1304184 -0.12696394 -0.036845483 -0.17520283 -0.106512345 -0.17871998 -0.123926304 0.06030064
괜찮 -0.13890041 -0.16506973 -0.18133943 0.007494489 0.12155924 0.015867876 -0.18081117 -0.04178892 -0.19099233 -0.1463229 -0.19091463 -0.211242 -0.03411191 -0.16004467 -0.17739812 -0.15233526 0.10515406 -0.09764043 -0.14716735 -0.19439226 0.12368236 -0.15859732 -0.06426759 -0.16981518 -0.17012782 0.005462667 -0.21137494 -0.032193225 0.039421488 -0.16222472 -0.16740406 0.07996238
기억 -0.074952886 -0.14809719 -0.13973573 -0.07123904 0.037759252 -0.029499877 0.010187643 -0.17583254 -0.18692172 0.011909425 -0.12881693 -0.16705552 -0.12711152 -0.09559894 -0.19888425 -0.10915205 -0.14953151 -0.15111056 -0.17267098 -0.17662692 0.0086379945 -0.14342283 -0.052180152 -0.16410293 -0.14840536 -0.094604895 -0.19649805 0.07089055 0.12046804 -0.1708268 -0.112469 -0.0990439
연출 -0.09871177 -0.15297286 -0.037030473 -0.1340597 -0.10790848 -0.017993726 -0.16382428 -0.042372186 -0.19258638 -0.11674649 0.023472808 -0.20840569 -0.14715695 -0.12403518 -0.17595036 -0.13318072 -0.05974857 -0.18203814 -0.17673631 -0.12528588 -0.124744214 -0.14100157 -0.06364624 0.108112305 0.0875096 -0.16010375 -0.058106832 -0.17169763 -0.088341825 -0.01564653 0.07171337 -0.06064262
한다 -0.13874103 -0.14876397 -0.05155603 0.02278073 0.022757238 -0.030508613 -0.03397554 -0.16386671 -0.1922183 -0.021784784 -0.22165303 0.081632905 -0.1798794 -0.12810984 -0.12696305 0.0017265141 -0.1699348 0.00036665297 -0.059305865 -0.0046374165 -0.16570927 -0.14809145 -0.054611906 -0.19641621 -0.15150723 -0.12949267 -0.20718604 -0.08360715 -0.15262575 -0.10907136 -0.026854368 -0.15879638
때문 -0.19297779 -0.2092144 -0.06834352 -0.19444908 -0.15341403 -0.006314039 -0.19555308 -0.17803702 -0.09971372 -0.069982976 -0.14630389 -0.09685973 -0.12216769 -0.102803 -0.0033925471 -0.08377143 0.016656948 -0.1439108 -0.18171483 0.009307527 -0.024355011 -0.032804325 -0.04928994 -0.092231 -0.19066806 -0.15097378 -0.21452135 -0.081865326 0.035201155 -0.05251921 -0.1662647 -0.02273632
이나 -0.12901928 -0.13919589 -0.104907915 0.0043873843 -0.14600557 -0.0037226453 0.10292704 -0.008716432 -0.0075203856 0.048237685 0.03016416 0.15998137 0.07809522 -0.15423377 0.02017475 0.024786176 0.053202424 -0.15972626 -0.06809696 -0.070854515 -0.117280565 -0.14647503 -0.063695565 0.02313043 0.04441576 -0.08423911 -0.13596758 -0.15416542 -0.15603991 -0.17472406 0.018280879 -0.12047118
ㅎㅎ 0.08737063 -0.17306785 -0.054695807 -0.16607894 -0.033478335 -0.02765671 -0.19541287 0.18151622 -0.17517756 0.08721536 -0.2629281 0.043008592 -0.031591978 -0.07404691 0.008885525 -0.1835947 -0.20203252 0.18580224 0.07097837 -0.18149449 -0.07925356 -0.14383087 0.22804122 -0.20176148 -0.2039109 -0.18919519 -0.25946683 -0.16962652 -0.17261744 -0.23442198 0.2188325 -0.16649224
요 -0.16736735 -0.19196378 0.049856488 -0.17239925 0.05861945 0.04092055 0.01231271 -0.20072204 -0.19783242 -0.16890602 -0.20677675 -0.18166329 -0.045323193 -0.033888426 0.020538392 0.034327928 0.1417709 0.21457325 0.15120046 -0.15862882 -0.103649095 -0.0052258084 -0.031708006 -0.08593095 -0.044482827 -0.14284745 -0.20268182 -0.17906007 -0.22608644 -0.008945807 -0.17107639 -0.16008185
저 -0.1432926 -0.11706412 0.06972912 0.073249474 0.045601975 -0.0189924 -0.016430037 -0.047622126 -0.086891286 -0.031563736 -0.16027631 -0.121358074 -0.12664495 -0.15030763 -0.1129629 -0.06577827 -0.14972605 -0.1500171 -0.07642807 -0.02330555 -0.17595668 0.037900805 -0.0666848 -0.048287705 0.024132667 -0.20478503 -0.04280844 -0.16727819 -0.17134821 0.004762809 -0.15156908 -0.1477348
재 0.003225049 0.046373524 -0.009609579 -0.18771833 0.06733873 -0.0038825646 0.0024027557 0.026767386 0.06602095 -0.09779112 -0.1055272 -0.26180887 0.044717222 -0.07453363 -0.066017725 0.1124314 -0.1376418 0.024355166 -0.19077466 -0.23096043 0.14780463 0.14637467 0.043021344 0.0762395 -0.22840193 -0.13442723 -0.038059015 -0.0745433 -0.01487718 0.12833035 0.023909654 -0.23252562
꼭 -0.076298505 -0.1533964 0.13702618 -0.16016658 -0.00884938 0.018657986 -0.2134952 -0.15662143 -0.19189422 0.105235696 0.09827315 0.034861673 0.17048517 0.13054617 0.05462782 -0.1264221 -0.14077888 0.1678619 -0.17438364 -0.15677646 0.032972194 0.12872389 0.28012866 -0.18052293 -0.15457615 0.04032007 0.09444883 0.14872938 -0.16536993 -0.16519192 0.06904916 -0.16052602
랑 -0.13587297 -0.14193082 -0.1201767 -0.0887665 -0.05323695 0.013750564 -0.11036778 -0.16476455 -0.14498158 -0.17223579 -0.032792516 -0.13876653 -0.09269347 -0.12289999 -0.12617181 -0.024071643 -0.025903085 0.07191436 -0.105571 -0.11311008 -0.12410882 -0.0941906 -0.05566602 -0.15448172 -0.096887656 -0.12828273 -0.18736318 -0.13491435 -0.013627052 -0.13800286 -0.10378051 -0.1093359
며 0.0793604 -0.0949647 -0.105110765 -0.14989062 -0.08876015 -0.0110658035 -0.071509205 0.01763226 -0.0038785771 0.065041125 0.034978252 -0.15396588 -0.03487075 -0.037134502 -0.14608668 -0.06665944 -0.00998345 -0.09641942 -0.14186971 -0.12614125 -0.009040313 0.11958968 0.1158727 -0.10820719 -0.12034317 -0.053773616 -0.0677006 0.016365647 -0.10423785 -0.06605727 -0.1350107 -0.1288323
현실 -0.052387856 -0.1282776 0.07964682 -0.10597168 -0.13638115 -0.015731383 -0.19621326 -0.104720384 -0.13781993 -0.06928267 0.07121331 -0.107765675 -0.18859397 -0.15612198 -0.15344466 -0.14722227 0.037160743 -0.1352563 -0.13354181 -0.13879228 -0.16815473 -0.06688546 -0.050166402 -0.13456449 -0.054817237 -0.1996089 -0.16759993 0.018030794 0.17070322 0.0074244156 -0.13562907 -0.06945601
긴 -0.114429526 -0.07448834 -0.17063405 -0.17654103 -0.14344902 0.0038576722 -0.04703045 -0.021266256 0.08296548 0.12244338 0.045845017 -0.0798046 -0.016661683 -0.14504424 -0.16423252 0.109395474 0.020613423 0.21232878 -0.013525443 -0.009911803 -0.1590029 -0.15261334 -0.0652825 0.095649816 -0.1723569 -0.14851029 0.015050447 0.020812422 -0.14632931 -0.049896516 -0.14016011 -0.032355003
ㅡㅡ -0.013190078 -0.22761606 -0.061530057 -0.03173779 -0.022993198 -0.016403794 -0.14054893 0.058449216 0.14174257 -0.12292055 -0.23567201 0.011958925 -0.15670787 0.08473584 0.1754309 -0.18965639 0.058745306 0.045466185 0.15262087 -0.25779983 -0.01489149 -0.10896979 -0.06564417 -0.02262479 0.030740203 0.02056541 0.0633339 -0.018232966 -0.04552453 0.05756479 -0.026242318 0.09585179
무슨 -0.13709553 0.07717699 -0.12915969 -0.037968498 -0.17228474 -0.016772248 0.07483036 -0.16791539 0.17144203 0.09283119 -0.02216419 -0.106467 -0.15363216 -0.09807959 -0.18584193 -0.15057455 -0.13213904 -0.13549092 0.002624523 0.09582683 0.045612182 -0.15442654 -0.05885563 -0.17569797 0.00674222 -0.14258114 0.18050326 0.04413462 0.1538071 -0.18207178 -0.06447549 -0.097545035
내내 0.013970897 -0.055895373 -0.09045587 -0.16789672 -0.14367561 -0.014695764 -0.101768866 -0.16443133 -0.12893048 -0.09234656 -0.13496299 -0.1628625 -0.11143272 -0.13217798 0.014462968 -0.016041066 -0.085222624 -0.026893191 -0.16595566 -0.14703216 -0.09516689 -0.15526067 -0.05943073 -0.14775333 -0.11677228 -0.036829755 -0.13736758 -0.017218072 -0.123953804 -0.044115815 -0.12033438 -0.13131274
결말 -0.09969581 0.06392222 -0.18661663 0.013616611 -0.088597015 -0.046450008 -0.050128616 -0.21766314 0.05654938 -0.03160196 -0.19617866 -0.123454414 -0.22373098 -0.17813596 -0.14758499 0.059847675 -0.1592236 -0.011045137 -0.09041026 -0.076857306 -0.040278725 0.1059019 -0.050398078 -0.12491509 -0.17010656 -0.12371287 -0.029437011 0.06411231 -0.12622836 -0.122497566 -0.16695902 -0.11320466
죽 -0.12805709 0.000673785 -0.167749 0.15258789 -0.034326833 -0.015877116 -0.04338972 0.031034267 0.12844625 -0.1712651 -0.13778242 -0.10660415 -0.051990077 -0.02196087 0.034747448 0.2055126 -0.1067146 -0.15794988 -0.13182828 -0.16071637 -0.15330991 0.021433951 -0.061558895 -0.15122473 -0.11550187 0.058085155 -0.13356714 -0.07332045 -0.15708333 -0.19773215 -0.10401152 -0.04921065
남자 -0.08309814 -0.14846742 -0.05956482 -0.09661322 0.042919513 -0.016553916 -0.18391587 -0.048555996 -0.06260072 -0.14711209 -0.026908219 -0.17005746 0.018272074 -0.12667073 -0.1754085 -0.14233153 -0.105874896 -0.15433106 -0.14841042 -0.1379319 -0.09155092 -0.091295704 -0.06439407 -0.0062099006 -0.14921366 0.0579852 -0.21142335 -0.09754768 -0.12825856 -0.17948167 -0.14211135 0.040819824
세요 -0.10160205 0.06402135 0.083033815 -0.15313578 -0.108029015 -0.049054753 -0.211658 -0.08382593 -0.19045919 -0.1910371 -0.20870182 -0.1803904 -0.10032843 -0.15628265 -0.18776904 -0.119835556 -0.18215665 -0.1472545 -0.17967273 0.105453156 -0.106569774 0.15767455 -0.06079487 -0.18229386 -0.054384552 -0.1945629 0.034472495 -0.17150466 -0.10833753 -0.045576774 -0.04486679 -0.02315654
전개 -0.11984219 -0.11579767 -0.16047813 -0.02496124 -0.08021388 0.037558 -0.1328671 -0.056156043 -0.078635454 -0.06953338 -0.15431355 -0.13346943 -0.14834693 -0.15173438 -0.12610024 0.05257561 -0.17978707 -0.01872542 -0.16118674 0.17114934 0.082695834 -0.15996182 -0.059956945 -0.05145434 -0.14161098 -0.071629904 0.123060584 -0.13782243 -0.12241195 -0.08219192 -0.13420363 -0.15906058
마음 -0.11898288 -0.10402708 -0.12548198 0.100658454 -0.13822643 0.027079007 -0.16770698 -0.06399142 -0.0075589614 -0.16096978 -0.170246 -0.15308772 -0.15394774 -0.1080017 -0.14476955 -0.13082778 0.09701206 -0.1571783 -0.17012033 -0.1879757 -0.15542263 0.09465016 -0.073563196 0.09660038 0.09670634 -0.08789281 -0.10192883 0.03084542 -0.09519003 -0.18150355 -0.15035592 0.17433724
소재 0.09975932 0.013506554 -0.13486788 -0.06978832 -0.15695024 -0.00881939 0.18960354 -0.1310614 -0.19337066 -0.10796046 0.09801747 0.026986185 -0.13478768 -0.10014492 -0.1631013 -0.00807002 0.07069232 -0.18457769 0.04793503 0.010633937 -0.07280783 -0.043776326 -0.06110395 0.071397886 -0.18804891 -0.12399165 -0.26315585 -0.18845929 -0.07143793 -0.19008948 -0.122312225 -0.072141215
속 -0.16138405 0.05416258 0.15067795 0.087757185 -0.15461099 -0.0071483804 -0.1418656 0.041243862 -0.18556193 -0.17916483 0.039596505 0.05885596 -0.122930884 -0.07162516 -0.15703104 0.06644478 -0.0684759 -0.14296225 -0.16516331 0.11041548 0.0060007935 -0.12889181 -0.052394826 -0.17701569 -0.042503502 -0.011551953 -0.2020731 -0.16418195 -0.07129723 -0.04804941 -0.00027544313 -0.04411578
공포 -0.0692728 -0.07380735 -0.13353643 -0.147671 -0.046070557 -0.031778418 -0.09198348 -0.2109723 -0.1513042 -0.0017075909 0.04108801 -0.10322985 -0.14571564 -0.13931994 -0.12678891 -0.08587456 -0.17381766 0.0005951287 0.086101964 -0.16631767 -0.029453814 -0.14612994 -0.04770204 -0.07217925 -0.07455326 0.051137052 0.06683754 -0.17056237 -0.04915613 -0.027119858 -0.08416638 -0.17462733
아서 -0.11155233 -0.05468685 -0.10599528 -0.18268235 0.043678984 -0.028264856 0.012646508 -0.17029195 -0.08478822 -0.03469393 0.01888994 -0.037750833 -0.024335757 -0.0060348106 -0.009067085 -0.11192672 -0.12519892 -0.13881674 -0.0019694706 -0.20544796 -0.136178 -0.13900313 -0.062415022 -0.0029408133 -0.1546589 -0.17215608 -0.056582704 -0.13193497 -0.07722178 -0.017366853 -0.04898231 -0.01046501
다른 0.027482118 -0.12949754 0.07582501 -0.0653875 -0.044461183 -0.025611473 -0.1478431 -0.06306987 -0.13832554 -0.12374506 -0.15758996 -0.084709115 0.043496802 -0.12766689 -0.14389648 -0.11806904 0.037321996 -0.0065565347 -0.16313231 -0.14189099 -0.089207985 -0.15511584 -0.052255604 -0.0083798105 -0.13325253 -0.12776545 0.06490654 -0.17613426 0.03417071 -0.15819907 -0.07111681 -0.1384595
씨 0.018394182 0.0056274706 -0.15435532 -0.026733961 -0.036690164 -0.009553064 -0.11923863 -0.16929936 -0.09843972 -0.06841151 -0.13262393 -0.1521378 0.004799325 -0.10203744 -0.12250919 -0.13301142 -0.14548287 -0.13840832 -0.101463266 -0.09861904 -0.1269617 -0.036762 -0.0498294 -0.16786921 -0.14194524 -0.04566903 -0.19503503 -0.11814392 -0.125506 -0.14826372 -0.082367174 -0.16387536
인생 0.06506443 -0.16094144 -0.09749074 -0.13469487 0.06763255 -0.00032480806 0.120017424 0.18221582 -0.17257859 -0.021745915 0.021342864 0.11764617 0.14086172 -0.13678673 -0.031581234 -0.041663 0.018355655 -0.1354081 -0.18105842 -0.16817507 -0.27321345 -0.08388043 -0.050647646 -0.16051404 -0.14633101 0.06502477 -0.20283134 0.0029888588 -0.15067744 -0.18053515 -0.23628287 -0.045903254
~~ -0.07507009 0.03932734 -0.17668636 0.08584339 0.052520745 -0.00033402443 -0.013862076 0.0038392588 -0.116615295 -0.16771202 -0.1256141 -0.112172104 -0.09287744 -0.09344384 -0.19043149 0.05628574 -0.14536068 -0.08515315 -0.103088096 -0.17462173 -0.16704817 -0.12501302 -0.044718456 -0.190126 -0.13918626 -0.031092703 -0.19298889 -0.11612328 -0.13349123 -0.10170011 -0.118867524 -0.14052147
짜증 -0.10983441 -0.10044969 -0.0775674 -0.15004519 -0.15170829 -0.015688755 -0.0033655583 0.020017574 -0.10559111 0.040669013 0.08833339 0.2026732 -0.1824367 -0.108878404 -0.11382653 0.1618787 -0.17334361 -0.14068733 -0.0622582 -0.046725642 0.07887161 -0.10693883 -0.060944945 -0.15935057 0.15373155 -0.18010077 0.0074754064 -0.15367159 0.14155333 0.1659703 -0.13977808 -0.16075651
짱 -0.02733127 -0.24879614 -0.025627129 0.116464846 -0.04642447 -0.031179095 -0.07553571 -0.17322522 0.080167934 -0.20753796 0.1141969 -0.025920898 -0.062959716 -0.079057254 -0.2533941 -0.21405905 0.19357857 0.14895305 0.036835507 -0.12935096 0.20740621 -0.038328763 -0.06541126 0.021093518 0.074961014 -0.20537648 0.025862452 -0.13657844 -0.13866599 -0.13531545 -0.21600915 -0.20589565
뿐 0.15366916 -0.15097634 -0.15204589 -0.055372138 0.04064345 0.067509346 0.029969295 0.033053562 -0.12838158 0.073109075 -0.112555064 -0.11570788 -0.16152824 -0.12987119 -0.011242705 0.20550874 -0.16124332 0.017139437 -0.15306583 -0.12935115 -0.13545075 -0.08246661 -0.048496287 0.0052729603 -0.02462675 -0.17450744 0.10239544 -0.17993043 -0.12538143 -0.17838632 -0.08779148 0.074859045
은데 0.01120011 -0.14796774 -0.1327957 -0.15918519 -0.021004587 0.03549528 -0.0013048761 -0.049812667 0.07832115 -0.15799862 -0.20926107 -0.1918228 0.04382098 -0.09291741 0.024947882 -0.1541682 0.02067946 -0.17181315 -0.0903044 0.049594738 -0.13124226 0.014825713 -0.053386647 -0.15969172 -0.17551063 -0.17855604 -0.19747739 -0.07909517 -0.1712546 -0.2014002 0.075713694 0.14436176
별 -0.12032804 -0.056709196 -0.15986767 -0.14104241 -0.15855458 -0.048623957 -0.0086258715 0.09358856 -0.12514183 -0.12821032 -0.16227432 0.16620609 -0.1722175 0.11774841 0.054025177 -0.10323261 -0.15253496 -0.14143571 -0.17967883 0.024210354 -0.19077498 0.00406929 -0.05809831 -0.06318676 -0.12082351 -0.053005934 -0.1056967 0.045461968 -0.14394265 -0.0023878631 -0.23076354 -0.15139177
아요 -0.08971403 -0.0036933753 -0.13176762 -0.14365415 -0.0683173 0.02393916 0.07847539 0.07816811 -0.18698125 -0.1028356 -0.17045948 -0.17090446 0.020205446 -0.12882116 -0.030962236 0.046488933 0.013529127 -0.10664114 0.0016692963 0.024087418 -0.16755648 -0.10193246 -0.055196524 -0.15329649 -0.19106714 -0.0288943 -0.24252656 0.10392329 -0.13879102 -0.19569992 -0.12632185 -0.14778979
유치 -0.14875078 -0.18034641 -0.14339903 -0.15381616 -0.1737694 0.0073524253 0.18707953 -0.10589085 -0.11743981 -0.17976056 0.058080845 0.025066065 -0.18777095 -0.00924678 -0.04881132 0.09349314 -0.16371547 -0.10624237 -0.07217626 -0.17270651 -0.009073927 -0.17749757 -0.055727236 0.08644249 -0.07410807 -0.18174246 0.14548275 -0.12918797 -0.028054187 -0.07170392 -0.1539029 -0.15550353
가장 0.020378966 -0.1395838 -0.13599992 -0.14996223 -0.12903984 0.028848443 -0.16609204 0.10967217 0.009035174 -0.13968648 -0.07177223 -0.18887672 -0.14343338 -0.10677808 -0.19460195 -0.15210573 -0.09279602 -0.0095391795 -0.013432424 -0.20990193 -0.18848279 -0.09121766 -0.063446626 -0.11141584 0.038200364 -0.15688553 0.010453448 -0.17814314 -0.084411144 -0.1766333 -0.095799565 -0.17147925
필요 0.14006695 0.17634869 -0.040190343 -0.09447308 -0.17953518 0.011776046 0.018988818 0.13749439 0.14675258 0.078458615 -0.15690838 0.045935087 -0.19808204 -0.18553104 0.090013206 -0.15567288 0.16422208 -0.10117541 -0.17946184 -0.1434879 -0.011173538 -0.025511773 -0.059953958 -0.110920854 -0.12039128 0.13657692 -0.15466884 0.0520653 -0.12654713 -0.066764526 0.114708796 -0.10252729
음악 0.081890844 -0.004275354 -0.05409473 -0.14156173 -0.02102154 0.0001677163 0.06908581 -0.15450445 -0.1912222 -0.16391912 -0.19591661 0.029188778 -0.08359475 -0.124638535 -0.1794084 0.039140616 -0.13808376 0.04466891 -0.17737865 -0.1673898 -0.14729875 -0.07475556 -0.06992493 -0.17130867 0.1432631 -0.16111746 -0.19078349 0.06428062 0.18714657 -0.19884233 -0.04901497 0.08234776
) 0.09264651 -0.08138936 0.09625527 -0.088315845 0.04842943 0.009088039 -0.046777483 -0.012349736 -0.06423408 -0.11391975 -0.11954735 -0.15744469 0.044403907 -0.124134526 -0.13351242 -0.11429001 -0.10309111 -0.029667135 0.054067113 -0.12304225 -0.086201474 -0.19461638 -0.06897725 -0.10463185 0.050755482 -0.0503517 0.09459014 -0.19352862 -0.15838055 -0.1834526 0.08993964 0.05535173
일본 -0.10292146 -0.05464348 -0.1525887 -0.11921902 -0.1447343 -0.008744809 -0.171725 -0.1719138 -0.018319868 -0.18722609 -0.040368233 -0.0870857 -0.16401711 -0.13478568 -0.12076614 -0.033201694 -0.18316297 -0.15019748 -0.020770162 0.07535439 0.054096777 -0.15328234 -0.061422903 -0.0027474985 0.054630913 0.0056370175 -0.062926896 -0.17858942 -0.15349945 0.08505669 -0.1381469 -0.032232225
낮 0.23482578 -0.12933567 -0.11523003 -0.104105614 -0.1323394 -0.009897031 0.18372376 -0.01834779 -0.18422934 -0.124789186 -0.15477869 0.14737229 0.22161679 -0.18112925 0.17274347 -0.13770413 -0.056220412 -0.10006696 -0.16051152 -0.20569767 -0.053870834 -0.043007173 -0.06071611 0.07617103 -0.13188869 -0.16042562 -0.18339925 -0.04094906 0.20488921 -0.17972262 0.0019583078 -0.124903336
아이 -0.08443688 0.02502881 -0.07192694 -0.16180067 -0.130524 -0.029449357 0.00031584522 0.033667672 0.02238384 -0.18441077 -0.03212883 -0.0936301 0.04377488 -0.09191954 -0.009633002 -0.11117915 -0.21512975 -0.08794555 -0.13624208 -0.09216935 -0.15506403 -0.16648945 -0.056078907 0.01229675 -0.041343603 -0.010945699 -0.051165607 -0.16963522 -0.15709256 0.005721365 -0.16999635 0.03818194
;; -0.18623252 -0.16370158 -0.06841239 -0.13988432 -0.14318399 -0.037971497 -0.20669927 -0.2241383 -0.18022549 0.110520884 -0.09985488 -0.053552564 -0.108754426 -0.046680715 -0.2085638 -0.12654473 0.13695101 -0.14776874 -0.17441468 -0.119924694 -0.18603732 -0.20710297 -0.06488813 -0.044903938 -0.13229284 -0.11651652 0.07507359 -0.123883605 -0.14323579 0.09983716 -0.15892652 -0.046142608
오 0.07396884 0.026812267 -0.17701484 -0.113919124 -0.049026012 -0.0020949952 -0.12443167 -0.17244682 -0.10422199 0.056813 -0.10892759 0.16949415 -0.010151581 -0.07001423 -0.07390789 -0.052283116 0.16528992 -0.19459675 -0.011235425 -0.014915533 -0.08703348 -0.14628647 -0.050673984 -0.11374851 -0.18866201 0.007721824 -0.13144921 -0.22097424 -0.21939468 -0.13906555 -0.16778201 0.13227762
반전 -0.11076717 -0.019766504 0.072807424 -0.1474568 -0.13672544 0.017290225 0.06582953 -0.16578065 -0.08142704 -0.16671178 -0.06823098 -0.13800909 0.030618772 -0.11725927 -0.12429545 -0.12759697 -0.12963977 -0.156557 -0.18244037 -0.18075432 -0.16951562 0.10969236 -0.053318825 -0.08069262 -0.1558815 0.03930137 -0.16181855 -0.17461367 0.02291761 -0.14966151 -0.16560957 -0.03274385
수준 -0.16313969 0.06842036 -0.15886481 0.09252819 -0.14195576 0.07274515 0.020987906 -0.12756628 0.11851894 0.09314782 -0.10733154 -0.18154386 -0.16970874 -0.10066375 -0.19452739 0.015274838 -0.109282486 -0.14499158 -0.13007018 -0.054450076 -0.057160698 -0.14795923 -0.05904534 0.16815293 -0.09017821 -0.17359696 -0.16528459 -0.17337035 -0.11209828 0.04880385 -0.12500295 -0.10669064
다니 -0.09692953 -0.14554666 0.078973226 -0.071717605 0.008932975 0.016954921 0.13549164 0.079484604 0.053232227 -0.13541801 -0.11323234 -0.07386466 -0.010310338 0.07503839 -0.013773482 -0.14033198 -0.17400613 -0.15501463 0.14408593 -0.18568401 -0.16114037 0.005691547 -0.0709817 -0.15509959 -0.17880154 0.08392832 -0.054174963 -0.17373848 -0.030255584 -0.14928183 0.12483547 -0.14632297
웃 -0.08523999 -0.14904347 0.1376719 -0.11158776 -0.07006673 -0.041445304 0.024655715 0.02967482 -0.007730131 -0.17973708 -0.15614268 -0.16815862 0.01398006 -0.18075529 0.12108777 -0.1640111 -0.1534817 -0.15448365 -0.1858374 0.09702732 -0.16843365 0.06365215 -0.071019515 -0.0004872681 -0.16946119 0.09447758 -0.15112577 -0.21367995 -0.12311338 -0.009298394 -0.16298789 -0.17110363
매력 0.08931177 -0.1895284 -0.17095026 0.078191295 0.016318483 -0.028413296 0.06407505 -0.23121934 -0.19153199 0.08839649 0.020387286 0.09668916 -0.18124641 0.07378158 -0.20614876 0.19635044 -0.21201752 0.13411775 -0.1732261 -0.28313124 0.22143431 -0.028235372 -0.061516676 0.0182469 -0.12620473 0.08735678 -0.005266795 0.030884938 -0.13071968 0.11193117 0.13260637 -0.09199947
맞 -0.11479559 0.09207217 -0.18191291 0.026011888 0.08487744 -0.047573447 0.007036227 -0.11058722 0.0014191277 0.12974069 -0.009576061 0.0387833 -0.061243854 -0.07004991 -0.015028808 -0.20248745 0.008406036 0.050286192 -0.14961237 -0.15109736 0.030104456 -0.053754315 -0.058943298 0.05463539 -0.01365056 -0.14380446 0.11787132 -0.17694849 0.09918889 -0.1621602 -0.0022197086 -0.16856
인지 -0.12864627 -0.04692954 -0.107900776 -0.15018913 -0.1109172 -0.005029045 -0.07884258 -0.16645522 -0.06725467 -0.10238906 -0.12514952 -0.12488723 -0.13561383 0.047038708 -0.13078968 -0.13038735 0.006634702 -0.069451585 -0.15759102 0.041567508 -0.1283965 -0.15566571 -0.06117487 -0.1002315 -0.0707204 -0.102872506 -0.16580361 -0.15848541 -0.005216507 -0.08412882 -0.10930725 -0.10245076
가슴 0.100489564 0.102267005 -0.10745516 0.06658821 -0.10173523 -0.044528592 -0.0784846 0.0073166173 -0.084779784 0.05610927 0.080636464 -0.25082564 0.13408123 0.0130550675 -0.23993424 0.015104496 0.12212224 -0.14987424 0.016440641 -0.2486772 -0.03030012 0.07840631 -0.06784929 -0.097797856 0.045289375 -0.19149683 -0.09803028 -0.16457208 -0.076593824 -0.019949568 0.18292771 -0.17714353
없이 -0.10524133 0.04585427 -0.123308524 -0.112689465 -0.049927674 -0.013582708 0.06794811 -0.122134596 -0.14357677 -0.11379382 -0.072065875 -0.14079331 0.026304629 0.0068697305 -0.15861885 -0.15984195 0.14513484 -0.103013076 -0.182217 0.103803344 -0.10951143 -0.0060124607 -0.074576564 -0.1138751 -0.124368705 -0.1300343 -0.025996575 -0.12603019 -0.10595293 0.031502116 -0.13940777 -0.010252687
원작 -0.033608954 0.06597124 -0.28871828 -0.14476576 -0.0016703877 -0.04353229 -0.11883836 -0.021570766 0.0036512099 0.035082266 -0.16152966 -0.027488237 -0.16914642 0.07776271 0.021426415 -0.17829454 -0.14597064 -0.0017212678 -0.100653104 -0.10244402 -0.017590852 -0.20182987 -0.049131192 -0.14580028 -0.19256961 -0.10110431 0.14657132 0.11796852 -0.15237635 -0.16447194 -0.010454084 0.034990933
ㄷ -0.20025277 -0.17414506 -0.14588109 -0.1594772 -0.15612465 -0.026739134 -0.14403015 -0.05776835 0.033022907 0.003594582 0.00925485 -0.047442265 0.04506097 -0.10453447 -0.051295377 -0.17655759 0.048488054 -0.0090315305 -0.1781194 -0.1761311 -0.16252662 0.04963508 -0.057702266 -0.041576736 -0.16998073 -0.15870945 0.091232784 -0.20981821 -0.17755611 -0.043247417 -0.03861582 0.15797278
인간 -0.14429477 -0.13888371 -0.119339235 -0.06978762 -2.5352718e-05 -0.029778648 -0.12642427 0.04491852 -0.027928146 -0.1429273 -0.046957124 -0.030948501 -0.20071039 0.010796025 -0.172908 -0.1006679 -0.14315034 -0.13923281 -0.007230187 -0.17493743 -0.17092243 0.12541781 -0.06001813 -0.11098272 -0.14269477 -0.016063005 -0.096913725 -0.13645858 -0.1248059 0.03959932 0.06582757 0.14389957
데 -0.1067475 0.009692477 0.14251807 -0.09713236 -0.003398123 -0.0053360835 -0.033572998 -0.16115223 -0.08098506 -0.16365449 0.113041826 -0.111338265 -0.17447007 -0.04100331 -0.1199537 -0.107040435 0.08502483 -0.09269213 0.03528597 -0.12610184 -0.11809501 0.11665648 -0.058212288 -0.12735572 -0.14778385 -0.15525098 -0.15222229 -0.17559509 -0.10424179 -0.010860958 -0.15631777 -0.10828389
굿 0.123251826 -0.24855022 -0.1337404 -0.19291136 -0.19232218 -0.0033190362 0.0036970738 0.19465855 -0.020027848 -0.057138003 -0.26771417 0.117737144 0.22069633 0.08542287 0.0174625 -0.2104483 -0.22715609 0.181888 -0.23048389 0.095654786 0.04633574 0.013731066 0.009727597 -0.25521055 0.07118567 -0.16481297 -0.03977744 -0.11757486 -0.23527943 -0.22144096 0.0974897 0.044052042
ㅠ -0.16404301 -0.15536451 0.036655955 -0.022183089 0.09168548 0.027678907 -0.17234932 0.0023307146 -0.005255113 -0.1561116 -0.03754608 0.03578918 -0.0036234555 -0.15242441 -0.17912391 0.003986185 -0.13776807 0.043751247 -0.13012408 -0.16068316 0.03686121 -0.16602677 -0.0476207 -0.14202015 -0.15675217 -0.024524285 -0.16154455 -0.16656579 0.02058993 -0.15055464 -0.07097925 -0.14161278
높 -0.119400986 0.08738257 -0.1773147 -0.1321015 -0.11806809 -0.0383145 -0.105658226 -0.031591684 -0.0067999647 -0.092858136 -0.10658457 -0.15355827 -0.16603471 -0.03578955 -0.18021278 -0.00876098 -0.1897465 0.15463042 0.16006039 -0.0084193675 0.06971435 -0.09692136 -0.0702622 0.15064797 -0.04963877 0.16806215 0.04724794 -0.16456114 -0.15892969 -0.18873991 -0.14078815 -0.18559119
밋 -0.026897222 -0.04979761 -0.03970598 -0.19540784 0.122990265 -0.015427899 -0.11425902 0.015518058 -0.07777073 -0.1077928 -0.02497564 -0.25846216 0.034304835 -0.13506976 0.064631395 -0.11322713 0.18489896 -0.089620486 0.076134905 -0.22736287 0.13291669 0.17250708 -0.015666854 -0.090799734 -0.23016037 -0.14672 -0.16294575 0.015405981 0.14542268 -0.08611978 0.037756186 -0.2358891
( -0.051751368 0.07101728 -0.1357758 -0.10690778 -0.080677666 -0.027673757 -0.0694558 -0.106975265 0.086140454 0.10970386 -0.12637374 -0.15124054 -0.06027678 -0.11698647 -0.13729031 -0.037243444 -0.093528464 -0.12274468 -0.04642019 0.019435449 -0.100195885 -0.19827147 -0.04819602 -0.103705354 -0.027238976 -0.08558422 -0.06676926 -0.19520636 -0.16450603 -0.17790101 -0.11601682 -0.063571274
만드 -0.09862209 -0.108036526 -0.10827974 -0.10357238 -0.10759902 0.020935763 -0.13530919 -0.14129071 -0.012257376 -0.106366284 -0.06007367 -0.08087545 -0.17210384 -0.093975835 -0.16816518 -0.12058153 -0.16463746 -0.114295796 0.015327819 -0.13592035 -0.10324161 -0.12014541 -0.059903067 0.09251516 -0.11877192 -0.12795849 -0.008267893 -0.11598 -0.06466156 -0.19254127 -0.07366865 -0.10194546
