9996 32
. 0.031525016 -0.0077331914 0.039998684 -0.06516842 0.014676132 -0.0612526 0.030545147 -0.034689113 -0.0053947684 0.074208796 0.005030832 0.020306183 0.02233815 0.009664729 -0.025556259 0.0029481824 0.04968918 -0.05375814 -0.024564669 0.017056732 -0.03153095 0.041280545 0.013123634 0.069001056 0.034511447 0.00879767 -0.06146027 0.017571084 0.036344793 0.038125906 -0.013527753 -0.025866188
영화 0.022550372 -0.038079217 0.071889274 -0.05849621 0.07889104 -0.08437576 -0.017726503 -0.077635124 -0.053087853 0.10949395 0.0353977 -0.07248865 0.04536501 -0.01160124 -0.028137527 0.0039792703 0.14992066 0.0018631201 0.034156695 -0.07180438 0.032469884 0.09318483 -0.07932706 0.044937987 -0.008628816 0.001514437 -0.053918302 -0.012725911 -0.0233259 0.055190757 0.025333116 -0.28974214
다 0.0105777085 -0.055162102 -0.024925794 -0.06973822 0.026427323 -0.047011916 0.032956336 0.0043021645 0.032967776 0.084504 0.059453964 -0.016745817 0.017561462 -0.01751713 0.038685393 -0.01406558 0.058682606 -0.03841354 0.009462085 -0.0521797 -0.036355346 -0.009556507 -0.059415344 -0.036038198 -0.023314591 0.014274227 -0.05730106 0.013207868 -0.018612482 -0.0043997644 0.03907252 -0.09991379
고 0.058071833 -0.007614657 0.07653063 -0.04022991 -0.038616993 -0.15258081 0.06996228 9.315932e-06 0.06137502 0.004746385 0.02017247 0.00955694 -0.058323234 -0.03737342 0.011735234 0.100538 0.12875944 0.04266678 0.05412913 -0.005797399 -0.025762144 0.019754216 -0.09418262 -0.023214214 0.06179509 0.025740786 -0.12563272 -0.01171979 0.028216396 -0.011713109 0.091469124 -0.19933411
하 -0.024525115 -0.024391491 0.02249278 0.010681187 0.06312547 -0.053685114 0.0044697234 -0.036818635 -0.007506383 0.046390697 0.034344517 -0.034433648 0.033716716 -0.056214992 0.069095746 0.046055537 0.11702107 -0.01253256 0.042017475 -0.02199803 0.044727616 0.0069666314 0.009572276 0.046140987 0.039837703 -0.09591095 0.023427043 0.029745208 0.10206164 -0.019685669 0.025163306 -0.08502983
을 -0.0071363114 -0.007826543 -0.002231498 -0.017821588 -0.0100396415 -0.01636645 0.010219611 -0.046909325 0.020711118 -0.027646748 -0.006817082 -0.031053413 -0.032883078 0.017255105 0.035359893 0.010962933 0.08761851 0.045269586 0.016398164 -0.02473206 0.008672242 -0.015931858 -0.0008233636 -0.012428656 0.016028088 -0.01796758 -0.014177111 0.027865373 -0.021054382 0.055757374 -0.013543616 -0.047857888
보 -0.04834031 -0.0123888515 0.031258497 -0.042241875 0.0033707286 -0.027811307 -0.018796457 -0.020928467 -0.016896416 0.05486864 0.035044868 -0.01675185 -0.02342724 0.021066202 -0.059862617 -0.005161807 0.00020348089 0.022744345 0.045899328 0.023086635 0.00033662692 0.006607157 -0.088034265 -0.03404505 -0.023346646 -0.01045956 -0.037730444 -0.057147924 0.033873063 0.040032886 0.023878813 -0.063956864
.. 0.06793303 -0.026440732 -0.02614036 -0.042814318 0.06943549 -0.036542352 -8.8189845e-05 0.025356904 0.00839592 0.04260968 0.006893733 -0.07192595 -0.019482406 -0.015429495 0.045806695 0.086491354 0.06399592 -0.0021227114 0.025374556 -0.02693164 0.030967206 0.061035346 -0.093861684 0.045993984 0.019848363 -0.026500404 -0.058211714 -0.04794217 0.043348446 -0.043661054 -0.003184765 -0.024999538
게 0.015451992 -0.036035474 -0.026827672 -0.06427225 0.01633144 0.027035443 0.0018053489 -0.0328111 0.095436424 0.017722938 -0.00078561297 -0.0021014898 0.00078681426 0.016747788 0.002142306 0.05207563 -0.02570902 0.045531336 0.041568905 -0.016103037 0.012407655 -0.0047163526 -0.042575207 0.017113646 -0.0022098564 0.09894142 -0.11912703 -0.0579088 0.014107076 0.061289627 0.03464947 -0.19586772
, -0.0004385952 0.033038113 0.074355155 0.014341802 0.04858954 -0.09827624 0.02229907 0.01402612 -0.018601742 0.008384638 0.032313414 0.0026675428 0.03548532 0.005841875 0.029609427 0.069571085 0.036554478 -0.017908938 0.049428977 -0.06821873 0.009579222 0.0227338 -0.047021855 0.050650887 0.044689268 -0.036797915 0.033291966 0.009605921 0.035050996 0.040707257 -0.012343432 -0.05896257
! -0.016687674 0.0035983971 0.052175634 -0.028272899 -0.029039005 -0.028759586 0.07941097 -0.022404782 0.020654352 0.11743633 0.07711235 -0.020286193 0.14037049 -0.099643745 -0.067614384 -0.10270924 0.087737545 -0.08825411 0.0043581184 -0.0384101 0.07288035 -0.016867358 -0.07257425 0.033980314 -0.012122851 -0.07354734 0.006876252 -0.067302704 0.04147875 0.07695104 0.020055976 -0.11219544
지 -0.033797897 0.087230384 -0.013856851 0.0447461 0.0120560955 0.024699552 0.021895913 -0.017178468 0.045813587 -0.12782048 -0.107612886 0.07105871 -0.13341849 0.016198799 0.050318904 -0.029651163 0.029599786 0.10451211 -0.050002612 0.065592475 0.046076965 0.0006685913 -0.0231054 -0.029021226 -0.0035870182 0.026901748 -0.050573643 -0.05614044 0.11529587 -0.056042254 -0.07026764 0.09745082
있 -0.09466783 0.020647842 -0.043269172 0.049160115 -0.016339784 -0.023475148 -0.050250266 -0.029499834 0.075352825 0.03754246 -0.08506333 -0.013018846 -0.067377836 0.017293628 -0.025621317 -0.018973047 -0.024029905 -0.024097083 0.02568801 0.06661716 -0.021442436 -0.029579327 -0.08952512 -0.07587788 0.015773995 0.07399328 -0.029599218 -0.009081943 -0.0085249115 -0.028909355 0.0010372514 0.054171078
없 -0.04584755 0.0616385 0.100965105 0.003894823 0.06445182 0.0370368 0.06553177 0.055074412 -0.21136604 -0.08434878 -0.009714593 -0.06152083 -0.23982342 0.049504716 0.07012269 -0.005766248 0.07937858 0.17951037 -0.1879058 -0.052988734 0.0807453 0.12846778 -0.02323648 0.147816 -0.03479051 -0.035910174 0.09513393 -0.03301776 0.1379792 -0.09264716 -0.20681 0.18039364
? -0.034205534 0.0006491809 0.07406157 -0.031298883 0.042414792 -0.10655551 -0.005287056 0.08301136 -0.091725186 -0.08923082 -0.0060130544 0.022979962 -0.07560457 0.042223837 0.07012666 0.041810628 0.12665889 0.027909216 -0.0127282245 0.017527202 0.029593926 0.091102906 -0.055348992 0.016677769 0.006558357 -0.06459243 0.06729895 0.032866985 0.09984288 -0.058405343 -0.050443836 0.016780311
좋 0.0071009407 0.055481225 -0.18798187 -0.032401867 -0.07936299 -0.051015973 -0.18320782 0.014016556 0.10805447 0.035919733 -0.117884286 0.100744486 0.002988071 0.11632346 -0.10035808 -0.078778334 -0.06623722 -0.030231178 0.079661176 0.17778346 -0.030439628 -0.06430162 -0.07153603 -0.16761047 0.030897781 0.26498276 -0.12635581 -0.036050696 -0.09284378 0.068976775 0.15632138 -0.17739426
나 0.03152209 -0.011793868 -0.05438 0.036985178 -0.01065335 0.019319406 0.018636297 0.042152327 0.0530342 -0.013999298 0.019117875 -0.043360174 0.01619779 -0.021933826 0.04794498 0.06517899 0.18899105 -0.0389917 -0.037530124 -0.024909893 0.024326995 -0.021699425 -0.005502078 -0.017434914 0.009060454 -0.10114185 -0.035774745 -0.001858982 -0.052243575 -0.021513507 0.00880794 0.054133143
었 0.032271218 0.017857585 -0.03479532 -0.052894454 0.0139049655 -0.062813126 -0.08071133 -0.03307908 0.042412005 0.009045144 -0.016331673 -0.013132698 0.025792446 0.043752283 0.029716821 0.061423924 -0.027517252 -0.02917908 0.020872632 0.046953004 -0.06912901 -0.031717576 -0.079546645 -0.0564043 -0.013750047 0.057451084 -0.029282456 -0.01777254 -0.015787465 0.03267245 -0.008425348 -0.04066484
만 0.029946074 0.020839171 -0.01200171 -0.08768219 0.013471336 0.010779817 0.055982232 0.075047545 0.024934363 -0.06714933 0.065447055 -0.08700563 0.051859297 -0.06307548 0.101277955 0.012872791 0.062700294 -0.0056423973 0.0012330649 -0.025847366 -0.0478302 0.0071201148 -0.0017023839 -0.0656434 0.10557488 -0.08244095 -0.03534394 0.047388062 -0.101138726 -0.01641395 -0.061342653 -0.0924863
는데 -0.015828105 0.06183976 0.070626065 0.010500564 -0.059824117 -0.08223956 -0.036765948 0.023829669 -0.029613575 -0.0050793616 -0.022677133 0.029940426 -0.016276807 0.053416632 0.017117346 0.09022103 0.12859559 -0.064946905 0.0702556 0.04050066 0.07305148 0.020989133 -0.09089506 -0.011988416 -0.059161246 -0.0023127503 0.0187266 0.013063953 0.085995644 0.028886663 -0.020694247 0.16988248
너무 0.006465395 0.003831795 0.09692052 -0.09689686 0.04623507 -0.19045053 -0.058332916 0.019025031 -0.21221808 0.06998517 -0.03437676 0.021686295 0.17119987 -0.09840614 -0.013218709 0.02421049 0.0003674853 0.119239405 -0.0073883063 0.05507148 -0.075118415 0.014117979 -0.07753632 0.14455731 -0.07350985 -0.089677215 0.011669933 -0.021038175 0.1910992 0.023741288 -0.011264344 0.09471744
봤 -0.010277283 -0.041315053 0.017253576 -0.0015589993 0.0056253965 -0.09128731 0.05192667 0.0031739965 0.010335906 0.047312766 0.08222151 0.045120433 0.06528919 -0.025466861 -0.0005055142 0.075937696 0.027540052 -0.029493641 0.025228871 -0.016592195 -0.00930117 -0.01393672 -0.023778295 0.009674434 -0.025882278 -0.0472359 0.028653184 0.00926401 0.116898894 0.058812913 0.1080978 -0.09121108
적 -0.027005874 0.019402338 0.028806984 -0.032597084 0.054321196 -0.025742408 -0.033957377 0.020014284 0.015604589 0.03623988 -0.008282779 -0.0044348235 0.0034688213 0.038015604 -0.0013394768 0.08696682 0.0486531 -0.028545953 -0.02751308 -0.01601873 -0.03335375 0.012750273 -0.065544486 0.050689414 0.015912991 0.031631295 -0.071873285 0.022442084 0.0682339 -0.0150686605 0.029839013 -0.11552954
안 -0.009274482 0.042787757 0.014537181 0.0274337 0.11841795 0.120788306 0.0626174 0.054566294 -0.05590634 -0.016726688 0.067737274 -0.123604126 -0.055919632 -0.058212996 0.16558327 0.018167473 0.13671565 0.020381657 -0.117193766 -0.096041575 0.12099719 0.07567089 0.06466856 0.04161039 0.05494268 -0.08715837 0.04622749 0.009596262 0.012718138 -0.08665592 -0.26260895 0.044544127
정말 -0.015036797 -0.044334877 -0.01973371 0.04319724 -0.05326129 -0.08486956 -0.03223723 -0.029936722 -0.04688718 0.08846713 0.0021984207 0.031589437 0.027600281 0.024256939 -0.0728247 0.045256007 0.026380375 0.061068855 0.02041867 -0.037270457 0.015457814 -0.039593026 -0.102106206 0.08678856 0.0030733119 0.02278401 -0.03825341 -0.023688829 0.110702574 0.01274207 0.03951439 0.07510456
로 0.008443424 0.038512785 0.009139559 0.0022374322 -0.0015029362 -0.039674792 0.014657397 0.00492478 0.046213355 -0.034783073 -0.0003521559 -0.053385574 -0.009712848 -0.029296737 0.074523434 0.068148635 0.10763719 0.035253994 -0.05155148 0.026061302 -0.06643971 0.06331488 -0.092752166 0.023269758 0.03765281 -0.0715325 -0.057563663 0.011154831 0.05381042 -0.010140432 -0.014536865 0.037331488
음 0.090017185 0.013397686 -0.002280644 -0.02995614 0.018303247 -0.12418191 0.019139983 -0.023930285 -0.0073750736 0.13744715 -0.00036935718 0.005065254 0.1405998 -0.04446567 0.035630148 -0.06528452 0.03680129 -0.046030916 -0.00011554142 -0.062820956 -0.0028368721 0.084138796 -0.031351198 0.03293929 0.07881049 -0.046386633 -0.10918077 -0.011138935 -0.025570072 0.012776971 0.016570164 -0.29745796
것 0.020236768 0.05839335 -0.04170166 0.0127804065 0.038385157 -0.0829722 -0.045870647 -0.035478637 0.04874444 0.033825625 0.007247043 0.07863323 -0.03165724 0.043566216 -0.02636692 -0.02311964 0.075016245 0.041592643 0.038268622 -0.00968981 -0.07944946 -0.0077349315 -0.025866963 -0.05027482 0.02500701 0.030135477 -0.04567601 0.008447989 0.056829464 -0.034922186 -0.040285844 0.07780128
아 -0.012348781 0.025100179 0.006871328 0.057353336 0.027344072 0.038134128 0.031490702 0.0280555 0.021203678 0.044103976 -0.014237793 0.02668327 -0.086682126 0.0673454 0.010971318 -0.0018478895 0.04981807 0.09004896 0.01060888 0.025230955 0.044080377 -0.036186464 -0.019452818 0.035770353 0.041325256 0.013438176 -0.020463627 -0.016616026 0.048391003 -0.0057418067 -0.053804852 -0.024746958
네요 0.06585676 -0.057749163 0.015161172 -0.0349535 0.01045363 -0.11265003 -0.012949633 -0.089526415 0.03542287 0.05802993 -0.019708008 0.028475048 0.008794704 0.0016483689 -0.019610692 -0.074490026 0.066026926 -0.021680236 0.06724813 0.044739727 -0.03693885 -0.002356465 -0.026354833 -0.020778183 0.014635594 0.076094165 -0.08759189 -0.015129466 0.020674264 0.09008692 0.03714761 -0.248246
재밌 -0.04742588 0.14021353 -0.1805501 0.04801538 -0.17223567 -0.11042653 -0.23085822 -0.13520302 0.25111467 0.04570467 -0.16983609 0.12025979 0.10416189 0.2878133 -0.2196516 0.0027381124 0.049763396 -0.13676667 0.10526298 0.23563711 -0.039045375 -0.21196353 -0.13935639 -0.35189986 -0.13619778 0.38155016 -0.21355936 -0.03196792 -0.35711938 0.06816329 0.17540714 -0.19037598
어 0.017791497 -0.0007338122 0.035411585 0.019705147 0.044412218 -0.10028323 0.0012060549 -0.02296122 -0.047495175 -0.016566692 -0.052894086 0.05578272 -0.008164855 -0.03882839 -0.02808174 0.08361191 0.124506176 -0.034524996 0.012195516 0.0022503615 -0.022701992 0.039048992 -0.07519535 -0.011208154 -0.0031767627 -0.023642706 -0.032766186 0.008844936 0.07522003 -0.020467656 -0.01634302 -0.05442933
같 0.04290767 -0.04369141 -0.010429242 0.015848512 0.05147231 -0.056846816 -0.039101247 0.021232456 -0.018764898 -0.009311097 0.052870423 -0.058492865 0.10319434 -0.006055839 0.020536263 0.039230313 -0.0024668453 -0.066582076 0.02600422 -0.008554023 0.027213683 0.055176497 -0.0078528095 0.01235912 -0.011934056 -0.029925603 -0.047109533 -0.048515838 0.048563886 0.043106414 -0.029258318 -0.10389248
점 0.13945891 -0.05149988 0.030475093 -0.092517965 0.058364484 -0.14206848 0.04469622 -0.052317787 0.04514561 0.044874694 0.09414726 -0.1141199 0.11407108 -0.06816179 -0.03668757 0.020739578 0.107355595 -0.047060065 0.0430681 -0.044105045 -0.015354505 0.057635292 0.008568773 0.012531709 0.11629831 0.011958253 -0.17053534 0.13450572 -0.08413921 0.051895473 0.042641044 -0.39016768
지만 -0.00945716 0.028117068 -0.032645456 0.10709867 -0.0728493 0.0662088 0.102109104 0.034842044 -0.011484447 -0.06504021 0.015234235 -0.05188026 -0.04408444 0.02608132 -0.012292078 0.09977791 -0.028905122 0.034623887 -0.026121434 -0.004015037 0.035829827 -0.05389438 -0.066260196 0.13884956 -0.09781065 -0.060059104 0.16999173 -0.07039496 0.13701889 0.014483681 -0.14676732 0.3706745
진짜 -0.023998007 0.061895795 0.020495618 0.01637057 0.033742696 -0.20584698 0.0067524477 -0.06475982 -0.04639119 0.13033853 0.0015277436 0.011659757 0.08742377 -0.04751597 -0.022553578 0.060897626 0.12464904 0.0444512 0.007500635 0.0559203 -0.025576701 -0.0034231748 -0.057395235 0.023479162 0.012907733 -0.012913012 -0.037305504 0.032554798 0.074891806 0.004949935 0.06905444 0.052688938
했 -0.03465732 0.048349578 0.02556757 -0.04546199 -0.036221385 -0.030329714 -0.052916493 -0.04027686 -0.042636782 0.065644346 0.06789235 0.04496156 -0.010807702 -0.004556426 -0.033128995 0.026993755 -0.0756081 0.06657051 -0.058304675 0.046016138 -0.074146874 0.024994276 -0.09001227 0.024944361 -0.036244188 0.01811835 -0.02693971 0.02460231 0.015856115 -0.021691471 0.0006111186 -0.068443984
에서 -0.030995237 -0.033442784 0.017351443 0.055492345 -0.05237596 -0.02920516 0.013839831 0.012458784 0.12104622 -0.016800262 -0.01116806 -0.015324386 -0.0036954358 -0.024321744 0.057447016 0.11708882 0.035268463 -0.0035419052 0.062150184 -0.01864915 0.007902262 0.014517909 -0.022405598 0.010170465 -0.005091969 -0.03275453 -0.044033807 -0.009381194 -0.013189641 0.0233371 0.05558734 0.046914235
기 0.022658769 -0.014473465 -0.005815053 -0.03430202 0.02402863 -0.04767733 0.07555509 -0.035271578 -0.057107847 0.052749645 -0.016918078 0.015781067 -0.036238242 -0.030282184 -0.02447657 0.005642022 0.024308886 0.039489273 0.020941162 -0.03708073 -0.0065813945 0.06067151 -0.0037508772 -0.0042006862 0.06178607 -0.01969233 -0.046916965 0.010811991 -0.007106316 -0.056366347 -0.010245784 -0.10838171
네 0.07985629 0.059012398 0.034953937 -0.05566822 0.08458194 -0.15171532 -0.04288585 -0.036523707 -0.05187521 -0.0227849 -0.059901092 0.010677656 -0.057080865 0.012453387 0.058570854 0.043876696 0.17268123 0.036707785 -0.010319995 -0.018382084 -0.06404674 0.07186618 -0.13860615 0.010400815 0.050731696 0.0069971536 -0.041472495 0.0042302315 -0.045029618 -0.07001935 -0.030603059 -0.027261965
않 -0.15038317 -0.007961259 -0.040574122 0.10662711 0.029131733 0.22432867 0.12879081 0.08054526 -0.03254955 -0.13657282 -0.070848644 0.0031205143 -0.2626096 0.06661103 0.043138146 0.04023693 -0.037832055 0.088755794 -0.05659657 0.054961402 0.11233878 -0.03773378 -0.08063762 -0.016098594 -0.03518811 0.014733018 0.2173139 -0.05518368 0.16570435 -0.098971486 -0.21824774 0.4954712
거 -0.041986194 -0.006623227 0.0019845013 -0.03384781 -0.0023183771 0.03233681 0.055406652 0.026560854 0.0829624 -0.029915424 -0.028981354 -0.0039663273 -0.04545567 -0.039215215 0.06937727 -0.023383558 -0.0030946126 -0.05177644 -0.08669187 0.015162136 0.032351606 0.031344816 0.008549511 -0.09289398 0.08568832 0.009341204 -0.008613634 -0.032968633 -0.074112706 -0.017539857 0.018975636 -0.0032880711
았 0.02400822 -0.020652821 -0.06910329 -0.037885565 0.025495233 -0.026606603 0.012127684 -0.00017732171 0.006668119 -0.008533163 -0.030544497 -0.017660925 0.00943048 -0.03447341 -0.014531333 0.003104032 -0.023820091 0.029058853 0.021170264 0.07524017 -0.010600849 -0.010604794 0.005588972 -0.049748756 0.0115101915 -0.05171371 0.056651678 0.011925368 0.02241282 -0.02231073 0.03555995 0.01633323
수 -0.02787207 0.062622376 -0.066240154 0.039719995 -0.024822628 -0.005705171 -0.057357255 -0.070186734 0.13505311 -0.036046036 -0.09101553 0.045915376 -0.08027084 0.014611269 0.057011437 0.0066526793 0.05571106 -0.09613025 0.029045947 0.03250988 0.122411005 0.04000594 0.0038040765 -0.07297198 0.0026498674 0.07571914 -0.06471257 -0.023282023 -0.10540292 0.0062437304 -0.061542477 -0.18611044
되 -0.0050106645 -0.024289101 0.038101997 -0.0074345837 -0.025570344 -0.12450116 0.055753823 0.007884079 0.032943193 0.049235154 0.05974635 -0.01803164 0.09581315 0.005061125 0.005568984 0.028286776 0.15680346 0.027439797 0.05445278 0.014511394 0.026089365 0.011529939 -0.03690554 0.050140873 6.4034866e-05 -0.055874802 -0.082553856 0.01456343 0.045916185 0.057952616 0.07229486 -0.26390374
면 -0.00835155 -0.03133105 -0.052432083 -0.0068812612 -0.014467249 0.00275787 0.016275357 0.010080907 0.044575904 -0.04466671 0.031047717 -0.017469803 0.020066366 -0.026554694 0.029539559 0.08334028 0.02674591 -0.013117902 -0.028453972 -0.014100934 0.039363295 0.0053975675 -0.059796527 0.034607355 -0.016297858 -0.03715173 0.028145151 -0.01917795 0.017914845 -0.03880671 -0.0738595 0.07461268
ㅋㅋ -0.04318102 0.016377704 0.06729518 -0.012938143 -0.04292052 -0.08157626 -0.04487691 -0.037008047 0.010231408 -0.0021119874 -0.04252963 -0.03457801 -0.04085639 -0.0179091 -0.0029777077 0.0053506554 0.15046223 0.06527554 -0.014529126 0.06839513 0.025415462 0.013902679 -0.053548537 -0.027385863 -0.001996383 -0.044584356 -0.05449187 -0.031839132 0.0413274 0.02547544 0.019183977 -0.117620245
말 -0.045532014 0.03316547 -0.050694056 0.05306046 0.0017061444 0.007783104 0.009713503 0.006919052 -0.036611713 0.00022291699 -0.02893968 0.018149776 0.027366025 -0.0069201 0.062904984 0.03251772 0.11546354 -0.07543996 -0.006726447 -0.0046707285 0.07005138 0.03570296 -0.037935894 -0.06633025 0.017953394 -0.04115453 0.091778174 0.02137504 -0.018358663 -0.015758863 -0.018169938 0.08470169
연기 0.031215826 0.017656371 0.0037546565 -0.029529294 -0.05130507 -0.05936116 -0.026399788 -0.08130761 0.024044042 0.017751204 -0.01208061 0.030307757 -0.022189759 0.015533304 -0.08798506 -0.052411497 0.018418377 0.055308383 0.06013575 0.010192313 -0.010119412 0.0034552733 -0.06275222 -0.028835278 0.022847358 -0.01834837 -0.056180324 -0.06999499 0.010372235 0.040936816 0.12312175 -0.24072532
인 0.013453652 -0.010093217 -0.01600159 -0.055657968 0.049275637 -0.04878991 -0.0026965074 0.025026115 0.027411949 0.046750076 0.031980786 0.010163765 0.055446718 -0.050117448 -0.03640115 0.05307877 0.09521302 0.04222119 -0.004213208 -0.016728606 0.030617962 0.019604614 -0.04317449 -0.007385655 0.05751996 -0.05480345 -0.020144854 0.028520567 0.032080058 0.04598711 0.013898315 -0.12598379
주 -0.0055072657 0.067840494 -0.0134654865 -0.025844479 0.014285974 -0.08386455 0.0010448829 0.022288121 0.048153684 0.040680457 0.00017462106 0.005308539 -0.03975278 0.03517528 -0.034987915 -0.017519694 -0.029867392 -0.0003327123 0.052988626 0.03223599 0.05113508 -0.048798062 -0.07518861 -0.0834445 0.00061490515 0.058666144 -0.060480073 -0.08467066 0.01089772 -0.011575179 0.06697877 -0.014389552
내 0.009535152 -0.053284932 0.01275531 0.0010154184 0.037727702 0.017671954 0.04225761 0.044856656 -0.022661792 0.0036956607 0.029968929 0.0037164355 -0.056935664 -0.03736407 0.011923482 0.09645444 0.06319719 0.045015264 0.054603156 -0.043911405 0.0050057587 -0.034165945 -0.0066207545 0.043435603 -0.045948036 -0.013288306 -0.039772373 0.048480187 0.020366745 -0.056181718 -0.03208916 0.029389817
최고 -0.18171996 0.13811566 -0.18595532 0.24796368 -0.20061702 -0.11659458 -0.15935634 -0.13825841 0.14935474 0.14022043 -0.24697872 0.22157407 0.09398884 0.20612615 -0.1706017 0.14241125 0.14212276 -0.060821775 0.10938319 0.25387794 0.15804935 -0.22658218 -0.13592762 -0.15559404 -0.19277458 0.09136892 -0.11203005 -0.20350327 -0.13905598 0.11599016 0.10103189 -0.04235648
~ -0.036195196 0.0103894705 -0.0046419566 -0.007888665 -0.02158701 -0.08006372 -0.06634961 -0.0051786453 -0.024396108 0.033991285 0.024275048 0.0601625 0.014139102 -0.023266388 -0.06756472 -0.14201711 0.056025427 -0.025240771 0.037750974 0.018657466 0.05407254 -0.028476859 0.010005976 -0.051782526 0.016318828 0.040159404 -0.06249315 0.0038982583 -0.044538952 -0.0025717411 -0.050795335 -0.14833389
평점 -0.11763165 0.104769275 -0.0018592635 -0.0050631347 -0.023197448 0.060936727 -0.02076542 0.016211301 -0.06487669 -0.00093029457 0.02945763 -0.02438763 0.049854618 0.038383435 0.008051497 -0.059352387 -0.06509567 -0.08938308 -0.012904868 0.060602866 0.11551727 0.0314199 0.06212833 -0.02199828 -0.027632497 -0.0040958477 0.030995829 -0.07165646 -0.03607578 -0.06561581 -0.043358214 -0.018686406
이런 -0.031185795 0.028677845 0.03692432 -0.029797472 -0.0048244908 -0.09863026 0.051454272 0.04327681 -0.060087923 0.04133816 0.03622754 -0.017617676 0.0036923434 -0.0776242 0.030283634 0.039338596 0.070507936 0.021815578 -0.009962542 0.033618625 -0.040013548 0.005210434 -0.06296053 -0.0016303606 0.027476594 -0.07625889 0.048767485 0.009890738 0.13997737 0.021476083 0.014327791 0.017596042
던 -0.06416499 0.017424045 -0.06861687 0.045045655 -0.0621943 0.022268029 0.04324637 0.006754464 0.016110336 0.063059054 0.013682874 -0.036896154 -0.00867164 -0.012126336 0.01927584 0.08075012 -0.052707847 -0.001557627 0.031294856 -0.058118463 0.013412717 -0.019191587 -0.034742616 -0.009811091 -0.043474 -0.046296142 0.016626948 0.009389594 -0.013997903 -0.021869972 0.0006972426 -0.019641792
어요 0.04335261 0.056864746 -0.069211185 -0.049986266 -0.0016117367 -0.13432066 -0.06312883 -0.09143346 -0.042303126 0.11560817 0.03920993 -0.034975488 0.1053957 -0.0044462834 -0.06930032 -0.14863838 0.012955263 -0.06956182 -0.024095226 0.007309991 -0.034178775 0.024894679 1.1009048e-05 -0.036346823 0.011494859 0.013714624 -0.15650384 0.04556279 -0.051029522 0.038875192 0.01748245 -0.34893
할 -0.035477057 0.059085153 0.02840051 0.005404541 0.055166 -0.07471923 -0.037646674 0.007820871 -0.0035602478 0.017001858 -0.07096031 0.012541344 -0.06917088 -0.014343316 0.046864524 0.049055647 0.018161321 0.08795053 -0.021759506 -0.0055904314 -0.0048220498 0.041223828 -0.05360856 -0.0054850024 -0.039255634 0.0678737 0.0052882154 -0.0035499106 0.0935319 0.0010865333 -0.047131844 0.04660997
왜 -0.036327615 0.045015913 0.027180098 -0.008662091 0.07468256 -0.042744093 0.07707115 0.025977284 0.027113212 0.021656878 -0.06448242 -0.06814908 0.06030252 -0.032667756 0.0515391 0.0035308138 0.17901842 -0.05137041 -0.06556383 -0.000110209934 0.072495066 0.10762223 0.09169751 0.02045427 0.038112152 -0.06581832 -0.04666185 0.007733762 -0.055437922 -0.043579422 -0.1795136 -0.20499073
겠 0.043324307 0.007990931 0.0152012305 -0.09108734 0.04390854 0.030760828 0.08672954 0.013804659 -0.04109861 -0.10233822 0.05034224 -0.0047040726 -0.073082566 -0.03534167 0.043194424 -0.07223199 0.026416246 0.06974553 -0.029625786 -0.01115961 -0.009359001 0.06500733 0.04396659 0.07669658 0.025011092 -0.055507366 0.029611893 0.004581969 0.06246533 -0.029259793 -0.026408609 0.054623626
1 0.07498635 -0.047111373 -0.028657317 0.034283403 0.14783525 0.05591219 0.10513093 0.040841147 -0.012953403 -0.0908373 0.07598828 -0.113056265 -0.09317514 -0.09733676 0.18815583 -0.009670262 0.1345114 0.11047936 -0.15228972 -0.1017149 0.03094876 0.08658509 0.035351306 0.027681384 0.037025988 -0.11177565 0.016349457 0.11990092 0.06700096 -0.07994699 -0.28375062 0.084887214
스토리 0.013186813 -0.031314325 0.033916842 -0.07573522 0.0170371 -0.14051893 0.028198782 -0.020697866 -0.045772545 0.059731115 0.017354008 -0.022725502 0.017811462 -0.090720795 0.013951104 -0.0054711993 0.111714244 0.04346975 -0.04733835 -0.05105399 -0.079684705 0.0876307 -0.049707234 0.10568243 0.04613952 -0.074918196 -0.08472223 0.058321476 0.06790518 0.011313777 -0.00814415 -0.20333509
해 0.003695156 0.0041985656 -0.020070221 0.009096815 0.045174923 0.05376185 0.006453319 -0.023998436 -0.0032779935 0.035637476 -0.042301748 0.014289805 0.022002064 -0.051040284 -0.0024631866 0.0014460004 -0.009105123 -0.013177242 0.0073217545 -0.06805622 0.06752458 0.0011914554 0.003141552 0.038443916 0.0145502305 0.0150134675 0.060116544 -0.021211568 -0.0020321207 -0.008584363 -0.023337599 -0.04638072
습니다 0.0048292647 0.014540322 -0.04351047 0.00472864 -0.04086978 -0.10139499 0.037640586 -0.028759055 -0.0383845 0.04628869 0.004060172 -0.015771734 0.004915543 0.048378434 -0.06930741 0.013363213 0.010851878 -0.026001861 0.04606552 0.033689834 -0.042647075 0.0064493762 -0.08592961 -0.03929016 -0.0061002746 -0.026833652 -0.024815785 0.04586519 -0.07565004 0.00652008 -0.024745246 -0.22936003
ㅋㅋㅋ 0.033985514 0.017541165 0.022395829 -0.056629397 -0.04191078 0.004101583 -0.060917642 -0.006608169 0.035126317 -0.0037904799 -0.031863526 -0.004842294 -0.0092339525 0.07173362 -0.016115816 -0.06215858 0.009811247 -0.027946627 -0.0374602 0.030987464 -0.049079865 0.04295867 0.06607135 -0.035913926 -0.0187328 0.08852206 -0.016589923 0.05299368 -0.06015919 -0.023232074 -0.0016715744 0.064079255
... 0.016863745 -0.009876262 0.065230556 -0.012990741 0.02018111 -0.04627415 0.008656578 0.02109949 0.0028811065 -0.031109868 0.061176166 -0.0099468455 -0.02009768 0.009282378 0.008894826 0.036506947 0.0026696187 -0.004274853 -0.00993234 0.0014500946 0.064828075 0.0059633697 -0.08736293 0.08228665 0.00090769085 -0.013748609 -0.013052293 -0.032697883 0.068793446 -0.08172763 0.011761673 0.07238078
드라마 0.07337157 -0.026755404 0.10963962 -0.09085877 0.017940631 -0.21255647 -0.052485235 -0.04982735 0.015022326 0.08111223 -0.053261273 -0.04511126 0.07982272 -0.03420517 0.069161706 -0.059733648 0.15751901 -0.0892936 -0.006316947 0.01573339 -0.0038703668 0.08127795 -0.031217597 -0.013256872 0.017558997 -0.058894362 -0.19278564 0.027507888 -0.0026580517 0.04040273 0.013163014 -0.43392512
생각 0.02037113 -0.0024657643 -0.097996056 0.06464921 -0.009495541 0.007712677 -0.028336475 -0.08182811 0.00184024 0.10137847 0.024089748 -0.022687336 0.048886348 0.033612605 0.00029325415 0.030407581 0.055487234 -0.017605035 0.016746141 -0.009528758 0.042177238 -0.04035652 0.011324042 0.0025127174 -0.066930555 0.02694224 -0.14473201 -0.024322381 -0.008954665 0.056175914 0.022741042 -0.26137453
아니 -0.1045412 0.047206935 0.00012031561 0.07364882 0.07185406 0.15856446 0.05384194 0.020844398 -0.113875106 -0.05443138 0.015603752 0.006945639 -0.115442194 -0.028149452 0.055885628 0.082184695 0.0739159 0.07690056 -0.11792044 -0.03299923 0.09735748 -0.003310584 0.016743891 0.059740283 -0.012409025 -0.029250167 0.094997175 -0.052439757 0.07804761 -0.058863837 -0.14328867 0.3134034
더 0.033982787 0.043308906 -0.10290391 -0.028229576 -0.005289922 0.12001289 0.050010838 -0.00030535262 0.11844377 -0.016470289 -0.053519897 0.020152703 -0.0038450358 0.024797335 0.030102473 0.012536597 -0.011555776 -0.019175278 0.010095763 -0.05304152 0.06665696 0.0042324974 -0.0022891245 -0.12047633 0.05349787 0.046330914 -0.050504882 -0.032219816 -0.09133996 -0.047138587 -0.10696537 -0.19980553
그 -0.06435514 0.044959445 -0.00043238007 -0.0028887712 -0.012943044 -0.016634027 -0.027673574 -0.045394816 0.033895805 0.09814797 -0.0165008 0.012191658 0.002982712 -0.0093666725 -0.024852177 0.04297172 0.049447276 0.0065312157 -0.025670009 -0.005850512 0.027607517 -0.0059256405 -0.03921005 0.019818237 -0.03840483 -0.03527501 -0.022081044 0.043836053 0.042581216 0.0018190598 0.015003347 0.048367403
싶 0.079724364 -0.067501076 0.015284309 -0.08608999 0.04122372 0.0008869617 -0.052065324 -0.027227277 0.075258575 -0.019157952 -0.007861258 0.007825712 -0.028585944 0.027154388 -0.04203957 -0.09414358 -0.017884664 0.03189443 -0.041566223 -0.011130114 -0.1159018 -0.034829386 0.014732483 -0.06493319 0.115081646 0.020411381 -0.05665081 -0.0024176629 -0.058021113 0.004583434 0.05596309 -0.15297784
사람 -0.037427045 0.089455724 -0.10125286 0.11174402 -0.04875464 0.07084883 0.032736056 -0.03164576 0.07038237 -0.038057182 -0.053564478 -0.029732507 -0.08426758 0.04769342 0.055490308 -0.022419987 0.024934424 0.007885588 0.03627344 -0.03062649 0.10114659 0.009801717 0.06734788 -0.020995729 0.015303886 0.06881427 0.022650935 -0.040858198 -0.028598156 -0.054521024 -0.15857358 0.14072305
듯 -0.052648738 0.04524431 -0.017936513 -0.02254388 -0.065968014 -0.071818545 0.056303766 0.051036447 0.01463313 -0.032917008 -0.017576372 -0.04222845 -0.15260018 0.046961732 -0.00051426515 -0.01024471 0.06965595 0.034708537 -0.012915516 0.05853216 0.0083625745 0.043366127 -0.049465876 -0.007164474 -0.064926036 0.09379795 0.0034121247 -0.011487238 0.04171329 0.03343632 -0.013840632 -0.032648176
때 -0.024943693 -0.0069006835 -0.061691508 0.007892859 -0.06429828 -0.0006364692 -0.009003648 -0.010935169 -0.018278716 0.03292205 -0.026079485 0.0554292 0.06924385 -0.01638414 -0.052248657 0.03669901 -0.00020859047 0.013422054 0.00062168174 0.057035338 0.008088338 0.017039835 0.005512692 -0.0766111 -0.008780948 -0.042795584 -0.04380685 0.009783572 -0.06260647 0.062376965 -0.014526191 -0.13291338
감동 -0.121370256 0.0024936143 0.0048364666 0.016294701 -0.094359905 -0.15553483 -0.14265461 -0.082954794 0.09113112 0.066226855 -0.09568129 0.1228517 0.010557641 0.12747592 -0.1644713 -0.019050913 0.08628383 -0.061734047 0.113891505 0.19291882 0.115075484 -0.14853871 -0.19084218 -0.08798502 -0.109045416 0.05405803 -0.009030166 -0.1764264 0.074926056 0.04248799 0.26154044 -0.008938507
함 0.0039395913 -0.026252093 0.0079882005 0.016496114 -0.03347505 0.03901405 0.0014624341 -0.0019288393 -0.041537635 0.018416528 0.061975244 0.0032967827 -0.062433742 0.020218562 -0.038468976 -0.031694643 -0.062435254 0.005026756 0.015895545 -0.04508004 -0.007642859 0.028978873 -0.012845266 0.0038137846 -0.02586136 0.033433814 -0.007566016 -0.0064303433 0.037798602 0.025619786 0.04789087 -0.21024443
배우 0.00093431096 -0.013724844 -0.041101076 0.0037372655 -0.012775415 -0.020271242 0.014478385 0.029902304 0.08385311 -0.030354682 0.049877837 0.0047071176 -0.054482426 -0.022925043 -0.040627338 0.02013461 -0.04268896 -0.012415618 -0.04230417 0.052465275 0.04875403 -0.006739655 -0.023423564 0.015385756 0.018880673 -0.041753393 0.017147398 -0.05346378 0.0362222 -0.016587466 0.026988603 -0.040164456
본 -0.051962413 0.009098429 0.0346159 0.018348953 -0.04690701 -0.03453863 -0.06499361 -0.050144695 -0.006845954 0.09428879 0.04463854 0.007628054 0.027999869 -0.017019851 -0.08030992 0.055225987 0.017350245 -0.028224261 0.03341571 -0.031140666 0.006033982 -0.014558816 -0.013871854 -0.0041834195 -0.025951535 -0.02433445 0.013782558 -0.04147338 0.019257504 -0.0111959865 0.021886276 -0.08313144
까지 0.02228196 0.04961157 -0.009713647 0.019777054 -0.0202977 -0.021557575 -0.028711388 0.00972697 0.026362462 0.0038355985 0.016921211 -0.022533901 0.0017121299 -0.01758891 0.014769001 -0.017860984 0.05077472 -0.073930465 0.016554648 0.05777265 -0.00034898202 0.025832474 0.0034060518 -0.067555994 -0.01590694 0.018688522 -0.009070478 -0.048247248 0.0028521027 0.009476396 0.049053635 -0.170461
뭐 0.09398766 -0.018102305 -0.0348294 -0.06617231 0.027213858 0.011656706 0.084387854 0.0028707527 -0.056001466 -0.03919774 0.06727495 -0.10934429 -0.03326854 -0.033958603 0.058089454 -0.024892632 -0.100886635 0.031501707 -0.037478697 -0.105390415 -0.015152661 0.08371156 0.053042453 -0.022115067 0.045899935 -0.06677359 0.022000698 -0.012814415 -0.018705476 -0.008340796 -0.15256672 -0.06522432
알 -0.022670526 0.03922814 0.0502511 0.040975302 -0.019278197 -0.0063979602 0.035521615 0.04815448 -0.026884405 0.008956245 -0.0051857186 -0.05240728 -0.018840404 0.0239032 0.047117803 0.038046677 0.068698995 0.026588757 -0.0016513782 -0.016039701 0.010489471 -0.044497345 0.002166022 0.009635956 -0.029260948 -0.0023813301 -0.038798176 -0.03498602 0.065455504 -0.06194638 -0.012596741 0.054610826
만들 0.08702319 -0.062447213 -0.021191807 -0.14072394 -0.0499787 -0.09255389 -0.03149975 0.065493174 0.003133283 -0.07891953 0.049768303 0.019826801 -0.13674358 0.08077683 0.016625402 -0.026508274 -0.07116512 0.04822063 -0.0322789 0.04638516 -0.13204378 -0.0051129875 -0.059595093 -0.035778597 0.046269026 0.08202507 -0.057206977 -0.02287119 0.029726304 -0.028710427 0.09507703 -0.04208357
내용 0.042355932 -0.029117057 0.09247427 -0.01268256 0.037627004 -0.08049461 0.10602087 0.06462016 0.028264254 -0.038858682 0.0060495497 -0.07706649 -0.12837413 -0.09538553 0.13687329 -0.028053796 0.16006361 0.023641735 -0.045501623 -0.02541768 -0.035181336 0.066293515 0.01911926 0.10708784 0.108135216 -0.059373226 0.021980409 0.081398 0.1258353 -0.09106415 -0.04614077 0.08041938
볼 0.0758338 0.016326608 0.022804113 -0.0027282706 -0.10257957 -0.089361966 -0.09730453 0.0042081303 0.17346096 -0.025026342 -0.01640462 0.096616134 -0.090630375 0.10082504 -0.047457263 0.04504491 -0.03793435 0.028291577 0.069086924 0.06312034 -0.06708179 -0.14755593 -0.13138483 -0.09830496 0.036297694 0.082779765 -0.1485193 -0.016242241 0.024040997 0.048938777 0.16898422 0.12576032
감독 0.0746241 -0.012215012 0.07801853 -0.038702246 0.08913045 -0.07595528 -0.04688214 0.062519155 -0.06601304 -0.035624623 0.06884654 -0.040219005 0.0061340583 -0.011595285 -0.015956793 -0.035678767 -0.08387765 0.029295282 -0.044262197 -0.054016307 -0.05614581 0.07692953 0.06877726 0.059396114 0.08936374 -0.0129756015 0.032600414 0.019674571 -0.0139838485 -0.05624914 0.03199451 -0.1530697
보다 -0.049862027 -0.030816816 0.068750694 0.024156664 0.0041688313 -0.13691877 -0.0027849944 -0.0512071 -0.18371081 0.115513496 -0.038976707 0.077342704 0.058913272 -0.014690747 -0.040278997 0.018323053 0.08721147 0.09341936 -0.025925757 -0.02419086 -0.01868642 -0.012818437 -0.10841989 0.11454504 -0.10746273 -0.03672104 0.09438829 -0.017346408 0.14132951 0.028706545 -0.07322625 0.11051327
라 0.048661735 0.007840121 0.03496471 0.027744707 0.03950793 -0.092885524 0.03977689 0.012597738 -0.0700044 0.040869083 0.02227639 -0.0385059 0.026426267 0.006437933 -0.03752522 0.03554456 0.039359383 -0.008501995 0.010454926 -0.042915817 0.032655697 -0.0017420277 -0.07249157 0.056149956 -0.029856095 -0.018458886 -0.044170454 0.015255797 0.053184934 0.02884578 0.048785456 0.0056793755
그냥 0.03102248 0.03954382 0.05705435 0.028375749 0.043090075 -0.090647765 0.005077218 0.059765372 -0.16911252 0.011408596 0.06325976 -0.024263147 0.09418676 -0.06668081 0.046010382 -0.056967244 0.05541558 0.01340641 -0.016840057 0.01158522 -0.036858898 0.04708737 0.030445987 0.016186005 0.053250927 -0.06260407 0.030691303 -0.04087428 0.06780988 -0.026776273 0.053316936 0.13685781
재미 0.048027202 -0.018836325 0.0424101 -0.035883002 -0.034168582 -0.1422375 -0.0745711 -0.009021614 -0.075932726 0.025078082 0.03409011 0.08914117 -0.03516545 0.0033803163 -0.075276904 0.034003474 0.027270364 0.061202984 0.07592568 0.07278997 -0.08391163 -0.08470409 -0.07766629 0.012334136 -0.01290915 0.015325551 0.01612232 -0.050903734 0.085840486 0.018759 0.19418538 0.25737604
시간 -0.050029654 -0.04715681 0.0064462693 0.05336002 -0.008695976 -0.089674085 0.06199037 0.06662692 -0.13816404 -0.012490909 0.015294563 -0.043100763 0.07184494 -0.11979876 0.09444116 -0.029510416 0.20281275 0.014294574 -0.07631701 -0.04513333 0.03617487 0.03839012 0.0011296717 0.07935284 0.0056726825 -0.1748166 -0.0019572258 0.023717655 0.10180249 -0.03142716 -0.13682929 -0.18595542
지루 0.04691189 -0.106704175 0.06348048 -0.11629577 0.23276174 0.1260065 0.24928306 0.16891088 -0.31360343 -0.2398835 0.17659704 -0.1924921 0.027031556 -0.29195046 0.19383262 -0.19627754 -0.07694907 0.18076837 -0.27442062 -0.33677626 -0.0384478 0.25691944 0.2544309 0.25369677 0.12480951 -0.3964692 0.22231632 0.13573147 0.18101503 -0.16886362 -0.52371645 0.043015417
중 -0.020035882 -0.002828747 -0.026719984 0.0538754 -0.042737156 -0.051083032 0.029230049 -0.07295056 0.043328963 0.070028596 -0.0020180673 0.049842276 -0.00088919955 -0.008708579 -0.053584978 0.060929507 0.037398376 0.038619146 0.025353627 0.03261677 0.0610024 -0.00272055 -0.10972404 0.040200368 -0.08802169 -0.04640103 -0.0432834 -0.025363555 0.04654916 0.024649303 0.0046869414 -0.064950265
재미있 -0.040871106 0.12393976 -0.15678592 0.061106503 -0.10122712 -0.06731674 -0.15341252 -0.0721493 0.28177264 0.07096478 -0.1420903 0.11339347 0.024253065 0.24429718 -0.0902741 -0.006504052 0.08666764 -0.07687158 0.12081769 0.12093198 -0.009616628 -0.21225597 -0.07396541 -0.16200854 0.043565102 0.37742376 -0.2111593 -0.07557777 -0.22287476 0.13237725 0.22342254 -0.16529503
년 0.03287049 0.05318837 0.0071317595 -0.022936791 0.0026376622 -0.034374293 -0.049456086 0.010317495 -0.03004069 0.037827816 0.00621471 0.055003997 0.02197578 0.03309902 -0.0026434474 -0.0033673304 0.084584735 0.021137362 0.040112842 -0.007526728 -0.04893773 0.05821991 -0.036231607 0.038285896 -0.04463713 0.018564044 -0.019002963 -0.01416694 0.0022336917 0.052399218 -0.04767137 -0.070616655
10 -0.008094907 0.0055923043 -0.13677318 0.022669526 -0.18971832 -0.101706974 -0.27424875 -0.043331873 0.25370437 -0.01531586 -0.10370939 0.21709038 -0.087342374 0.3116618 -0.19126196 0.05057877 -0.06353427 -0.045502435 0.18096897 0.259209 -0.08721753 -0.25757846 -0.24073221 -0.19264281 0.11094316 0.35278344 -0.09792749 -0.07509168 -0.18438762 0.09890872 0.3638405 0.11945043
였 -0.0002499674 0.008177109 0.034170095 -0.032423656 0.011388462 0.0023053174 -0.01027809 -0.058462024 -0.016020257 0.058682535 -0.029131789 -0.0076484033 0.03763534 0.018167194 0.031046715 -0.005438289 0.040885836 -0.032774873 0.040760137 0.0010693304 -0.0057842718 -0.02215224 -0.008520871 -0.030485654 0.0031007917 -0.01610915 -0.043458693 0.0011559415 0.030491577 -0.017504727 0.07640109 -0.20357113
잼 0.048142686 -0.062095728 0.007302822 -0.053856652 -0.11439689 -0.28501898 -0.13506797 -0.08575938 0.08068586 0.21761155 -0.033429313 0.1253995 0.14447767 0.056990765 -0.112277925 -0.00025792085 0.04504518 0.047007896 0.10018024 0.07914669 -0.061218534 -0.10285724 -0.11724965 -0.06719069 -0.10080138 0.035528716 -0.24440958 0.018645791 0.07370932 0.10622543 0.272239 -0.16905732
사랑 -0.06678939 0.13236834 -0.15419503 0.14574748 -0.08810258 -0.049104437 -0.20529374 -0.071020775 0.19097614 0.037873358 -0.1555728 0.20897174 0.02597507 0.27731884 -0.10851872 0.07266102 0.09065792 -0.040305406 0.09827105 0.19364063 0.04615596 -0.24710336 -0.07784062 -0.18978855 -0.0763343 0.31283435 -0.07756382 -0.061891396 -0.16501717 0.12769033 0.14998756 0.0016737039
못 -0.04521419 0.054995734 0.046741117 0.049727414 0.051353894 0.06070813 0.06934795 0.09806663 0.024896765 -0.1479718 -0.04201951 -0.0054452894 -0.061877538 -0.06471605 0.11912226 -0.012692198 0.0568943 0.06890367 -0.06341341 -0.084197395 0.07364997 0.027804663 0.0642924 0.001874472 0.004679475 -0.047350265 0.06851287 0.023268834 0.023864144 -0.05890742 -0.24258232 0.26362255
냐 0.018375324 0.016051432 0.025522038 -0.05597026 0.08599172 0.05891624 0.06875452 0.06431412 -0.11186224 -0.10169166 0.040250808 -0.076420575 -0.06631249 -0.010914683 0.016254134 0.016482968 0.052746467 0.048504036 -0.066062056 -0.059965115 0.0062983213 0.02127563 -0.025797533 0.08574087 0.034830946 -0.023730503 0.029449465 0.0009883335 0.043965247 -0.11409384 -0.13960327 0.18357983
재미없 0.22658901 -0.15222608 0.09417147 -0.2241116 0.2935225 0.18935855 0.1502178 0.16119216 -0.339011 -0.24182011 0.17212763 -0.2722801 -0.030128788 -0.3231418 0.18931343 -0.3277319 -0.35635093 0.15496583 -0.3491472 -0.3223383 -0.15544114 0.348369 0.4258977 0.20877266 0.2983297 -0.15670536 0.31658706 0.112928085 0.16153376 -0.21807735 -0.4033382 0.06846177
쓰레기 0.18662259 -0.13934432 0.18491839 -0.16011207 0.32936934 -0.04911467 0.18966097 0.18250279 -0.41386232 -0.26328558 0.21795869 -0.3201669 -0.05454871 -0.28926224 0.21161829 -0.27070057 -0.12273318 0.23949128 -0.29756832 -0.30135196 -0.0938187 0.41858837 0.23958255 0.24953884 0.24857506 -0.251042 0.21660244 0.14762542 0.16541308 -0.18441203 -0.43375584 -0.05581724
서 -0.02184649 0.036265094 -0.035451423 0.057315845 0.0072739054 0.02212061 0.039370496 0.0043123434 -0.06694948 0.06886783 0.019471258 -0.040993635 -0.009697287 0.03928203 -0.013678307 0.06332064 0.10735918 -0.02848761 0.075963266 -0.040187016 0.08927826 0.0054762415 0.001038477 -0.020752331 0.015403778 -0.08281456 0.057062555 -0.018292928 0.01553374 -0.03705508 -0.10433834 0.0065209633
2 0.0365956 -0.02185945 -0.01344665 -0.025147032 0.057770472 -0.019790532 0.060272567 0.0075049666 -0.017869996 0.05422085 0.0026511082 0.018236337 0.052596685 -0.016360797 0.112715475 0.12183429 0.14166556 0.061254248 -0.013862349 -0.04832047 -0.053844444 0.034285247 -0.0021985709 -0.005336884 -0.031197675 -0.10231427 0.031680714 0.03046079 0.018814584 -0.046513695 -0.20126814 0.04125009
라고 0.026905522 -0.012639283 -0.010250412 0.011695987 0.0754161 0.067107186 0.09282805 0.026918152 -0.009340508 -0.03732349 0.0070233145 -0.05329722 -0.028773362 -0.058110505 0.051117316 -0.054916244 -0.054917235 0.05743412 0.018210452 -0.01588358 0.0024988963 -0.005036968 0.018128594 0.006815871 0.024046896 -0.008999132 0.032595363 0.0008900359 0.052757986 -0.029080395 -0.0036291033 0.05096057
야 0.0589441 0.026199225 -0.014831033 0.023145959 0.031788234 0.002008992 -0.035026573 0.061740194 0.06689427 0.06859746 -0.013180749 -0.04215564 -0.061393626 -0.018631836 0.060721982 0.09581309 0.015517194 0.009938134 0.031512067 0.01835103 -0.089023344 0.025527172 -0.03260149 -0.017295476 0.019396633 0.013612936 -0.023195779 0.011613113 -0.0030762542 -0.045730397 0.0009734272 0.0033039888
니 0.03963573 0.035216823 -0.015919214 -0.004178622 -0.003977591 -0.010400855 -0.012108861 0.027632345 -0.06778525 0.060860645 0.006885482 0.0071970155 0.0073327194 -0.047688268 0.030324345 0.08650342 -0.053126328 0.037437033 -0.06376667 0.020431833 -0.026591865 -0.012641107 -0.02681022 -0.01487329 -0.035309464 0.024369312 0.033719495 0.04887122 0.038932774 0.003153736 -0.034037456 0.07342967
면서 -0.06843679 0.003511117 0.031223152 0.10280067 -0.008060775 -0.032832347 0.025302855 0.019225746 -0.03769018 0.048277214 0.008505196 0.049885854 0.08515225 -0.043486983 -0.04282759 0.04528878 0.03666843 0.032543942 0.051348146 -0.042215608 0.032864068 -0.047339875 -0.03231333 -0.004467853 -0.084664464 -0.008051253 -0.0103236595 -0.015310575 -0.02230236 -0.009649478 0.014645425 -0.0146946125
번 -0.099361576 0.06353795 -0.10542673 0.051805496 -0.06758477 0.06392977 0.008655643 -0.055837642 0.124654 -0.00036336872 -0.032019265 0.085552596 -0.07868643 0.10091521 -0.03470206 0.017669741 -0.045257006 0.00812902 0.05825589 0.004811996 0.045188013 -0.08642773 0.004649994 -0.04759051 -0.041158065 0.1222657 -0.07548988 -0.06862088 -0.012876141 0.024277743 0.05280246 0.029791424
다시 -0.060416643 -0.052207205 -0.07090698 0.044940043 -0.076154456 0.016032252 -0.09680337 -0.00849397 0.034309894 0.08737931 -0.08548174 0.03555427 -0.009357483 0.14317422 -0.0472432 0.07033445 0.016179621 0.12362368 -0.017094953 0.012847254 0.0037919579 -0.05078913 -0.12291071 -0.0613464 -0.015974492 0.097487405 -0.053700216 -0.00085586024 -0.05054958 0.0058490327 0.04744802 0.11325308
나오 0.050461613 -0.04350051 0.030539947 -0.05905992 0.014619715 -0.014835145 0.03327266 -0.00934236 -0.017997457 -0.0071447743 0.00095261 -0.051019218 -0.055671066 -0.037776817 -0.018876627 -0.03570173 0.01716117 0.026218643 0.006126693 0.03277118 -0.037193432 0.012871873 0.0024398528 0.017581835 -0.0050674565 -0.03233124 -0.011349795 0.011042546 0.0642587 -0.033768956 0.030862998 -0.1298493
작품 0.069516115 0.015504995 0.07697935 -0.11455194 0.016901428 -0.105678186 -0.060048588 -0.017503714 0.08993243 0.07448387 -0.05772187 -0.004125352 0.020666283 0.08493635 -0.028262166 -0.0025479216 0.09267223 -0.03716843 0.09984415 0.09784222 -0.050193764 -0.01089338 -0.10013204 -0.045172416 0.025726026 0.0678637 -0.12184038 0.060079496 0.022138797 0.069192976 0.12615679 -0.2253154
이거 -0.020428125 -0.025413575 0.040307183 0.010899971 -0.03770731 -0.050407175 0.00023611869 -0.025758363 -0.07640463 0.05764449 0.002135747 0.03235777 -0.042188052 -0.014615483 -0.02799952 0.07853936 0.087809764 0.06087873 0.03349172 -0.0010240832 0.0058255764 0.023797648 -0.07739212 -0.012484916 -0.034204025 0.043176744 -0.038280793 0.007892594 -0.0054526664 -0.044934582 0.03846744 0.08610411
하나 0.07443073 0.005478358 0.087795965 -0.03536986 0.0045192735 -0.06766657 0.06157781 0.07117385 -0.07910682 0.024747921 0.018882638 -0.06039562 -0.010101432 -0.043178707 0.06262833 0.022927603 -0.0145303495 0.039177943 0.0094169695 -0.013214031 -0.05861202 -0.00929031 -0.039684534 0.008838199 0.041609842 -0.030471604 0.03558929 -0.0069877296 0.08596579 -0.0577494 0.06298811 -0.040129032
줄 -0.0057229064 -0.008068958 0.0064760414 -0.012828018 -0.029416576 0.0028900648 0.053390063 0.01406914 0.00539925 -0.033978228 0.010668584 -0.0146837 -0.06780664 0.03677551 -0.069469675 0.051900487 -0.035007045 0.03348809 -0.004581426 0.059831526 -0.08452262 0.050158724 -0.085060336 0.040755317 -0.004303838 0.022902653 0.044242598 -0.06797233 0.009754398 0.030233627 0.06868872 0.089435376
해서 -0.0077955984 -0.01567382 0.016269302 0.044604897 -0.071221665 -0.063533336 0.05943617 -0.0031946688 -0.087914705 0.024003228 0.029614042 -0.0321813 0.08299866 -0.024458101 -0.0062009264 -0.013612545 -0.018262621 -0.009344108 0.05739397 0.06497028 -0.018260468 0.030579323 -0.020918652 0.05241626 -0.0134383915 -0.062027156 -0.008199838 -0.007121167 0.088468395 -0.033545848 0.053435463 0.013944683
개 0.07763155 -0.029695278 0.007847727 -0.044790685 0.032157823 -0.14774491 0.049366266 0.043207664 -0.079892956 0.099307135 0.022480553 0.0028236436 0.12974569 -0.0033556034 -0.025965188 0.013353735 0.09248606 0.010037221 -0.03992637 -0.05471864 -0.09694251 0.020735044 -0.042433567 0.04727437 0.029767718 -0.0039491444 -0.098026805 0.056960657 0.024817774 -0.042272855 -0.06786348 -0.050855782
남 0.011855901 -0.0058140033 0.103612654 -0.104351476 0.038889255 -0.14145835 0.03683327 -0.038806707 -0.020866217 0.079782054 0.08106426 -0.0004924398 0.07007957 -0.07278051 -0.009004983 -0.005270021 0.057638247 0.028629292 0.03642136 -0.04079486 -0.06718477 0.018874582 -0.08470991 5.0266448e-05 -0.0003851097 -0.019558314 -0.10355339 0.048014317 0.07262217 0.016336795 0.03264683 -0.24820969
정도 0.014569166 0.021556973 0.07313912 0.050058834 0.072271064 -0.018577456 -0.01809917 -0.026028644 0.05049632 -0.013358028 -0.04286382 0.019529616 -0.069976166 0.056372523 0.047730625 0.09544604 0.21010825 0.10998915 -0.008696785 -0.07319435 -0.05014447 0.022919672 -0.07676851 0.0051858304 -0.030418908 0.003443319 -0.0040831566 0.04056767 0.012385689 0.0028017962 -0.13314945 0.113357194
마지막 -0.046344373 0.003404254 -0.058048975 0.052018046 -0.052555528 -0.009033966 -0.086530454 -0.056483828 0.050304428 0.077091135 -0.09075486 0.0012025132 0.091142245 0.013467989 -0.08128861 -0.001317575 -0.019454515 -0.019710604 0.002779691 -0.0051167905 -0.03227156 -0.021696242 0.01836475 -0.03872591 -0.019250166 0.033787556 -0.123518236 0.036130365 -0.08709113 0.10620883 0.043959565 -0.21945158
끝 -0.024342364 -0.014935474 0.022068707 -0.093163244 0.067716144 -0.09249425 0.07204201 0.04630025 -0.1091681 -0.06545067 0.034418944 -0.09542769 0.0050189644 -0.048707034 0.037848998 0.006463429 0.040095568 0.005383573 -0.025269853 -0.02270116 0.01834085 0.05102599 -0.009589877 0.03338517 0.056304127 -0.13079917 0.035222277 0.06360298 0.06344504 -0.06807053 0.0007619034 -0.1675358
이건 0.011890153 -0.07338252 0.14902914 -0.12065488 0.019369699 -0.104521155 0.033888847 0.13775054 -0.1892789 -0.051643 0.14293645 -0.035482943 -0.110375345 -0.07447327 0.032179374 -0.038793135 0.097227074 0.158538 0.02936404 -0.04534143 -0.14269225 -0.021257043 -0.08853922 0.13476537 -0.028998654 -0.159785 0.19802831 0.015321869 0.25221214 -0.024491506 0.12553714 0.34520057
액션 0.017209336 -0.021886721 0.035846476 0.014745569 -0.03366149 -0.049132593 0.014240517 -0.057952948 -0.01895557 0.069982335 -8.397947e-05 -0.007871137 0.13559456 -0.042147532 -0.074713334 0.02459689 0.085162975 -0.036391795 0.04836025 0.045075104 -0.019996686 -0.016310763 -0.112978965 0.013112277 -0.059829935 0.023822855 -0.016690405 0.009999978 0.046769124 0.09658819 0.0335562 -0.16860136
임 0.0673934 0.035197973 0.002196963 -0.059468172 0.009854104 -0.0704503 -0.015183497 0.03727217 0.012790922 0.05213224 -0.064759314 -0.031177415 -0.04477352 0.008035731 -0.030904545 0.008138916 0.08143785 0.0014932523 -0.03279473 0.04057603 -0.027901536 -0.019989414 -0.09604089 -0.03773725 0.006596719 -0.026066413 -0.15163505 0.030938441 0.056157276 -0.026861327 0.012050776 -0.12829901
ㅋ 0.015047483 0.011595139 0.011015908 -0.012584512 -0.0027465778 -0.037562374 -0.039356098 -0.053303037 -0.035933256 0.002305667 -0.0050227633 -0.022688923 0.10065296 0.0058382177 -0.014558781 -0.036556505 0.01107743 -0.032313175 -0.02545006 0.027686901 0.0020406065 -0.052557968 0.032292627 -0.009814905 0.013116707 0.085642934 -0.06959015 -0.04657994 -0.088125885 0.07535465 -0.031174276 -0.14526401
3 -0.05025317 -0.0031761203 0.036717154 -0.0036968363 0.10137938 0.027951268 0.010602134 0.03715679 0.0020288548 -0.03910144 -0.03046536 -0.026919644 0.017024232 -0.032447644 0.056789655 -0.0035041852 0.0947629 0.03562948 -0.02033988 -0.02957489 0.02460456 0.12184043 0.0735799 0.06747978 -0.008332064 -0.10760571 0.060951702 -0.025142062 0.008389381 -0.021171339 -0.12955281 0.012892527
기대 -0.060262825 -0.00488571 -0.0067601274 0.056286916 -0.03649161 0.025986409 0.073084466 0.0029612093 0.100435965 -0.04749405 0.100518614 -0.088313594 -0.10245188 -0.009217232 0.011910986 -0.031943593 0.00950662 -0.044589948 0.0427673 0.04191195 0.058016628 0.058214676 0.05857154 0.05374084 0.01193705 -0.013627328 0.089132756 -0.10032029 0.057437345 -0.02137438 0.19582465 0.01188122
입니다 0.0022800562 -0.018900203 0.016688248 -0.0073981257 0.011838287 -0.026039794 -0.08962663 -0.04886998 -0.011294849 0.077454716 0.018005773 0.07440237 0.008081424 0.01659211 -0.084083855 -0.031534415 -0.048898615 -0.019630468 0.050978173 0.0030632738 -0.023172874 -0.03606628 -0.010524402 -0.04968243 -0.03115862 0.08494865 -0.07466009 0.01705634 -0.124387175 0.027474547 0.037290715 -0.1365812
건 0.011665166 -0.005697522 0.01296897 0.018499454 -0.022553692 -0.0014950883 -0.03358431 0.0068517732 -0.061494056 -0.02988047 0.01606349 0.035781275 -0.06593574 0.017610501 0.0060938364 -0.058143165 -0.046260357 0.089962065 -0.08909323 0.01705857 -0.039412 0.033902682 0.018469399 0.022441432 0.036825225 0.0016959843 -0.031785525 0.020770151 0.011670138 -0.076904245 -0.08012097 0.012490926
라는 0.047095563 -0.015819188 -0.032148704 0.00023650783 -0.02872843 -0.037753563 -0.018876532 -0.016989779 0.001652496 0.05654499 0.028137103 0.01852115 -0.0032608542 0.045666326 0.054066557 -0.017315522 -0.008663818 0.008164181 0.0019081724 0.009283452 0.020551043 -0.04971988 0.051013704 0.012305095 0.022770837 0.018216325 0.0013232318 0.036968112 -0.07241048 -0.012012314 -0.04038208 -0.09669035
분 0.010495302 0.047478955 -0.043402128 -0.014754953 -0.009050871 0.1776952 0.022906628 0.046278093 -0.046304688 -0.07097839 -0.010741358 -0.0057111243 -0.057321128 0.011731266 0.06706854 -0.06034535 -0.16254203 0.04328606 -0.11036341 -0.0067613004 -0.028757736 0.06259769 0.03796477 -0.03357879 0.04436592 0.011297398 0.1217502 -0.042814784 -0.025903665 -0.07635944 -0.1660017 0.120867014
완전 0.041383203 -0.050388243 0.07415625 -0.062684625 0.03342877 -0.2237673 0.018647196 0.051498566 -0.0058949655 0.07484807 0.004787544 -0.0019194648 -0.008386495 -0.013527696 0.030242898 0.07342587 0.123162575 0.11439147 0.0055521503 0.06639897 -0.064357735 -0.047818564 -0.1566831 0.035562035 -0.06446853 -0.015504246 -0.056939855 -0.0059206393 0.11700781 0.042920955 0.07060133 0.14080578
다는 -0.03213235 0.04835324 0.0053741513 0.03505279 0.06632005 0.0356044 0.02147926 0.033126228 0.09153223 -0.0071498747 -0.064163625 0.0006918398 -0.13060309 0.017684935 0.044611543 -0.020895695 0.019466579 0.04134014 0.017538399 -0.012484231 0.07622931 0.002169629 -0.041151732 -0.027461177 -0.023160163 0.054042332 -0.032856278 0.00813014 -0.0060318527 -0.02169018 0.006147484 0.09297849
참 0.081137694 -0.024192525 0.08720315 -0.011433775 0.07914731 -0.021922616 0.029108588 0.039775137 -0.08917633 0.010159817 0.025882732 0.020866212 -0.012817458 0.019608747 0.029889615 -0.011298067 0.07511446 -0.04604438 0.010508616 -0.013440065 -0.014235491 0.021831995 -0.03981426 0.0028839957 -0.010482171 0.008635638 -0.030658579 0.084433846 0.007757648 -0.028527604 0.022055242 -0.09394497
많 -0.0361776 0.009398559 0.029723149 0.02944329 -0.04359363 -0.022901943 0.034220375 -0.028528165 0.06542164 0.0176505 -0.001049252 -0.0064466647 -0.019781806 0.034145225 0.048255935 0.09661567 0.19153003 -0.012775478 0.034200925 0.008665706 0.08934521 -0.046113536 -0.024277946 0.0022492043 -0.074225396 -0.0069599156 -0.1380429 -0.06068492 0.0176159 -0.0001677592 -0.072514586 -0.0854958
처음 0.04070509 -0.010834386 0.052219015 -0.0053182743 0.00031831863 -0.05604085 0.023797547 -0.013181964 0.047760576 0.026016258 0.019182906 -0.035054352 -0.05185836 0.0017472239 -0.0233915 -0.0027232503 0.07390218 -0.024380604 0.000556296 -0.0803922 0.011005144 0.018318461 -0.0052695195 0.030888727 -0.012608889 -0.037993226 -0.06630906 -0.029714467 0.01249587 -0.02269339 -0.008658441 -0.13920325
장면 -0.08192786 0.059204742 -0.04424946 0.008961667 0.0131366085 0.030781018 -0.01070796 0.01433236 0.08282505 0.034800697 0.04339679 -0.050607905 0.022992622 -0.01840243 -0.07635158 -0.034630053 -0.0375782 -0.06457666 0.08140836 -0.009966459 0.06397734 -0.035757445 -0.03782814 0.0051451297 -0.07089247 -0.037274435 0.06562544 -0.048335385 -0.04174586 0.0077253995 0.025241552 -0.014742977
대 -0.056994833 0.051620737 -0.023023315 0.037278578 0.035589803 0.030502232 -0.0017125171 -0.020829685 -0.044599894 -0.054260395 0.036388833 -0.017997637 -0.019321682 0.016523577 0.05581292 0.020178799 0.04700166 -0.055339854 -0.016408876 0.052191257 0.11558697 0.026587868 0.045585457 -0.070629366 -0.010671939 -0.044517294 0.06481967 -0.116337575 0.02281097 -0.022312786 -0.13768338 0.2013198
아깝 0.20086282 -0.011798908 0.10805561 -0.22048251 0.30936015 -0.07620439 0.073117964 0.023261176 -0.2626837 -0.121449724 0.05303515 -0.06765893 0.098224655 -0.22780147 0.17944945 -0.2591761 0.010893629 -0.0033627613 -0.19302 -0.13356787 -0.090108156 0.3236923 0.2881158 0.03698795 0.14144716 -0.17791195 0.06894362 0.09813108 0.091430694 -0.10386785 -0.19827807 -0.4080557
다가 -0.0473007 -0.13000277 0.15095787 0.022267563 0.04243649 -0.07264218 0.11414537 0.121917784 -0.16196993 -0.0073115863 0.07346089 -0.020174252 -0.09868467 -0.058363408 0.047834933 0.033614673 0.096359394 0.13279769 -0.024725577 -0.041605096 -0.062410492 -0.02048588 -0.027873818 0.13026139 -0.011026618 -0.12718807 0.12320516 0.055560373 0.17526898 -0.044821464 -0.06851132 0.19611545
으면 -0.042207535 0.013679835 -0.06268501 0.09134199 0.028796937 0.060221866 0.04819429 -0.03781241 0.05484825 -0.042574387 -0.044259455 -0.024692362 -0.0011892385 0.03321687 0.08052509 -0.0336918 0.018146362 -0.012304157 -0.01409325 0.021488225 0.08600913 0.019891813 0.021484766 -0.0321547 0.028961621 0.040431675 -0.034990523 -0.025383003 -0.047895323 0.046186205 -0.10118436 -0.15253912
지금 -0.09124551 0.0025644256 -0.008467484 0.15301748 -0.05890005 -0.04612208 0.033513702 -0.052084133 0.021107722 0.080570094 -0.06874322 0.06460651 0.07503932 0.009141881 -0.039883193 0.081985705 0.0633904 -0.016692897 0.023005778 0.07995123 0.10988624 -0.081667274 -0.064840816 0.062158883 -0.074215084 -0.07523051 0.034346364 -0.05480737 0.061108105 0.082216956 -0.041478895 0.09230129
모르 -0.046820935 0.0171445 -0.046896875 0.100282185 -0.029408118 0.01593541 -0.026229406 -0.041393153 -0.042418037 0.078409255 -0.017653754 -0.024116756 0.034302764 0.054706953 0.025043027 0.0953436 0.0051117726 -0.007707806 -0.03425926 0.010430987 0.0155770555 -0.04131298 -0.13811538 -0.023370074 -0.047369905 0.05790453 0.030967155 -0.05503279 0.03218638 -0.004358207 -0.0132588595 0.15537368
이렇게 -0.025984207 -0.012056494 0.09879532 -0.04169948 0.0032162752 -0.1463788 -0.038541157 0.0169829 -0.06821487 0.046906948 0.0100450665 0.09374074 -0.053711098 -0.00632311 -0.0074087726 0.07140339 0.000937146 0.0997801 0.03369642 0.038887735 -0.09430619 -0.020669779 -0.049119 0.06293296 -0.043016605 -0.009146038 0.05524657 0.0127394935 0.09155741 0.019908395 0.13335499 0.11139444
' -0.016529841 -0.0001392529 -0.05100165 0.0036602232 -0.032053653 0.06570504 0.0069012884 0.04836587 0.023102475 -0.017316516 -0.014271132 0.024667604 -0.04668612 0.04162183 -0.011777419 -0.018985232 -0.023055695 -0.009440877 0.010944052 -0.0044047986 0.048786078 -0.07313061 -0.06676611 0.0016905974 0.024747472 -0.00798239 -0.020643756 -0.012779034 0.0014083744 0.014845016 -0.014151641 -0.004587455
편 -0.046855476 0.09599703 -0.013161106 0.03688263 -0.038637858 0.004930034 -0.077049375 -0.040702302 0.092525795 -0.05119175 -0.0108022615 0.050675325 -0.018692723 0.060980592 -0.019585786 -0.0025274996 -0.031677347 -0.07993098 0.0025465149 0.07939488 0.054289866 0.009720286 -0.030633366 -0.10237903 -0.029547581 0.11703168 -0.047818154 -0.028650234 -0.09796278 0.010735188 0.103644826 -0.085898325
일 -0.09774113 0.00086770457 -0.09354256 0.00246806 -0.069269784 0.037609693 0.0066924538 0.035569783 0.083790794 -0.034190852 0.015833955 -0.044254795 0.012499788 0.043439977 -0.0140302 0.014140087 -0.0044449833 -0.03345995 -0.03107762 -0.0357661 0.029656988 -0.07288843 0.02259477 -0.011848066 -0.047700807 0.085192084 0.009704742 0.016887328 -0.06113305 0.014744189 -0.031629115 0.041152526
돈 0.05979375 -0.03679889 0.037879597 -0.13178131 0.10683122 0.10168941 0.06732304 0.020020941 -0.12073874 -0.08527418 0.08092608 -0.11591283 -0.023273256 -0.080825016 0.05561208 -0.12679741 -0.1396951 -0.05843428 -0.11592465 -0.12665401 -0.011248727 0.14630537 0.23644422 0.06875847 0.1167661 -0.106094256 0.07176593 0.028794467 0.008690031 -0.08536324 -0.12250617 -0.28429353
이게 -0.06636862 -0.0011388017 0.03889977 0.025964506 0.062780514 0.08464106 0.045859575 0.037255976 -0.04967737 -0.02773869 0.06844029 -0.031132001 -0.14670783 -0.02511966 0.084573835 -0.034270577 0.05039191 0.025663242 -0.049218457 -0.09002644 0.048258957 0.015501683 -0.02390539 -0.01024913 0.00016897038 0.009965629 0.05703651 -0.015046607 -0.0022457843 -0.091304705 -0.043143965 0.06414315
성 -0.02424274 -0.028446432 0.032035477 -0.04728109 0.0054273936 0.014920837 0.05881676 0.0015084347 -0.03840509 0.008713998 0.007113949 0.01734885 0.08016026 -0.0074792723 -0.016510166 0.006431628 0.009665069 -0.0824049 -0.06310078 -0.049861044 -0.018347027 0.03993461 -0.025842525 0.012811236 0.027583804 -0.07148905 0.0029728594 0.028154138 -0.036278155 0.013493616 0.012347132 -0.038649246
느낌 0.025743643 -0.012994609 0.106792845 0.0156060485 -0.045383405 -0.09101937 -0.036033 0.010304747 -0.039798316 0.044956557 0.012129551 0.035733566 0.075622946 -0.057230394 -0.024801621 0.09451655 0.14762157 -0.028451987 0.032538436 0.013547921 0.013296214 -0.0024299694 -0.13267496 0.048252 -0.0055281115 -0.10166787 -0.093241915 0.027220465 0.0910751 0.04752717 -0.024583835 -0.13087478
시 -0.044169135 0.02157125 -0.04108489 0.011427031 0.005131409 0.079356074 0.010058586 -0.056118716 0.08881811 -0.009207616 -0.09362428 0.04983936 0.0051759235 0.0018355642 -0.018722944 0.024562765 0.021675218 -0.021005338 0.040239424 0.007949732 0.05007005 -0.05325786 -0.015108236 -0.0055381414 -0.073338844 -0.022740321 0.040746164 0.026345802 -0.08710583 -0.0073665925 -0.015043089 0.09254389
이야기 -0.01383017 0.00022845092 0.081259236 -0.016540777 -0.014985597 -0.05910447 -0.0066053793 -0.031151429 -0.03351049 0.0014683452 0.0030465128 0.04813675 -0.028066909 0.027760392 -0.055428788 0.061213598 0.09355638 0.045901123 0.012523191 0.028805714 0.028217547 0.0038654348 -0.050083242 0.06362952 -0.07417215 -0.0030702811 -0.035827696 -0.066311166 0.05476438 0.04415732 -0.00019193345 0.06004954
최악 0.3653808 -0.42944467 0.21548 -0.38881478 0.33280626 0.044755135 0.28785267 0.31817728 -0.34374708 -0.33942232 0.41515678 -0.2305694 -0.36252785 -0.20097378 0.24270962 -0.44028714 -0.20936257 0.3930133 -0.28985384 -0.37192455 -0.32453313 0.19262218 0.3590534 0.39163235 0.3994913 -0.17651795 0.5384784 0.27450967 0.40002263 -0.36451378 -0.18885213 0.06793576
된 -0.020665128 -0.020919735 -0.028712083 -0.02834697 -0.0007138496 -0.031591218 0.00083598844 -0.06696074 0.045529068 0.05398341 -0.062603205 0.036292337 0.02918199 0.046598233 -0.031122833 0.056545533 0.00045017293 -0.036214244 -0.002558873 -0.019946413 -0.021827085 -0.0034595467 -0.031502668 -0.06770949 0.017741827 0.07154196 -0.0715808 0.044080097 -0.031697605 -0.00961 -0.00012440681 -0.17899318
봐도 0.014558685 -0.049285788 0.05059655 -0.023915362 -0.05755954 -0.24116947 -0.037313648 -0.0491987 0.012237507 0.17776966 0.002914127 0.024099065 0.21073523 -0.026936116 -0.0033471065 0.10328366 0.13019596 -0.032838054 0.10356456 0.01772777 -0.06539505 0.050363448 -0.1083617 0.026512234 0.0008541739 -0.009503298 -0.1875619 0.060461216 0.010710003 0.08038449 0.19096866 -0.4925308
님 -0.08902756 0.10054362 -0.06435193 0.046313014 0.0011093838 -0.06440151 -0.023958148 -0.039301276 0.054106545 0.05970299 -0.010904204 -0.014640916 0.015933104 -0.0013069295 -0.0024326416 0.02785949 0.074695215 -0.04685418 0.001496775 0.00055047614 0.020611104 0.013591949 -0.037150912 -0.06715334 -0.039288945 0.030005665 -0.11563285 -0.087978795 -0.08473156 0.007692013 0.021237157 -0.19959351
어서 0.07618895 -0.104883164 0.07336455 0.015874583 0.029068885 -0.045361344 -0.02241636 -0.027361073 -0.044716366 0.016515426 -0.015991917 0.022624165 0.010366333 -0.011689306 -0.03534643 0.045310963 0.044647492 -0.005371426 0.025916964 -0.056123924 -0.0160409 0.043199413 -0.051696517 0.07217822 -0.02191178 -0.050857306 -0.08521415 0.055156726 0.051779617 0.020814912 -0.018695526 -0.09481582
애 -0.022389894 0.0049029896 -0.04883454 0.03373111 0.0034468244 0.052625682 0.057797424 0.013709072 0.017083446 -0.0039945543 0.054247443 -0.068461165 -0.010949528 -0.0621947 0.09462983 0.009936068 0.0636142 -0.015475698 0.004104045 0.01460212 -0.008674277 0.05199316 0.042121667 -0.018779622 0.030226298 -0.06409247 0.027771972 -0.03005672 -0.03338342 -0.028150564 0.012000169 -0.085499644
전 0.063650675 -0.04625718 0.06328161 -0.028600983 0.037842497 0.0011377102 -0.008223683 0.055018283 0.033658393 0.05676433 0.03065235 -0.010141803 -0.055559166 0.013819267 0.051634982 0.044400394 0.03183876 0.08082381 -0.05384075 -0.006318413 -0.060051825 -0.0149913225 -0.08306858 0.035170436 -0.0138139445 0.021478746 -0.022829404 0.09258915 -0.006507436 0.023686094 -0.02670006 0.04358956
넘 -0.04395156 0.013648212 0.06317897 0.025792247 -0.028668756 -0.1854366 -0.023822974 -0.025564196 -0.085483044 0.06608395 0.021961039 0.10171782 0.1472647 -0.022050949 -0.04912399 0.10521699 0.14370798 -0.0130366115 0.0630672 0.056432094 0.010022657 -0.037636705 -0.05363622 -0.008898788 -0.04633148 -0.00044937813 -0.047369894 -0.022709064 0.05580803 0.063956074 0.064220294 0.08743604
ㅠㅠ -0.039458826 0.059074573 0.03023272 0.044048324 -0.05733951 -0.09490469 0.030526241 -0.008525759 0.015392823 0.032835096 -0.020487191 -0.0062833885 0.060584366 0.048978485 -0.066773534 0.027820569 0.15129982 -0.076844275 0.058135062 0.067513466 0.033743545 0.0035351536 -0.14936516 0.010424764 -0.0450941 0.01740406 0.010611968 -0.07243446 -0.011913438 0.08856584 0.00071435876 -0.21278626
인데 0.009343954 0.024295736 0.03960379 0.025674768 0.0062609413 -0.022339793 -0.016087623 0.043436475 0.039342683 0.032327104 -0.04503088 0.0317603 0.012835916 0.042979255 -0.031402417 0.038706105 0.13568057 0.019429304 0.059001382 0.0021335427 0.008530122 -0.028056892 -0.073866874 0.011561963 0.027782775 -0.04328355 -0.011577256 0.026979998 0.0723288 0.004480781 0.04717129 0.06305068
다고 -0.015913034 0.028286697 -0.060954977 0.04853767 -0.07059317 0.13567875 0.0490782 0.038277827 0.08523091 -0.105133966 0.0507597 -0.00094403024 -0.1115264 0.037582576 0.014529464 -0.025204811 -0.12564206 -0.03739349 -0.024376072 0.066534914 0.086356685 -0.05258082 0.0010745827 -0.05081104 0.02366614 0.03438676 0.05308549 -0.08629263 -0.040181093 -0.0155390315 -0.06114716 0.33940685
이해 -0.010180629 0.055435345 0.013808382 0.017247317 0.028924093 -0.060445853 0.01855094 0.0586263 -0.07139841 -0.015545153 -0.0009306031 0.03225269 -0.025174286 -0.06139085 0.028087178 0.041279703 0.044533983 -0.009431312 -0.021638773 -0.050037272 0.027791897 0.00042950807 0.0039033638 0.06498353 -0.007965699 -0.075581096 0.002841245 -0.032489166 0.0056899027 -0.03486519 -0.0437924 0.064675584
별로 0.14700522 -0.096691445 0.10324307 -0.12438667 0.20769544 0.19580328 0.21763197 0.1551494 -0.13074252 -0.18894264 0.12934189 -0.20302892 -0.13551733 -0.23416983 0.19893016 -0.16011404 -0.13305296 0.21495628 -0.27327958 -0.24345016 -0.07999863 0.18392667 0.1950256 0.08132053 0.22413935 -0.12852347 0.16738184 0.14675081 0.081867166 -0.18709674 -0.3309773 0.026171206
그리고 -0.06427895 0.06210027 0.014486488 0.044545937 -0.016460681 -0.07764772 -0.05100974 -0.0799066 0.02492065 0.08605643 -0.01589037 0.05414999 0.03949979 0.048646767 -0.08627836 -0.0295197 0.010224082 -0.143101 0.060811203 0.008953007 0.017387213 -0.0020523798 -0.02197436 0.044150032 -0.028753392 0.052051853 -0.058042686 -0.10697045 -0.032233246 0.0075665438 0.14475526 -0.040312655
명작 -0.098630965 0.19376943 -0.14645754 0.10244327 -0.15200028 -0.15273133 -0.13264795 -0.106309526 0.20171833 0.08343537 -0.13627836 0.14181328 0.11332488 0.17949043 -0.14587536 0.0005592496 0.16495766 -0.13853233 0.0975409 0.23560114 0.09370073 -0.18540072 -0.17643575 -0.24990457 -0.10151588 0.24458344 -0.082192555 -0.17846154 -0.20918016 0.17021002 0.274139 -0.17546318
여자 0.056218725 -0.031217571 0.022970947 -0.05389254 -0.0016023549 -0.00199409 -0.016325334 -0.015806511 0.043547057 -0.071716964 0.032428585 -0.07602225 -0.0020533686 -0.025542933 0.054945417 -0.03432835 -0.033672433 0.046122763 0.024780808 -0.06134084 0.01664991 0.057566687 0.07187948 -0.048733026 0.08283678 0.015704112 0.01768264 -0.010397193 0.012002157 -0.038291004 -0.0945188 -0.12143477
^^ 0.011283188 0.048803106 -0.032398913 0.045223996 -0.0941936 -0.06920066 -0.005041475 -0.024097383 0.058168784 0.046762366 0.008632795 0.041690886 0.018118909 0.087198734 -0.10326854 -0.09966518 -0.056697667 -0.04655117 -0.0129024945 0.045819346 0.061641235 -0.102229714 -0.077016465 -0.076885514 -0.050703842 0.031644396 -0.08225676 -0.030171199 -0.04286429 0.07356014 0.08302141 -0.098277174
역시 -0.015447693 -0.028326364 0.03481377 0.015810106 -0.033463925 -0.1737179 -0.062547415 0.0076131257 0.0593759 0.04908929 0.013356062 0.046282556 0.0126287555 0.01066584 -0.037146468 -0.062711954 0.10276215 -0.059994493 0.08645906 0.046710804 -0.026441297 -0.029870313 0.0045857313 -0.025268385 0.014469407 0.0007155469 -0.07032071 0.0400461 0.067468405 0.10524644 0.16190349 -0.062450126
난 -0.01826929 -0.037774958 0.019662922 0.044135846 -0.043160554 -0.08620334 -0.023478903 0.022117034 -0.0078285085 0.041755337 -0.051151883 0.0018859445 0.118979 0.057025086 -0.04478512 0.07471371 0.057063054 0.057752308 0.012461717 -0.01592767 -0.06706992 -0.10978969 -0.09236811 0.029530352 -0.09674901 -0.00690974 -0.049196616 0.030477777 0.06491313 0.033506993 -0.029857859 0.13443935
이상 -0.030074207 -0.025085919 0.12133368 -0.055605642 0.025866937 -0.10970637 0.047595415 -0.0046532685 -0.11184384 0.05494184 0.058977634 -0.0021591685 0.059555404 -0.052705605 0.035158 0.036134858 0.13007706 -0.04363362 -0.01623221 0.01747807 0.013946205 0.038980886 -0.077764414 0.10490001 -0.007640465 -0.11725413 -0.03616273 0.009432995 0.062989466 0.0101946015 0.0019785664 -0.051675323
또 -0.04624037 0.04140918 0.05030772 0.029401684 0.018147996 -0.04927584 -0.029126089 -0.06507934 0.00550478 0.08245284 0.013611441 0.02156326 0.10922595 -0.03116063 -0.06690424 0.113431886 0.10358275 -0.0046540196 0.01796249 0.070662506 0.08486479 -0.025884185 -0.035751753 -0.060052793 -0.022917049 0.0050161444 -0.10718241 0.014126111 0.05333582 0.064649515 0.015304439 -0.106767334
걸 0.050816707 -0.021563211 0.023029868 0.0084091835 -0.0014970887 -0.07226349 -0.006555478 0.0054966696 -0.011272734 0.040016796 -0.020839427 -0.004153272 0.038629062 0.0036047383 -0.017203504 -0.038277816 -0.036748134 0.062967114 -0.051662758 -0.034326706 -0.0867694 0.03274396 -0.040960614 0.0023556498 0.03937999 0.0135371415 -0.011384306 0.022082727 0.017015975 -0.024979332 -0.022006664 -0.019172993
한국 -0.10600775 0.05619385 0.018411562 0.076752536 0.013330738 0.0015697594 -0.03681653 0.0124116605 0.05970079 0.012953303 -0.011208127 0.014638327 -0.028577173 0.028966978 -0.0072194505 0.1183874 0.11229568 0.060648166 0.021352893 0.058565903 0.059280336 -0.008461672 0.0022269515 -0.058677185 -0.06672671 0.03693462 0.039957255 -0.03073119 0.014290113 -0.025268937 -0.11056182 0.04859311
는지 0.013667385 0.04581518 -0.005718951 -0.04461687 0.07313885 -0.012935702 0.013048289 0.029878771 0.0012759593 -0.06901367 0.044469915 -0.029355118 -0.043200742 -0.031371 0.06254603 -0.09399497 -0.02134229 0.03280158 -0.028071307 -0.027963167 -0.026003592 0.092167266 -0.007829964 -0.038824357 0.04374349 0.03819273 -0.029682731 0.025879784 -0.001945752 0.02379219 -0.064715385 -0.19553524
많이 -0.03854244 -0.014254256 0.071909 0.013803587 -0.05558303 -0.08891212 -0.04849077 -0.005885659 -0.033638936 0.052860565 0.008923262 0.058255624 0.005775987 0.043413293 -0.0005560392 0.088164315 -0.012387167 0.060759027 0.05041979 0.005647305 -0.014549708 0.0424316 -0.081747174 0.031049319 0.0017777698 -0.006162337 0.008844245 0.012606392 0.026970625 0.054797903 -0.0012662617 -0.08510542
에게 0.0012394947 -0.010369539 -0.09619678 -0.0050129704 0.019807944 0.06242705 -0.042076197 -0.021409892 -0.04426534 0.040862065 -0.04205473 -0.013999281 0.03490683 0.0372734 0.0025427314 0.028182155 -0.028156217 -0.03327987 -0.0595926 -0.053955402 0.040367916 0.04669949 0.0058341506 -0.06919458 -0.02834608 -0.012213705 -0.0534086 0.0020402395 -0.0918397 0.008500081 -0.052132193 -0.024760585
부터 0.07643156 -0.05781592 0.08513658 -0.0247841 -0.0039994777 -0.10670923 0.0059921495 -0.026678178 0.05894861 0.045491826 -0.0056740497 0.046319906 -0.069431774 0.024207877 -0.012256055 0.025439125 0.080984056 0.060394663 0.029930893 0.038019426 -0.11925947 -0.012330105 -0.050019354 0.024526577 -0.025327347 0.00900057 -0.08561886 0.041156933 0.018416956 -0.018930566 0.09709457 0.08526732
만든 0.05629795 -0.03798767 0.027160423 -0.14512587 0.00734318 -0.14398274 -0.06735845 0.016736167 0.01782942 -0.045508333 -0.01745176 0.021446114 -0.117540725 0.06061066 -0.042500276 -0.01372654 0.024860099 0.017881209 0.01762328 0.07832237 -0.14244723 -0.009095049 0.010304435 -0.06888496 0.08552634 0.02306253 -0.06347629 0.025843872 0.01953716 -0.04349166 0.20707503 -0.045443803
주인공 -0.04040213 -0.019355863 0.04195988 -0.047824025 0.038261827 -0.025980772 0.018427866 -0.025146993 -0.029153071 -0.020569675 -0.00415161 0.011222195 -0.08148874 0.050402712 -7.816607e-05 -0.0074172304 -0.0015872801 -0.055723958 0.032792658 0.046747055 -0.045398746 -0.026264297 0.026787162 -0.024860125 0.009290949 -0.017094297 -0.023380658 0.028694 0.012552519 -0.013138304 0.0032246567 -0.0061570727
받 -0.017458312 0.06457061 -0.017004203 0.019375034 -0.008663605 -0.03765385 0.007306281 -0.074472904 -0.051768895 0.030381855 0.023255153 -0.019944672 0.047790777 0.0035758875 0.033418857 0.008734086 0.024186032 -0.03185486 0.023951875 0.016627394 0.08663117 0.026372595 -0.011627309 0.00047421776 -0.017362097 -0.010587672 0.018141055 -0.022939647 0.010886001 0.02855298 0.048122857 -0.016890375
합니다 0.0013157738 -0.06719032 -0.031527326 0.053631708 -0.07019466 0.009663885 0.018571613 -0.042874906 -0.07812341 0.00914637 0.0009555034 0.046463724 -0.0114963455 0.022638034 -0.07946039 0.019407747 -0.11140236 -0.018318271 0.025221951 0.023897307 -0.028580956 -0.026917668 -0.03145823 0.017342407 -0.05339467 0.040038552 -0.015149587 -0.015527474 -0.0088974545 0.0012778257 0.028482612 -0.09834336
우리 -0.075485386 0.08059093 -0.013525397 0.09881832 -0.056815892 -0.0672529 -0.05720322 -0.10258982 0.028180737 0.10065851 -0.010696019 0.024517808 0.013642082 0.01926788 -0.08068511 0.028145708 -0.040196367 0.005413872 0.10438243 0.10074444 0.083751135 -0.09522942 -0.06967999 0.0059383246 -0.079852805 0.06652325 0.013612793 -0.16755433 -0.05076929 0.099747665 0.026713068 -0.05970377
두 0.032757174 -0.09187737 0.06182856 0.026772872 0.04143681 0.002001615 -0.017736198 0.0053466167 -0.049237855 -0.00063468365 0.08709743 0.02412148 0.038614087 -0.029320179 -0.0074506905 0.00031338562 0.023840562 -0.012844449 -0.030024834 -0.061884694 0.0036847903 0.05996149 -0.071903355 0.027789192 0.018607967 -0.0034581178 -0.032246627 -0.035461277 0.012351072 0.03178894 -0.011745516 -0.081539005
살 -0.0736844 0.13388735 -0.04807269 0.10742811 0.002842989 0.04055031 -0.02308934 -0.058544375 0.0388309 -0.0068186033 -0.051150408 0.07736192 0.053232912 0.05518442 -0.010004311 -0.03574258 0.06435385 -0.15340763 0.03643071 0.06835616 0.17238222 -0.02428208 0.007579534 -0.06789847 -0.052281067 -0.00018177403 0.08736602 -0.17407887 -0.047626205 0.07267485 0.08474061 0.07145305
!! 0.0264537 0.008699796 0.0832162 -0.10352307 0.031754967 -0.089799404 -0.016504927 -0.009323513 0.011417102 0.076385595 -0.04980717 -0.057759196 0.05551788 0.025053153 0.03100825 -0.06821166 0.032726362 -0.04518479 0.034771647 0.0014044985 -0.07030683 0.005229871 -0.04000598 -0.011449689 0.056089163 0.046715688 -0.11563232 0.033671074 0.011483204 -0.0034790668 0.039592847 -0.20117414
길 -0.01926344 -1.1957862e-05 -0.04370944 0.06616935 -0.023567792 0.11237595 -2.0317675e-06 -0.012408941 -0.023298694 0.0080347285 -0.0116067305 0.022118721 0.092069484 -0.017476482 -0.03088656 -5.8945734e-06 0.005225886 -0.03423098 -0.0002846798 -0.01965845 0.14442065 0.04734913 -0.020550905 0.018545222 -0.03897798 -0.01768 0.04423522 -0.029241037 -0.073429234 0.051821813 -0.12219496 -0.05771649
엔 0.008392241 0.013128343 -0.041847147 -0.014004537 0.013056311 0.055222034 0.006367409 -0.02961639 0.08832715 -0.0770023 -0.012520339 -0.014111266 -0.05964073 0.07071573 0.044565443 -0.056270923 0.027910715 -0.033905596 0.029748758 0.018668232 0.0128640635 0.013106519 0.014800802 0.0071390374 0.059199166 0.028485639 -0.049909655 -0.007978422 -0.015780017 -0.018209878 -0.053768046 -0.117158055
괜찮 -0.012932911 0.032184947 -0.092198245 0.0045423536 -0.049469605 -0.03246647 -0.11006603 -0.053826474 0.206203 -0.018652186 -0.13479154 0.033579104 -0.019535542 0.11965274 -0.06167654 0.0010068059 0.026713733 -0.03461541 0.13482724 0.18705171 -0.032575753 -0.11882651 -0.069036655 -0.1586958 -0.030306915 0.15026294 -0.21316226 -0.017472388 -0.13350536 0.090223424 0.19330302 -0.07565681
기억 -0.004721343 0.02713068 -0.072474144 -0.06502798 -0.039957058 -0.12537834 -0.12402235 -0.04661266 -0.023443481 0.008175584 0.0034414218 0.06676095 0.0056245467 0.06431407 -0.04087524 -0.06288001 -0.046460807 -0.02658214 0.02972726 0.122401506 -0.06642321 -0.050509874 -0.04311586 -0.035968523 0.028571704 0.04302997 -0.07761265 -0.01298127 0.006268316 0.021827566 0.19805767 -0.07124414
연출 0.050610863 -0.053622853 0.0043348414 -0.033057038 0.062637806 -0.061013456 -0.017464017 0.05324558 -0.031746715 0.0058270185 0.08182834 0.013894229 -0.027056765 -0.033722233 -0.008010044 -0.047482997 0.021553071 0.040100195 0.008989663 -0.051842082 -0.068613596 0.03016191 0.01588982 0.06601142 0.033354636 -0.031790476 -0.10383845 0.03628633 0.05118824 -0.034296848 0.07739672 -0.15215686
한다 0.05238312 -0.001369866 0.031554222 -0.013324377 -0.045116086 -0.040672682 -0.015242073 0.008199982 -0.048155703 0.05327434 -0.013299942 0.03989631 0.031077607 0.0019651582 -0.081295095 0.1270394 0.025217371 -0.02183195 0.05119532 0.014649414 0.014882875 0.04869906 -0.13107459 0.07683789 -0.04707395 0.004570839 -0.124675184 0.032184742 -0.054502882 0.01473771 -0.026415773 -0.04077529
때문 -0.104050465 0.09869232 0.025887815 0.018157989 -0.03601008 -0.030415198 0.0048648147 0.019041734 -0.062941715 -0.038261026 0.023016281 0.033659916 -0.027744798 -0.05212477 -0.0050132116 -0.041365605 0.016629517 -0.00010539248 0.022169283 0.02287163 0.042302314 0.0053962898 0.0048004347 0.028217701 -0.06269405 0.026638944 0.024311313 -0.03592516 -0.01989494 -0.0013036777 0.094829075 0.046595346
이나 0.054043073 0.05358 -0.032541778 0.014680807 -0.0075271013 0.12706214 0.055037122 0.08703598 0.1114606 -0.10722889 -0.02498943 -0.065823115 -0.07006745 -0.08059037 0.08523307 -0.011737253 -0.07890465 -0.0051096296 -0.09123328 -0.021657258 -0.05369089 0.04057061 0.09757372 -0.032427542 0.071630694 -0.12657572 0.080619514 0.055308424 -0.017125724 -0.046939284 -0.08978007 0.112912826
ㅎㅎ 0.026258899 0.07049625 -0.106475204 -0.014679413 -0.014494986 -0.08672901 -0.10432592 -0.11414681 0.042487003 0.122282825 -0.07276348 0.03740379 0.079469554 0.045276426 -0.02792994 -0.13359457 0.07231435 -0.07037596 0.045213353 0.06016026 0.09088455 0.036943838 -0.043760706 -0.049295735 -0.064991236 0.03293591 -0.112120196 -0.0024616332 -0.062953435 0.030058978 0.011623791 -0.2982461
요 -0.004501291 -0.026475351 0.0045800423 -0.013421828 0.018374074 -0.12488333 -0.019344347 -0.002771968 0.103368595 0.06820932 -0.017829973 0.024966288 0.010420743 0.01653462 -0.0446896 -0.01626765 0.07888901 -0.030402092 0.07274063 0.069703154 -0.02967977 -0.055208642 -0.058514837 -0.007848067 -0.05805434 -0.041531213 -0.11216495 -0.0031214477 0.01086289 0.054140013 0.071177706 -0.15292284
저 0.038725685 0.0014607952 -0.005570863 0.0022185766 -0.059096087 0.009262149 -0.0070928307 -0.031384185 0.0442106 0.04062203 -0.022655 -0.051699094 0.022448866 0.060946178 0.0013737684 0.016751828 0.042216826 -0.038084403 -0.010340966 -0.026631324 -0.032059163 -0.008628029 -0.02131278 -0.0043237885 -0.021480234 0.052756112 -0.028378818 0.07978617 -0.047142718 0.041498892 0.107111245 -0.077919886
재 0.032180168 0.0862289 -0.030570677 0.009837096 -0.083277315 -0.087704696 -0.10376458 -0.079496786 0.23140587 0.010243957 -0.05386662 0.018939858 0.032284506 0.104564935 -0.033427127 -0.046657227 0.039979838 -0.019274654 0.055799287 0.1331884 -0.05526647 -0.111728065 -0.055659857 -0.18416005 -0.03800377 0.20911047 -0.12293741 0.036063448 -0.078396134 0.02512237 0.037473515 -0.21764222
꼭 -0.16141236 0.1663684 -0.12962058 0.13106775 -0.095165536 0.019974835 -0.1212895 -0.12069685 -0.073249735 0.028456485 -0.06894577 0.13433835 0.018250844 0.122508846 -0.12286232 0.113454856 -0.00055479514 -0.05347778 0.08994074 0.15372682 0.20598307 -0.148942 -0.054116163 -0.08048841 -0.15735272 0.15799305 0.047049906 -0.23145802 -0.13556424 0.07275315 -0.0734267 0.040440783
랑 -0.08855246 -0.04052262 -0.011116082 -0.009777533 0.0067283567 0.023306523 0.060586676 0.002888117 0.031991407 0.026876012 0.07205126 -0.032951523 -0.08644706 0.0068652513 -0.04246102 -0.01023237 0.079142764 0.047615446 -0.007704834 -0.018949425 0.0067886156 -0.025625715 -0.07295691 0.06090061 -0.034390114 -0.045618255 0.059658922 -0.10012155 0.0159932 0.046830993 0.15986425 0.093974926
며 0.07214039 -0.03811331 0.024814988 0.023889625 -0.020290734 -0.03306117 -0.032501545 -0.02349973 -0.0303069 0.050609514 0.022520764 0.034722213 0.092399426 -0.0062639727 -0.025216913 0.116526306 0.0984818 0.012090977 0.06954267 -0.05777045 -0.05478305 0.018991103 -0.04627111 0.07541972 -0.0028104351 -0.06604751 -0.042306945 0.110927194 0.03713063 0.01118048 0.002294776 -0.027278882
현실 0.03445605 -0.027344577 0.033357363 -0.019511078 0.01813043 -0.087030694 0.0028894325 -0.114161685 0.10840303 0.043117903 -0.052864194 0.08556803 0.051651206 -0.023795879 -0.0029591394 0.07765203 0.14348833 -0.06540912 0.01608855 -0.0076975613 0.008255266 -0.030447315 -0.006584959 0.014046634 -0.08570912 -0.007382761 -0.16753405 0.005816938 0.02395531 0.10686378 0.07553197 -0.1538197
긴 -0.006173106 -0.0045182407 -0.06673173 0.0153190475 0.07690367 0.114425026 0.048626255 0.04796001 -0.08665853 0.01430965 -0.009220727 -0.07880946 0.06131865 -0.08275759 -0.02402553 0.0054652933 -0.03633166 -0.090332165 -0.046439596 -0.019901937 0.05553137 0.01546956 0.0013060183 0.051334217 -0.036989655 -0.042749003 0.12171072 -0.04318127 -0.02121349 0.0110608945 -0.0984552 0.18095095
ㅡㅡ 0.124856375 0.00028674258 0.04646605 -0.09669163 0.10514798 -0.044539493 -0.0014993688 -0.010759809 -0.08139962 -0.11631308 -0.029369805 -0.11892665 -0.038479343 -0.04462107 0.067561954 -0.14477642 -0.015599364 0.047932297 -0.13929561 -0.002431969 -0.071577586 0.08954687 0.053829126 0.061925687 0.114213616 0.021049373 -0.06415323 0.02167324 -0.035505682 -0.040075563 -0.103723206 -0.1463889
무슨 -0.00010627891 -0.03658699 0.007129548 -0.04072085 0.044449773 0.097135395 0.035416067 0.07144345 -0.06776633 -0.053388804 0.062658116 -0.0670576 -0.023268567 -0.07459045 0.09057053 -0.05116392 -0.044684816 0.059280105 -0.12201255 -0.06597857 0.011363334 0.046720717 0.038763657 0.054608732 0.05780996 -0.022334749 0.061467327 -0.006240504 0.04472324 -0.045288935 -0.13164061 0.037646905
내내 0.1010257 -0.05296915 0.11926826 -0.114852846 -0.009047531 -0.1050622 -0.023572033 0.029121691 -0.035514124 -0.04218988 0.004536912 -0.03597054 -0.020946683 0.02556196 0.020829106 0.01659784 0.06554082 -0.0062732706 -0.009500551 -0.02804844 -0.10741765 0.024475534 -0.020183744 0.06897041 0.06293585 -0.058508854 -0.063711606 0.052803654 0.037167925 0.017340194 0.038479257 -0.018779002
결말 -0.002566441 -0.008062951 -0.028510185 -0.03024858 0.049393173 -0.09173889 -0.025460884 -0.044391304 0.0017968428 0.023247005 -0.009920436 -0.022177288 0.09156837 -0.06923835 -0.0045825783 0.03187629 0.06302958 -0.025984418 -0.0066142436 0.016631553 0.05231942 0.0662018 -0.042367175 0.009845612 0.00067958806 -0.05238008 -0.12467484 -0.021544809 -0.05544507 0.038776666 0.0029596596 -0.24063446
죽 0.094680235 -0.06449638 -0.046843685 -0.021809109 0.02340142 -0.018095186 -0.013322171 0.027916588 0.08364711 0.03539401 -0.013091526 -0.021544151 0.0028386305 -0.0035932933 0.0076316097 -0.01516043 0.0017963147 -0.044235516 -0.02989718 -0.013437534 -0.05510924 -0.029027594 0.019663151 -0.03207361 0.07932393 0.042103082 -0.11747762 0.048663974 -0.029135795 -0.0308367 0.07038832 -0.18733414
남자 -0.00963595 0.047267195 -0.023227796 -0.010839546 0.028613726 0.0029861366 0.040874977 -0.0037011504 0.071979366 0.0015630114 0.008872462 0.043031022 0.0133398855 0.021243146 0.05915225 0.025723694 0.055406284 -0.080186695 -0.016334191 0.041149233 0.10659511 0.022422966 0.039963298 0.0065707513 -0.019985748 -0.02769393 -0.0034912 -0.10073035 0.020157587 -0.025534313 -0.023653742 0.054414958
세요 0.029855464 -0.038219277 0.092474096 -0.009567941 0.08386745 -0.11049039 0.003199832 -0.01339717 -0.0691631 0.058140483 0.11295441 -0.011736692 0.0993372 -0.027452724 -0.0253947 -0.043162446 0.09214648 -0.025088256 0.011656688 -0.04891035 -0.0011301589 0.079829395 -0.07781561 0.070438504 0.05777807 -0.105068415 0.0066860924 0.054950666 0.040345322 0.01586607 0.008977983 -0.08173719
전개 0.07672538 -0.010522331 0.09644747 -0.10588095 0.071792044 -0.072898455 0.01705732 0.02277488 0.0007266005 -0.019666363 0.06094914 -0.05127682 0.017750228 -0.024041133 0.07283691 -0.019864207 0.027701207 0.016666606 0.015207703 0.024321718 -0.09137828 0.04026325 -0.026197571 0.0813563 0.009758483 -0.06281253 0.038961645 0.005938703 0.110850506 0.0017518168 0.11967567 -0.01282567
마음 0.00891151 0.022945752 -0.023188392 0.05686084 -0.06826922 -0.04382709 -0.10792976 -0.103430144 -0.039604865 0.12565911 -0.02481551 0.09309077 0.09576951 0.06433265 -0.0966621 0.15313134 0.108957015 0.026302032 0.035101928 0.04295773 0.038423207 -0.12368636 -0.17168887 0.0067845327 -0.103020884 0.06542764 -0.08495856 -0.031995475 -0.046947293 0.10727428 -0.0029759929 -0.06072345
소재 0.0035287659 0.0105249705 0.0551584 -0.019332718 0.01117789 0.0635352 -0.013586402 0.05324891 -0.07192158 -0.050417468 0.043577585 -0.075539954 -0.062590525 -0.0021989516 0.05228305 -0.052295778 -0.013140756 -0.0020679117 -0.031356987 0.007530827 0.0045695547 0.055795804 -0.038221925 0.06508163 0.06130628 -0.022215292 0.047050606 -0.039949745 0.07622019 -0.06088932 -0.04763595 0.10360963
속 -0.0075614993 0.0057347915 -0.0007532612 0.003635672 0.031723656 -0.08883633 0.006144655 -0.06339435 -0.060528766 0.035323665 0.01634033 -0.028289704 0.13652511 -0.009348615 0.03435337 0.025092306 0.013686677 0.0028480224 0.028684871 -0.045635592 -0.03547077 -0.027529856 -0.023922207 0.014962296 -0.023631778 -0.013478054 -0.03585774 0.003844996 -0.018016199 0.039118335 -0.01935626 -0.11500421
공포 -0.0448156 -0.029341847 0.025691688 -0.010261918 0.027518954 -0.024046492 0.0043387087 0.026141746 -0.079930805 0.04628131 0.04440301 -0.020065993 0.06404091 -0.0016669444 -0.025384953 0.038421765 -0.038354844 0.034144513 -0.056314267 -0.041963357 0.0076645603 0.012379092 0.02413731 0.053204764 -0.051706456 -0.046155415 -0.008740801 0.03935213 0.011082029 0.04111841 0.04454724 -0.08967915
아서 0.06588566 -0.05742544 0.048558302 -0.031440306 0.007388711 -0.093575284 -0.07059554 0.028146429 -0.060249347 0.07457826 -0.030241426 0.0611947 0.04380464 -0.033311255 0.06049986 0.03368173 0.1257723 -0.008362511 -0.017360568 -0.06978714 -0.020558333 -0.029703494 -0.055092193 0.01959259 -0.024355961 -0.012197326 -0.08101207 0.098269 0.0629938 0.0654745 -0.00035637832 -0.054715063
다른 -0.027753673 0.020385262 -0.00035394865 0.009844743 0.019416105 -0.019914122 -0.046008624 0.0045163915 0.08514368 -0.019428464 -0.020839753 -0.06581709 0.025551548 -0.018697899 0.016005717 0.05054696 0.04163429 -0.09093479 0.05566601 0.0005043283 0.006294841 -0.026635977 -0.024896925 -0.067892484 0.048229624 0.0044301036 -0.13029642 -0.0117034465 -0.055755515 -0.024602694 0.036285557 -0.062926136
씨 0.019023944 -0.037113328 0.0038566706 0.009980799 -0.0045450986 -0.099837884 -0.0380536 0.020659875 -0.04849424 -0.009658015 -0.0020082714 -0.03857861 0.0040018526 -0.024810413 0.08238664 0.047902472 0.05450011 0.06289514 -0.044230714 -0.060995005 -0.048972785 -0.005513091 -0.059129737 0.043618973 0.020562282 -0.027763814 -0.04229428 0.09956162 0.06772864 -0.012196992 -0.043225665 -0.2464635
인생 0.02003517 0.03293532 -0.0316165 0.041212738 -0.12946965 0.023545118 -0.13972707 -0.09344781 0.19692022 0.02271586 -0.1365803 0.14882612 -0.081743695 0.20934895 -0.07845379 0.14197633 -0.029531471 0.07148188 0.028980462 0.033598162 0.036035534 -0.16733475 -0.11451482 -0.10016919 0.0015436105 0.23609518 -0.051535685 -0.049735975 -0.06525166 0.023958262 0.1179787 0.11931604
~~ 0.014411848 0.008433716 0.046914663 -0.06713418 0.052257452 -0.12620986 -0.05921975 -0.035022628 0.0942806 0.025115823 0.0282732 -0.018643502 0.058184978 -0.047409203 -0.016948702 -0.16041954 0.0338158 0.0024932378 0.010114996 0.0029034435 -0.07610096 -0.0068245353 0.036831547 0.03669708 0.02279452 0.040044956 -0.15092371 0.035238497 0.029501295 0.0214524 0.100959636 -0.24917854
짜증 0.058886614 -0.10783688 0.050095852 -0.1639996 0.2000805 0.28565362 0.20652488 0.19552468 -0.21386863 -0.18133637 0.16101366 -0.14234856 -0.18906824 -0.07196236 0.08796642 -0.17469504 -0.3300425 0.12256804 -0.29476392 -0.120608784 -0.08262599 0.2119695 0.1822556 0.0912114 0.16025668 -0.050440084 0.2643198 0.08856387 0.029799867 -0.20364434 -0.27516952 0.16912925
짱 -0.10606389 0.10357123 -0.13578011 0.06834959 -0.109859385 -0.0889555 -0.07606596 -0.014341278 -0.023354288 0.08189101 -0.059643425 0.088622704 0.047218263 0.04213669 -0.0689577 -0.14111361 0.05168701 -0.19736753 0.10740712 0.10387875 0.10419699 -0.07152024 0.0046269833 -0.06977216 -0.12880355 0.0064196493 0.03152152 -0.14978054 -0.05678094 0.036467794 0.1726412 -0.03401393
뿐 0.047221325 0.020890146 0.033969376 0.022087965 0.079692654 0.032740314 0.06795603 0.008289996 -0.10921634 -0.08584632 0.08233663 -0.01198703 -0.1276245 0.0030499378 0.06747401 0.04651178 0.03270413 0.055390276 -0.035307884 -0.0031223502 0.04015166 0.061161127 0.03244759 0.036302496 0.074346036 -0.011801151 0.018523257 0.06281318 0.07977777 -0.121198796 -0.14323075 0.10392185
은데 -0.033747252 0.0058645485 -0.11799976 0.047914542 -0.020268686 -0.050359342 0.012693436 -0.01422368 0.043476775 0.024341298 -0.015312121 -0.017718274 0.07418105 -0.032711454 -0.065898925 0.054735057 0.05758003 -0.11253034 0.008340883 0.06322936 0.08181276 -0.036576238 0.04323806 -0.06264357 -0.02049907 -0.007615169 0.008388557 0.0023598578 -0.020960374 0.012307499 0.022400642 0.033246636
별 0.042895433 -0.014956464 0.08787531 -0.09355678 0.104741976 -0.1818485 0.020325473 -0.0010400376 -0.1151378 0.019573329 0.0055638854 0.021055229 0.061438262 -0.093402185 0.10530986 -0.074086316 0.14099252 0.063640565 -0.08011263 0.016802602 -0.11309761 0.09218312 -0.022183124 0.03452531 0.05783868 -0.07849275 -0.015519792 0.04827069 0.17918608 -0.060508102 -0.07074227 -0.112756886
아요 0.067800134 0.056172736 -0.007524388 -0.03163027 0.072378226 -0.15376508 -0.05773535 -0.06073627 0.013067181 0.10498821 -0.046629492 -0.02943377 0.06492565 -0.032485295 0.023680769 -0.065638244 0.03172786 -0.020066215 -0.05425082 0.019011715 -0.08629598 0.037470337 -0.043189846 -0.06502571 0.007330567 0.08277157 -0.2088598 0.12198751 -0.031245627 0.01764423 -0.0767811 -0.3108706
유치 0.066516355 -0.12353413 0.09645552 -0.12707376 0.07649038 0.15492302 0.16641285 0.1535892 -0.24329133 -0.09450905 0.11565202 -0.110829495 -0.05452496 -0.10990436 0.12018503 -0.120160714 -0.07690392 0.17382745 -0.12461662 -0.10974559 -0.16689292 0.093403965 0.08163936 0.105638616 0.06720275 -0.2205844 0.1301015 0.1482966 0.14359006 -0.11409824 -0.23820436 0.10056727
가장 0.042371407 -0.048960585 0.021541858 0.030652327 -0.036262427 0.043535616 0.0793782 0.043194264 -0.0062396866 0.06913398 -0.0031423545 0.014517815 0.03909923 -0.052311506 0.036537576 0.10012194 0.09302174 0.09679844 0.051606912 -0.06236399 -0.0135869095 -0.037963707 -0.04032731 0.030186554 -0.014110992 -0.11556017 0.010469464 0.070955426 0.12133395 0.03925077 -0.07329413 0.13408338
필요 -0.07243247 0.23541725 -0.22254807 0.12938938 0.001159227 0.00053900166 -0.0779167 -0.13665918 0.31946012 0.029988723 -0.22468956 0.046927378 0.019039117 0.21397951 0.11430906 -0.02900718 0.17915273 -0.1803406 0.11325277 0.034867954 0.09575641 -0.11878443 0.037417825 -0.30158895 -0.058873314 0.19518287 -0.16094948 -0.013192871 -0.22707707 0.065379255 -0.06346573 -0.18166633
음악 -0.06336582 -0.025350552 -0.029744491 0.071330465 -0.09497074 0.0019088524 0.02037727 -0.08179621 0.15278977 0.026230961 -0.05303691 0.044884104 -0.027677393 0.11213985 0.0044008754 0.061948158 0.124146424 0.064083315 0.00053214614 0.02167923 0.103971675 -0.041840173 -0.13733655 -0.053496446 -0.07695565 0.03022769 -0.08526798 -0.084144354 -0.03098745 -0.01309675 0.016767187 -0.10326513
) -0.033700813 -0.001527662 -0.006055068 0.012872247 -0.026807744 0.033570804 0.05015318 -0.013203752 0.013568639 0.045964763 -0.04898915 0.008612605 0.03945108 0.02079395 0.014943936 0.055764068 -0.00444289 0.01276342 0.00048159284 0.014897867 0.030107198 -0.034512985 0.026602775 -0.03562537 -0.024411049 -0.040437948 0.08917468 0.025698204 0.016978495 0.053074114 -0.01812887 0.11701448
일본 -0.023561498 0.0010775275 0.072459154 0.009615135 0.005751729 0.057599965 0.085485496 0.063223235 -0.041319806 0.023271604 0.09977652 -0.013804728 -0.024450313 -0.060447227 -0.03890546 0.008065766 -0.07826759 0.0028832278 0.018084012 0.025327198 0.0030918217 0.06614417 -0.00013641344 0.003536752 -0.025885638 -0.106410384 0.08179193 -0.09738249 0.078544945 0.012981686 -0.053385932 0.035520863
낮 -0.20106903 0.21366733 -0.28523245 0.19543998 -0.06977671 0.07988981 -0.08353996 -0.11349035 0.022254143 0.10662246 -0.11354385 0.09279298 0.1391468 0.11015674 -0.15050818 0.05724896 0.019327749 -0.15915628 0.061917007 0.06719878 0.19107495 -0.16235419 -0.024874996 -0.21791497 -0.1817021 0.085298784 -0.016943585 -0.14202125 -0.27396765 0.13508107 -0.122530766 -0.24789445
아이 0.014895528 -0.039236758 -0.05143355 0.0020294383 -0.02823827 -0.08673571 -0.017247036 -0.05525745 0.028529711 0.07670653 -0.011531098 -0.003461017 0.010499944 0.04255796 -0.025968127 0.042157903 0.005832495 0.050466847 0.008834523 -0.028269315 0.031633265 -0.06218193 -0.06648161 -0.005649481 0.0036540336 0.005601726 -0.032258227 0.03426152 -0.033569843 0.05883536 0.049270593 -0.13578422
;; 0.02618682 0.020846924 0.066531934 -0.03258314 0.011995895 0.06810573 0.064422496 0.05568734 -0.019108681 -0.016328966 -0.020296408 -0.060037512 -0.07435227 -0.06458566 0.08869116 0.0017368747 -0.058451068 0.015438105 -0.12037705 -0.017041808 -0.017557895 -0.00358684 -0.01085598 0.023012185 0.00930038 -0.07016609 0.0050434535 0.0061756223 0.015962804 -0.057705354 -0.080743656 0.06398341
오 0.052750006 0.06987701 0.024576917 -0.019794198 0.04111863 -0.06853724 -0.008877043 0.008045016 0.05472166 0.07517602 -0.04200829 0.030974312 0.09200752 0.021319399 0.0060502803 0.005427847 0.034865484 -0.021247666 -0.01548161 -0.024184663 0.008176735 0.05274326 -0.0095432205 -0.037216228 0.007702832 -0.018583365 -0.10387323 0.027365709 -0.037122075 0.02054917 -0.020705773 -0.10897657
반전 0.049788494 -0.07685849 0.12843966 -0.010097758 -0.08834724 -0.17237303 0.030964166 -0.023663318 -0.039612785 0.086521365 0.095873065 0.029472843 -0.04004784 -0.01834837 -0.08516733 0.1054052 0.13503514 0.061426453 0.07682215 0.031972766 -0.054472987 -0.05649615 -0.20129326 0.08378651 -0.1008074 -0.044776585 0.0057237702 0.0324359 0.11421054 0.094339155 0.100049816 0.082911916
수준 0.09773545 -0.033871084 0.01544483 -0.10268771 0.13142872 0.04279483 0.08313763 0.038179673 -0.014577479 -0.06658681 0.10115106 -0.119935766 -0.062410276 -0.07639048 0.10768121 -0.12117056 -0.021890745 0.077818334 -0.16367315 -0.094119154 -0.09519256 0.13127811 0.071746804 0.05631883 0.13851549 0.00012719232 -0.03737872 0.15542005 -0.01978901 -0.05405204 -0.1589964 -0.12787181
다니 -0.0037088927 -0.015373003 0.029537179 0.026307723 0.003423448 -0.012015845 0.021343637 -0.0030342098 0.013879813 0.02282799 -0.07884012 -0.032354888 -0.034707084 0.08194586 0.024732143 0.092450686 0.07263186 -0.024702003 0.026546896 0.020832121 -0.007164775 -0.025708878 -0.055672817 -0.010029877 0.06668023 -0.02181165 -0.067037396 0.0110677425 -0.04449622 -0.048276998 -0.008333043 0.012064528
웃 -0.0017710078 0.0029694166 -0.08793015 0.024357405 -0.048414454 0.032148596 -0.03895965 0.0014763694 0.034618415 -0.0277179 -0.032763917 0.042099703 -0.069679275 -0.01966603 -0.032495525 0.05448938 -0.028886138 0.0050885757 0.0062247687 0.067108184 -0.04703118 -0.020653304 -0.033454932 -0.037140645 0.014864168 0.04017455 -0.021681445 0.001877355 -0.010760978 0.008973154 -0.0208744 0.05222451
매력 -0.041372355 0.0791755 -0.007115378 0.07067933 -0.12645501 -0.122197874 -0.08550303 -0.06633184 0.10234868 -0.017363755 -0.023055302 0.13544145 -0.051588554 0.050102267 -0.08226084 0.066596225 0.021273158 0.05686962 0.091186255 0.09290743 0.05244588 -0.12085246 -0.12537791 -0.06591638 -0.04328983 0.12790072 -0.008517761 -0.14030603 0.06824807 0.045902822 0.1917757 0.29757163
맞 0.056767967 -0.003999853 -0.016969057 -0.009503515 0.034746986 -0.014733551 -0.03236228 0.0038410674 0.018562077 0.014086405 0.058153518 -0.025224395 0.024916723 0.035546254 0.033322975 -0.018761754 -0.013945005 0.027948765 0.0073290854 -0.013098313 -0.10631562 0.031798404 -0.038349018 -0.0269605 0.02370552 0.02081928 -0.029035507 0.09494518 0.017715145 -0.0041319076 0.036295284 -0.050049275
인지 0.009303468 0.09632406 -0.03476626 0.024320902 0.049729165 0.02533896 0.03131945 0.03866137 -0.0011960634 -0.061918486 0.0066807726 0.040331796 -0.12612641 0.0136418 0.040339448 -0.01979514 -0.024920536 -0.042232234 -0.054061484 0.018126417 0.08927135 0.035134774 0.016759664 -0.011930483 0.07911481 0.1024797 -0.008900044 -0.057423644 -0.006917359 -0.008137171 0.024795866 -0.001532168
가슴 -0.13305503 0.09630333 -0.19626492 0.06087525 -0.08725374 0.0017416172 -0.15004998 -0.14622273 0.10080624 0.036312412 -0.120605044 0.13617213 0.024873065 0.21177003 -0.124683805 -0.009790868 -0.014252243 -0.016871415 0.016516205 0.07927195 0.06432288 -0.14759377 -0.0898107 -0.1786418 -0.08926494 0.2523656 -0.117849074 -0.07446596 -0.19495425 0.04663148 0.031635612 -0.19183445
없이 -0.010167532 0.015321897 0.029409574 0.035605192 0.026595008 0.058726992 0.07685971 0.0052009393 -0.014884975 -0.05443138 -0.006084447 -0.06222709 -0.047768515 0.031219125 0.05415447 0.055631325 0.1061991 0.10105802 -0.0859104 -0.044218425 0.06922246 -0.014265538 -0.011343993 0.025908332 -0.05641211 -0.059870236 0.040024135 -0.0016415636 0.019061156 -0.07806997 -0.122229114 0.05396369
원작 0.03187424 0.037018433 0.072736494 -0.0031774882 0.06395994 0.053977244 -0.020409118 0.004028962 -0.07672483 -0.047849923 0.008959875 0.026305994 -0.113981076 -0.061027464 0.010191092 -0.053520743 -0.043524016 -0.026336458 -0.04615006 0.031348024 -0.036232527 0.04907278 0.017123854 0.07600789 -0.02280296 -0.08285447 0.052203845 0.0027010152 0.07479933 -0.026172163 -0.021611376 0.2115553
ㄷ 0.023061892 -0.029462412 -0.00348054 0.0049162344 -0.009135408 0.06388903 -0.01517163 -0.0012225065 0.017302427 0.015700256 0.00991646 -0.0012813702 -0.0009352926 0.031901486 0.03292965 -0.0012230208 -0.0038677067 -0.07144923 -0.011630473 0.0042572543 0.06655554 0.011650311 0.03522521 0.0025112743 0.026572585 0.013276339 -0.019517083 -0.010610354 -0.026770283 -0.018796628 0.020497177 -0.05756025
인간 0.05964752 0.021086276 0.0030209685 0.057823434 0.023497697 -0.085737556 -0.02498721 -0.034080956 0.09604702 0.073656395 -0.09802622 0.0011818983 0.07440119 0.08136211 -0.03911257 0.06763658 0.1576565 -0.025436861 0.034021005 0.0552346 0.026033299 -0.01631989 -0.05517141 -0.10152162 -0.0034546428 0.013079994 -0.15451784 0.08113657 -0.046258524 0.012306697 0.007111596 0.060942598
데 0.00827303 -0.038827345 0.046624936 0.03546922 -0.028884921 -0.0061473944 0.048036214 0.0069166017 -0.046263777 0.03450593 0.03186479 -0.015705884 -0.029088398 0.015920913 -0.04418644 0.07208331 0.038204618 0.0017168188 0.055212054 -0.03220916 -0.014301948 -0.00849913 -0.094055794 0.07449398 -0.06831329 -0.020524643 0.030205922 -0.071796834 0.06742536 -0.051066186 0.0062541915 0.057807878
굿 -0.09814426 0.15014233 -0.17291246 0.16735639 -0.21930343 -0.08413812 -0.16703977 -0.044120096 0.091845065 0.091677964 -0.15397719 0.12578645 0.12313109 0.12697251 -0.11525474 0.12270724 0.047188267 -0.11042046 0.10157649 0.19642119 0.107684866 -0.23446721 -0.12582979 -0.18352644 -0.1801738 0.1650114 -0.1045517 -0.15095615 -0.17947143 0.12654759 0.10819718 -0.04018268
ㅠ -0.015290427 0.0048876656 -0.06646969 0.050893914 0.024389867 -0.032619458 -0.029627701 -0.058371987 0.063313864 0.009618525 -0.08505336 0.040671386 -0.07109946 0.016050633 0.025809683 -0.12758812 0.059316225 -0.07964621 -0.041390844 0.05498272 0.08182027 -0.032272026 0.06537239 -0.018871095 -0.015534983 -0.014204057 0.011108652 -0.019550903 -0.050184824 0.04331198 -0.054191057 -0.03440362
높 0.08810463 -0.07912154 0.115148194 -0.0003802228 0.05989486 0.009991379 0.0747871 -0.0074397577 -0.026390132 -0.03000172 0.033993427 -0.056773666 -0.1345293 -0.063898355 0.019073451 -0.034389615 -0.004898955 0.06619303 -0.059408944 -0.044443406 -0.046648275 0.026929528 -0.03443957 0.11704645 0.044105772 0.040135875 0.015442592 0.07065069 0.06901977 -0.06051171 -0.013926457 0.024799123
