9996 16
the 0.01812478 -0.030387485 0.05493028 -0.0045021186 0.056932837 -0.014449774 -0.05028947 -0.026584638 -0.0035017666 0.025943112 -0.06391723 0.015237249 0.043983962 -0.034399096 -0.012667473 0.012270355
and -0.04159105 0.028793178 0.008562602 0.054599922 0.019769618 0.042590432 -0.040469665 0.0026861648 -0.021092942 -0.010315699 0.022082528 -0.021973154 -0.05000451 -0.03677399 -0.0030750772 -0.08270556
a 0.020209389 -0.0437874 -0.008340351 0.039639276 0.03279634 -0.02409171 0.00994703 -0.004707068 0.00014273838 -0.02800655 -0.063264094 0.0427415 0.0665888 -0.038662147 0.0065512857 -0.01052839
of -0.049104456 0.014024311 -0.018148813 0.045060456 -0.013301768 -0.06693508 0.039829098 0.036052797 0.05391277 0.008259196 0.004660535 -0.008728481 -0.044681847 -0.026212253 0.014908923 -0.011291261
to -0.059773035 0.057623625 0.041226193 0.03026701 -0.003854328 0.03885953 0.037013676 0.04533282 0.012849002 -0.053906128 -0.017725037 -0.02091457 0.012167275 0.03201287 0.042619742 -0.005885789
is -0.006726677 -0.010333584 -0.03165148 -0.016043926 -0.032374185 0.016158646 -0.0117854765 0.017365728 -0.002676225 -0.03614851 0.05202004 -0.046760477 -0.043329533 0.017070295 0.020581909 -0.060680564
br -0.024704037 0.00080117583 0.06424618 0.0648145 0.0024492028 -0.0061094845 -0.038597737 -0.02872235 0.015880536 0.008304513 -0.0065474454 0.05212341 0.03292965 0.016744394 -0.010232505 -0.029975144
in -0.0029319443 0.033797774 0.04115198 -0.006624073 0.029881995 0.05412465 -0.027754398 0.036034405 0.035710674 0.0117708305 -0.012697055 0.03612993 0.028995425 -0.045528617 -0.0099184 -0.0019144379
it 0.0063486444 -0.03251054 0.048326306 0.071561 -0.033936687 0.0300551 -0.06609278 -0.05102025 0.045855973 -0.019660275 0.015729835 -0.031239063 0.058878526 0.018835237 -0.06258221 -0.015652277
i 0.009086735 0.042109296 0.029323392 0.034076903 -0.038114026 0.019988881 0.029122598 -0.0171653 0.06967135 0.021935495 -0.02366977 0.0011685411 0.048504002 -0.025753027 -0.0005551178 -0.04003552
this -0.03158816 0.0007500842 0.0099201575 0.010563502 -0.0051932293 -0.03336661 0.048834667 0.061295398 0.04957711 0.0055881273 0.0075409906 0.018646123 0.035445824 0.02176214 0.03096615 0.008114562
that 0.054431077 0.021145063 -0.0008142788 0.056718245 0.017828716 0.012660444 0.04058455 -0.029163953 -0.0111175245 0.02014578 -0.006536722 -0.0047061234 0.015684973 -0.029389206 -0.0026328107 0.0024340388
was -0.011655835 0.01526417 0.00993137 0.021468746 0.0028576332 -0.09025996 0.036892362 -0.012806628 -0.002510986 -0.023371829 0.05506076 -0.0037216933 0.03062 -0.0013019815 0.07493769 0.057424705
as -0.023894472 0.02998667 0.0028951555 0.025444046 -0.024572156 0.03920151 0.03424582 -0.02570249 0.021669423 0.011171221 0.0043857507 -0.0062821433 0.0146905305 -0.01889741 -0.011164423 -0.009759381
for -0.058376726 0.04708948 0.036380246 0.010133603 0.0038293044 0.027193347 0.019639263 0.043353084 -0.018463979 -0.025304394 0.011689041 0.042939093 0.007870674 -0.010991154 0.018509304 -0.029310947
with 0.009599648 0.033348832 0.012022948 0.006909883 -0.04108356 -0.018086491 -0.0040730643 0.039819535 -0.030742234 0.035246607 0.00051926513 0.03567452 -0.0054248404 -0.043260302 0.044655062 -0.0518256
movie -0.04554227 0.026165485 0.048720453 0.042927407 0.036977388 -0.04985817 0.014474253 -0.0011457212 0.0025514264 -0.034341298 0.011418648 -0.008188344 0.055319503 0.045305546 0.0167055 0.013654737
but -0.048466414 -0.033487927 0.007773269 0.0144507345 0.02086025 0.052120768 -0.026236907 0.025203168 -0.04584556 -0.022452867 -0.08540648 -0.029610679 -0.0003342128 -0.006211087 -0.035991386 0.036019634
film -0.0194099 -0.032134235 -0.022695038 0.023772893 -5.106115e-05 0.004152961 -0.044560064 0.013779057 0.044544335 0.0027431797 0.04468144 -0.029020263 0.049208764 -0.046340454 0.0102102 0.0022778774
on -0.03893021 0.0053067184 0.03362828 0.017197544 -0.028167503 0.019290034 -0.05881499 0.04414727 -0.021349723 0.024237584 -0.07641542 -0.012170621 -0.0088164415 0.021259703 0.034577537 0.023257887
not -0.037432496 -0.0021056947 -0.025510702 0.018299429 -0.054762866 -0.032297693 -0.01591709 -0.044416755 0.061905682 0.037127554 0.014067866 0.029873341 -0.010547964 0.077192 0.061475642 0.028164392
you 0.025979327 0.008936483 0.056941386 0.04091946 0.057341978 -0.008798613 -0.06888687 0.050895084 0.045182567 0.032128032 -0.030756658 -0.023695895 0.043099817 -0.054287 0.01913393 -0.04283661
are -0.058196362 0.0016581643 0.0032617291 -0.0027892063 -0.022891747 -0.014863223 0.022001535 -0.021031756 0.036234424 -0.0064789355 -0.00970382 -0.008065033 0.0018846326 -0.009181836 0.0443212 0.031640146
his 0.03522672 0.009499924 0.027885128 0.0014452155 0.060976986 0.04330097 0.004116306 0.008625308 -0.040297218 -0.034022197 -0.043977596 -0.0410145 0.05362847 -0.06386567 -0.06299117 -0.020506652
have 0.004849163 0.06553796 0.011445105 0.011050809 0.0012901587 -0.034753785 0.030235598 0.051958058 0.027076848 0.057760358 -0.01104161 0.06357519 0.036555707 -0.022511447 0.04802336 -0.0069434256
he -0.0463643 0.00393209 0.04138092 0.03269019 0.04444451 -0.019279802 0.0035502848 -0.0062318346 -0.02329607 -0.031534445 -0.0046735564 0.01332285 0.0021388473 -0.033607293 0.042478677 -0.041233238
be -0.04645199 0.066832945 0.022131568 0.023563946 0.058379814 0.0072285347 0.033991296 -0.020212965 0.014765505 0.0012876238 0.006959526 0.010820765 0.077136576 -0.011653757 0.026503198 -0.04275451
one -0.022723466 -0.015987348 -0.011628131 0.0066532637 -0.05088964 0.022224624 0.022329085 -0.029505132 0.007984486 0.02502048 0.03148244 -0.029433113 -0.03190655 0.040051475 -0.007109284 -0.003704393
all 0.022376528 -0.015270921 0.051260002 0.023710417 -0.0324689 0.018171303 -0.0008278686 -0.009276125 -0.017285276 -0.047462884 0.016267432 -0.05281407 0.04264674 -0.012412512 0.01780284 -0.0025957057
at -0.05698295 -0.0009549382 0.0260792 0.041961234 -0.030934084 -0.020445755 0.016690053 0.007918812 -0.0047375867 -0.0068615535 0.017389677 0.0352009 -0.022965983 0.014245967 0.01856886 0.014144899
by -0.031543028 -0.039476153 -0.057490278 0.020693561 -0.03423574 -0.008321176 -0.003722886 0.00018277709 -0.017733388 0.008565711 0.06268931 -0.011075035 -0.03542125 0.0023564992 0.05902335 0.017341232
an -0.02341967 0.012923327 -0.0013315473 0.050087713 0.057960827 -0.009772678 -0.042642612 -0.032200776 0.023372136 -0.018574482 0.0021658062 0.015230419 -0.0033988508 -0.050567906 -0.038341496 0.006519272
they -0.017133007 0.0011024752 0.04118784 0.09633929 0.030472143 -0.017431177 -0.06461334 0.05960793 -0.00016455095 -0.024790375 -0.02988592 0.022360876 0.047853455 0.051623598 0.018688677 -0.018247643
who 0.050423115 -0.03528109 -0.015327121 0.05845888 -0.011317188 -0.012943513 -0.023990689 0.05646621 -0.0065030004 0.0016622364 -0.0012805659 -0.03697209 -0.008388023 0.012991069 -0.037388906 -0.074244246
so -0.0477007 0.00608854 0.00043318773 0.024099633 0.026657613 0.01552521 0.039843775 0.024963735 0.03775602 0.02871565 0.019074377 -0.0009931659 -0.021735527 0.045186367 0.053885132 -0.04106139
from 0.046921976 -0.009953194 -0.023740865 -0.005821788 -0.038480923 -0.013381313 0.01255343 -0.030717606 0.015295744 0.013227514 -0.03338152 0.03085229 -0.04981345 0.011350744 0.01059298 0.040287487
like 0.0046039457 0.0575697 0.03060904 0.04255373 -0.011398877 -0.024985606 -0.041431427 -0.0037266836 0.026300628 0.006325595 -0.06603314 -0.025956487 0.040540848 -0.0010313515 -0.03497112 0.03136356
her 0.028681027 0.025762819 0.011171299 -0.002581811 0.04808835 -0.0061557246 -0.03449563 0.021784216 -0.019648127 -0.009004562 -0.0657048 -0.027568761 0.051127527 -0.06741856 -0.01906849 0.015225246
or -0.021155579 0.020770857 0.10618979 0.037762426 -0.004433416 0.0018048857 -0.034691513 0.06617147 -0.022607623 -0.015722867 -0.05955851 0.0073059006 0.015391796 0.0008112986 -0.041665822 -0.01363512
just -0.05932367 0.042050954 0.029533487 -0.06733202 -0.07077465 -0.07805703 -0.020128712 0.031479828 -0.026562829 -0.0035996605 -0.02919095 0.04492478 -0.0035057853 0.03003662 -0.015073634 0.06115223
about -0.04267142 0.008878858 -0.030080482 -0.037077725 -0.004342941 0.02176353 -0.04244875 -0.00803755 -0.048657168 0.0038748626 -0.022122337 0.0022303674 0.025057295 0.01792818 -0.022761513 -0.017644834
it's -0.011618884 0.025323417 -0.03831772 0.042213436 -0.0036812606 -0.018698467 0.042932592 0.06356255 0.000185841 -0.012129905 0.035313766 -0.06292256 0.011566561 -0.00817019 0.0071419696 0.01736812
out -0.08780681 0.04662705 0.07914451 0.057893213 0.029880565 0.036482614 0.019603558 0.01418541 0.012133291 -0.0040514166 -0.0016912838 -0.020450192 0.06490676 0.0019963793 -0.05305935 -0.013262727
has -0.011902187 0.0033365656 -0.04818292 0.034783304 0.03570778 -0.038538635 0.048129864 0.039461233 0.019480387 0.0339938 -0.04540129 0.009418194 0.04368221 0.004303789 0.023749862 0.010901152
if 0.00013058467 0.020723471 0.050767563 0.04923149 -0.034000173 -0.041433666 -0.023819124 -0.031317383 0.03885718 -0.024693621 -0.04669603 0.086501054 0.082106434 0.06204607 0.033982195 -0.027391987
some 0.021301134 -0.017273178 0.035692826 0.03391395 -0.020976875 0.004155602 0.03252675 0.021651968 0.0067220293 -0.049555004 0.04609561 0.028591737 0.010944493 0.029331999 0.042093545 0.05002571
there -0.0012580026 0.059776295 0.032691818 0.043822326 0.022952035 0.020084705 0.012977218 0.042356025 -0.0050829826 0.026712958 -0.015700657 0.008194345 -0.022247152 0.015831245 0.049731843 0.02584461
what 0.076024644 -0.072535455 -0.006683822 0.0043543316 0.03295948 -0.006659193 -0.056593113 -0.00016735677 0.0033709742 -0.0006222896 -0.02343641 -0.028452776 -0.023106745 -0.015608893 -0.07694899 -0.05373606
good 0.030285286 -0.007852588 0.049354635 0.13340826 0.0024884976 0.032529633 -0.08126524 -0.035147592 -0.009341828 0.015754672 -0.052828006 -0.023935491 0.04757615 -0.077964745 -0.008692383 -0.050745815
more -0.03077152 -0.0037363095 0.073666796 0.044035167 0.046746206 0.02951536 0.021033576 0.033585533 -0.0072563747 -0.02741027 -0.03292325 0.0037350978 0.069950774 -0.026635835 -0.019007768 -0.0074262074
when 0.024604432 -0.037369795 0.0317192 0.04319007 -0.02923668 -0.006766215 -0.047921427 0.003241511 0.013256351 -0.054323316 0.031640578 -0.013366632 -0.024998067 -0.054628048 -0.012545256 -0.00462791
very 0.03789793 0.016953252 -0.025580918 0.016018614 0.033280328 0.013737271 -0.037607074 -0.001757283 -0.060664367 -0.054670483 -0.056334678 -0.00094332563 0.0032121956 -0.015720265 -0.011781583 -0.0649082
up -0.029388458 -0.022349143 0.014190206 0.03139723 0.0006872165 0.0018419535 0.030121185 -0.045283783 -0.006819216 0.030438893 -0.03898127 0.008273439 0.046032168 0.026759405 -0.038229294 -0.032472733
no -0.0180653 0.089726344 0.05348949 -0.06570048 -0.033570506 -0.09538157 0.049483035 -0.04885985 -0.008409274 0.04953591 0.048409242 0.060564738 0.016797464 0.039713986 0.06079616 0.023622995
time 0.01688381 0.019737229 0.049123075 0.057027627 -0.016062887 -0.018186796 0.015297627 -0.04252631 -0.00041342355 0.016086161 -0.0365938 0.06651822 0.008776958 0.009338542 0.02061892 -0.03625025
she -0.0194796 -0.012313929 0.023943681 0.046400946 0.054374445 0.0051666903 0.012811431 0.0016919954 -0.02645666 0.027086569 0.014893597 -0.0635479 -0.0283033 -0.02780966 -0.004923966 -0.04788364
even -0.041378405 0.054423664 -0.001849651 -0.050794635 -0.010497171 -0.058684185 0.0034605581 0.030640222 0.046085585 0.041736536 0.04564676 0.057776835 -0.028305547 0.011955286 0.05166572 -0.0052740006
my -0.014071006 0.044920668 0.015122873 0.024353085 -0.0013488506 0.002267991 -0.07303573 -0.011606665 0.012390019 -0.006487925 -0.027505422 0.012241229 -0.018075513 -0.009443462 -0.048331562 -0.035747632
would 0.024266638 -0.029149776 0.0051428713 -0.0017270852 -0.022285659 -0.00137354 -0.028073257 -0.051652696 0.053581707 0.0042331987 -0.017995577 0.012194608 -0.02753268 0.036569003 -0.016007015 0.018744946
which 0.067755036 -0.0817243 0.024549376 0.04452201 0.015363798 0.062087987 -0.035286866 0.0018589185 0.020921996 -0.011991384 -0.018710056 -0.043335196 0.06337356 -0.01352939 -0.063007064 -0.008430347
only -0.061647188 0.0858071 0.01027068 -0.023047922 8.4866675e-05 0.0024327566 -0.0035970195 0.015924817 0.046119876 0.041908395 0.034045108 0.06263142 0.010121036 0.048831508 0.01963582 -0.016678328
story -0.00060165045 -0.017078033 -0.035319377 -0.0127149355 0.001293372 -0.06025447 0.027362114 0.013710088 0.028591767 0.02281219 0.06487349 0.03114223 -0.000682407 -0.028325222 0.016292369 -0.029142965
really 0.0055063665 0.026679553 -0.022080064 -0.024609009 -0.024846695 -0.015506108 0.02874596 0.061025646 -0.02626815 -0.016479703 0.016435016 0.01453843 0.04082374 0.0048688943 -0.019491741 -0.03835199
see -0.051618315 0.03908072 0.06407126 0.065579005 0.048645895 0.033184428 -0.030914655 0.0017220787 0.05106017 0.056451034 -0.056567665 -0.040110417 0.007974738 0.0042686486 -0.036148366 0.011571832
their -0.011158552 -0.02292073 0.04764535 0.04578315 0.058018807 -0.018880801 0.03473999 0.046315238 -0.050165553 0.026774056 -0.051260337 0.018335382 0.025024189 -0.05389199 0.002446784 0.010432186
had -0.06831834 0.094894946 0.018009886 0.016657984 -0.01925349 -0.010401445 0.028710123 0.03504108 0.0042041554 -0.01930524 -0.016576765 0.08693388 0.045485467 0.042627662 0.054075368 -0.0013717837
can -0.054236494 0.020924356 -0.007584859 0.048178334 -0.029713564 -0.047296196 -0.021228174 0.054775123 0.06231696 0.018308638 0.017073384 0.030750707 0.054984964 -0.0011075845 -0.0010158257 -0.012236148
were -0.00040632128 0.079816036 -0.014860485 -0.07604959 -0.023156475 -0.05624028 0.05380671 -0.021411829 -0.003880994 0.023323216 0.031512953 -0.0048532067 -0.030342236 0.052558113 -0.01954232 0.028611207
me -0.026601983 0.038614955 0.044510696 0.07260211 0.04077739 -0.00612767 -0.058182884 0.06116833 -0.037278976 -0.017988477 0.020533247 0.010131361 0.04312387 0.020209301 -0.0626271 -0.0069858604
well 0.036724035 -0.071719 0.06576383 0.072025314 0.06574757 0.054423265 -0.07770917 0.015441199 -0.029642688 0.019983307 -0.025416225 -0.07413442 0.0725642 -0.02410609 -0.01201292 -0.073727645
than 0.00014757791 0.05851994 -0.045001302 -0.04448466 0.018068876 0.023182299 0.0312374 -0.04887705 0.044783957 0.0259381 0.004347076 0.045683794 0.01753027 -0.013869683 0.026597317 -0.0031746153
we -0.013098964 -0.028391918 -0.041402277 0.031778276 -0.010626847 0.045221593 0.005158108 -0.009248669 -0.007034755 -0.00051704765 0.018913457 -0.0492391 0.02506182 -0.020858182 0.01983095 -0.020127637
much -0.0011006965 0.03389729 -0.058685005 -0.05966888 0.008563693 0.023623755 -0.010775551 0.019100305 0.063028306 -0.026457034 -0.02000233 -0.027779052 0.03456031 0.041763708 0.05765495 0.045179263
been -0.04371512 0.0071524046 0.041203145 -0.026143456 -0.054763287 -0.030809576 -0.039296955 0.032175466 0.01797638 0.028831385 0.028335465 0.00845742 0.0011468341 0.0074155293 0.03882871 0.0450962
bad -0.13601117 0.072250955 -0.102647126 -0.07343759 -0.055221938 -0.07042291 0.13132958 -0.05338714 0.12241512 0.098277874 0.1113114 0.06645862 -0.09570398 0.0744078 0.09530718 0.097954616
get 0.020170523 0.0011185267 -0.017731508 0.026352478 -0.019676264 -0.0013596119 -0.020367635 -0.0075468943 0.018801508 -0.008714381 -0.0336647 0.015404799 -0.052881196 -0.03901394 -0.008623321 0.0033375325
will 0.033012457 -0.008877455 0.06796017 0.09312972 -0.006476998 0.0616718 -0.0484468 0.013548145 0.04920631 0.019561438 0.0051250625 0.0027591968 0.05766159 -0.054406572 -0.014752643 -0.010222792
do -0.08454883 -0.008180206 0.08365348 0.06417183 -0.027134756 -0.05373485 -0.032803115 0.058178753 0.052095585 0.031602573 -0.079934515 0.031098505 0.07913226 -0.0031291575 0.04904203 0.001619443
also 0.033045802 -0.036607854 0.013017449 0.06471534 0.038552497 0.10493182 -0.034250256 0.05023408 -0.088680826 -0.102516875 -0.06628068 -0.055396963 0.10289128 -0.051688492 -0.09127015 -0.04540196
into -0.037005723 -0.010039464 0.040257946 -0.023428295 -0.023542846 -0.031365093 -0.0056177373 -0.018988326 0.03188119 0.018712258 0.03875736 -0.019289963 0.05420736 -0.0068978984 0.030835059 -0.03341111
people 0.029862197 0.0035320814 -0.010605667 0.022702215 -0.02465638 0.017005745 0.03495614 -0.030439742 0.025587428 0.054909803 -0.06246707 -0.025599625 0.024481805 0.0219003 -0.013022563 0.026098173
other -0.03568992 -0.018359499 0.053814698 0.039453175 0.015862506 0.068308234 -0.018625466 -0.025536155 -0.038990974 0.012830044 0.011551458 -0.0055582197 0.04494428 0.0043115313 -0.02970245 -0.056122947
first 0.03048973 0.014889556 -0.011880301 -0.0007015389 0.0008891468 -0.023080248 -0.032013264 -0.010814117 0.033382222 -0.008193221 -0.03462927 0.019412113 0.046174087 0.0150546 -0.023914978 -0.048390057
great 0.06163595 -0.078715555 0.13131632 0.20012215 0.08587439 0.07528953 -0.13569763 0.11048684 -0.07266955 -0.031704832 -0.09215858 -0.10785907 0.1261239 -0.06537866 -0.11544001 -0.092312485
because -0.02122526 0.0504791 -0.024011984 0.0036424673 -0.023175143 0.017603442 0.028410587 -0.0062202266 0.0037431142 0.0059801247 0.0042022783 0.013162838 -0.021910433 0.014253168 -0.0014525524 0.030417282
how 0.013682984 0.010511775 0.0251001 0.05450885 -0.02955015 -0.0616152 0.015484099 -0.014487134 0.03838963 0.07212263 -0.048734356 0.042119134 -0.013037462 -0.0008385903 0.05944593 -0.021123359
him -0.0031313968 -0.047910582 0.036654737 0.08950078 -0.019785697 0.032847475 0.011903105 0.028528444 -0.024438327 0.02109591 -0.056112412 -0.032187395 0.08073668 0.010983725 -0.062313702 0.006756734
most 0.057774466 -0.030169265 0.04950335 0.12075441 0.07211597 0.08276049 -0.06710674 0.011219114 -0.058358725 -0.04739909 -0.0877547 -0.04937436 0.017240826 -0.031791206 -0.037970573 -0.08951478
don't -0.0024121865 0.02194309 -0.028893394 0.005403663 -0.025349356 -0.008054334 0.05217096 0.0074777384 -0.018533846 0.0064497236 -0.015803015 0.090927616 0.049584 0.039526228 0.04596657 0.009679407
made -0.018032331 0.00091685617 0.004273341 -0.009834168 -0.013480815 -0.011157899 -0.002054835 -0.0054650363 -0.014060848 -0.03949896 0.05835337 -0.014539591 -0.024525082 -0.0076530674 0.042366635 0.027878666
its 0.021855637 0.016110409 0.008012802 0.084719226 0.0065179104 0.047735665 -0.0060525546 -0.056230303 -0.018104063 0.047428787 -0.00943393 0.027687483 0.040192794 -0.020666737 0.013274914 -0.046282105
then -0.00054137607 0.05700495 -0.015146993 -0.041621942 -0.03198048 -0.018849375 0.029177146 0.038433857 0.029918065 -0.003936492 -0.037344508 0.0589553 -0.017145153 0.05286213 0.030557927 -0.013731992
way 0.033411425 -0.042822674 0.029199164 0.03333221 0.0006338743 0.035216242 -0.016481042 -0.034750436 0.022527486 -0.024783112 0.03840967 0.013195345 0.039078828 -0.05606554 0.0343921 0.0154637
make 0.018022956 0.053128697 0.026053347 0.01515877 -0.053933572 -0.047011487 0.008062377 0.017422622 -0.004186184 0.015024612 0.04773129 0.009330021 -0.051523115 0.03977159 0.06337895 0.029017873
them 0.0035010648 -0.0024011037 0.010079778 -0.002182349 0.063831985 0.054535992 -0.049822338 0.060754936 -0.084183045 0.019695986 -0.043173805 0.020459918 0.062262338 -0.034668494 -0.036356017 0.02823924
too -0.06023227 0.042507105 0.026787847 0.025114762 -0.018976161 0.03864693 -0.01741524 0.038043622 -0.0032083883 -0.015598145 0.021928389 0.019291777 0.063262336 0.055130463 -0.0019060943 -0.029241346
could -0.058270406 0.043301493 0.05412265 0.005643958 -0.01469128 0.014292686 -0.011326249 0.02584452 -0.012847276 0.010846942 0.017429702 0.05938429 0.007996211 0.0024101383 0.047389686 0.04130933
any -0.07672782 -0.004356022 -0.0039478303 -0.0100232335 -0.00047564373 -0.01617284 0.028552717 -0.041690104 0.013560328 -0.021046305 -0.0033536414 -0.00014518909 -0.03243967 0.0016827249 0.0070904223 -0.030919474
movies -0.03664058 0.04352005 0.0337083 -0.020600997 0.010962663 -0.048775837 -0.015063612 0.028195778 0.027107885 0.023745477 -0.023167314 0.053704694 0.013033682 0.013374552 0.0021701853 -0.019824881
after 0.03067485 -0.01905372 0.016519977 0.10363772 0.012071528 -0.015087767 -0.028704137 -0.01370458 0.016422063 0.037112653 -0.020826625 -0.051664118 0.03847952 -0.043350544 -0.005620026 -0.028691351
think 0.011841224 -0.059193123 -0.014924496 0.037930947 0.014766927 0.01927027 0.011775331 0.02433105 0.0017262929 -0.0005989927 -0.0025912656 -0.049761888 0.058733977 0.020926239 -0.031789985 0.018305592
characters -0.04630349 0.014932377 -0.07727218 0.0026247273 -0.07670696 -0.04564343 0.033688705 -0.025289653 0.092812665 0.060984354 0.05136133 0.04778628 -0.09102653 0.050473996 0.0136328535 0.009531595
watch 0.0075890115 0.04763256 0.016391974 0.061722483 0.033071764 -0.02852064 -0.07047809 -0.025042938 -0.030471796 0.013543649 -0.06513851 0.008875826 0.058032308 -0.0067749564 -0.021763615 -0.076001346
two -0.020021912 0.053986747 0.03853717 0.044137616 -0.0423493 0.01679897 0.020343153 0.026144238 0.012708068 -0.004032488 -0.025890484 0.029880892 0.005490676 0.03239305 0.030251324 0.020382164
films 0.0012095516 0.015303377 0.047242157 0.020348774 0.019872742 0.017277068 -0.031426057 0.029862883 0.02306094 0.03300382 -0.059916057 0.0118264835 0.03709188 -0.013414398 -0.036519103 0.0073231366
character -0.05929875 0.050498217 0.025650995 -0.006395961 0.05357044 -0.015455919 0.009420457 0.04284902 -0.030355444 -0.009513863 0.026678734 0.03579873 0.06590819 0.013965004 -0.0036758264 -0.0046603656
seen 0.002157898 -0.008699442 0.011698437 -0.03287104 -0.022736587 0.010092393 0.030173251 0.01815923 0.01737164 0.045397814 -0.020121517 -0.0059457445 0.0035660195 -0.052946128 -0.033267107 -0.049328983
many 0.017373528 -0.05851519 0.014775988 0.088294685 0.03731768 0.07732324 0.0072413594 -0.021915255 -0.024283897 0.024020074 -0.017510876 -0.062233843 0.0632826 -0.08571131 -0.035827696 -0.027811602
being -0.009129218 0.07374227 0.038885124 -0.047303937 0.0065511833 0.017234156 -0.007382967 0.0005863301 0.05955869 0.050305456 -0.021105949 0.036483027 -0.05926872 -0.0114606 0.054437034 0.01843029
life 0.07640139 -0.013141149 -0.021835452 0.017207706 0.039713036 -0.026119126 -0.043557484 0.04474748 -0.034149896 -0.027842678 0.06009645 -0.010134935 0.026675798 -0.037708856 0.017075816 -0.03269324
plot -0.02900797 0.09895553 -0.060086474 -0.03859074 -0.08269774 -0.06546603 -0.0014117148 -0.011616861 0.07153061 0.055742297 -0.0038138393 0.033784624 -0.042050198 0.06905896 0.00840312 0.0046191528
never 0.020548312 -0.032320857 0.024925599 0.05240358 -0.010371298 -0.05332973 0.011510068 0.0013441775 -0.014530452 0.036967766 0.046136517 0.04659916 -0.015473115 -0.010156647 -0.0064756335 -0.036084663
acting -0.06390505 0.0770347 -0.046856485 -0.07667212 -0.0629426 -0.010702259 0.0143586965 -0.020363867 -0.019730298 0.006495701 0.032632515 0.08944134 -0.042203788 0.06942645 0.07726187 0.072246656
little 0.05488441 -0.0040481347 0.001828708 -0.059613112 -0.007757839 0.03195852 0.016808337 0.020338362 0.02944137 0.03974651 0.00823173 -0.047067616 -0.015748017 -0.03784452 0.0014764344 0.022640996
best 0.05138753 -0.05846244 0.0738177 0.07880698 0.023206383 0.07652009 -0.043014873 0.048547633 -0.07447737 -0.053030368 -0.093377605 -0.084874496 0.055005852 -0.09267102 -0.07600001 -0.029972933
love 0.103650525 -0.12229898 0.06607535 0.11897319 0.11538557 0.033588227 -0.04540361 0.027816514 -0.0887493 -0.020122025 -0.053912587 -0.120813124 0.15890753 -0.13045633 -0.039227013 -0.06398237
over -0.047651615 0.047857046 -0.02635231 -0.05594287 0.009606649 -0.050819214 -0.026055388 -0.038409457 0.037093706 0.040957887 0.050239317 0.06377666 -0.023993297 0.014255093 -0.014771379 -0.0019646091
where -0.0076610115 -0.013600527 0.039681375 0.0372812 -0.05487359 -0.07298443 0.0612265 0.040147178 0.043957405 -0.00923983 -0.04817628 0.047816962 -0.00013128329 -0.013141297 0.041646156 0.04189425
did -0.03434519 0.054939378 0.007862838 0.054380428 0.032959055 -0.01333339 0.038700502 -0.059054 -0.017439106 0.040385768 0.008061469 0.035038806 0.08430414 0.06340893 0.008692248 0.03719401
show -0.0034152432 -0.033481695 -0.061706748 -0.030876594 -0.024169305 -0.039352883 -0.0026574158 -0.019736342 -0.016970145 0.06617289 0.051316094 -0.01815151 -0.04376385 0.023913797 0.0086745415 -0.017684095
know 0.02482137 0.0149209695 0.011042781 0.020711858 0.048919283 -0.0065926844 0.0066320407 0.056304168 -0.05238537 -0.005582208 0.00204763 -0.048896562 0.099783674 -0.06264964 -0.0663479 0.005008383
off -0.0032748715 0.049005628 0.016949167 0.0042294464 -0.01606633 0.037042093 -0.03255984 -0.039416317 -0.026124913 -0.0034329074 -0.036174506 0.044187352 -0.05346181 0.032149747 0.010085564 0.03788196
ever -0.09669003 0.072756805 -0.0276368 0.06456951 0.02488685 -0.085940264 0.06690882 -0.0076983725 0.033222638 0.0397159 -0.03209667 0.006525141 -0.0434771 0.053020194 0.024779344 -0.029023241
does 0.004725453 -0.024948616 -0.020486645 0.026627088 0.012258789 -0.045788467 -0.008281418 -0.014138289 0.0067854654 0.03696371 -0.034590233 0.049028423 -0.014452699 0.053848386 0.029842498 0.061820075
better -0.0069870804 0.02684543 -0.039515812 -0.026145412 -0.09691734 0.004825462 0.0812369 -0.056809776 0.06383611 0.0736368 0.10326163 0.026384173 -0.08568515 0.044376995 0.038279064 0.082911745
your -0.029626561 0.0722795 0.095220216 0.06022974 -0.01326019 -0.043577235 0.0027499348 0.0679252 0.006036466 -0.039666347 0.019435482 0.018507276 0.04971919 -0.0008464941 -0.029745543 -0.003594018
end -0.006340585 -0.024446515 0.06974427 0.068238325 -0.030155405 0.036985658 -0.0026023923 -0.004873565 0.028826913 0.00588056 -0.038557455 0.023104243 0.017321065 -0.03995553 -0.052697953 0.03394321
still 0.0904006 -0.055146158 0.058152862 0.078383766 0.046384946 0.076604806 -0.071708225 0.01730583 -0.06606472 -0.047305938 -0.09059477 -0.08913354 0.02436519 -0.053719904 -0.021413041 -0.028520565
man 0.02984566 -0.025664737 -0.07615214 -0.035670847 0.0077605024 0.0044197985 0.056742158 -0.032234233 0.015995665 -0.0048933467 0.0124076335 0.06715154 -0.05603009 0.033429973 -0.009865072 -0.022114271
here 0.046730854 0.0327644 -0.021479558 -0.03746644 -0.058133587 0.004598493 0.08795569 -0.036369313 -0.008170174 -0.016627003 0.020305041 0.06295328 -0.10742628 0.05304144 -0.0018373653 0.045167867
these 0.049108658 0.005485479 0.02216879 0.042012386 -0.0097713 -0.017562838 -0.06440308 -0.007568903 -0.05349585 -0.07244641 -0.01963251 -0.073003605 0.042360026 -0.025595916 -0.03179719 -0.021700656
say 0.030108156 -0.01802652 -0.009207256 -0.01505076 -0.024816288 -0.00036493078 0.03911913 0.05496658 -0.00845534 -0.018451363 0.00093246903 0.043190498 0.020569174 0.002931373 0.002869095 -0.039448094
scene -0.004057926 -0.0270172 0.043851357 0.0145702595 0.06007936 0.006292562 -0.031697962 -0.030878933 -0.030468348 -0.026333824 -0.03539131 0.008533546 -0.014825664 -0.052025434 -0.006232297 -0.060989983
while 0.01704247 -0.07700902 -0.0012843687 0.04126759 0.061253436 0.055501767 -0.023254374 -0.017652642 -0.041709334 -0.04713919 0.033029962 0.012122216 -0.046781506 -0.033259246 -0.06358705 -0.0098866755
why -0.04639083 0.037938397 -0.02694722 -0.059626702 -0.038175076 -0.07897277 0.025202043 0.0034459669 0.08033182 0.030123534 0.007930639 0.0831611 -0.016650662 0.022273315 0.065041155 0.037911445
scenes 0.0019429837 0.061949197 -0.040155984 -0.09986037 -0.05401651 -0.06596008 0.013285048 -0.04190665 -0.012814543 -0.029274115 0.093747474 0.0661946 -0.059574656 0.03668699 0.030639967 0.062067494
go -0.041399702 0.001654738 0.029368084 0.11252485 0.043725133 -0.01425848 -0.039752282 -0.021363229 0.01139902 0.0046634087 -0.0053393566 -0.036186885 0.05263395 -0.006964317 -0.04020282 0.004178491
such -0.0317454 0.022316825 -0.040854968 -0.04582055 -0.012916502 -0.06692892 0.004301314 -0.0030615856 0.02061511 0.061565727 0.028502805 0.0041469918 -0.07363229 0.01862362 -0.00079021056 0.0025936812
something -0.027720094 0.049298413 0.04305774 0.07279677 -0.038365122 0.02638093 0.029934935 0.005864267 0.023858275 0.029838532 -0.00858786 0.014617421 0.0061878203 -0.004421907 0.027295657 0.030866332
through -0.04640937 0.037825603 -0.04438705 0.045805268 -0.041779485 -0.018618386 0.01546403 -0.0053176833 0.032732077 -0.0029695542 -0.032143176 0.0052111964 -0.07596545 -0.019354368 0.054979965 0.0199639
should 0.025985774 0.00920658 -0.008394968 0.0081426585 -0.014457589 -0.025396565 -0.018749772 0.009425559 -0.031522263 0.015176342 0.004252912 0.008285567 0.015862305 0.030850338 0.021225208 0.0026627767
back -0.006334114 -0.0019545052 -0.020973936 -0.02369187 0.03461511 -0.026968837 0.020564083 -0.004559817 0.05230092 0.025319204 -0.0077139772 0.005254944 0.007905748 -0.039107725 0.019416146 -0.013522467
i'm -0.025905961 0.08713071 -0.020526145 0.0023057505 -0.04562991 -0.0077816322 -0.0014424203 -0.053984106 0.09403222 0.019180983 -0.011398242 0.030649131 -0.03899656 0.039712418 0.04325373 0.0148287285
real -0.04501498 0.04947945 0.054729704 0.015056612 0.02027198 0.062504075 -0.028287575 -0.0038084884 0.041326623 -0.00440944 0.026688963 -0.023312762 -0.032781497 -0.032835666 0.004144111 -0.053060833
those 0.045245964 -0.07506159 0.026544368 0.04170586 0.013232659 -0.024923967 -0.05251219 0.026509129 0.04570004 -0.02345629 -0.047848776 -0.051701743 0.032536335 -0.020550823 -0.033944476 0.006240326
watching -0.051186416 0.05817347 -0.019273335 0.027869526 -0.0046142107 -0.030064052 -0.016973363 -0.02264072 -0.0055279615 0.025369305 -0.05371886 0.034748357 0.017014747 -0.0048746276 -0.0034181997 -0.025061872
now -0.0060050115 -0.096770145 -0.00086829835 -0.008386888 0.015281321 0.03598449 -0.009307457 0.014237824 0.004698137 -0.014191672 -0.025398618 -0.04642071 0.06942872 -0.08498978 -0.06704126 -0.08244114
though 0.03398554 -0.1100459 0.054929912 0.007157472 0.0022146553 0.052554622 0.0056208647 0.0025819568 -0.03883645 -0.10566917 0.018283412 -0.0152797755 -0.0062546497 -0.029561622 -0.07743922 -0.025390232
doesn't -0.085487776 0.08640208 -0.05476108 -0.080233544 -0.024516407 -0.037430167 0.09393573 -0.044368394 0.08053182 0.05976875 0.045348395 0.050475206 -0.09353885 0.116759256 0.051729687 0.10651103
years -0.023267357 0.00023501867 -0.040315237 0.020608753 0.008463098 -0.030318016 -0.04523838 -0.068733364 0.026653128 0.02042379 0.044778235 -0.04728186 -0.0030097072 -0.03750339 -0.035793863 -0.009265523
old 0.002669759 0.03310948 0.058873132 0.039401855 0.012195097 0.0041238847 -0.031906076 0.018649315 -0.0021400356 0.05509944 -0.008942467 0.044796616 0.039977953 -0.025519667 -0.014369248 -0.0031698425
thing -0.043779694 0.091896124 0.009590453 0.013479548 -0.05466424 -0.0516474 0.032256722 -0.04933369 -0.006477748 0.015965909 -0.040004935 0.08356618 -0.015303481 0.0058608823 0.004294114 -0.009473807
actors 0.004453227 -0.015004333 -0.018590651 0.0012229847 -0.04279995 -0.017396988 -0.009881503 -0.053169034 0.0569924 0.05725056 0.03730152 0.01864915 -0.05348649 -0.0008873021 0.07123392 0.07405508
work -0.010726836 -0.02005528 0.026712798 0.07321188 0.0050328244 -0.013942475 -0.036746178 -0.032331403 -0.01200559 -0.013271075 0.047430895 -0.029556544 0.0629025 -0.04165468 -0.043192353 0.007233088
10 -0.12732206 -0.032919258 0.16216955 0.19019231 0.016869746 0.05228919 -0.02559517 -0.0937648 0.020853262 0.11915547 0.045633554 0.071199514 0.2907637 -0.02881083 -0.06297935 -0.053416055
before -0.044395562 0.033851348 0.026328359 0.006635812 -0.0064013684 -0.06718838 0.045223374 -0.008351113 0.006014193 0.051830266 0.034770645 0.021135507 -0.009263932 0.034105126 -0.03591546 -0.021017699
another -0.06029212 0.0012728284 0.04615367 0.015144577 -0.027033823 -0.032947686 0.03780061 -0.013985005 0.018203478 -0.009545934 -0.011290921 0.053393055 -0.02300882 0.039291475 0.031276762 -0.030022288
didn't -0.101053804 -8.098883e-05 -0.017537732 -0.0059261755 -0.05281423 -0.07802354 0.047158085 -0.02631537 -0.006891482 0.08305302 0.009638488 0.025214871 0.030248782 0.08617474 0.06596397 0.022996694
new 0.027146395 -0.0104914615 -0.035058655 -0.033155154 -0.0022695235 -0.016623138 0.04533869 -0.06990569 0.045378882 -0.014197175 -0.003893162 -0.026818104 -0.04433652 0.0062488625 -0.018990405 0.0029586484
funny 0.018188886 0.010639561 0.01990218 -0.025762849 0.029936783 0.05496503 0.041026242 -0.04212991 -0.046094283 -0.06462747 0.032713905 -0.015471807 0.055485696 -0.023433598 -0.06195603 -0.011575106
nothing -0.088882044 0.09819575 -0.030549705 -0.10367015 -0.046344474 -0.062507056 0.08197003 -0.042800788 0.056286104 0.013180142 0.036393024 0.12697981 -0.06802779 0.053675897 0.058583174 0.043877292
actually 0.005904998 0.027246958 0.030945191 -0.01151966 0.008858389 0.014032909 0.044231854 -0.022370808 0.018116716 -0.029796932 0.030756671 0.033948343 0.038455732 0.009482706 0.060882933 0.028165858
makes 0.08121545 -0.07380794 0.023382355 0.033592112 0.01708153 0.10260098 -0.09508695 0.017861255 -0.057966836 -0.049010884 -0.0017107003 -0.045841694 0.004258748 -0.06606338 -0.0142456805 -0.052549858
director -0.031972338 0.0055511636 0.035741597 -0.056466658 -0.022502137 -0.07292595 0.02688892 -0.034795266 -0.0077650654 0.039077256 0.06563813 0.061564863 0.022111326 0.036978956 0.039640114 0.03700435
look -0.038042832 0.01835208 0.0026946503 0.03655734 -0.026778892 0.01589044 0.02983858 -0.03457329 -0.0018461144 0.017010769 -0.014938661 0.013909908 -0.011750385 0.025985634 -0.014039562 0.049020853
find 0.07313242 -0.0091033615 0.030691514 0.030916946 0.01567896 0.00047390052 -0.055181894 0.050453212 -0.03175492 -0.045862306 -0.006342248 -0.06464568 0.024091236 -0.011016587 0.009298065 -0.04884785
going 0.014279621 0.047968812 -0.010522335 0.027462127 0.020927414 0.010714709 0.033644 0.031386778 0.029295364 0.023954948 -0.021092512 -0.023958817 0.00041958317 0.051902764 0.027073557 -0.020162527
few -0.051166497 0.044529583 0.01624519 -0.0009178289 -0.03473526 0.029559316 0.010037954 -0.018340101 0.039281186 -0.022571677 -0.015002761 0.03414409 -0.06644127 0.025035033 -0.0005444924 0.06335381
same -0.044580575 -0.04219152 0.020914434 0.057925615 0.06126054 0.031058282 -0.07586462 0.05193456 -0.039334126 0.041241236 -0.037510265 -0.004325055 0.029422829 0.021419639 0.014236265 -0.065298826
part 0.00993733 0.002907509 -0.025183577 0.008278397 0.032005955 0.02981358 0.038824983 -0.004793622 -0.02207268 0.018574268 -0.032851607 -0.011156345 0.020282675 -0.0019812142 0.034982864 0.003199755
again 0.0077615934 -0.03982176 -0.03551615 0.06550423 0.032369062 -0.0055859 0.05252833 -0.02285667 0.04703345 0.044747233 0.0737995 0.011636186 0.033642597 -0.00994741 0.014243188 0.051626913
every -0.0076887356 0.0008850832 0.025440237 0.049005073 0.0056733736 0.06844671 0.00928204 0.03555565 0.009864719 -0.054751188 -0.06740422 0.0153825935 0.053242356 0.022759562 -0.0062252264 -0.039533045
lot 0.014256878 0.0017211464 0.07074456 0.03399524 0.021598881 -0.020655235 -0.058534913 0.034008957 0.011197828 0.0145850275 -0.034990117 -0.0025899606 -0.016525498 0.0032939792 0.0065106875 -0.04333463
cast -0.030641735 0.017353622 -0.05261026 0.007739036 -0.04734151 -0.0757334 0.0038419527 -0.00078769214 0.054162927 0.0026436818 0.048814278 0.0067414977 -0.02837552 -0.019117735 0.022585422 0.01813229
us 0.03807819 0.03239583 -0.004140599 0.016002566 0.04590096 0.050248828 -0.028510861 0.03513769 -0.0014109488 -0.021989746 0.01932316 -0.0051537873 0.07891987 0.007862216 0.01204679 -0.04898588
quite 0.08021569 -0.06666726 0.025160627 0.024543567 0.008900619 0.011318792 -0.0028139194 0.079649754 0.0052669765 -0.0034272578 0.011455285 -0.09402507 0.04923636 -0.05471394 -0.03573178 -0.07368085
down -0.012388493 -0.0010954032 -0.023687586 0.023668723 -0.018100396 0.022907674 -0.015405122 -0.04766357 0.020032069 0.010958589 0.06103066 -0.01648522 -0.06277943 -0.02924422 -0.001581423 0.06350092
want -0.032089792 0.0540192 0.061357982 -0.008835776 -8.2699655e-05 0.00096716505 0.009218984 -0.043605078 0.06652376 -0.0041400786 0.009107977 0.07175882 0.10037004 0.028345685 0.0268524 -0.028132966
world -0.017624557 -0.028159346 0.016386127 0.034608122 0.014118357 0.065491855 -0.054285016 0.019644745 -0.026712483 -0.055086523 -0.027622605 -0.009826195 0.11897916 0.016972687 -0.058012974 -0.053881824
things 0.015401148 -0.021194583 -0.0040981174 0.014553081 0.040319245 -0.05187285 -0.008056021 -0.032250483 -0.0077120247 0.040077474 -0.04145898 -0.033781227 0.061484914 0.034102075 -0.021243814 -0.061423577
pretty -0.071042396 0.015230607 -0.07766339 0.008727224 -0.005024899 0.01389499 0.0053498 -0.031032512 0.03526157 -0.0091965115 0.04710681 0.0055257017 0.019318895 0.052230056 0.046214435 0.0649953
young -0.04302544 -0.001583816 0.044686515 0.050224617 0.04330705 -0.01359894 0.02053032 -0.031878214 0.028837234 0.004697076 -0.027854737 -0.024930093 0.035050694 -0.04198625 -0.0040814215 0.010964219
seems -0.0009710799 0.014566239 -0.032608923 -0.05184237 -0.01523134 -0.059667915 0.061582107 0.019814664 0.0052837757 0.05629256 0.06344559 0.01743027 -0.0033992142 0.05872246 0.06657448 -0.011395953
around -0.063902184 0.0111853685 -0.011905679 0.014930707 0.016949255 -0.05303196 0.04046864 -0.036746018 0.042590804 -0.018628743 0.05128894 -0.020210398 -0.054914292 0.021560198 -0.014062542 -0.02048018
got 0.006037475 -0.049205136 -0.015648816 0.008378458 -0.015298956 0.0074723875 0.0065916535 0.044093024 -0.023694921 -0.02562068 -0.018293709 -0.0040934714 -0.047801454 0.0029120776 0.03043052 -0.015004041
horror -0.083768144 0.05989441 -0.04545836 0.018580414 -0.074184634 -0.04392164 -0.0105062425 -0.07783898 0.0719118 -0.0138552515 0.03998598 0.08096283 -0.05068675 0.05961104 0.040361162 0.007955477
however -0.03022546 -0.007227208 0.017038858 -0.026617307 -0.015078158 -0.02068734 -0.05422221 0.048156485 0.0151127875 -0.020225506 -0.04033354 -0.0533562 -0.02273654 0.039860267 0.029005973 -0.02589899
can't 0.037766594 0.009436669 0.050270952 0.033311483 -0.022251498 0.006777975 0.011632723 -0.008477171 -0.026925625 0.033777136 0.038912382 0.05067738 -0.06361029 0.008330455 0.014193907 -0.00805658
fact 0.0032317042 0.017695531 0.027953135 -0.0245624 -0.05242072 0.026106276 0.053290136 -0.0214636 -0.013207109 -0.05111994 -0.03804955 0.041379754 -0.015705723 0.03631123 0.010976833 0.03989042
take 0.035541873 -0.04190261 0.02247751 -0.018341731 0.028765362 -0.016650354 0.043496616 0.06322764 -0.022549504 0.020054746 -0.028493496 0.032246973 0.005172743 -0.012123995 0.035380267 0.015394531
big 0.068785466 -0.0072198566 -0.020676937 -0.0065000844 -0.03938874 -0.0073201205 -0.039628483 0.040126238 -0.025877401 -0.08241193 0.04787091 0.039028015 -0.0398358 -0.051625594 0.0060418486 -0.042212665
enough -0.03414213 0.08874686 -0.05512762 -0.021615367 -0.046359636 -0.0797125 0.07162537 -0.04916226 0.0765437 0.061278112 0.0413772 0.09876101 0.006126928 0.070906 0.05432843 0.026255218
long -0.011081041 -0.001646604 -0.07127139 -0.045882046 -0.039412916 -0.059234146 0.0032842187 -0.02479864 0.05340722 0.0236928 0.056815106 0.05480767 -0.023229323 -0.011323465 0.037947327 -0.008901982
thought 0.01581296 -0.022896431 0.044088922 0.02857478 -0.030651165 -0.02394401 -0.031922292 -0.0064236093 0.008607473 0.0050992523 -0.002085062 -0.01463885 -0.012036752 -0.035470854 -0.06317496 0.03214276
that's 0.016381891 0.0029888058 0.04256353 0.017452493 -0.05783179 0.016100094 0.043425824 -0.023527693 0.02071812 -0.0033953807 -0.047764476 0.06986972 0.008545871 -0.008493036 -0.003139044 0.05422528
both 0.0016185105 -0.09411969 0.1070632 0.078482844 0.043191493 0.022991769 -0.09143769 0.081448786 -0.022371871 0.018481601 -0.02231692 -0.03193879 0.06735918 -0.09984642 -0.037231002 -0.037526954
between 0.045685247 -0.02354749 -0.0351588 -0.04054183 -0.010842831 -0.014791523 -0.014090124 -0.014894995 -0.070234284 -0.051404066 -0.004879303 0.02168955 0.0063010217 -0.0510839 -0.05261967 -0.021649728
series -0.016435783 -0.05039778 0.008720601 0.030949265 0.007513689 0.027207628 -0.030999059 0.018979501 0.02217669 0.007642046 -0.06350808 0.015828775 0.034412295 -0.03798808 -0.059848994 -0.055387538
give 0.027269537 0.0075961337 -0.016755741 0.0154773155 -0.01713234 0.017950548 -0.03484409 0.049201597 0.069748 -0.0051935045 -0.010792761 0.020014277 0.03196685 -0.0065088295 0.031957224 -0.006535419
may 0.034120403 -0.0569875 0.057681136 0.063373424 -0.0060331924 0.038572345 -0.045054134 0.0033420192 -0.0598622 -0.027383223 -0.026163064 0.0027730707 0.030560069 -0.0071668196 -0.048313208 -0.020541968
original -0.0969769 0.031664494 -0.10257489 0.0012105671 -0.0800188 -0.050154198 0.07515433 -0.019277519 0.11332325 0.048481274 0.010253095 0.049030423 -0.030256987 0.040180873 0.10577823 0.016999073
own 0.033264652 -0.06805718 -0.0064548044 0.039651245 -0.024236076 -0.025711264 0.028632939 0.043088462 -0.01906686 -0.017110812 -0.034631234 0.0027467185 0.007418082 -0.02781069 -0.01802671 -0.061999347
action 0.023393357 -0.016684733 0.036619786 0.06566934 -0.011113585 0.0754205 -0.019013528 0.047578473 -0.04602597 -0.021856923 -0.06782886 -0.0065381513 0.053171773 -0.009027277 -0.023338335 -0.011853519
i've -0.061882537 0.004421255 0.043713633 -0.034988947 0.032974463 -0.026271429 -0.029348196 -0.031174049 -0.008883203 0.019951971 0.006586009 0.015974898 0.009345809 -0.00766859 0.04443762 0.01985156
right -0.023664514 -0.081497766 0.014207229 0.03352458 0.069202654 -0.0010475698 -0.05165616 -0.015572431 -0.044700492 -0.040277105 -0.03435131 0.023318226 0.03225557 -0.054540977 -0.008620184 -0.07396494
without 0.03341086 0.021865422 0.018967118 0.02265713 0.016440852 -0.051511128 0.03744857 0.012785908 0.02998648 -0.043684147 -0.021473955 0.014200467 -0.042960268 0.04204124 0.050152026 -0.019515386
always -0.003936846 -0.044935334 -0.00019393243 0.050331112 -0.011077858 -0.0073678093 0.0005730673 0.021935167 -0.037733 -0.0341072 -0.0007082814 -0.068990394 0.0013383405 -0.0064186803 -0.0736213 -0.034901146
times 0.0075569726 -0.071110085 0.01289025 0.020916404 0.053594757 0.097694725 -0.0084545305 0.036755882 -0.08672925 -0.035759646 -0.074244685 -0.017860841 0.045278467 -0.029126063 -0.10717204 -0.075116776
comedy 0.017936243 0.04999931 -0.033088654 0.044694357 0.047919955 0.048827145 -0.049564876 -0.03185295 0.022919046 -0.02867143 0.03380358 -0.050345115 0.0031179376 -0.0371564 -0.058081865 -0.015193682
point -0.034185186 -0.01220861 0.022567991 0.009300425 0.06842712 0.025465652 -0.002577297 -0.010016313 0.004202272 0.022577241 -0.08236491 0.0041398825 0.031320244 -0.01761623 -0.012516815 -0.023297984
gets -0.014765069 0.046876118 -0.0028567654 0.087594464 0.064879484 -0.034274105 0.025543138 0.049419213 0.016116133 -0.050537396 -0.060483806 0.022075625 0.0206928 0.023851177 -0.034034487 0.01589153
must 0.05022372 -0.040462956 0.11860869 0.14529017 0.05172462 0.09007395 -0.050205976 0.004044498 -0.051972926 -0.057762075 -0.040522873 -0.006392912 0.12350751 -0.0033339611 -0.044205565 -0.10057115
come -0.06900821 -0.010692883 0.025302801 0.036077846 0.008582011 -0.038027786 0.014047668 0.015346542 -0.03896233 0.016687145 0.02909562 0.055136595 0.0218463 0.05252363 0.033894498 -0.021510316
role -0.019950869 -0.020440485 0.020608766 -0.015324779 0.032547943 0.008476491 0.02601213 -0.008258119 -0.030045614 -0.049207993 0.016093401 0.0023855583 -0.072920844 -0.05299518 -0.028860956 -0.039981965
isn't -0.02266992 -0.0029483258 0.009186411 -0.018093491 0.04178016 -0.015083615 -0.029382613 0.006781858 -0.028441215 -0.049257737 0.0006183575 -0.0052698916 -0.038010005 0.048032727 -0.011872374 -0.018111942
saw -0.024751797 -0.022081003 0.040994152 0.020686116 0.032770026 0.0049916077 0.06306796 -0.032069385 -0.015020336 0.010209874 0.045236498 0.03455934 0.038287073 -0.01183323 0.055834427 -0.040493175
almost 0.08067295 -0.006473007 0.008055179 -0.0687939 -0.012183453 0.047770515 0.010676477 0.059668414 -0.05317632 -0.019582732 -0.031097809 -0.0034024077 -0.06601762 -0.022204557 0.009684428 -0.011337396
interesting -0.04417147 0.045732185 -0.029186402 -0.051079802 0.00374992 -0.0856192 0.023676198 -0.069694944 0.04340863 0.014008753 0.08027456 -0.019813545 -0.10935982 -0.02183706 0.08191148 0.002794187
least -0.07711269 0.009927145 0.026311452 -0.014830489 -0.043904 -0.013359671 0.045020483 -0.071036085 0.058347944 -0.0019943612 -0.046262152 0.013490769 0.024487758 0.0034316538 0.024336178 0.02987782
family 0.006701441 -0.06220645 0.022577727 0.08003533 0.07373621 0.076438986 0.0010284146 0.0775013 0.031144585 -0.03929506 -0.096081465 0.0038492219 0.10473737 -0.036107477 -0.08163851 -0.10210118
done 0.016244516 -0.0015817557 -0.0009816715 0.00074573036 0.002067012 0.03280635 0.029244926 0.0014089713 -0.03573184 0.012249097 -0.010760358 0.006249913 0.047841296 -0.0002171737 0.008170099 -0.017692115
there's -0.040662248 0.042617187 -0.018523736 0.028782854 -0.041965775 -0.064821966 0.072329685 0.030551698 0.019135632 0.024649365 0.027848154 0.0004323236 -0.041734494 0.07525458 0.023652295 0.0684037
whole -0.0558603 0.07151391 -0.07610367 -0.012636947 -0.035185028 -0.03315559 0.04637326 -0.03340185 0.07713975 0.083510555 0.016819883 0.10703238 -0.027669275 0.0628216 0.10479367 0.11381012
bit 0.08900056 -0.042744573 0.08355225 0.05052774 0.066773206 0.05195784 -0.04623224 0.07589241 -0.04103385 -0.090138406 -0.05791157 -0.038797352 0.03399379 -0.06145559 -0.0910481 -0.008795231
music 0.034810785 -0.015493879 0.06226601 0.044573408 0.02543553 0.035238497 0.0030184274 -0.0495031 -0.01115669 -0.016541218 -0.031205527 0.0036774052 0.024829911 -0.028480507 0.03301612 -0.0046443753
script -0.023020908 0.12563199 0.0015252961 -0.0031153632 -0.07232122 -0.04285516 0.061342377 -0.080068365 0.094037965 0.09597487 0.075572416 0.08627025 -0.047664955 0.078808725 0.07105597 0.09033091
far 0.027198797 0.06355014 -0.03740396 -0.05999714 0.0063529513 -0.007636619 0.027307075 -0.043121785 -0.048624936 0.009764158 0.052705612 0.06656718 -0.013280876 0.07474716 0.04076978 -0.004233098
making -0.02494544 0.07361225 0.04299027 0.048939746 0.015348372 -0.025725197 -0.007746233 0.030535404 0.060776968 0.012502022 0.00599328 0.01472352 0.004059167 0.0021603212 0.05243743 -0.022269446
guy -0.049282204 -0.018080655 -0.0038593083 0.049769185 0.040662408 0.009474146 -0.04487897 0.045744568 -0.014467264 0.015710277 -0.03415448 0.04388928 0.028838556 0.022328604 0.01111336 -0.043624625
anything 0.013118242 0.044429746 -0.015459708 0.025272531 0.002824866 -0.049992144 -0.007546536 0.0055463626 0.053757716 0.022030536 -0.025717884 -0.008258858 0.026664775 0.008979888 -0.013338499 0.057121474
minutes -0.07721394 0.021285828 0.010620517 -0.017600112 -0.06442448 -0.047829244 0.043447122 0.020267654 0.02132136 0.011069574 -0.0033532425 0.056791797 -0.008140893 0.056510996 0.040259026 -0.007623508
feel 0.057514705 -0.050820064 -0.050972756 0.0035380584 0.029803878 -0.02471077 0.00646505 -0.009019299 0.031195063 -0.0048431717 -0.0027948394 -0.056115653 -0.05598153 0.00019013355 -0.004820124 -0.0461379
last 0.08832564 -0.008022864 0.0016156853 -0.00870456 0.017038308 0.010402446 -0.044375088 -0.0041716737 -0.050572306 -0.025651095 0.029978734 -0.056440577 -0.009890405 -0.086342454 -0.0704455 -0.011564596
since -0.070145875 0.06788007 0.019907707 -0.0350748 0.02909759 -0.015135807 0.019273754 -0.055261333 0.031517994 -0.002682118 0.006885277 0.05739668 0.030292695 0.047365773 0.031660497 -0.01476295
might -0.082352675 0.03825625 0.020261556 -0.025241768 -0.012723839 -0.0041750916 -0.03330361 -0.041144118 0.058546603 0.065655015 0.02383323 0.0007432652 -0.013534018 0.005874219 -0.006920147 -0.015617856
performance -0.015486802 0.013408892 -0.059819866 -0.036883008 -0.030586641 -0.03310564 0.0627283 -0.03396574 0.03997978 0.08782762 0.024742275 0.0827872 0.01162529 -0.0018526203 0.015152732 -0.011471286
he's 0.008761375 0.08962417 -0.050045352 -0.07309989 0.018092828 0.013467237 0.055449337 0.030125592 0.058534283 0.024124326 0.042522144 0.062317938 0.02398571 0.0036934752 -0.012993621 0.023776695
2 -0.042816523 0.076294065 -0.06257978 -0.07756425 -0.0071282815 -0.025402766 0.041758332 -0.043576557 -0.0022400306 0.0666681 0.054505732 0.011526102 -0.061289582 -0.011460991 0.08581122 0.0036664952
probably -0.025337439 0.00061376544 -0.049866445 -0.005303506 0.025694864 0.03811596 0.038462844 0.041929424 -0.05718924 0.00046589383 -0.003410059 -0.036736082 0.049575455 -0.012859931 -0.020219648 -0.004844354
kind -0.00056476874 0.0025280267 0.006771522 0.05520098 -0.0072576865 -0.03803507 0.010608026 0.022716992 0.017489132 -0.017457088 0.038492184 0.0013353993 0.045666236 -0.028640427 0.042224165 0.032453425
am -0.0801702 0.049520154 0.043502618 -0.014693335 -0.044248458 -0.0050568436 0.004465116 -0.034467623 0.044963848 0.0706616 0.0016567035 0.07458401 -0.0055916286 0.036167126 0.025851563 -0.010958643
away -0.04375443 -0.009258951 -0.005558876 -0.053511076 -0.043114126 0.012709706 -0.016280387 0.02174876 -0.026153285 -0.008120596 -0.016687151 0.038240936 0.031048793 0.08573768 0.021443553 -0.006906478
yet 0.030020501 -0.032617733 0.050380968 0.03315859 0.048271723 0.04727776 -0.07047288 0.022110824 -0.019979278 -0.021058455 -0.052502528 -0.07778172 0.07964299 -0.04796731 -0.03268788 -0.022558605
rather -4.7559122e-05 -0.042968187 0.0055492087 0.010655565 0.0049372576 0.05547622 -0.037106194 0.006544692 0.025765195 -0.043430496 -0.07823675 0.010101163 0.07245845 -0.005083384 0.016214978 0.0268296
tv 0.053695917 0.0066183624 -0.0030061803 0.07697574 0.06775065 0.059551764 -0.030883087 -0.007786299 -0.024750741 -0.06527581 0.0054144775 0.029148318 0.040651932 -0.020686863 0.023202205 0.01590494
worst -0.18418239 0.2048182 -0.15757906 -0.18580249 -0.1257293 -0.16170728 0.1427139 -0.18253973 0.16764972 0.14177771 0.15125433 0.19142824 -0.09098074 0.19670394 0.22308601 0.15226634
girl 0.058780234 0.0059328754 -0.014414929 0.03437327 -0.021854037 0.052344743 0.0060464195 -0.04477689 0.01279457 -0.059198283 0.014955405 0.033308018 0.07007534 -0.035756975 0.02683825 -0.0219555
day -0.0017289141 -0.017072488 0.048256718 0.055547252 0.049028657 -0.0030266677 -0.040214185 -0.03758952 0.03749667 0.054522276 0.028495423 0.015666671 0.0057297894 -0.058154374 -0.02670869 0.010280778
sure 0.014393082 -0.03958797 0.0044163316 0.06346966 -0.042918257 0.02434837 -0.01646813 0.012096745 0.034669157 0.0471401 0.03266258 -0.032262858 0.0009814388 -0.013867449 -0.013244166 -0.06380063
fun 0.0613161 -0.09063758 0.10527692 0.14096563 0.07795388 0.099857666 -0.031701513 0.069120936 -0.019584546 -0.03321684 -0.042870764 -0.046056088 0.1126675 -0.11015874 -0.091464415 -0.027733948
hard -0.020913908 0.027421752 0.003558454 -0.049269956 -0.0632719 -0.071219474 0.00033489347 -0.067455396 -0.021303548 0.012529735 0.052639972 0.06425481 0.018097023 0.025832877 0.06515661 -0.0021658016
woman 0.03920639 -0.034293577 -0.013299083 -0.016772998 0.0061735883 -1.7350741e-05 0.018876249 -0.017226396 -0.038469527 -0.043134425 -0.06858266 -0.057253584 -0.023444455 -0.022432888 -0.029308513 -0.05173119
played -0.014769555 -0.031865824 0.019620774 -0.020869574 -0.006447808 0.045213614 0.04117332 0.046669323 0.013705253 -0.04114558 -0.032834787 0.031022904 -0.015698783 -0.017334333 -0.030333128 -0.0118625965
each 0.080239736 -0.090854645 -0.0060174414 0.08767626 0.08545187 0.040529653 -0.013126547 0.070996895 -0.034763772 -0.044532053 0.003215753 -0.026672343 -0.0056063156 -0.06545352 -0.009436742 -0.011111476
found -0.0252606 -0.012561715 -0.06312115 -0.047658235 -0.04897135 -0.032143824 0.009963781 -0.037828304 -0.01761204 0.043450776 0.066565074 0.002907157 -0.02977797 -0.03499722 0.052290514 -0.0398134
anyone 0.024829546 -0.026232617 0.04270415 0.01521007 0.049370553 0.01931527 -0.028590003 -0.015947506 -0.016148336 0.0074966424 -0.028572513 -0.009396635 -0.0059024016 0.0012415865 -0.023610268 0.0059602614
having 0.010475857 0.018446855 0.054561052 -0.022808807 0.03820276 -0.0100006815 0.017811453 -0.00051672873 -0.015433253 0.02849756 -0.041160915 -0.016565451 0.025870718 -0.007567631 -0.030824348 -0.035569325
although 0.026412357 -0.010489104 0.041060127 0.0973298 0.09750854 0.061737537 -0.05264288 0.06907147 -0.013876728 -0.027809847 -0.01669217 -0.04790843 0.061108798 -0.011361516 -0.06405239 -0.047707953
especially 0.041836932 -0.09336586 -0.011088518 0.045115296 0.07668192 0.08606789 -0.056370113 0.057482906 -0.085755765 -0.056528255 -0.046967655 -0.087118395 -0.008846764 -0.007243682 -0.0723857 -0.0013756407
our 0.06871733 -0.08514517 0.068224825 0.05373387 0.027449492 0.08121867 -0.049538594 -0.019449119 0.014210424 0.0151684685 -0.00898561 -0.028243978 -0.009705116 -0.033449415 -0.026172357 -0.008240164
believe -0.014579947 0.02243943 -0.031212606 -0.0012327005 0.023365175 -0.019330846 0.007341517 0.0066137332 0.053844962 0.00011271146 0.02296337 -0.0062849354 0.02484849 0.022377543 0.06388764 0.060723297
course -0.016196927 -0.01441752 -0.017607993 0.08305293 -0.015120796 0.02797196 -0.02330446 -0.013657623 0.0122708315 0.017436346 -0.034432195 -0.04289208 0.043385707 -0.009514195 0.02729646 0.024703935
comes -0.04203133 0.029988077 -0.0137915155 -0.0005870312 0.014203175 -0.009472667 -0.04109405 -0.00046766346 0.017974313 0.0042947694 -0.039399378 0.016650643 0.0009532169 -0.049136404 0.029309962 0.02790323
looking 0.03132565 -0.007872945 -0.030434875 0.050363556 -0.01716172 -0.008838396 -0.05825433 -0.0031304597 0.019894686 -0.028416667 -0.069901936 0.019268638 0.030768832 0.0064892136 0.022287086 0.021141848
screen 0.018218076 -0.1063296 0.04240798 0.07515056 -0.003700267 0.0687843 -0.0018732741 0.03263622 -0.0043024654 -0.027663283 -0.014798218 -0.05936794 0.08195801 -0.06039911 -0.08277732 -0.08193418
trying -0.005004767 0.098805696 -0.03000674 -0.04460041 -0.08208965 -0.016804436 0.06519921 -0.00087488024 0.03298865 0.035844438 0.048304517 0.018982336 -0.025256792 0.050809056 0.06350435 0.0763294
set 0.014454962 0.06377713 0.016196897 0.016356956 0.013250861 -0.009844433 -0.03457697 -0.0075408593 -0.03837795 -0.01048178 -0.00065696164 0.06458362 0.06042505 -0.0023466025 -0.009123189 0.009597661
goes -0.008232404 0.044239413 0.004024226 -0.00889572 0.0039337743 0.026416259 0.039170288 -0.050518952 0.011229072 0.044603594 0.0384984 0.03832652 -0.01796336 0.036403786 0.0022562768 0.0035452256
looks -0.07562724 0.07150922 -0.058675278 -0.080465525 -0.052428544 -0.013637036 0.01770184 -0.058415156 0.015671065 0.025281241 0.06320201 0.10010731 -0.058121588 0.10307068 0.062593326 0.08771167
place 0.0693606 -0.0109881535 0.023344662 0.07394988 0.0327231 0.0064128516 0.0023935265 -0.02566184 -0.0031677024 0.0020619326 -0.003472916 -0.024130275 0.026802938 -0.04845372 0.012442153 -0.020924183
book 0.0012861795 0.045804147 0.004976253 -0.02842782 -0.007093235 0.010362541 0.051266313 -0.037409518 -0.013096497 -0.040250212 0.029962383 0.06381283 -0.016225737 0.058651082 0.034463882 0.0075376625
different -0.041589007 -0.0018571445 -0.01475637 0.0319535 -0.019015197 -0.0059034587 0.01946486 0.04748485 -0.008936515 -0.008348075 -0.015773833 -0.042549826 0.010498412 0.018468764 0.010540144 -0.021860313
put -0.07721899 0.0058727427 0.059002902 -0.010719238 -0.030714488 -0.05043277 -0.0050841267 -0.017956495 0.023762269 -0.023035798 -0.018522067 -0.017067388 -0.0067636 0.028007649 0.010203739 0.02260899
ending -0.039011944 -0.024033256 0.009981922 -0.014494783 -0.042940684 0.0018350999 -0.012292806 -0.031253066 -0.041051075 0.056619186 -0.036809765 0.010547135 -0.03965409 -0.00038098582 0.0098117795 0.02691005
money -0.021964163 0.017368296 -0.03313565 -0.056704678 -0.06025379 -0.03887638 0.027520882 -0.045811642 0.069869496 0.014077387 0.0930248 0.06366148 -0.069652826 0.054206297 0.03223189 0.053181697
maybe 0.024795864 -0.032472692 0.008089653 -0.042135604 -0.0014155193 -0.04920617 -0.002898938 0.04789717 0.009886069 0.008617352 -0.0022139738 0.007507957 -0.017717456 0.004933632 0.03980839 0.044323698
once 0.01779185 -0.045431882 0.015849516 0.0330767 -0.00034724505 0.026439587 -0.03007899 0.020812234 0.010762074 -0.02503287 -0.061551303 -0.05640948 0.042949338 -0.019303879 -0.042275235 -0.054846402
sense 0.0486519 0.041094262 -0.03957283 -0.010588144 -0.046895377 -0.018050674 -0.02426448 -0.017077126 -0.005668096 -0.04083785 0.06298565 -0.023787161 -0.11766169 0.004209656 -0.015296281 0.044687375
reason -0.08124046 0.03190222 -0.045072068 0.010727986 -0.03482761 0.0008067237 -0.0064803497 -0.0017892494 0.06923404 -0.029929306 0.055878635 -0.007999001 -0.05803777 -0.0076758745 0.022559185 -0.020129072
true 0.027730053 0.010042971 0.029745854 0.036977794 0.03508179 0.059657358 -0.09079728 0.017376758 0.03645643 -0.07012694 -0.10614114 -0.06798791 0.080538645 -0.09583903 -0.043648124 -0.095543884
actor -0.048080537 0.0941382 -0.0018528108 -0.04209369 -0.015635623 0.00997299 0.02372372 -0.026326641 0.08276347 0.030339153 0.053762436 0.057143874 0.0087445015 0.047728155 0.06708472 -0.01472527
everything 0.064097494 -0.015832273 0.047378726 -0.053266816 -0.016642904 0.019422771 -0.043329924 -0.022541115 -0.0321192 -0.023337308 -0.031047883 0.0016189138 -0.044329762 -0.06797252 -0.05635204 0.028116353
wasn't 0.01576906 -0.05892202 -0.00058726524 -0.0009778948 -0.008523884 -0.0077518704 -0.04203491 0.015549216 -0.021775398 -0.022281114 0.026870273 -0.011598289 -0.031098526 -0.024186585 -0.06684 0.0020290336
shows 0.07906538 -0.065612935 0.06368116 0.12448367 0.12598974 0.09423733 -0.095107086 0.09745843 -0.07963677 -0.07822399 -0.123149216 -0.12058238 0.055629883 -0.1443812 -0.07638859 -0.08058536
dvd 0.06466964 -0.09957651 0.12852812 0.160268 0.09430307 0.06893121 -0.030368602 0.04238625 -0.045975734 -0.035645213 -0.12418108 -0.025005449 0.14621364 -0.055522013 -0.08978506 -0.040560298
three 0.03212349 -0.033400774 0.018372484 -0.0041759787 0.012548447 0.029045224 -0.0025183258 -0.0376467 0.07856931 -0.013590403 0.0070773447 0.058539942 -0.029895997 0.042745505 0.035109244 -0.043783683
worth 0.024820363 -0.10838577 0.10410447 0.1655931 0.08243045 0.106937446 -0.12068603 0.08884551 -0.05795867 -0.04863331 -0.08251265 -0.040344015 0.19437803 -0.023392849 -0.10732152 -0.057185177
year 0.027838195 -0.027561072 -0.017403532 -0.0292181 0.0132605545 -0.03081311 0.015485514 0.016729793 -0.03140849 0.013395369 0.012825476 -0.00046019917 0.06732458 0.036076177 -0.025878226 -0.048773434
job 0.044393964 0.008572375 0.030411357 0.07525699 -0.0045782463 -0.0014079446 0.002293616 0.068292215 0.015443341 -0.077082545 -0.07796261 -0.050141647 0.07002311 -0.04729757 -0.009127239 -0.06737611
main -0.041289687 0.0015252971 0.036054425 0.009302724 -0.04359605 -0.05243765 0.048296865 -0.015306081 0.0041337293 0.031523995 -0.013168786 0.026576266 -0.05079371 -0.011598892 0.04107125 -0.0042425916
someone -0.08479102 0.0675922 -0.02413918 -0.032387074 -0.051613297 -0.14656083 0.08658854 -0.08007424 0.085307315 0.124024786 0.0063396585 0.106370874 -0.104132354 0.09783346 0.09868267 0.1301702
together -0.02654828 -0.01325997 0.025719637 0.028342983 0.057366986 0.022630597 0.021791587 0.033155877 -0.02193309 -0.02362099 0.0035807132 0.02506707 -0.021235727 -0.026741635 -0.02267259 -0.041487772
watched -0.0934522 0.09406672 -0.0016993834 -0.0785344 -0.0066148923 -0.017413152 0.03371975 -0.040178757 0.08719556 0.02358018 0.017541202 0.037169166 0.020744314 0.05591346 0.054494057 0.08210369
play 0.019327449 -0.042380482 0.0320856 -0.00045960268 0.03612686 -0.007095029 -0.05228421 0.016062126 -0.049459964 -0.004113056 -0.04694798 0.030900387 0.02259306 0.004313427 0.02004083 -0.020829663
american 0.0552103 -0.05371343 0.016289718 -0.0030630592 0.005653888 0.08473004 -0.012706788 0.042270366 -0.0338919 -0.053069506 0.0021335343 -0.023642289 0.079501346 -0.0309698 -0.09322185 -0.035016205
plays -0.060785737 0.02585572 0.014016769 0.028638521 0.040750105 -0.009262784 0.036474902 -0.03402495 0.0641175 0.029029854 -0.010306937 0.0003173895 0.047824454 0.029275192 -0.020874174 0.03976423
1 -0.09561492 -0.000705407 -0.029128442 -0.04477926 -0.08866188 -0.080467284 0.108664975 -0.075013004 0.036269598 0.03377694 0.09638003 0.07479771 -0.09300586 0.016448827 0.088055626 0.018126685
said 0.032638103 -0.021978704 0.008318777 0.02734674 -0.046870753 -0.0044248016 0.04206823 0.060823265 0.039374128 -0.044528805 0.007328423 0.025080029 -0.005960821 0.021655018 0.036712416 -0.026640123
effects -0.0005717674 0.034461662 0.009902718 0.020385204 -0.00571718 -0.0026413775 -0.025004698 -0.06278214 -0.012312608 -0.009226436 0.03868025 -0.022023316 -0.0038716896 0.074810274 0.0017134259 0.024680337
later 0.07962065 -0.08677409 0.07542869 0.061921425 0.04475332 0.016796334 -0.035382785 -0.00056641863 -0.0734407 -0.013704994 -0.047664963 -0.083421536 -0.007523246 -0.10366923 -0.05931593 -0.07330313
takes -0.024023145 0.029813481 -0.04452869 0.015217515 -0.064865716 -0.05343307 0.043689154 0.02480244 -0.002627485 -0.0023185697 0.0040609064 0.055250242 -0.022246456 -0.0060303975 0.004800386 0.02688306
instead -0.102919474 0.1149065 -0.0533407 -0.10517004 -0.07771073 -0.090774 0.107362606 -0.028233482 0.10297679 0.10622346 0.0718177 0.060276106 -0.049497817 0.114266776 0.021245193 0.062195122
seem -0.07801306 0.025643462 -0.05243482 -0.0020461883 -0.07766103 -0.100453764 0.077780336 -0.0070166327 0.028381804 0.053944133 0.025783079 0.07477426 -0.08604402 0.028447565 0.1035191 0.021114847
beautiful 0.03892004 -0.039264064 0.030181207 0.07350846 0.09889987 0.097331226 -0.060128037 0.08003773 -0.09242087 -0.017264178 -0.05413325 -0.046271916 0.08366439 -0.060115177 -0.05967691 -0.040624373
john 0.025271986 -0.058664378 -0.023806982 0.0018791053 0.0423678 0.0029080731 0.00053548877 -0.041690897 0.023826282 -0.01669353 -0.045450933 0.008666133 0.033578407 -0.021206772 -0.057549357 -0.0006757936
himself -0.035502706 0.040550817 -0.01265516 -0.024086462 0.010958485 0.03733769 0.018172387 -0.006056275 0.026518676 0.040866952 -0.041920636 0.00467618 -0.025852675 0.05619391 -0.014317802 -0.0406176
version 0.0069705658 0.037472617 0.050913453 0.046528418 0.049009595 0.030248392 -0.032838345 0.0011368932 0.007908659 0.01547238 0.008477439 0.03705138 -0.019260576 0.050517496 -0.03627774 0.018041927
audience -0.025130494 0.051639438 0.033143368 0.03852494 0.03426975 -0.050195992 0.009910063 -0.024718761 0.0063115777 -0.003964903 0.0037669158 0.057379287 0.008556962 0.056379717 0.009235308 0.017254597
high -0.009523886 0.04139583 0.031383462 -0.027406171 -0.03154405 0.032688983 0.040025216 -0.03605252 -0.050358955 -0.021321626 -0.020212483 -0.022660658 0.035524145 -0.014005693 -0.028679572 0.009259403
house 0.016655322 -0.05813924 0.063077286 0.066157974 0.06671474 0.048668146 -0.013928976 0.0026063798 -0.027984539 0.022224363 0.0025881776 -0.05896872 0.0003070427 -0.044441216 -0.03139879 0.00943665
night -0.06173767 0.030263329 -0.00045574992 0.0693208 0.016611433 -0.018832143 -0.0013413768 -0.022927761 -0.032473154 0.011662746 -0.056881387 0.010504458 0.0031701906 0.015880866 -0.015303196 -0.009556003
during 0.05537101 -0.028270667 0.024248501 0.08875327 0.04467454 0.008572536 -0.046318036 0.059587456 0.0015089914 -0.03267515 -0.025173066 -0.0109163355 0.05349152 -0.0278643 -0.01446855 -0.057806548
everyone 0.056718625 -0.040380016 0.075261205 0.083442375 0.008675471 0.085825175 -0.059568483 0.03154634 -0.021041906 -0.017832672 -0.02556658 -0.06306862 0.041365895 -0.06752919 -0.04871136 -0.1063332
left -0.028264442 0.07737547 -0.053021375 -0.08335552 -0.10077433 -0.08269624 0.026738489 -0.062095907 0.017681926 0.013253429 0.06517326 0.034182254 -0.06609565 0.087889165 0.03802551 0.03200219
special -0.009105562 -0.04919918 0.018137623 0.03365336 -0.012428122 0.022932338 -0.04029683 0.012052539 -0.048836492 0.0029512201 -0.05283592 -0.06687265 -0.0014241149 -0.030816026 0.015258518 -0.06224248
seeing -0.054764878 0.0082791075 0.017192148 0.023786306 -2.6990572e-05 -0.040300056 -0.044167455 -0.013133992 0.017842982 0.03451908 -0.029661981 0.048897445 0.02217498 -0.017307747 -0.02748035 -0.026394114
half -0.06869807 0.08665142 -0.09240889 -0.027297536 -0.10009175 -0.09719462 0.051343065 -0.104979485 0.093164675 0.11180519 0.014171968 0.041760243 -0.083248734 0.0489292 0.12201014 0.029968495
excellent 0.106221445 -0.20170645 0.16920522 0.24037148 0.12186863 0.12712769 -0.17992434 0.15799451 -0.104224645 -0.12019488 -0.12279709 -0.113829605 0.18257599 -0.14142974 -0.11464936 -0.14575501
wife -0.019255681 -0.0021301329 -0.009741684 0.013558796 -0.06457348 -0.018370602 0.027030945 -0.06191917 0.06576331 0.01870368 0.001512825 0.014215236 0.008745523 0.0534289 -0.019283583 0.06501297
star -0.045191083 0.06427008 -0.016449207 -0.017434914 -0.07618742 -0.0727985 0.06352566 -0.07969454 0.055994466 -0.015480953 -0.01998921 -0.011566812 -0.06299665 0.031264152 0.0028089772 -0.008311985
shot 0.06076718 -0.034984548 0.013047455 0.005310683 0.0224277 0.04070149 -0.047854293 -0.02745154 0.024605677 -0.023039913 -0.031700134 0.013249355 -0.023212643 0.00017399673 -0.0057111834 0.004491107
war -0.015582033 0.013012605 0.015606194 0.016120382 -0.021243017 0.05507777 -0.049043488 0.035071526 -0.008387881 -0.0057471045 -0.004711324 -0.017779566 -0.010696843 -0.05019218 0.02388169 -0.057184227
idea -0.13105336 0.1262008 -0.07171973 -0.09612995 -0.1095076 -0.042946566 0.115342475 -0.042687412 0.09759555 0.13074064 0.059390903 0.10855713 -0.0759115 0.061261516 0.12274606 0.050633546
nice 0.08644402 -0.05132056 0.07529361 0.04975411 0.08111309 0.033798896 -0.093090825 0.014306464 -0.06776458 -0.012921717 -0.068101406 -0.04686456 0.040514525 -0.031717367 -0.08574376 -0.049992226
black -0.059547156 0.05057843 -0.013329858 -0.038258143 0.03844271 -0.013753882 -0.0027292918 0.0045798416 -0.0261713 0.023903068 -0.043110337 0.02016639 0.020176772 -0.022067474 -0.014641807 -0.021957658
less -0.046189245 -0.016201198 -0.051267438 0.013219724 -0.011113932 -0.0037436183 0.0418727 -0.014663066 0.022442134 0.049252577 0.0010568736 -0.0070050745 -0.001742614 0.02498899 -0.017740484 -0.013580668
mind 0.01894737 -0.005743379 -0.0634125 0.0487151 0.019106554 -0.0051139323 -0.018625626 -0.02614091 -0.019972773 0.05619577 0.024570903 0.024178522 -0.020528892 -0.0069450797 0.042028096 -0.026969027
simply -0.07093864 0.06783527 0.0057676677 -0.029928576 -0.044655867 -0.058151595 0.051495638 -0.0044533582 0.08587621 0.04967065 0.063132726 0.037395574 -0.016351545 0.08325979 0.042098515 0.042337105
read -0.061723612 0.081767514 -0.07165927 -0.026468635 0.0029953883 -0.08909207 0.046120405 0.011001045 0.028242568 0.08235663 -0.0015526456 0.030437374 0.016040865 0.030303935 0.013473255 0.084548466
second -0.059318095 -0.03232293 -0.013984356 0.0049401834 -0.02639337 -0.014859364 0.026416771 -0.033049613 0.054796994 0.008661918 -0.048900824 -0.0183795 0.027026976 0.023797113 -0.050793644 0.038235374
else 0.0013589733 0.034223795 0.0046107066 -0.07793165 -0.049232803 0.007839937 0.014010357 -0.07656571 0.066315874 0.0211651 0.071387015 0.06919611 -0.038057204 0.009002643 0.040472098 0.014254486
you're -0.0024325922 0.002366133 0.01926656 -0.012155678 0.046966042 -0.03900264 -0.05775116 0.016204424 -0.038270604 -0.05182624 -0.024830487 0.029516168 0.015621695 -0.044902146 0.033227388 -0.05076623
father 0.035967533 -0.060148064 0.023276255 -0.017375043 -0.006182183 -0.018085683 0.04612167 0.048738126 -0.060718946 -0.037035197 -0.024926264 0.017927177 -0.045006752 0.031198965 -0.060098656 -0.019424923
fan -0.02660104 0.02782474 -0.06723758 0.042052563 -0.00088291726 -0.05037082 0.06621707 -0.042642366 -0.002686065 0.023275934 0.060520917 0.029947247 -0.014152662 0.014366961 0.0504703 0.05642017
poor -0.117592566 0.13517308 -0.07921788 -0.082715094 -0.05123817 -0.107581355 0.10869409 -0.037061267 0.08922534 0.07869999 0.095220275 0.06118675 -0.03398993 0.13915034 0.0920676 0.07706112
help -0.062469944 -0.019856542 -0.052976385 -0.02686086 -0.068689495 0.010038662 -0.0046163765 -0.059644807 0.027292185 0.06881152 0.032463025 0.023933765 -0.038908362 -0.006720963 0.014600748 0.06476584
completely 0.00012497818 0.033073723 -0.10066208 -0.078399576 -0.05015457 -0.078241676 0.100833915 -0.032794245 0.014536306 0.028018016 0.0014407386 0.016759992 -0.048129406 0.0082610035 0.08011187 0.040746287
death 0.007896614 -0.04862278 0.0155729875 0.02814645 -0.003997337 0.07163549 -0.018416509 0.020303665 0.013685115 -0.071805276 -0.005447084 0.0063203014 0.0860952 -0.014276126 0.004437859 -0.053704064
3 -0.07992472 0.10510325 -0.061918553 -0.08965342 -0.10724729 -0.110339336 0.10409869 -0.02217132 0.015014916 0.122537136 0.0397028 0.1082839 -0.0773532 0.033017084 0.046642445 0.08259972
used -0.05276385 0.070815824 -0.001110067 0.024708696 0.03823447 -0.01925688 -0.023193255 0.032633223 0.044479236 0.052278597 -0.060711265 0.01205923 0.015652105 0.036738038 -0.015323977 0.037814062
home -0.05569655 -0.005467999 0.020806868 -0.002828441 -0.027735634 -0.027918618 0.024437988 -0.02688502 0.047322217 0.03617339 0.046060123 -0.0031642884 0.0067642634 -0.01300855 0.059272923 0.011296163
either 0.011407722 -0.0129794 0.021094969 -0.04151457 0.010065187 -0.024953863 0.068593904 0.02196327 -0.011534795 -0.014294909 -0.022446748 -0.0039202766 -0.006413591 0.047350544 0.03943722 -0.007246237
short 0.041082524 0.044325948 -0.0015076982 0.07500904 0.026118547 0.034151625 0.015367943 0.009369598 -0.02983403 -0.030238716 0.0068175937 -0.011631398 -0.028679421 -0.03530108 -0.04396606 0.016557444
line -0.0014572664 -0.009549467 -0.039319173 0.0019434833 0.017283982 0.020976914 -0.02727873 0.02562178 -0.039454076 -0.016448883 -0.03854736 0.022537444 0.07064705 -0.037442822 0.028220737 -0.027093668
given 0.045818467 0.00093115174 0.042030655 0.0024878865 0.04472177 0.056720912 -0.024159022 -0.001974044 -0.0057454025 0.023429519 -0.01807376 0.043869145 -0.027325561 0.048145026 -0.04543842 -0.024976162
men -0.039268818 -0.052848577 -0.06745293 -0.014577987 -0.045790385 0.028831253 -0.028129665 0.007008725 0.026605908 0.005093399 0.06023717 -0.013522949 0.010890518 -0.028357556 -0.028807739 0.04065403
top 0.06813511 -0.08934234 0.09880189 0.020882418 0.034685012 0.050508175 -0.033541128 0.09841905 -0.1046136 -0.059309937 -0.09224066 -0.13315132 0.085987374 -0.12630725 -0.08080216 -0.048638523
dead -0.056382235 0.029957466 0.0019773105 -0.01169754 0.011934582 0.03665075 -0.047134962 -0.049937934 0.020259708 0.054959573 -0.01920276 0.04984599 0.07166094 0.07880552 0.049111947 -0.008103089
budget 0.010824093 -0.0026161869 0.07307311 0.0007288985 0.014460971 -0.020470884 -0.016682876 -0.015882619 -0.0012517214 -0.04719903 -0.06594518 0.0028765495 0.10316225 0.05063163 -0.052183796 -0.030912144
try -0.085395835 0.099727824 -0.022143885 -0.06527398 -0.05434399 0.0042563514 -0.008116261 -0.038510047 0.0005026727 0.059537485 0.052878443 0.052505203 -0.022983406 0.035661403 0.07841332 -0.001642973
performances 0.02124063 -0.053227488 0.019105274 0.070697814 0.021465223 0.06726886 -0.09765524 0.031385202 -0.06752906 0.007694759 0.009824924 -0.056335445 0.04464488 -0.055321075 -0.0705614 -0.09661304
wrong -0.04093184 -0.014121564 0.028778221 -0.014863989 0.0073443996 0.029203452 0.012920373 0.0548938 0.03091401 0.037179884 0.022893999 -0.0054892343 -0.05948976 -0.05038705 0.04047671 0.01218127
classic 0.035896387 -0.031613655 0.047394082 0.09430908 0.07374489 0.057952065 -0.057838462 0.09153136 -0.06378221 -0.034250263 -0.09246315 -0.010040328 0.15565848 -0.07035889 -0.02108745 -0.11675286
boring -0.1836479 0.2272077 -0.13053985 -0.17435797 -0.18642855 -0.19194837 0.22076716 -0.22110467 0.22337371 0.12513961 0.19073352 0.21416138 -0.12087288 0.1592879 0.14550667 0.20087497
enjoy 0.018493582 -0.07580865 0.10566486 0.17392677 0.13556653 0.04366104 -0.050240997 0.04893005 0.015395862 -0.007398096 -0.12288982 -0.028148262 0.25650588 -0.016885737 -0.111119896 -0.123228036
need -0.019054325 -0.0104332715 -0.049177766 -0.023996593 0.009822143 -0.032950778 0.032351486 -0.01555668 0.015830388 0.03335622 -0.012951241 -0.015375958 -0.037262667 0.025896948 -0.03692443 -0.023622029
rest -0.016534697 0.049669832 -0.07802832 -0.028996965 -0.025393885 -0.0750613 0.001983617 -0.019637184 -0.008185509 0.00731632 0.0055723307 0.006887705 -0.08293092 0.090310514 -0.0023700958 0.014674933
use 0.03843145 0.043337446 -0.01367442 0.058269896 -0.043428663 -0.020467537 -0.014412041 -0.021472396 -0.005313044 -0.0069995746 0.02784659 -0.019248473 -0.038789894 -0.02762342 -0.035843454 0.021620631
kids 0.06153099 0.005502489 -0.039859295 0.004206532 -0.028592788 -0.023503866 0.028900042 -0.018294968 -0.037096437 0.01365148 0.03755381 -0.036965456 0.046995994 -0.056816414 -0.06102049 0.0069976337
hollywood -0.03628331 -0.03724649 0.03421225 -0.032106478 0.0204978 0.022385694 -0.017982641 -0.043964703 -0.005276238 0.022698456 0.019456439 -0.02022105 0.016008724 0.029365243 -0.033186797 0.015372862
low -0.052716352 0.041496858 -0.013228944 -0.07224941 -0.01908564 -0.040202398 0.08682613 -0.05894597 0.027363848 0.031056844 0.020992368 0.025442347 -0.05727701 0.09093344 0.010206703 0.052182004
production 0.004457632 0.026453376 -0.022896994 -0.05694988 -0.054070547 -0.06798465 0.027368093 -0.07771031 0.023180248 0.008490906 0.03526945 0.04284175 -0.073766604 0.031847373 0.08000218 0.026923178
until 0.025756225 -0.004478099 0.051810004 0.041820772 -0.010150839 -0.007198017 0.013758707 -0.039778125 -0.008350866 -0.014241061 0.01637412 -0.03997823 0.020590864 -0.000631859 -0.050969187 -0.03659923
along 0.03595209 -0.026293853 0.0061484305 0.051568072 0.02299844 0.08012828 -0.07204117 0.042052634 0.0024371864 -0.009893696 -0.071278885 -0.06492432 -0.01588974 -0.0027946376 -0.057170246 -0.05484767
full 0.023875782 -0.06300582 0.07361626 0.056276917 0.08150862 0.06039301 -0.041177 0.060189195 -0.056929216 -0.043120366 -0.054240283 -0.079104684 0.049177278 0.012960671 -0.052640256 -0.08361321
friends -0.04337291 -0.0077564493 0.00948117 0.02952967 -0.019635329 0.0038861276 0.034867518 0.016820492 -0.0065383306 -0.008481394 -0.044585295 0.015951551 0.052240457 -0.016010001 -0.040528316 0.0016567798
camera -0.07604293 0.042060502 -0.029374976 -0.048856758 -0.0830082 -0.014712687 0.05914679 -0.016814286 0.016762313 0.045955617 0.07138975 0.075134516 -0.08289726 0.07615463 -0.011158724 0.036700185
truly 0.0017532961 -0.005568508 0.0015477826 0.048277788 0.023337716 -0.012629898 -0.025554864 0.012260593 0.007069698 -0.012265769 -0.01876414 -0.0030914948 0.023215778 -0.03885562 0.008574216 0.00861551
women -0.028295388 0.06491726 -0.0255309 -0.005738421 -0.08193012 -0.009246085 0.02168259 -0.06086543 0.0155284135 0.0037172616 0.0001701037 0.030246915 0.005027727 0.07299599 0.02918052 0.051035266
awful -0.10443437 0.096229896 -0.13130584 -0.17975178 -0.15725224 -0.13444167 0.18370014 -0.18079269 0.096477054 0.08310824 0.14666331 0.11505334 -0.12342908 0.13191415 0.15081815 0.11384579
video -0.06646177 0.020341314 0.050422188 0.009684598 -0.02793495 0.026250243 -0.01644727 0.036898743 -0.019081349 0.042242184 -0.0012131159 -0.033392392 0.02482442 0.0043293177 -0.021230904 -0.031799857
next -0.012452386 0.049486496 -0.010531048 0.009769861 0.0064153746 0.026722608 0.04724293 0.018610828 -0.021361247 0.03793237 -0.039588958 0.058084253 0.061110657 0.044809874 0.05035131 0.036057305
tell 0.0055473936 -0.008551351 -0.066555634 -0.059015468 -0.026643857 -0.07801954 0.014490282 0.031292863 -0.0024200624 0.0150129665 -0.017557252 0.0664729 -0.04026302 0.0019014534 0.03499085 0.06439569
remember 0.009402875 -0.03358889 -0.043739785 0.017116915 -0.034351647 0.019634282 0.03025627 -0.016236505 0.049607754 -0.04521339 0.054631013 -0.033915825 -0.014482342 0.0030221597 -0.05024455 -0.033437356
couple -0.006010298 -0.0038353775 0.02764566 0.021692691 -0.028024271 -0.0040618554 0.053959813 -0.010554444 -0.0104785655 0.06286129 0.03023751 0.053928327 0.01394505 0.0048657567 0.03364503 0.053871457
stupid -0.09800841 0.0717395 -0.0745278 -0.050924193 -0.033018686 -0.08828668 0.11120659 -0.034290586 0.037139736 0.057722677 0.060664922 0.036341466 -0.07350135 0.022927772 0.10898259 0.09108664
start -0.063796975 -0.021960039 -0.08538732 -0.014848635 -0.02312442 -0.022712642 0.050985705 0.0025126936 0.08204999 0.01812411 0.04156791 -0.005690044 -0.0069798096 0.012618826 0.023250539 0.058780454
stars -0.021656606 0.018256545 0.07554823 0.11520758 0.050854146 -0.008308002 -0.035025682 0.026830008 -0.024593206 -0.024790812 -0.033371888 -0.008049434 0.1388967 -0.07377647 -0.07057757 -0.0631698
perhaps 0.045565862 -0.03991378 0.0062583783 -0.018312857 0.015350755 -0.008830339 0.05223168 0.023445783 0.021265479 -0.037143115 -0.028426783 0.040239893 0.029078996 0.032929964 0.046083752 0.022332788
sex -0.08643137 0.032921303 -0.011150466 -0.010164968 -0.012395366 -0.068353355 0.063353665 0.039259586 0.025655441 0.08598715 -0.005138016 0.08658039 0.0077751833 0.023503501 -0.017960254 0.025797332
mean -0.023607315 0.0016902735 0.045479547 -0.03667283 0.00288277 -0.05513286 -0.025974106 0.00146322 -0.012657073 0.011221304 0.029633649 0.06646132 0.031071415 0.00021856025 0.047748417 0.010880668
came -0.08027593 0.023832424 -0.06662659 -0.025927465 -0.0071262624 0.000855844 0.04165683 -0.010453189 0.0762289 0.036687426 0.009230031 0.045774978 -0.07952629 -0.00092537364 0.08291374 0.03633233
recommend 0.07609538 0.026700811 0.014912878 0.003028346 0.039207086 0.040755127 -0.042082105 -0.057072498 0.039526217 0.028284667 0.039998353 0.009939044 -0.025894612 -0.06450937 -0.06806287 -0.02912062
let -0.013680533 -0.04249526 -0.023227043 -0.013758214 -0.042878035 -0.026000142 -0.002955131 -0.046547774 0.017267633 0.0363873 -0.022261905 0.03136894 0.0118010845 0.017615931 0.053962044 0.048185673
moments 0.021820216 -0.0023580103 0.07352093 0.044344515 -0.02382795 0.05995669 -0.012022509 -0.047488432 -0.006387714 -0.03902427 -0.022381693 -0.0054699676 0.031157764 -0.046290934 -0.029932672 0.007904728
wonderful 0.08774541 -0.15207663 0.13952225 0.22936642 0.08281599 0.1377821 -0.15355457 0.14125581 -0.06865285 -0.019960282 -0.16147158 -0.09720464 0.1432884 -0.076908164 -0.066279344 -0.10196479
episode -0.0024195071 -0.0308509 0.042443693 -0.014315517 0.027091034 0.036209967 -0.0045722844 -0.04475971 -0.047019444 -0.035029937 -0.0009395853 -0.049807567 0.024708075 -0.05793994 -0.032853186 -0.03480364
understand -0.003465477 -0.05997362 0.043015324 0.027878122 -0.0146575235 0.018119182 -0.06197629 0.036160592 -0.062409945 -0.01964202 -0.06888443 -0.021683287 0.037680436 0.036912035 -0.018585792 0.035778407
small 0.029123183 -0.008515732 0.057361614 0.061718643 0.040099934 0.028357042 -0.09320343 -0.0047306875 -0.06561056 -0.008333465 -0.032910682 -0.030655153 0.011418733 -0.09621695 -0.10234223 -0.096684076
face -0.02123041 0.009273727 -0.03051377 -0.06051562 -0.012867792 0.01988899 0.020373605 -0.045812786 0.052053668 0.046159714 0.00097589835 0.054761816 -0.021501401 0.055748455 0.009121973 -0.0019621796
terrible -0.107882306 0.14103955 -0.09800837 -0.11780287 -0.053775206 -0.08706004 0.12859887 -0.062192094 0.08324196 0.048797894 0.12490664 0.11973077 -0.11975731 0.073162615 0.055932745 0.11342118
playing -0.058944557 0.058153503 0.04019903 -0.05358971 -0.058182094 -0.043592047 0.048730746 -0.031924486 0.05112287 0.04923952 -0.018680183 0.06476669 -0.00077422895 0.054058257 0.03734424 0.034994993
school -0.053149097 0.00568021 -0.0526692 0.029658293 -0.002584419 -0.048331365 0.02426958 -0.018059872 0.06324428 0.003746384 -0.0019058413 0.09095949 0.012100188 0.09157111 0.018254459 0.041540578
getting -0.039249487 0.06649396 -0.0511569 0.024173018 -0.044322323 -0.02235273 -0.019390183 -0.05828567 -0.026358962 -0.009876031 0.056151796 0.015717953 -0.086985976 0.024316227 0.064926475 0.037030116
written -0.0314191 0.09616035 -0.00636571 -0.007838111 -0.0019742004 0.0061752065 0.0022227985 -0.056064 0.03991795 0.06790785 -0.025946286 0.06995392 0.013841298 0.08679116 0.016468212 0.024453385
doing -0.028952964 -0.024217097 0.022262104 0.021759527 -0.053189643 0.029661858 -0.0053599235 -0.0036114715 0.032753963 -0.04640478 -0.016461378 0.017033556 0.013606004 -0.010550385 -0.049225315 -0.03129129
often 0.0021018295 -0.061279327 -0.0046058726 0.033877928 0.03316999 0.04826536 -0.03520196 0.073355496 -0.0050721043 -0.04122499 -0.04614009 0.018397328 0.03895483 -0.022822807 -0.020198068 -0.08433126
keep 0.055845156 -0.020615939 -0.029802835 -0.014293125 0.022703998 0.041764762 0.024195554 0.00048010622 0.012596123 -0.047084413 0.034089267 0.0034064888 -0.05252758 0.0039201137 0.022868445 -0.058746774
early -0.008886606 0.007333688 0.015935348 0.023479221 0.04418608 0.052844424 -0.03516852 -0.020523036 0.019301152 0.012344578 0.021331491 -0.014559865 0.046063684 0.00809826 -0.02679333 -0.049816623
name -0.02714192 0.06161597 -0.037038963 -0.016444838 -0.06227556 -0.021451093 0.0881771 -0.011923856 0.06251323 0.011684947 0.00045083847 0.03993143 -0.03793423 0.03694458 0.055530928 0.040860444
perfect 0.18509772 -0.2157078 0.22324257 0.2494129 0.1764834 0.13799544 -0.17156972 0.18557256 -0.12904637 -0.14668597 -0.18514484 -0.22767 0.13698071 -0.21137619 -0.2077011 -0.17851643
style 0.011677079 0.03900299 -0.014608819 0.043843664 -0.042357933 -0.036995444 0.010251237 0.045444094 -0.035020255 -0.014969103 0.032229148 -0.03594057 0.05908715 1.9466148e-05 -0.016774459 0.04426166
human 0.018685412 -0.08707839 0.07389867 0.048384387 0.09704473 0.06355642 -0.024644038 0.09336683 -0.083159246 -0.057524804 -0.05729872 -0.07066446 0.054338116 -0.06062439 -0.06586878 -0.050728533
definitely 0.04487252 -0.08476277 0.09825043 0.19355464 0.07255049 0.09683558 -0.050412912 0.03840964 -0.03882956 -0.0021634737 -0.06811001 -0.038598303 0.0830421 -0.059821676 -0.10016579 -0.1401245
gives -0.025133954 -0.009446516 -0.009520495 -0.024089923 -0.036818117 -0.03881977 -0.040884968 0.0045926305 -0.036079366 -0.030884545 -0.038399477 0.023732003 -0.03692004 0.0281599 -0.035296787 -0.018654197
others 0.016312782 -0.060591742 -0.0046107266 0.091016576 0.0016473965 0.075453185 0.005684816 0.038965084 -0.015092945 -0.047936294 -0.09116185 -0.0049683824 0.029372253 -0.0705958 -0.07772198 -0.002921398
itself -0.08102518 -0.00092412514 -0.05465121 -0.025719674 -0.08516353 -0.046845097 0.079363264 -0.037880067 0.08821433 0.045963287 0.08101395 0.07721567 -0.060394764 0.025543328 0.0338314 0.08823481
lines 0.003124964 -0.0031145168 -0.01930506 0.001173644 0.0110092 -0.026770309 -0.031197214 0.049790293 0.033506077 -0.009277599 -0.05219593 0.020871986 0.021323493 -0.027832646 0.034795355 -0.002120182
live 0.018839229 -0.03745286 0.024205375 0.00739412 0.036834612 0.006446918 -0.08157835 0.07812226 -0.004660961 -0.088691525 -0.060583007 -0.08073252 0.03077053 -0.051726837 -0.04145 -0.032678198
become 0.024117049 -0.08499654 0.043937832 0.028480964 0.00520871 0.08570685 -0.03222421 0.06019082 -0.036971077 -0.08405005 -0.07094355 -0.04672353 0.0072090193 -0.044324238 -0.06771537 -0.10098433
dialogue -0.113209516 0.08961608 -0.100313105 -0.06400133 -0.060263738 -0.05371254 0.065818444 -0.07303943 0.12903817 0.106388 0.0886977 0.1041113 -0.079594456 0.12752827 0.105686605 0.119523525
person -0.037746817 -0.035804 -0.008491539 0.03701293 -0.03694181 0.0015293052 0.049972102 -0.0008262662 0.035525393 -0.024110753 -0.016148686 -0.0126108015 -0.062469967 -0.027225478 -0.003390356 -0.026522985
lost 0.024904698 0.043002818 -0.008656869 0.030073814 -0.00739473 -0.041934643 0.034830023 0.019522475 0.029054811 -0.007878844 -0.0019062717 0.016110476 0.07499242 -0.007625091 -0.033555817 0.02546922
finally -0.002863437 0.015809864 -0.06002964 -0.029811515 0.018448232 -0.004902663 0.05008285 0.009338548 0.020687392 0.038172707 0.05547731 0.0048220293 -0.027561758 0.0014639301 -0.0034689326 0.007068143
piece -0.08677211 0.09179553 -0.010196213 -0.018070903 -0.07681086 -0.00817097 0.026167858 0.026896473 0.01157245 0.07224242 0.043418646 -0.0033488683 -0.068496235 0.0014981211 -0.0077887657 -0.013239082
head 0.01774869 0.028037228 0.040380504 -0.03248501 -0.034156755 -0.038735703 0.016340883 0.02479079 0.04548655 0.0059366324 0.010913621 0.051867638 -0.051917534 0.01136336 0.024846336 0.052895505
case 0.006577443 -0.027599635 0.0136792045 0.047861036 -0.017290171 -0.017191825 -0.027646072 -0.013420069 -0.019155549 -0.04723432 -0.057995766 0.018436255 -0.013696703 -0.029800117 -0.023509834 0.0016976806
felt 0.032273766 0.02844478 0.03113485 0.029384162 -0.016489457 0.00050210464 -0.029685322 -0.018574504 -0.0012384491 0.017000958 0.024924168 -0.016076172 0.006021764 -0.029285084 -0.012148934 0.00964362
yes -0.03503542 -0.016933724 0.013475843 0.07323629 0.019293506 -0.04084302 0.012464993 -0.031670485 0.054641545 0.012086907 -0.036708627 0.045556802 0.044588767 -0.031846516 0.012251103 0.035857055
liked 0.056552965 -0.053831667 0.03940951 0.012476481 0.028947383 0.016905244 -0.093418054 0.07238371 -0.071289025 -0.062132016 -0.08909131 -0.019584145 0.00999871 -0.102640964 -0.017639516 -0.08286828
supposed -0.1530159 0.12416081 -0.051242176 -0.060100198 -0.08952103 -0.06587144 0.08020193 -0.06796816 0.115226746 0.078292936 0.057979442 0.16758591 -0.112766355 0.104228936 0.14559555 0.14444265
title -0.064093634 0.030935071 -0.016496042 0.041663866 -0.039203223 0.02435056 0.019347362 -0.033610474 0.041465595 0.043987613 0.03566936 -0.002472165 -0.02303063 -0.028191475 -0.006447364 0.040250972
couldn't -0.07643666 0.011151284 -0.01912114 -0.099596985 -0.10961565 -0.1055482 0.098978266 0.01260306 0.027213855 0.055825107 0.04807479 0.0735951 -0.05754561 0.029413385 0.029434623 0.09484952
absolutely -0.03005852 0.05257348 0.021235572 0.002009411 0.0048774984 0.009524388 0.03743022 -0.018384133 -0.0020981615 0.018039105 -0.027068075 0.00070544914 -0.06327245 0.010035857 -0.0019543811 -0.031784326
white 0.0764452 -0.046900928 0.063666224 0.03594864 0.085413374 0.08072427 -0.06975144 0.06658669 -0.04045829 -0.014630459 -0.10672496 -0.039400365 0.04658709 -0.01394703 -0.08109844 -0.016305229
against 0.025645716 0.055459097 -0.035330508 -0.0540379 -0.035325106 0.03310106 -0.028661506 -0.06964191 0.035470422 0.070489675 -0.032849688 -0.0027837276 0.03225326 -0.020126583 -0.0054321713 -0.02138424
boy 0.047178183 -0.0044539752 -0.03265823 -0.05250806 0.003943556 0.03672519 -0.0059762485 -0.0004387889 -0.014769509 0.024229774 0.038555484 0.02467736 -0.042438745 0.031296145 0.0063284235 -0.008220674
picture 0.07982977 -0.0149760945 0.039971348 -0.013592653 -0.045501485 -0.004386941 -0.046257656 0.034931418 -0.013720261 -0.022997588 0.01755811 -0.059571583 -0.06736805 -0.0034207474 -0.014570753 -0.05302538
sort -0.026809756 0.041078303 -0.03354185 -0.0038942208 -0.027815538 -0.030559603 -0.028965121 -0.04449753 -0.015608425 0.037534375 -0.04362061 -0.01550182 0.045518316 0.047852326 0.004202344 -0.0025885638
worse -0.11684425 0.15641758 -0.059858043 -0.043405537 -0.07588325 -0.0588106 0.1074746 -0.084283054 0.096034385 0.14125064 0.08032088 0.08367932 -0.03319755 0.14307071 0.07998269 0.095399484
certainly 0.039664213 -0.012962601 0.017270304 0.0150742885 0.02069756 0.067924835 0.03564064 0.03215217 -0.041963816 -0.07168332 -0.03452369 -0.042303078 0.037128504 -0.020395044 0.01797046 -0.037584778
went -0.04270961 -0.016347181 -0.06425229 -0.03923619 -0.052008927 0.0007198315 0.034103908 -0.038808264 0.03854037 0.025241116 -0.026314316 0.011155706 -0.011128317 -0.024688318 -0.027409691 0.040214814
entire -0.093262255 0.1142258 -0.062431317 0.009875233 -0.07792108 -0.08085297 0.054297514 -0.050796274 0.0948726 0.11709173 0.035565987 0.08834753 0.03425392 0.025221778 0.082136035 0.07897053
waste -0.2065028 0.21898201 -0.22017257 -0.17294061 -0.24781178 -0.23042539 0.26789507 -0.20967181 0.21198961 0.20339787 0.18964082 0.2539239 -0.15837704 0.2596709 0.23461197 0.21456032
cinema 0.08310716 -0.019045578 0.04983335 0.13974205 0.09620289 0.05337435 -0.08757586 0.04351613 -0.07211308 -0.022348478 -0.007061233 -0.09008063 0.16016145 -0.037106432 -0.09245641 -0.023135567
problem -0.0040845615 -0.050771702 0.021042336 0.02909311 -0.020866858 0.00015265975 -0.047639936 -0.0047334987 0.017026192 0.0413101 -0.0010617111 -0.0059936843 0.063151464 -0.060197733 -0.036083765 -0.039235443
hope 0.047059603 -0.037231192 0.039009094 0.066327564 0.0035798384 0.02826201 -0.02614589 0.014705122 -0.0149150165 -0.038653698 0.02316425 -0.014447914 0.03195655 -0.020858537 -0.07375081 0.00036118246
entertaining -0.042149656 -0.05125357 0.06260453 0.14011891 0.04673524 0.066243574 -0.043823097 0.042979024 -0.021682633 -0.045558456 -0.04605027 -0.03295997 0.108628854 -0.064884305 -0.08101263 -0.10255895
she's -0.023242814 -0.01047021 -0.021148514 0.0026687384 -0.045498908 -0.055818457 -0.038128715 -0.0050747353 -0.01785731 0.014906265 -0.027699064 -0.0066551496 0.0157385 0.04755386 0.054800183 -0.01796388
mr -0.0010616265 0.0066336812 0.0030061556 0.06848626 -0.0028770203 0.028674599 -0.019000607 0.06728405 0.022000123 -0.047704957 -0.07650067 -0.04104867 -0.0021338856 -0.0822051 0.013691897 -0.02666715
overall 0.09779325 -0.017864192 -0.0584515 0.009558131 0.015633943 0.0024418682 0.03596934 0.028677918 -0.02699228 -0.04655923 0.030416949 0.0091098 0.00637768 -0.05378356 0.0009543885 -0.00013139119
evil 0.028372917 -0.052618798 -0.07071324 -0.019312644 -0.025911406 0.014022079 0.008781857 -0.0070614256 -0.04250884 -0.0030607264 -0.0010453138 -0.019553933 -0.02698342 0.021624837 -0.049446236 -0.010921205
called 0.0020293174 -0.023598084 0.00907512 -0.004999532 0.030099161 -0.024656357 0.0710924 -0.0646186 -0.01112081 0.055011235 0.04344746 0.06276642 -0.026182193 0.0046268366 0.0074708275 0.059626393
loved 0.11033105 -0.14049268 0.08980223 0.116518386 0.13467881 0.07611075 -0.13981186 0.12920882 -0.098100886 -0.06949848 -0.078632444 -0.063011944 0.068850085 -0.12685825 -0.07866031 -0.14322291
based -0.019027226 0.009165976 -0.049421877 0.008862005 0.013996942 -0.020118618 -0.016841318 0.037805032 0.015301601 -0.017055184 -0.0245231 -0.021813856 -0.0025969567 -0.013994798 0.001336335 -0.03467857
oh -0.04380148 0.02047838 -0.08936286 0.020985223 -0.084991686 -0.1125987 0.04681909 -0.08352269 0.070712976 0.03374249 0.05307869 0.10741239 -0.042444672 0.10217675 0.01896447 0.060405698
several -0.024468971 -0.0565364 -0.014064205 0.05464199 0.06463829 0.04019897 0.022144275 0.06618782 0.020437624 0.019182248 -0.017438304 -0.0131881675 -0.020210752 -0.0061810403 -0.06632328 0.013737722
fans -0.01122778 -0.03884678 0.010003891 0.0760686 0.0032578853 0.052403916 -0.01591898 0.026124928 -0.0041312953 -0.059738476 -0.025193898 -0.0012103128 0.101153694 -0.06511081 -0.021236403 -0.05408986
mother -0.07695335 0.030974101 -0.07116256 -0.0031211688 -0.034176268 -0.10438102 0.0521057 -0.09568735 0.068917386 0.112810455 0.059793122 0.062020946 -0.026849663 0.045943946 0.08253212 0.032971967
drama -0.07006086 0.055622004 -0.0366993 0.029893234 0.0064840075 -0.019259414 0.0020636641 -0.062019583 0.038666274 0.0066502765 0.038690455 0.0047452 0.017575918 0.04956565 0.053616934 -0.022433229
beginning -0.023198284 -0.027111335 0.013994783 0.01835764 0.007500388 0.024109827 -0.04015665 0.01597951 0.0055329665 0.036756385 0.034678422 0.030229772 -0.0012412191 0.0028068032 -0.012890604 -0.05020738
killer 0.01370159 0.001752595 -0.029890787 -0.029397396 0.033080675 0.030483227 0.02265498 -0.020107439 0.05163754 0.0068435925 0.03974747 -0.008393246 0.049038835 0.01132496 0.016079063 -0.02899245
lives 0.016066093 -0.032722116 0.038912658 0.036255803 0.011691468 -0.018325666 0.025392212 0.009161156 -0.010771749 -0.029784085 0.020948261 -0.027566154 0.02628741 -0.018640729 -0.035804667 0.028186612
5 -0.07334619 0.05188121 0.0019653586 0.09353409 -0.008996857 0.037270818 0.01666074 -0.012064312 -0.028341042 0.057064865 -0.04531806 0.021559346 0.08610825 0.02291329 0.04477064 -0.06293405
direction -0.05254137 -0.0046501136 -0.032680582 -0.037419163 -0.057402078 -0.08359062 0.061650876 -0.0063560433 0.0027464435 0.029506007 0.011052533 0.059369624 0.031282216 0.0035705187 0.065066114 0.051703006
care -0.047739014 0.100604825 -0.035277206 -0.07843223 -0.04318041 -0.058159556 0.081349745 -0.09558909 0.07334308 0.036260527 0.037694316 0.117216684 -0.044264864 0.11550285 0.039174233 0.11422035
already -0.013370562 0.06753288 -0.00094132294 -0.048697606 -0.048279013 0.0064578713 -0.014467287 -0.021320706 0.026764061 0.021660076 0.0529386 0.08022477 -0.06264904 0.04469999 0.066580266 -0.00647033
becomes -0.05088309 0.05337766 -0.0364996 -0.05482629 0.00043915794 -0.03830229 0.045978338 -0.01566092 0.03743254 0.0033714273 -0.007119808 0.039812796 -0.006496159 -0.008235488 0.060843624 0.0064895023
laugh -0.043492515 0.004052001 -0.04666922 -0.0056142258 0.020687435 -0.036249015 0.007251299 0.023760756 0.05674387 0.0016504186 0.022848165 0.021260846 0.03606642 0.046122823 0.041045777 0.026321083
example -0.0547566 0.118629515 -0.04771358 -0.007607633 -0.058373578 -0.045156945 0.04553633 -0.022628436 0.052270222 0.0425037 0.065138645 0.069789454 -0.002369995 0.09257611 0.058262642 0.04120742
friend 0.030749608 0.01533868 0.041538965 0.035122756 0.035559017 -0.031167604 -0.06539455 0.011566809 -0.021249263 -0.02031632 0.0068419813 0.0012643095 0.036561016 0.007239854 -0.007089329 0.0036095786
dark 0.108715124 -0.06691737 0.0028574169 0.072710864 0.02377034 0.03631335 0.010881012 0.0047954083 -0.024176901 -0.09484931 -0.041460484 -0.081206396 -0.02563859 -0.05998244 -0.018884439 -0.08720993
despite -0.0133806905 0.015675334 -0.03403233 0.028974568 0.03937017 0.023357999 -0.000713297 -0.019988254 0.0397075 0.00441908 -0.02373522 -0.010192408 -0.019451607 0.0073237815 0.011395311 -0.015635068
under 0.0053787604 0.022235092 -0.010449908 0.020745246 -0.0053643724 -0.048966177 0.009573785 -0.012813068 0.01299497 -0.0044305306 -0.04809946 -0.02857538 -0.026688172 0.049888402 -0.0016501084 0.02317234
seemed 0.0038012678 0.039981168 -0.06918273 -0.016742578 -0.012664067 -0.011104141 0.0851592 -0.022919172 0.02770896 0.013005842 0.01595802 0.077147275 -0.006922 0.007561108 0.00031172764 0.004271318
throughout 0.05753641 -0.08304116 0.039606724 0.012010635 0.09404745 0.011909305 -0.03860466 0.021376768 -0.07788626 -0.050860494 -0.015100036 -0.020038355 0.045927092 -0.044194773 -0.049404047 -0.044092104
4 -0.065867 0.12136386 -0.13084711 -0.15546857 -0.16976462 -0.06369526 0.17757879 -0.13888386 0.07747984 0.08640926 0.11205332 0.08826098 -0.10583588 0.096681654 0.14033145 0.10904671
turn -0.043437894 0.044617373 -0.021403285 -0.045579504 -0.066525646 -0.006123375 0.06209735 -0.05249849 -0.00097225036 0.008200739 0.0927823 0.036689132 -0.04958294 0.059771776 0.08994128 0.08692712
unfortunately -0.11015927 0.037574958 0.004892065 -0.011452303 -0.061477304 -0.061140656 0.015051533 -0.03852876 0.106962904 0.06525247 -0.0044651106 0.037809893 0.004144659 0.07724953 0.072582155 0.07095165
wanted -0.107264884 0.055433735 0.021260252 0.01061728 -0.0048237625 -0.07157804 0.00044721208 0.00997046 0.029416341 0.07516947 0.039543618 0.00672473 0.03781211 0.018586755 0.027925253 0.046691656
i'd 0.032212712 -0.03648383 0.024760254 0.038602255 -0.008188146 0.021689521 -0.047238637 0.058112945 -0.060176723 -0.045182846 -0.051909212 -0.07060028 0.002489452 -0.029955968 -0.098232426 -0.09089099
 -0.004671526 -0.03599404 0.006846466 0.007858681 -0.012587502 0.03701096 -0.026047988 0.038883034 0.013454843 -0.044067997 -0.05240239 0.03143586 0.020203609 0.016454611 -0.01495016 0.02890159
children -0.10616038 -2.168242e-05 0.038614742 0.05069567 -0.045833856 -0.009732223 -0.019895725 -0.05618543 0.052598193 0.0706993 0.0054826625 0.06825421 0.0007705641 0.012230223 0.025252217 0.039957818
final 0.0036592947 -0.073900536 0.056478452 0.093090415 0.020859841 0.030996256 -0.055072393 0.10665103 -0.056029275 -0.02923206 -0.07173379 -0.09336302 0.03802988 -0.05923694 -0.0855818 -0.045207895
fine 0.0773555 -0.04519376 0.016376823 0.029196758 0.024542812 0.09770237 -0.016236572 0.038529336 -0.022815125 -0.017915549 -0.0651999 -0.10757678 0.053212322 -0.07266943 -0.045474753 -0.105789036
history 0.016565047 -0.029498074 0.04069669 -0.006065554 0.01365768 -0.025855932 0.005009014 -0.05627544 0.07553804 0.015636582 -0.004296145 0.0018661275 0.010658774 -0.012702266 -0.022736294 -0.0006225805
amazing 0.07094033 -0.035237953 0.07933806 0.06729921 0.10347291 0.11650631 -0.06851213 0.015945466 -0.053662565 0.0040525584 -0.053682275 -0.049144387 0.065946154 -0.13047776 -0.09910125 -0.09855333
sound 0.008542019 0.0052118218 -0.0536966 -0.022730608 0.013025948 0.05078457 0.049768873 -0.019495567 0.02688239 -0.014489477 -0.032990523 0.0141660385 -0.0421711 -0.036730953 -0.0558369 0.008497439
guess -0.060653925 0.09459337 -0.026817337 -0.0048854738 -0.09894547 -0.09322918 0.08815079 -0.061314337 0.04888174 0.07298815 0.048713062 0.092220485 -0.03293776 0.054042976 0.05180347 0.11553788
heart 0.12657042 -0.09196788 0.07572775 0.13368845 0.048756808 0.08341536 -0.051380243 0.079592034 -0.024484273 -0.053684756 -0.056381892 -0.10362278 0.05494825 -0.1396249 -0.061082277 -0.12085757
totally -0.029451678 -0.021030545 0.0022402322 -0.053482573 0.026190054 -0.029924106 0.031579997 -0.05016123 0.0040880493 -0.0013690842 0.0076883635 0.05159648 0.0418339 0.009036372 0.045464344 0.057314467
lead 0.030700346 -0.008823203 0.002721057 0.04425792 -0.032621626 -0.0350672 0.06327868 0.005855695 0.006694183 -0.012389696 0.036728088 0.05278097 0.033993598 -0.03447969 0.032883916 0.02108561
humor 0.029630149 -0.056090478 0.08374571 0.05882283 0.06623765 0.025774196 -0.08260821 0.0737213 -0.0281024 -0.032793533 -0.06263408 -0.05438791 0.09036792 -0.029368237 -0.032280594 0.009441624
writing -0.0316004 0.03425971 -0.029417312 -0.051587194 -0.022922153 -0.086880766 0.0847767 -0.046731304 -0.009804152 0.05089781 0.0360316 0.015896833 -0.096338235 0.0814313 0.07470058 -0.0031752537
michael 0.04128133 0.022327129 0.053324435 0.024445906 0.04495237 -0.006399488 0.010977903 0.03451534 -0.030962728 0.021910883 0.016831843 -0.028036414 0.00723115 -0.037587564 0.0016568737 0.025143713
quality 0.0400219 -0.019617653 0.004533965 -0.0076013356 -0.03712296 0.02364632 -0.03618197 -0.021483364 -0.0055800327 0.020408964 0.020151027 0.061527286 0.05890062 0.05553602 0.00032624492 -0.0010162872
you'll 0.07560636 -0.028160853 0.028243745 0.042746175 0.013747736 0.030215573 -0.04955929 0.05529365 0.0034651067 -0.03295426 -0.07655116 -0.015680114 0.023977693 -0.069497295 -0.019982172 -0.10818429
close 0.037397288 0.002575915 0.026203405 -0.040733658 0.029837467 0.028980732 0.014608185 -0.012867097 0.015274103 -0.00011116476 0.05301165 0.037681986 -0.0063350596 0.023874689 0.02872498 0.0007671956
son -0.042206034 -0.038412955 -0.020264702 -0.026115151 0.029865747 0.005141071 0.049672067 0.02563122 0.053099044 0.05553258 -0.035564184 0.034340195 0.02414346 0.015068263 0.030090734 0.043795157
guys 0.027011696 -0.063839264 -0.010727562 -0.043715533 -0.020780563 -0.018839918 -0.024592217 0.061225943 -0.012564377 0.004230012 0.04723902 -0.0002862499 0.04663684 -0.012241461 -0.04376402 -0.044752464
wants 0.044125404 -0.056063414 -0.0143889645 0.02572355 -0.005169558 0.0533311 0.043926712 -0.016008645 -0.016695227 0.06695637 -0.008621145 -0.010778402 -0.08012177 0.00082073326 0.012960623 0.035993718
works -0.022698026 -0.016386839 -0.007046889 0.08257403 -0.02227593 -0.008057602 -0.027398508 0.04602751 -0.02815989 -0.012231251 -0.053105067 -0.021456802 0.007258313 -0.015367394 -0.057043083 -0.030213129
behind -0.022548465 -0.05129382 0.029549733 -0.0018496959 0.040747058 0.013513982 -0.08041763 -0.007798466 -0.03025086 -0.06139637 0.009530881 -0.01634335 0.029544398 -0.07742266 -0.0070980033 -0.001778315
tries -0.05961222 0.028947994 -0.06020056 -0.048686665 -0.0736424 -0.026589148 -0.0011400303 -0.034836877 0.045372166 0.058386993 0.05231814 0.055195995 0.010101898 0.053605013 0.05180508 0.06643697
art -0.03542652 0.025241192 0.039235417 0.04794731 0.04688014 0.033533018 0.03825561 0.023002312 0.06540942 -0.017321758 -0.030830074 0.033295877 0.08338076 -0.0043522506 -0.038820155 -0.012377462
